{"learner":{"attributes":{"scikit_learn":"{\"_estimator_type\": \"regressor\"}"},"feature_names":[],"feature_types":[],"gradient_booster":{"model":{"gbtree_model_param":{"num_parallel_tree":"1","num_trees":"100"},"iteration_indptr":[0,1,2,3,4,5,6,7,8,9,10,11,12,13,14,15,16,17,18,19,20,21,22,23,24,25,26,27,28,29,30,31,32,33,34,35,36,37,38,39,40,41,42,43,44,45,46,47,48,49,50,51,52,53,54,55,56,57,58,59,60,61,62,63,64,65,66,67,68,69,70,71,72,73,74,75,76,77,78,79,80,81,82,83,84,85,86,87,88,89,90,91,92,93,94,95,96,97,98,99,100],"tree_info":[0,0,0,0,0,0,0,0,0,0,0,0,0,0,0,0,0,0,0,0,0,0,0,0,0,0,0,0,0,0,0,0,0,0,0,0,0,0,0,0,0,0,0,0,0,0,0,0,0,0,0,0,0,0,0,0,0,0,0,0,0,0,0,0,0,0,0,0,0,0,0,0,0,0,0,0,0,0,0,0,0,0,0,0,0,0,0,0,0,0,0,0,0,0,0,0,0,0,0,0],"trees":[{"base_weights":[-1.8653942E-7,6.1038523E0,-2.7531383E0,2.7563562E0,9.998717E0,4.673473E0,-3.005776E0,5.620604E0,-5.65086E0,2.0427687E1,6.021202E0,4.0860912E1,-4.5569837E-1,-3.661352E0,-1.0352328E0,-1.6032509E0,9.00516E0,-6.7115307E0,-3.4725316E0,4.195961E1,8.71868E0,1.1788944E0,1.6151306E1,6.1387455E1,3.2464367E1,2.0547225E0,-3.8973958E0,-3.9329402E0,-9.364268E-1,2.6947095E0,-2.6637619E0,1.5138447E0,-5.808786E0,1.2709581E1,5.2391963E0,-4.679017E0,-7.2098007E0,-6.0663E0,6.846098E0,5.597928E1,2.0456959E1,-2.5647862E0,1.7715618E1,-9.9970484E-1,3.9613996E0,3.0659922E1,5.702424E0,6.564919E1,4.977064E0,3.0912941E1,3.8418293E0,-8.639256E-1,4.9637227E0,-2.4904954E0,-6.631901E0,-3.6847076E0,-5.4842315E0,9.226051E-1,-4.030582E0,1.0460253E1,-5.060786E0,-4.8061748E0,3.1345232E0,1.3962142E0,-1.6500838E-2,-7.908016E-1,-3.7393552E-1,1.0706528E0,2.5789387E0,7.6969117E-1,-4.8070154E-1,4.6300955E-2,-7.752864E-1,-7.830213E-1,-6.583051E-1,-8.5180426E-1,-5.209809E-1,5.8152415E-2,9.0028715E-1,4.7192664E0,7.326097E0,1.2613467E0,2.778514E0,2.1518838E0,-3.4084585E-1,1.2936097E0,3.6139572E0,5.678185E-1,-3.6563045E-1,1.0053165E0,-3.249561E-1,2.527262E0,3.909617E0,2.2005983E-1,2.6055684E0,5.679732E0,7.146854E0,3.7979228E0,3.0141108E0,5.525512E-1,-7.235629E-1,3.727896E-1,1.1475424E0,-5.9515315E-1,8.815882E-2,-5.7875127E-1,-7.31181E-1,-4.3430686E-1,-2.518203E-1,-7.087574E-1,-4.8888546E-1,-4.8215095E-2,6.62165E-1,-1.8650262E-1,-6.162603E-1,-2.4167405E-1,1.4164006E0,1.457254E-1,-8.301417E-1,-1.8324016E-1,-6.2811726E-1,1.0335581E0,-5.5799574E-1],"categories":[],"categories_nodes":[],"categories_segments":[],"categories_sizes":[],"default_left":[0,0,0,0,0,0,0,0,0,0,0,0,0,0,0,0,0,0,0,0,0,0,0,0,0,0,0,0,0,0,0,0,0,0,0,0,0,0,0,0,0,0,0,0,0,0,0,0,0,0,0,0,0,0,0,0,0,0,0,0,0,0,0,0,0,0,0,0,0,0,0,0,0,0,0,0,0,0,0,0,0,0,0,0,0,0,0,0,0,0,0,0,0,0,0,0,0,0,0,0,0,0,0,0,0,0,0,0,0,0,0,0,0,0,0,0,0,0,0,0,0,0,0],"id":0,"left_children":[1,3,5,7,9,11,13,15,17,19,21,23,25,27,29,31,33,35,37,39,41,43,45,47,49,51,53,55,57,59,61,63,65,67,69,71,73,75,77,79,81,83,85,87,89,91,93,95,-1,97,-1,99,101,103,105,107,109,111,113,115,117,119,121,-1,-1,-1,-1,-1,-1,-1,-1,-1,-1,-1,-1,-1,-1,-1,-1,-1,-1,-1,-1,-1,-1,-1,-1,-1,-1,-1,-1,-1,-1,-1,-1,-1,-1,-1,-1,-1,-1,-1,-1,-1,-1,-1,-1,-1,-1,-1,-1,-1,-1,-1,-1,-1,-1,-1,-1,-1,-1,-1,-1],"loss_changes":[2.387854E6,5.758499E5,1.8374494E5,5.720605E5,8.467195E5,5.980592E5,1.2233875E5,4.3323588E5,1.3925109E4,1.420568E6,7.2498544E5,6.6947875E4,2.4399037E4,5.258625E4,1.4362231E5,7.412739E4,1.6826269E5,4.0769688E3,5.3007758E4,5.9725325E5,3.7078428E5,6.062966E4,7.244674E5,2.426E3,1.4541875E3,1.3869025E4,4.5654688E3,2.4864125E4,3.705896E4,4.328344E5,2.0446162E5,6.788181E4,1.04269375E4,1.5906956E5,1.47811E5,1.2679842E4,1.2152969E3,3.2776562E3,5.37225E3,1.7891125E5,4.4770188E4,3.300994E4,1.7846569E5,9.954484E4,1.9296212E5,8.9954625E4,1.9808319E5,1.1325E2,0E0,1.2059375E2,0E0,3.3260645E4,6.5399414E3,9.201918E3,1.8962305E2,4.277325E4,8.4726875E3,3.2226404E4,1.11524375E4,1.7130047E5,7.596883E4,5.2703125E4,2.7874584E5,0E0,0E0,0E0,0E0,0E0,0E0,0E0,0E0,0E0,0E0,0E0,0E0,0E0,0E0,0E0,0E0,0E0,0E0,0E0,0E0,0E0,0E0,0E0,0E0,0E0,0E0,0E0,0E0,0E0,0E0,0E0,0E0,0E0,0E0,0E0,0E0,0E0,0E0,0E0,0E0,0E0,0E0,0E0,0E0,0E0,0E0,0E0,0E0,0E0,0E0,0E0,0E0,0E0,0E0,0E0,0E0,0E0,0E0,0E0,0E0],"parents":[2147483647,0,0,1,1,2,2,3,3,4,4,5,5,6,6,7,7,8,8,9,9,10,10,11,11,12,12,13,13,14,14,15,15,16,16,17,17,18,18,19,19,20,20,21,21,22,22,23,23,24,24,25,25,26,26,27,27,28,28,29,29,30,30,31,31,32,32,33,33,34,34,35,35,36,36,37,37,38,38,39,39,40,40,41,41,42,42,43,43,44,44,45,45,46,46,47,47,49,49,51,51,52,52,53,53,54,54,55,55,56,56,57,57,58,58,59,59,60,60,61,61,62,62],"right_children":[2,4,6,8,10,12,14,16,18,20,22,24,26,28,30,32,34,36,38,40,42,44,46,48,50,52,54,56,58,60,62,64,66,68,70,72,74,76,78,80,82,84,86,88,90,92,94,96,-1,98,-1,100,102,104,106,108,110,112,114,116,118,120,122,-1,-1,-1,-1,-1,-1,-1,-1,-1,-1,-1,-1,-1,-1,-1,-1,-1,-1,-1,-1,-1,-1,-1,-1,-1,-1,-1,-1,-1,-1,-1,-1,-1,-1,-1,-1,-1,-1,-1,-1,-1,-1,-1,-1,-1,-1,-1,-1,-1,-1,-1,-1,-1,-1,-1,-1,-1,-1,-1,-1],"split_conditions":[-4.6258968E-1,-1.0404258E0,-1.5844189E0,8.3335793E-1,-5.482288E-1,-1.7367166E-1,1.2709184E0,-8.936255E-1,1.4090191E0,-5.136537E-1,9.484902E-1,-6.4554393E-1,9.855777E-1,1.5241513E0,-5.482288E-1,-1.2390221E0,-1.3293438E0,9.484902E-1,-1.3293438E0,-7.515077E-1,9.855777E-1,2.576968E-1,-1.3909909E-2,-9.353348E-1,1.382992E0,-5.136537E-1,9.820004E-1,1.4853215E0,4.8583388E-1,1.5598364E0,1.1787547E0,-1.0133975E0,-1.3293438E0,6.030935E-1,4.8796126E-1,-3.557531E-1,-1.3293438E0,1.5241513E0,-7.9043937E-1,-1.2390221E0,-8.936255E-1,-1.5149165E0,-7.784933E-1,-3.1796435E-1,-7.515077E-1,1.5241513E0,1.4853215E0,2.2736632E-3,4.977064E0,-5.0064856E-1,3.8418293E0,4.0416437E-1,1.2380966E0,1.1524635E-1,-6.596223E-2,4.8583388E-1,-7.784933E-1,1.7544158E0,1.1524635E-1,-1.3541545E0,-1.2390221E0,2.7432345E-2,1.5241513E0,1.3962142E0,-1.6500838E-2,-7.908016E-1,-3.7393552E-1,1.0706528E0,2.5789387E0,7.6969117E-1,-4.8070154E-1,4.6300955E-2,-7.752864E-1,-7.830213E-1,-6.583051E-1,-8.5180426E-1,-5.209809E-1,5.8152415E-2,9.0028715E-1,4.7192664E0,7.326097E0,1.2613467E0,2.778514E0,2.1518838E0,-3.4084585E-1,1.2936097E0,3.6139572E0,5.678185E-1,-3.6563045E-1,1.0053165E0,-3.249561E-1,2.527262E0,3.909617E0,2.2005983E-1,2.6055684E0,5.679732E0,7.146854E0,3.7979228E0,3.0141108E0,5.525512E-1,-7.235629E-1,3.727896E-1,1.1475424E0,-5.9515315E-1,8.815882E-2,-5.7875127E-1,-7.31181E-1,-4.3430686E-1,-2.518203E-1,-7.087574E-1,-4.8888546E-1,-4.8215095E-2,6.62165E-1,-1.8650262E-1,-6.162603E-1,-2.4167405E-1,1.4164006E0,1.457254E-1,-8.301417E-1,-1.8324016E-1,-6.2811726E-1,1.0335581E0,-5.5799574E-1],"split_indices":[5,5,4,4,4,5,5,4,4,6,4,3,6,4,4,4,5,4,5,5,6,4,6,3,3,6,5,6,6,5,4,6,5,4,4,3,5,4,3,4,4,3,4,4,5,4,6,1,0,3,0,5,3,5,3,6,4,4,5,4,4,4,4,0,0,0,0,0,0,0,0,0,0,0,0,0,0,0,0,0,0,0,0,0,0,0,0,0,0,0,0,0,0,0,0,0,0,0,0,0,0,0,0,0,0,0,0,0,0,0,0,0,0,0,0,0,0,0,0,0,0,0,0],"split_type":[0,0,0,0,0,0,0,0,0,0,0,0,0,0,0,0,0,0,0,0,0,0,0,0,0,0,0,0,0,0,0,0,0,0,0,0,0,0,0,0,0,0,0,0,0,0,0,0,0,0,0,0,0,0,0,0,0,0,0,0,0,0,0,0,0,0,0,0,0,0,0,0,0,0,0,0,0,0,0,0,0,0,0,0,0,0,0,0,0,0,0,0,0,0,0,0,0,0,0,0,0,0,0,0,0,0,0,0,0,0,0,0,0,0,0,0,0,0,0,0,0,0,0],"sum_hessian":[1.42092E5,4.4168E4,9.7924E4,2.3754E4,2.0414E4,3.221E3,9.4703E4,1.7718E4,6.036E3,5.635E3,1.4779E4,3.99E2,2.822E3,7.1061E4,2.3642E4,5.653E3,1.2065E4,4.058E3,1.978E3,1.984E3,3.651E3,1E4,4.779E3,1.14E2,2.85E2,1.632E3,1.19E3,6.462E4,6.441E3,7.185E3,1.6457E4,3.247E3,2.406E3,6.081E3,5.984E3,8.01E2,3.257E3,1.581E3,3.97E2,1.2E3,7.84E2,1.62E3,2.031E3,5.609E3,4.391E3,2E3,2.779E3,8E1,3.4E1,2.31E2,5.4E1,8.15E2,8.17E2,7.87E2,4.03E2,5.5709E4,8.911E3,4.024E3,2.417E3,3.59E3,3.595E3,1.2017E4,4.44E3,3.85E2,2.862E3,1.193E3,1.213E3,5.275E3,8.06E2,4.808E3,1.176E3,3E2,5.01E2,1.631E3,1.626E3,4.07E2,1.174E3,1.02E2,2.95E2,7.98E2,4.02E2,3.8E2,4.04E2,5.4E1,1.566E3,1.614E3,4.17E2,1.596E3,4.013E3,2.38E3,2.011E3,1.223E3,7.77E2,2.372E3,4.07E2,3.6E1,4.4E1,1.8E1,2.13E2,4.07E2,4.08E2,6.88E2,1.29E2,3.88E2,3.99E2,1.84E2,2.19E2,3.5609E4,2.01E4,2.41E3,6.501E3,3.229E3,7.95E2,1.2E3,1.217E3,8.02E2,2.788E3,1.194E3,2.401E3,3.985E3,8.032E3,2.431E3,2.009E3],"tree_param":{"num_deleted":"0","num_feature":"9","num_nodes":"123","size_leaf_vector":"1"}},{"base_weights":[4.263178E-4,5.4942484E0,-2.4775581E0,2.4807863E0,9.00046E0,4.2148128E0,-2.7052183E0,5.058778E0,-5.086202E0,1.8388966E1,5.419768E0,3.6845966E1,-4.102941E-1,-3.2952456E0,-9.3170285E-1,-1.4428879E0,8.10497E0,-6.040912E0,-3.1254878E0,3.777175E1,7.848652E0,1.0610929E0,1.4538113E1,5.5403522E1,2.925518E1,1.8500767E0,-3.5091817E0,-3.5396752E0,-8.428135E-1,4.052993E0,-1.9497174E0,1.3628846E0,-5.228391E0,1.1439222E1,4.715325E0,-4.212024E0,-6.489263E0,-5.460538E0,6.1638966E0,5.039138E1,1.8416409E1,-2.3071902E0,1.5946472E1,-8.996986E-1,3.5654142E0,2.7597145E1,5.1331983E0,5.924263E1,4.4935775E0,2.785101E1,3.4646313E0,-7.7774245E-1,4.469209E0,-2.2420893E0,-5.971953E0,-4.484431E0,-3.191785E0,8.30497E-1,-3.6278555E0,9.778035E0,-4.621462E0,-5.946959E0,8.1864655E-1,1.2569544E0,-1.4851376E-2,-7.1178764E-1,-3.3657274E-1,9.636077E-1,2.3213642E0,6.92738E-1,-4.3267223E-1,4.1686248E-2,-6.9791216E-1,-7.0476717E-1,-5.92515E-1,-7.6683265E-1,-4.6892715E-1,5.2393656E-2,8.105626E-1,4.247931E0,6.595306E0,1.1355431E0,2.5013485E0,1.9406079E0,-3.06783E-1,1.1643289E0,3.253426E0,5.1107216E-1,-3.2907653E-1,9.0482694E-1,-2.9247665E-1,2.2747421E0,3.5191574E0,1.9806316E-1,2.3456502E0,5.127109E0,6.44805E0,3.2616735E0,2.689681E0,4.974315E-1,-6.5138346E-1,3.3556473E-1,1.0336708E0,-5.3579086E-1,7.936501E-2,-5.211889E-1,-6.5839523E-1,-6.55573E-2,-4.6738815E-1,-2.786088E-1,-4.9359426E-1,-4.33951E-2,5.9603167E-1,-1.6786791E-1,-5.546848E-1,2.7924097E-1,2.3780568E0,-2.1753672E-1,-7.0925754E-1,-6.5722674E-1,-3.5012674E-1,-1.4280748E-1,7.7954364E-1],"categories":[],"categories_nodes":[],"categories_segments":[],"categories_sizes":[],"default_left":[0,0,0,0,0,0,0,0,0,0,0,0,0,0,0,0,0,0,0,0,0,0,0,0,0,0,0,0,0,0,0,0,0,0,0,0,0,0,0,0,0,0,0,0,0,0,0,0,0,0,0,0,0,0,0,0,0,0,0,0,0,0,0,0,0,0,0,0,0,0,0,0,0,0,0,0,0,0,0,0,0,0,0,0,0,0,0,0,0,0,0,0,0,0,0,0,0,0,0,0,0,0,0,0,0,0,0,0,0,0,0,0,0,0,0,0,0,0,0,0,0,0,0],"id":1,"left_children":[1,3,5,7,9,11,13,15,17,19,21,23,25,27,29,31,33,35,37,39,41,43,45,47,49,51,53,55,57,59,61,63,65,67,69,71,73,75,77,79,81,83,85,87,89,91,93,95,-1,97,-1,99,101,103,105,107,109,111,113,115,117,119,121,-1,-1,-1,-1,-1,-1,-1,-1,-1,-1,-1,-1,-1,-1,-1,-1,-1,-1,-1,-1,-1,-1,-1,-1,-1,-1,-1,-1,-1,-1,-1,-1,-1,-1,-1,-1,-1,-1,-1,-1,-1,-1,-1,-1,-1,-1,-1,-1,-1,-1,-1,-1,-1,-1,-1,-1,-1,-1,-1,-1],"loss_changes":[1.9344118E6,4.6665988E5,1.4920869E5,4.634295E5,6.8619825E5,4.8628762E5,9.9097375E4,3.509422E5,1.1281859E4,1.151142E6,5.8739944E5,5.472575E4,1.9780578E4,4.2594938E4,1.1998414E5,6.005974E4,1.3631531E5,3.3009844E3,4.29605E4,4.839225E5,3.0037794E5,4.911264E4,5.869336E5,1.959375E3,1.200125E3,1.1242771E4,3.7031953E3,2.1224688E4,3.0024281E4,1.9918828E5,2.1727116E5,5.501561E4,8.447414E3,1.2890319E5,1.19739E5,1.0275392E4,9.8453125E2,2.6578555E3,4.3543613E3,1.4507175E5,3.6282688E4,2.683193E4,1.4466597E5,8.06399E4,1.5631456E5,7.2898E4,1.6054144E5,7.609375E1,0E0,1.7770312E2,0E0,2.6955773E4,5.3099805E3,7.4577983E3,1.5360938E2,1.26105625E4,3.3408312E4,2.6110307E4,9.035109E3,2.3625811E5,9.625668E3,1.2263469E4,1.8185567E5,0E0,0E0,0E0,0E0,0E0,0E0,0E0,0E0,0E0,0E0,0E0,0E0,0E0,0E0,0E0,0E0,0E0,0E0,0E0,0E0,0E0,0E0,0E0,0E0,0E0,0E0,0E0,0E0,0E0,0E0,0E0,0E0,0E0,0E0,0E0,0E0,0E0,0E0,0E0,0E0,0E0,0E0,0E0,0E0,0E0,0E0,0E0,0E0,0E0,0E0,0E0,0E0,0E0,0E0,0E0,0E0,0E0,0E0,0E0,0E0],"parents":[2147483647,0,0,1,1,2,2,3,3,4,4,5,5,6,6,7,7,8,8,9,9,10,10,11,11,12,12,13,13,14,14,15,15,16,16,17,17,18,18,19,19,20,20,21,21,22,22,23,23,24,24,25,25,26,26,27,27,28,28,29,29,30,30,31,31,32,32,33,33,34,34,35,35,36,36,37,37,38,38,39,39,40,40,41,41,42,42,43,43,44,44,45,45,46,46,47,47,49,49,51,51,52,52,53,53,54,54,55,55,56,56,57,57,58,58,59,59,60,60,61,61,62,62],"right_children":[2,4,6,8,10,12,14,16,18,20,22,24,26,28,30,32,34,36,38,40,42,44,46,48,50,52,54,56,58,60,62,64,66,68,70,72,74,76,78,80,82,84,86,88,90,92,94,96,-1,98,-1,100,102,104,106,108,110,112,114,116,118,120,122,-1,-1,-1,-1,-1,-1,-1,-1,-1,-1,-1,-1,-1,-1,-1,-1,-1,-1,-1,-1,-1,-1,-1,-1,-1,-1,-1,-1,-1,-1,-1,-1,-1,-1,-1,-1,-1,-1,-1,-1,-1,-1,-1,-1,-1,-1,-1,-1,-1,-1,-1,-1,-1,-1,-1,-1,-1,-1,-1,-1],"split_conditions":[-4.6258968E-1,-1.0404258E0,-1.5844189E0,8.3335793E-1,-5.482288E-1,-1.7367166E-1,1.2709184E0,-8.936255E-1,1.4090191E0,-5.136537E-1,9.484902E-1,-6.4554393E-1,9.855777E-1,1.5241513E0,-1.0087577E0,-1.2390221E0,-1.3293438E0,9.484902E-1,-1.3293438E0,-7.515077E-1,9.855777E-1,2.576968E-1,-1.3909909E-2,-9.353348E-1,1.382992E0,-5.136537E-1,9.820004E-1,-5.136537E-1,4.8583388E-1,-1.3909909E-2,-1.3909909E-2,-1.0133975E0,-1.3293438E0,6.030935E-1,4.8796126E-1,-3.557531E-1,-1.3293438E0,1.5241513E0,-7.9043937E-1,-1.2390221E0,-8.936255E-1,-1.5149165E0,-7.784933E-1,-3.1796435E-1,-7.515077E-1,1.5241513E0,1.4853215E0,2.2736632E-3,4.4935775E0,-3.557531E-1,3.4646313E0,4.0416437E-1,1.2380966E0,1.1524635E-1,-6.596223E-2,-1.4692867E0,1.4853215E0,1.7544158E0,1.1524635E-1,-1.2390221E0,-1.3541545E0,1.0932012E0,1.0636225E0,1.2569544E0,-1.4851376E-2,-7.1178764E-1,-3.3657274E-1,9.636077E-1,2.3213642E0,6.92738E-1,-4.3267223E-1,4.1686248E-2,-6.9791216E-1,-7.0476717E-1,-5.92515E-1,-7.6683265E-1,-4.6892715E-1,5.2393656E-2,8.105626E-1,4.247931E0,6.595306E0,1.1355431E0,2.5013485E0,1.9406079E0,-3.06783E-1,1.1643289E0,3.253426E0,5.1107216E-1,-3.2907653E-1,9.0482694E-1,-2.9247665E-1,2.2747421E0,3.5191574E0,1.9806316E-1,2.3456502E0,5.127109E0,6.44805E0,3.2616735E0,2.689681E0,4.974315E-1,-6.5138346E-1,3.3556473E-1,1.0336708E0,-5.3579086E-1,7.936501E-2,-5.211889E-1,-6.5839523E-1,-6.55573E-2,-4.6738815E-1,-2.786088E-1,-4.9359426E-1,-4.33951E-2,5.9603167E-1,-1.6786791E-1,-5.546848E-1,2.7924097E-1,2.3780568E0,-2.1753672E-1,-7.0925754E-1,-6.5722674E-1,-3.5012674E-1,-1.4280748E-1,7.7954364E-1],"split_indices":[5,5,4,4,4,5,5,4,4,6,4,3,6,4,4,4,5,4,5,5,6,4,6,3,3,6,5,6,6,6,6,6,5,4,4,3,5,4,3,4,4,3,4,4,5,4,6,1,0,3,0,5,3,5,3,4,6,4,5,4,4,3,4,0,0,0,0,0,0,0,0,0,0,0,0,0,0,0,0,0,0,0,0,0,0,0,0,0,0,0,0,0,0,0,0,0,0,0,0,0,0,0,0,0,0,0,0,0,0,0,0,0,0,0,0,0,0,0,0,0,0,0,0],"split_type":[0,0,0,0,0,0,0,0,0,0,0,0,0,0,0,0,0,0,0,0,0,0,0,0,0,0,0,0,0,0,0,0,0,0,0,0,0,0,0,0,0,0,0,0,0,0,0,0,0,0,0,0,0,0,0,0,0,0,0,0,0,0,0,0,0,0,0,0,0,0,0,0,0,0,0,0,0,0,0,0,0,0,0,0,0,0,0,0,0,0,0,0,0,0,0,0,0,0,0,0,0,0,0,0,0,0,0,0,0,0,0,0,0,0,0,0,0,0,0,0,0,0,0],"sum_hessian":[1.42092E5,4.4168E4,9.7924E4,2.3754E4,2.0414E4,3.221E3,9.4703E4,1.7718E4,6.036E3,5.635E3,1.4779E4,3.99E2,2.822E3,7.1061E4,2.3642E4,5.653E3,1.2065E4,4.058E3,1.978E3,1.984E3,3.651E3,1E4,4.779E3,1.14E2,2.85E2,1.632E3,1.19E3,6.462E4,6.441E3,4.009E3,1.9633E4,3.247E3,2.406E3,6.081E3,5.984E3,8.01E2,3.257E3,1.581E3,3.97E2,1.2E3,7.84E2,1.62E3,2.031E3,5.609E3,4.391E3,2E3,2.779E3,8E1,3.4E1,2.31E2,5.4E1,8.15E2,8.17E2,7.87E2,4.03E2,1.7388E4,4.7232E4,4.024E3,2.417E3,2.415E3,1.594E3,8.033E3,1.16E4,3.85E2,2.862E3,1.193E3,1.213E3,5.275E3,8.06E2,4.808E3,1.176E3,3E2,5.01E2,1.631E3,1.626E3,4.07E2,1.174E3,1.02E2,2.95E2,7.98E2,4.02E2,3.8E2,4.04E2,5.4E1,1.566E3,1.614E3,4.17E2,1.596E3,4.013E3,2.38E3,2.011E3,1.223E3,7.77E2,2.372E3,4.07E2,3.6E1,4.4E1,3.3E1,1.98E2,4.07E2,4.08E2,6.88E2,1.29E2,3.88E2,3.99E2,1.84E2,2.19E2,8.2E2,1.6568E4,3.8321E4,8.911E3,3.229E3,7.95E2,1.2E3,1.217E3,1.612E3,8.03E2,8.02E2,7.92E2,6.396E3,1.637E3,8.775E3,2.825E3],"tree_param":{"num_deleted":"0","num_feature":"9","num_nodes":"123","size_leaf_vector":"1"}},{"base_weights":[7.7794347E-4,4.945527E0,-2.2295475E0,2.2327673E0,8.101867E0,3.8011103E0,-2.4346979E0,4.553111E0,-4.577967E0,1.655371E1,4.878409E0,3.3225082E1,-3.6941376E-1,-2.9657419E0,-8.384753E-1,-1.2985647E0,7.2947674E0,-5.437302E0,-2.813127E0,3.4001873E1,7.0654435E0,9.550631E-1,1.3086046E1,5.1987938E1,2.7046911E1,1.6658132E0,-3.1596375E0,-3.1857278E0,-7.585587E-1,2.312255E0,-2.2141168E0,1.2269788E0,-4.7059875E0,1.029584E1,4.2438364E0,-3.79164E0,-5.840735E0,-4.915265E0,5.5496755E0,4.536127E1,1.6579401E1,1.4362317E1,-2.096043E0,-8.0969614E-1,3.209012E0,2.4840326E1,4.620794E0,4.456273E0,5.7212877E0,3.4723553E1,2.59148E1,2.858222E-1,5.9048734E0,-2.0184598E0,-5.377678E0,-1.9118242E0,-3.4450238E0,7.4758446E-1,-3.2653692E0,8.961183E0,-4.3280716E0,-3.9713664E0,2.5417578E0,-2.3770798E-2,1.1366049E0,-6.4066845E-1,-3.029432E-1,8.672652E-1,2.0895154E0,6.2347865E-1,-3.8944173E-1,6.1372737E-3,-6.5274924E-1,-6.343336E-1,-5.332999E-1,-6.903373E-1,-4.2207432E-1,4.720513E-2,7.2978026E-1,3.8236694E0,5.937412E0,1.0222868E0,2.2518313E0,7.2980016E-1,2.5263526E0,-4.1013566E-1,4.2819148E-1,4.5999694E-1,-2.9617706E-1,8.1438226E-1,-2.6324353E-1,2.0474536E0,3.167694E0,9.270402E-1,-6.504209E-1,2.5780678E0,3.8120797E0,2.1442573E0,2.8168943E0,3.3343184E-1,-5.864044E-1,1.0278533E0,1.138037E-1,-4.8234954E-1,7.144836E-2,-4.9321896E-1,-6.27869E-1,6.6249675E-1,-2.5820467E-1,-3.5432014E-1,6.631662E-2,-3.905694E-2,5.365034E-1,-1.5109514E-1,-4.9926192E-1,-1.9581011E-1,1.2101816E0,1.03264354E-1,-6.9932365E-1,-1.3264053E-1,-5.28331E-1,8.9812565E-1,-5.25098E-1],"categories":[],"categories_nodes":[],"categories_segments":[],"categories_sizes":[],"default_left":[0,0,0,0,0,0,0,0,0,0,0,0,0,0,0,0,0,0,0,0,0,0,0,0,0,0,0,0,0,0,0,0,0,0,0,0,0,0,0,0,0,0,0,0,0,0,0,0,0,0,0,0,0,0,0,0,0,0,0,0,0,0,0,0,0,0,0,0,0,0,0,0,0,0,0,0,0,0,0,0,0,0,0,0,0,0,0,0,0,0,0,0,0,0,0,0,0,0,0,0,0,0,0,0,0,0,0,0,0,0,0,0,0,0,0,0,0,0,0,0,0,0,0],"id":2,"left_children":[1,3,5,7,9,11,13,15,17,19,21,23,25,27,29,31,33,35,37,39,41,43,45,47,49,51,53,55,57,59,61,63,65,67,69,71,73,75,77,79,81,83,85,87,89,91,93,-1,-1,95,97,99,101,103,105,107,109,111,113,115,117,119,121,-1,-1,-1,-1,-1,-1,-1,-1,-1,-1,-1,-1,-1,-1,-1,-1,-1,-1,-1,-1,-1,-1,-1,-1,-1,-1,-1,-1,-1,-1,-1,-1,-1,-1,-1,-1,-1,-1,-1,-1,-1,-1,-1,-1,-1,-1,-1,-1,-1,-1,-1,-1,-1,-1,-1,-1,-1,-1,-1,-1],"loss_changes":[1.5670695E6,3.7817412E5,1.2116122E5,3.7542694E5,5.561089E5,3.9539478E5,8.027469E4,2.8428047E5,9.140359E3,9.328155E5,4.759242E5,4.4961906E4,1.6036341E4,3.450175E4,1.0248039E5,4.8661805E4,1.1043344E5,2.6726875E3,3.4817633E4,3.9209675E5,2.4416705E5,3.978335E4,4.755093E5,1.2524688E3,1.7334688E3,9.551143E3,3.0037783E3,2.1338875E4,2.4324957E4,3.1730825E5,1.3755384E5,4.823733E4,6.843703E3,1.0445769E5,9.699838E4,8.454502E3,7.975703E2,2.1552656E3,3.529336E3,1.176325E5,2.9404234E4,1.5637612E5,2.0737047E4,6.5325258E4,1.2662713E5,5.907575E4,1.4386106E5,0E0,0E0,1.1094141E2,2.0977031E3,2.3135643E4,8.348556E3,6.0442563E3,1.3119434E2,6.2559348E4,2.1657625E4,2.1154951E4,7.3197656E3,1.2317153E5,5.1383953E4,4.169592E4,2.2290245E5,0E0,0E0,0E0,0E0,0E0,0E0,0E0,0E0,0E0,0E0,0E0,0E0,0E0,0E0,0E0,0E0,0E0,0E0,0E0,0E0,0E0,0E0,0E0,0E0,0E0,0E0,0E0,0E0,0E0,0E0,0E0,0E0,0E0,0E0,0E0,0E0,0E0,0E0,0E0,0E0,0E0,0E0,0E0,0E0,0E0,0E0,0E0,0E0,0E0,0E0,0E0,0E0,0E0,0E0,0E0,0E0,0E0,0E0,0E0,0E0],"parents":[2147483647,0,0,1,1,2,2,3,3,4,4,5,5,6,6,7,7,8,8,9,9,10,10,11,11,12,12,13,13,14,14,15,15,16,16,17,17,18,18,19,19,20,20,21,21,22,22,23,23,24,24,25,25,26,26,27,27,28,28,29,29,30,30,31,31,32,32,33,33,34,34,35,35,36,36,37,37,38,38,39,39,40,40,41,41,42,42,43,43,44,44,45,45,46,46,49,49,50,50,51,51,52,52,53,53,54,54,55,55,56,56,57,57,58,58,59,59,60,60,61,61,62,62],"right_children":[2,4,6,8,10,12,14,16,18,20,22,24,26,28,30,32,34,36,38,40,42,44,46,48,50,52,54,56,58,60,62,64,66,68,70,72,74,76,78,80,82,84,86,88,90,92,94,-1,-1,96,98,100,102,104,106,108,110,112,114,116,118,120,122,-1,-1,-1,-1,-1,-1,-1,-1,-1,-1,-1,-1,-1,-1,-1,-1,-1,-1,-1,-1,-1,-1,-1,-1,-1,-1,-1,-1,-1,-1,-1,-1,-1,-1,-1,-1,-1,-1,-1,-1,-1,-1,-1,-1,-1,-1,-1,-1,-1,-1,-1,-1,-1,-1,-1,-1,-1,-1,-1,-1],"split_conditions":[-4.6258968E-1,-1.0404258E0,-1.5844189E0,8.3335793E-1,-5.482288E-1,-1.7367166E-1,1.2709184E0,-8.936255E-1,1.4090191E0,-5.136537E-1,9.484902E-1,-7.9043937E-1,9.855777E-1,1.5241513E0,-5.482288E-1,-1.2390221E0,-1.3293438E0,9.484902E-1,-1.3293438E0,-7.515077E-1,-7.515077E-1,2.576968E-1,-1.3909909E-2,2.2736632E-3,-5.0064856E-1,1.2709184E0,9.820004E-1,-1.7367166E-1,4.8583388E-1,1.5598364E0,1.1787547E0,1.4853215E0,-1.3293438E0,6.030935E-1,4.8796126E-1,-2.1085766E-1,-1.3293438E0,1.5241513E0,-7.9043937E-1,-1.2390221E0,-8.936255E-1,1.4853215E0,1.4853215E0,-3.1796435E-1,-7.515077E-1,1.5241513E0,1.4090191E0,4.456273E0,5.7212877E0,2.2736632E-3,3.6872405E-1,6.930824E-1,7.8933194E-2,1.1524635E-1,6.585149E-1,-1.3541545E0,4.480588E0,1.7544158E0,1.1524635E-1,-1.3541545E0,-1.2390221E0,2.7432345E-2,1.5241513E0,-2.3770798E-2,1.1366049E0,-6.4066845E-1,-3.029432E-1,8.672652E-1,2.0895154E0,6.2347865E-1,-3.8944173E-1,6.1372737E-3,-6.5274924E-1,-6.343336E-1,-5.332999E-1,-6.903373E-1,-4.2207432E-1,4.720513E-2,7.2978026E-1,3.8236694E0,5.937412E0,1.0222868E0,2.2518313E0,7.2980016E-1,2.5263526E0,-4.1013566E-1,4.2819148E-1,4.5999694E-1,-2.9617706E-1,8.1438226E-1,-2.6324353E-1,2.0474536E0,3.167694E0,9.270402E-1,-6.504209E-1,2.5780678E0,3.8120797E0,2.1442573E0,2.8168943E0,3.3343184E-1,-5.864044E-1,1.0278533E0,1.138037E-1,-4.8234954E-1,7.144836E-2,-4.9321896E-1,-6.27869E-1,6.6249675E-1,-2.5820467E-1,-3.5432014E-1,6.631662E-2,-3.905694E-2,5.365034E-1,-1.5109514E-1,-4.9926192E-1,-1.9581011E-1,1.2101816E0,1.03264354E-1,-6.9932365E-1,-1.3264053E-1,-5.28331E-1,8.9812565E-1,-5.25098E-1],"split_indices":[5,5,4,4,4,5,5,4,4,6,4,3,6,4,4,4,5,4,5,5,5,4,6,1,3,5,5,5,6,5,4,6,5,4,4,3,5,4,3,4,4,6,6,4,5,4,4,0,0,1,3,5,3,5,3,4,7,4,5,4,4,4,4,0,0,0,0,0,0,0,0,0,0,0,0,0,0,0,0,0,0,0,0,0,0,0,0,0,0,0,0,0,0,0,0,0,0,0,0,0,0,0,0,0,0,0,0,0,0,0,0,0,0,0,0,0,0,0,0,0,0,0,0],"split_type":[0,0,0,0,0,0,0,0,0,0,0,0,0,0,0,0,0,0,0,0,0,0,0,0,0,0,0,0,0,0,0,0,0,0,0,0,0,0,0,0,0,0,0,0,0,0,0,0,0,0,0,0,0,0,0,0,0,0,0,0,0,0,0,0,0,0,0,0,0,0,0,0,0,0,0,0,0,0,0,0,0,0,0,0,0,0,0,0,0,0,0,0,0,0,0,0,0,0,0,0,0,0,0,0,0,0,0,0,0,0,0,0,0,0,0,0,0,0,0,0,0,0,0],"sum_hessian":[1.42092E5,4.4168E4,9.7924E4,2.3754E4,2.0414E4,3.221E3,9.4703E4,1.7718E4,6.036E3,5.635E3,1.4779E4,3.99E2,2.822E3,7.1061E4,2.3642E4,5.653E3,1.2065E4,4.058E3,1.978E3,1.984E3,3.651E3,1E4,4.779E3,9.7E1,3.02E2,1.632E3,1.19E3,6.462E4,6.441E3,7.185E3,1.6457E4,3.247E3,2.406E3,6.081E3,5.984E3,8.01E2,3.257E3,1.581E3,3.97E2,1.2E3,7.84E2,2.032E3,1.619E3,5.609E3,4.391E3,2E3,2.779E3,4.4E1,5.3E1,3.5E1,2.67E2,1.232E3,4E2,7.87E2,4.03E2,1.093E4,5.369E4,4.024E3,2.417E3,3.59E3,3.595E3,1.2017E4,4.44E3,2.838E3,4.09E2,1.193E3,1.213E3,5.275E3,8.06E2,4.808E3,1.176E3,3.33E2,4.68E2,1.631E3,1.626E3,4.07E2,1.174E3,1.02E2,2.95E2,7.98E2,4.02E2,3.8E2,4.04E2,1.234E3,7.98E2,1.232E3,3.87E2,1.596E3,4.013E3,2.38E3,2.011E3,1.223E3,7.77E2,1.96E3,8.19E2,1.2E1,2.3E1,9.3E1,1.74E2,8.24E2,4.08E2,2.08E2,1.92E2,3.88E2,3.99E2,2.74E2,1.29E2,7.95E2,1.0135E4,5.2437E4,1.253E3,3.229E3,7.95E2,1.2E3,1.217E3,8.02E2,2.788E3,1.194E3,2.401E3,3.985E3,8.032E3,2.431E3,2.009E3],"tree_param":{"num_deleted":"0","num_feature":"9","num_nodes":"123","size_leaf_vector":"1"}},{"base_weights":[1.0148647E-3,4.4515114E0,-2.0063784E0,2.0095413E0,7.292783E0,3.4274814E0,-2.191227E0,4.0979896E0,-4.120527E0,1.4901234E1,4.390988E0,2.9956394E1,-3.327004E-1,-2.669168E0,-7.546222E-1,-1.1686785E0,6.5655546E0,-4.894019E0,-2.5319839E0,3.0608252E1,6.359796E0,8.5962814E-1,1.177859E1,4.516198E1,2.3737518E1,1.4997759E0,-2.84496E0,-2.867153E0,-6.827266E-1,3.426174E0,-1.6084594E0,1.1046232E0,-4.2357807E0,9.266743E0,3.8194914E0,-3.4132822E0,-5.25702E0,-4.424442E0,4.99666E0,4.083327E1,1.49256315E1,-1.9503893E0,1.2986002E1,-7.286975E-1,2.8882363E0,2.23589E1,4.158814E0,4.8372846E0,3.6440784E1,2.272764E1,2.991946E0,2.5703454E-1,5.317233E0,-3.848732E0,-6.925709E-1,-1.7206049E0,-3.1005263E0,6.729494E-1,-2.939101E0,8.138696E0,-3.7141886E0,-5.0298257E0,7.6106626E-1,1.1339556E0,-2.7567327E-2,-5.766553E-1,-2.7267385E-1,-1.04189515E-1,1.085755E0,5.6114376E-1,-3.5053068E-1,7.944419E-2,-5.491199E-1,-5.505399E-1,-4.283924E-1,-6.214728E-1,-3.799028E-1,3.6330235E-1,1.1225902E0,4.9758363E0,3.0107284E0,9.2032653E-1,2.0272043E0,1.7509638E0,-2.6321706E-1,9.4107753E-1,2.676831E0,-4.662821E-1,2.1546884E-1,7.3297817E-1,-2.3693223E-1,1.9891462E0,3.2664063E0,1.3891356E-1,2.0257561E0,2.808007E0,4.067745E0,2.6704602E0,2.1999786E0,3.0012903E-1,-5.279073E-1,9.2555964E-1,1.0248228E-1,-5.002956E-1,-3.4733573E-1,1.8807076E-1,-5.6556505E-1,5.9633034E-1,-2.3238675E-1,-3.1888875E-1,5.9690244E-2,-3.5152473E-2,4.8292038E-1,-1.3599817E-1,-4.4937673E-1,2.1232902E-1,2.0196793E0,-1.7625347E-1,-5.68577E-1,-5.669775E-1,-3.0597243E-1,-1.0183866E-1,7.4807703E-1],"categories":[],"categories_nodes":[],"categories_segments":[],"categories_sizes":[],"default_left":[0,0,0,0,0,0,0,0,0,0,0,0,0,0,0,0,0,0,0,0,0,0,0,0,0,0,0,0,0,0,0,0,0,0,0,0,0,0,0,0,0,0,0,0,0,0,0,0,0,0,0,0,0,0,0,0,0,0,0,0,0,0,0,0,0,0,0,0,0,0,0,0,0,0,0,0,0,0,0,0,0,0,0,0,0,0,0,0,0,0,0,0,0,0,0,0,0,0,0,0,0,0,0,0,0,0,0,0,0,0,0,0,0,0,0,0,0,0,0,0,0,0,0],"id":3,"left_children":[1,3,5,7,9,11,13,15,17,19,21,23,25,27,29,31,33,35,37,39,41,43,45,47,49,51,53,55,57,59,61,63,65,67,69,71,73,75,77,79,81,83,85,87,89,91,93,-1,95,97,-1,99,101,103,105,107,109,111,113,115,117,119,121,-1,-1,-1,-1,-1,-1,-1,-1,-1,-1,-1,-1,-1,-1,-1,-1,-1,-1,-1,-1,-1,-1,-1,-1,-1,-1,-1,-1,-1,-1,-1,-1,-1,-1,-1,-1,-1,-1,-1,-1,-1,-1,-1,-1,-1,-1,-1,-1,-1,-1,-1,-1,-1,-1,-1,-1,-1,-1,-1,-1],"loss_changes":[1.2694532E6,3.0644306E5,9.8367375E4,3.041362E5,4.5066025E5,3.2141588E5,6.5022906E4,2.3028112E5,7.4054297E3,7.559341E5,3.8557475E5,3.6752625E4,1.3000388E4,2.7945656E4,8.440438E4,3.9426902E4,8.946575E4,2.1637969E3,2.8218191E4,3.1769525E5,2.011227E5,3.222623E4,3.852687E5,1.4575625E3,1.1055E3,7.7457676E3,2.5705E3,1.7285562E4,1.9707494E4,1.3496317E5,1.5917697E5,4.5888402E4,5.544449E3,9.9750375E4,7.857663E4,7.0164893E3,7.638672E2,1.747709E3,3.339995E3,1.13474125E5,2.3829828E4,2.1552672E4,9.9874625E4,6.364762E4,1.0257796E5,5.0230312E4,1.23927484E5,0E0,9.753125E1,1.3616406E2,0E0,1.8748188E4,6.76945E3,3.3443457E2,4.8637637E3,5.068357E4,1.754325E4,1.7140047E4,5.930088E3,1.7520014E5,6.127291E3,1.0111625E4,1.3872538E5,0E0,0E0,0E0,0E0,0E0,0E0,0E0,0E0,0E0,0E0,0E0,0E0,0E0,0E0,0E0,0E0,0E0,0E0,0E0,0E0,0E0,0E0,0E0,0E0,0E0,0E0,0E0,0E0,0E0,0E0,0E0,0E0,0E0,0E0,0E0,0E0,0E0,0E0,0E0,0E0,0E0,0E0,0E0,0E0,0E0,0E0,0E0,0E0,0E0,0E0,0E0,0E0,0E0,0E0,0E0,0E0,0E0,0E0,0E0,0E0],"parents":[2147483647,0,0,1,1,2,2,3,3,4,4,5,5,6,6,7,7,8,8,9,9,10,10,11,11,12,12,13,13,14,14,15,15,16,16,17,17,18,18,19,19,20,20,21,21,22,22,23,23,24,24,25,25,26,26,27,27,28,28,29,29,30,30,31,31,32,32,33,33,34,34,35,35,36,36,37,37,38,38,39,39,40,40,41,41,42,42,43,43,44,44,45,45,46,46,48,48,49,49,51,51,52,52,53,53,54,54,55,55,56,56,57,57,58,58,59,59,60,60,61,61,62,62],"right_children":[2,4,6,8,10,12,14,16,18,20,22,24,26,28,30,32,34,36,38,40,42,44,46,48,50,52,54,56,58,60,62,64,66,68,70,72,74,76,78,80,82,84,86,88,90,92,94,-1,96,98,-1,100,102,104,106,108,110,112,114,116,118,120,122,-1,-1,-1,-1,-1,-1,-1,-1,-1,-1,-1,-1,-1,-1,-1,-1,-1,-1,-1,-1,-1,-1,-1,-1,-1,-1,-1,-1,-1,-1,-1,-1,-1,-1,-1,-1,-1,-1,-1,-1,-1,-1,-1,-1,-1,-1,-1,-1,-1,-1,-1,-1,-1,-1,-1,-1,-1,-1,-1,-1],"split_conditions":[-4.6258968E-1,-1.0404258E0,-1.5844189E0,8.3335793E-1,-5.482288E-1,-1.7367166E-1,1.2709184E0,-8.936255E-1,1.4090191E0,-5.136537E-1,9.484902E-1,-6.4554393E-1,9.855777E-1,1.5241513E0,-1.0087577E0,-1.2390221E0,-1.3293438E0,9.484902E-1,-1.3293438E0,-7.515077E-1,9.855777E-1,2.576968E-1,-1.3909909E-2,-9.353348E-1,1.5278875E0,1.2709184E0,6.585149E-1,-1.7367166E-1,4.8583388E-1,-1.3909909E-2,-1.3909909E-2,-1.0133975E0,-1.3293438E0,-6.63361E-1,4.8796126E-1,-5.0064856E-1,1.0932012E0,1.5241513E0,1.2380966E0,2.2382863E-1,-8.936255E-1,-1.5149165E0,-7.784933E-1,-1.3909909E-2,-7.515077E-1,1.6392835E0,1.4853215E0,4.8372846E0,2.2736632E-3,-3.557531E-1,2.991946E0,6.930824E-1,7.8933194E-2,-1.0802302E0,9.820004E-1,-1.3541545E0,4.480588E0,1.7544158E0,1.1524635E-1,-1.2390221E0,-1.3541545E0,9.483058E-1,1.2938869E0,1.1339556E0,-2.7567327E-2,-5.766553E-1,-2.7267385E-1,-1.04189515E-1,1.085755E0,5.6114376E-1,-3.5053068E-1,7.944419E-2,-5.491199E-1,-5.505399E-1,-4.283924E-1,-6.214728E-1,-3.799028E-1,3.6330235E-1,1.1225902E0,4.9758363E0,3.0107284E0,9.2032653E-1,2.0272043E0,1.7509638E0,-2.6321706E-1,9.4107753E-1,2.676831E0,-4.662821E-1,2.1546884E-1,7.3297817E-1,-2.3693223E-1,1.9891462E0,3.2664063E0,1.3891356E-1,2.0257561E0,2.808007E0,4.067745E0,2.6704602E0,2.1999786E0,3.0012903E-1,-5.279073E-1,9.2555964E-1,1.0248228E-1,-5.002956E-1,-3.4733573E-1,1.8807076E-1,-5.6556505E-1,5.9633034E-1,-2.3238675E-1,-3.1888875E-1,5.9690244E-2,-3.5152473E-2,4.8292038E-1,-1.3599817E-1,-4.4937673E-1,2.1232902E-1,2.0196793E0,-1.7625347E-1,-5.68577E-1,-5.669775E-1,-3.0597243E-1,-1.0183866E-1,7.4807703E-1],"split_indices":[5,5,4,4,4,5,5,4,4,6,4,3,6,4,4,4,5,4,5,5,6,4,6,3,3,5,3,5,6,6,6,6,5,4,4,3,3,4,3,3,4,3,4,6,5,4,6,0,1,3,0,5,3,3,5,4,7,4,5,4,4,3,4,0,0,0,0,0,0,0,0,0,0,0,0,0,0,0,0,0,0,0,0,0,0,0,0,0,0,0,0,0,0,0,0,0,0,0,0,0,0,0,0,0,0,0,0,0,0,0,0,0,0,0,0,0,0,0,0,0,0,0,0],"split_type":[0,0,0,0,0,0,0,0,0,0,0,0,0,0,0,0,0,0,0,0,0,0,0,0,0,0,0,0,0,0,0,0,0,0,0,0,0,0,0,0,0,0,0,0,0,0,0,0,0,0,0,0,0,0,0,0,0,0,0,0,0,0,0,0,0,0,0,0,0,0,0,0,0,0,0,0,0,0,0,0,0,0,0,0,0,0,0,0,0,0,0,0,0,0,0,0,0,0,0,0,0,0,0,0,0,0,0,0,0,0,0,0,0,0,0,0,0,0,0,0,0,0,0],"sum_hessian":[1.42092E5,4.4168E4,9.7924E4,2.3754E4,2.0414E4,3.221E3,9.4703E4,1.7718E4,6.036E3,5.635E3,1.4779E4,3.99E2,2.822E3,7.1061E4,2.3642E4,5.653E3,1.2065E4,4.058E3,1.978E3,1.984E3,3.651E3,1E4,4.779E3,1.14E2,2.85E2,1.632E3,1.19E3,6.462E4,6.441E3,4.009E3,1.9633E4,3.247E3,2.406E3,6.081E3,5.984E3,8.01E2,3.257E3,1.581E3,3.97E2,1.2E3,7.84E2,1.62E3,2.031E3,5.609E3,4.391E3,2E3,2.779E3,8E1,3.4E1,2.49E2,3.6E1,1.232E3,4E2,8.11E2,3.79E2,1.093E4,5.369E4,4.024E3,2.417E3,2.415E3,1.594E3,8.033E3,1.16E4,3.85E2,2.862E3,1.193E3,1.213E3,8.13E2,5.268E3,4.808E3,1.176E3,2.65E2,5.36E2,2.591E3,6.66E2,4.07E2,1.174E3,3.27E2,7E1,6.53E2,5.47E2,3.8E2,4.04E2,5.4E1,1.566E3,1.614E3,4.17E2,2.372E3,3.237E3,2.38E3,2.011E3,1.616E3,3.84E2,2.372E3,4.07E2,1.4E1,2E1,3.3E1,2.16E2,8.24E2,4.08E2,2.08E2,1.92E2,1.96E2,6.15E2,2.5E2,1.29E2,7.95E2,1.0135E4,5.2437E4,1.253E3,3.229E3,7.95E2,1.2E3,1.217E3,1.612E3,8.03E2,8.02E2,7.92E2,6.062E3,1.971E3,9.172E3,2.428E3],"tree_param":{"num_deleted":"0","num_feature":"9","num_nodes":"123","size_leaf_vector":"1"}},{"base_weights":[1.2270011E-3,4.006908E0,-1.8055326E0,1.8086076E0,6.564666E0,3.090677E0,-1.9720913E0,3.688272E0,-3.7086337E0,1.3413957E1,3.952408E0,2.7009695E1,-2.9958075E-1,-2.4022517E0,-6.791066E-1,-1.0517654E0,5.909098E0,-4.404974E0,-2.2785406E0,2.7552935E1,5.7252145E0,7.736899E-1,1.0602284E1,4.23414E1,2.1961784E1,1.3502885E0,-2.5614924E0,-2.6163323E0,-8.980251E-1,1.9791791E0,-1.8397435E0,-2.69139E0,3.0433834E0,8.340229E0,3.4375772E0,-3.0725396E0,-4.7316184E0,-3.9826305E0,4.5007277E0,3.675659E1,1.3436824E1,1.1852129E1,-1.9672198E0,-6.558723E-1,2.5995257E0,2.0125637E1,3.7437115E0,3.5836456E0,4.6978087E0,2.8382547E1,2.1017345E1,2.3114644E-1,4.7880735E0,-3.4649026E0,-6.243069E-1,-1.4121244E0,-2.861172E0,4.5186287E-1,-2.8658473E0,7.6728053E0,-3.7070808E0,-3.1084116E0,2.6349454E0,-5.194296E-1,-1.85911E-2,5.529138E-1,-4.634989E-1,5.3091156E-1,1.2915359E0,5.0504106E-1,-3.1550738E-1,1.0401919E-2,-5.3281856E-1,-5.5636287E-1,-4.4585618E-1,-4.546624E-1,-2.1678844E-1,4.774074E-2,6.215057E-1,3.0338523E0,4.9390044E0,8.285354E-1,1.8249844E0,5.992421E-1,2.0894544E0,-3.5023293E-1,2.9161757E-1,4.2613196E-1,-2.6120505E-1,6.597112E-1,-2.1325083E-1,1.6441237E0,2.5896308E0,7.82974E-1,-6.0324425E-1,2.08724E0,3.1267939E0,1.7069477E0,2.3017817E0,2.7015254E-1,-4.7524562E-1,8.334465E-1,9.22872E-2,-4.5051995E-1,-3.1265852E-1,-5.866775E-1,1.8475287E-1,5.367722E-1,-1.9673154E-1,-2.945091E-1,5.700768E-2,-4.4508764E-1,1.3558279E-1,-1.1432319E-1,-4.2366716E-1,-1.5865009E-1,1.0335964E0,7.173141E-2,-5.906683E-1,-9.318343E-2,-4.0897113E-1,1.2032385E0,-4.9731484E-1],"categories":[],"categories_nodes":[],"categories_segments":[],"categories_sizes":[],"default_left":[0,0,0,0,0,0,0,0,0,0,0,0,0,0,0,0,0,0,0,0,0,0,0,0,0,0,0,0,0,0,0,0,0,0,0,0,0,0,0,0,0,0,0,0,0,0,0,0,0,0,0,0,0,0,0,0,0,0,0,0,0,0,0,0,0,0,0,0,0,0,0,0,0,0,0,0,0,0,0,0,0,0,0,0,0,0,0,0,0,0,0,0,0,0,0,0,0,0,0,0,0,0,0,0,0,0,0,0,0,0,0,0,0,0,0,0,0,0,0,0,0,0,0],"id":4,"left_children":[1,3,5,7,9,11,13,15,17,19,21,23,25,27,29,31,33,35,37,39,41,43,45,47,49,51,53,55,57,59,61,63,65,67,69,71,73,75,77,79,81,83,85,87,89,91,93,-1,-1,95,97,99,101,103,105,107,109,111,113,115,117,119,121,-1,-1,-1,-1,-1,-1,-1,-1,-1,-1,-1,-1,-1,-1,-1,-1,-1,-1,-1,-1,-1,-1,-1,-1,-1,-1,-1,-1,-1,-1,-1,-1,-1,-1,-1,-1,-1,-1,-1,-1,-1,-1,-1,-1,-1,-1,-1,-1,-1,-1,-1,-1,-1,-1,-1,-1,-1,-1,-1,-1],"loss_changes":[1.02837725E6,2.4833806E5,7.9864625E4,2.4636638E5,3.6521444E5,2.6128534E5,5.2671844E4,1.865305E5,6.001797E3,6.125372E5,3.124127E5,3.0027344E4,1.0538495E4,2.2881438E4,7.29495E4,3.7972008E4,7.2471E4,1.7520781E3,2.288029E4,2.57397E5,1.7214531E5,2.6105771E4,3.12138E5,1.2722812E3,1.240875E3,6.281649E3,2.0821743E3,1.833725E4,2.352318E4,2.3267834E5,9.3438516E4,2.5321248E4,3.0888576E4,8.427503E4,6.36535E4,5.7470396E3,7.153594E2,1.6093262E3,2.7421558E3,9.58815E4,1.9312172E4,1.0759519E5,1.2154618E4,5.3973188E4,8.309628E4,4.2118438E4,1.1109612E5,0E0,0E0,1.274707E2,1.7236484E3,1.5192777E4,5.4890225E3,2.7169727E2,4.9350767E3,3.9582633E4,1.4887406E4,2.328683E4,8.503291E3,8.856686E4,3.500018E4,2.7384516E4,2.6002148E5,0E0,0E0,0E0,0E0,0E0,0E0,0E0,0E0,0E0,0E0,0E0,0E0,0E0,0E0,0E0,0E0,0E0,0E0,0E0,0E0,0E0,0E0,0E0,0E0,0E0,0E0,0E0,0E0,0E0,0E0,0E0,0E0,0E0,0E0,0E0,0E0,0E0,0E0,0E0,0E0,0E0,0E0,0E0,0E0,0E0,0E0,0E0,0E0,0E0,0E0,0E0,0E0,0E0,0E0,0E0,0E0,0E0,0E0,0E0,0E0],"parents":[2147483647,0,0,1,1,2,2,3,3,4,4,5,5,6,6,7,7,8,8,9,9,10,10,11,11,12,12,13,13,14,14,15,15,16,16,17,17,18,18,19,19,20,20,21,21,22,22,23,23,24,24,25,25,26,26,27,27,28,28,29,29,30,30,31,31,32,32,33,33,34,34,35,35,36,36,37,37,38,38,39,39,40,40,41,41,42,42,43,43,44,44,45,45,46,46,49,49,50,50,51,51,52,52,53,53,54,54,55,55,56,56,57,57,58,58,59,59,60,60,61,61,62,62],"right_children":[2,4,6,8,10,12,14,16,18,20,22,24,26,28,30,32,34,36,38,40,42,44,46,48,50,52,54,56,58,60,62,64,66,68,70,72,74,76,78,80,82,84,86,88,90,92,94,-1,-1,96,98,100,102,104,106,108,110,112,114,116,118,120,122,-1,-1,-1,-1,-1,-1,-1,-1,-1,-1,-1,-1,-1,-1,-1,-1,-1,-1,-1,-1,-1,-1,-1,-1,-1,-1,-1,-1,-1,-1,-1,-1,-1,-1,-1,-1,-1,-1,-1,-1,-1,-1,-1,-1,-1,-1,-1,-1,-1,-1,-1,-1,-1,-1,-1,-1,-1,-1,-1,-1],"split_conditions":[-4.6258968E-1,-1.0404258E0,-1.5844189E0,8.3335793E-1,-5.482288E-1,-1.7367166E-1,1.2709184E0,-8.936255E-1,1.4090191E0,-5.136537E-1,9.484902E-1,-7.9043937E-1,9.855777E-1,1.4090191E0,-5.482288E-1,9.855777E-1,-1.3293438E0,9.484902E-1,-1.3293438E0,-7.515077E-1,-7.515077E-1,2.576968E-1,-1.3909909E-2,2.2736632E-3,-5.0064856E-1,1.2709184E0,6.585149E-1,-1.7367166E-1,4.8583388E-1,1.5598364E0,1.2938869E0,-1.3293438E0,-1.2390221E0,4.8583388E-1,4.8796126E-1,-2.1085766E-1,-1.0133975E0,9.483058E-1,-6.4554393E-1,-1.2390221E0,-8.936255E-1,1.4853215E0,1.4853215E0,-3.1796435E-1,-7.515077E-1,1.5241513E0,1.4090191E0,3.5836456E0,4.6978087E0,2.2736632E-3,3.6872405E-1,6.930824E-1,7.8933194E-2,-1.0802302E0,1.1524635E-1,-1.3541545E0,4.480588E0,-1.7367166E-1,1.1524635E-1,-1.3541545E0,-1.2390221E0,2.7432345E-2,1.5241513E0,-5.194296E-1,-1.85911E-2,5.529138E-1,-4.634989E-1,5.3091156E-1,1.2915359E0,5.0504106E-1,-3.1550738E-1,1.0401919E-2,-5.3281856E-1,-5.5636287E-1,-4.4585618E-1,-4.546624E-1,-2.1678844E-1,4.774074E-2,6.215057E-1,3.0338523E0,4.9390044E0,8.285354E-1,1.8249844E0,5.992421E-1,2.0894544E0,-3.5023293E-1,2.9161757E-1,4.2613196E-1,-2.6120505E-1,6.597112E-1,-2.1325083E-1,1.6441237E0,2.5896308E0,7.82974E-1,-6.0324425E-1,2.08724E0,3.1267939E0,1.7069477E0,2.3017817E0,2.7015254E-1,-4.7524562E-1,8.334465E-1,9.22872E-2,-4.5051995E-1,-3.1265852E-1,-5.866775E-1,1.8475287E-1,5.367722E-1,-1.9673154E-1,-2.945091E-1,5.700768E-2,-4.4508764E-1,1.3558279E-1,-1.1432319E-1,-4.2366716E-1,-1.5865009E-1,1.0335964E0,7.173141E-2,-5.906683E-1,-9.318343E-2,-4.0897113E-1,1.2032385E0,-4.9731484E-1],"split_indices":[5,5,4,4,4,5,5,4,4,6,4,3,6,4,4,6,5,4,5,5,5,4,6,1,3,5,3,5,6,5,4,5,4,6,4,3,6,3,3,4,4,6,6,4,5,4,4,0,0,1,3,5,3,3,5,4,7,5,5,4,4,4,4,0,0,0,0,0,0,0,0,0,0,0,0,0,0,0,0,0,0,0,0,0,0,0,0,0,0,0,0,0,0,0,0,0,0,0,0,0,0,0,0,0,0,0,0,0,0,0,0,0,0,0,0,0,0,0,0,0,0,0,0],"split_type":[0,0,0,0,0,0,0,0,0,0,0,0,0,0,0,0,0,0,0,0,0,0,0,0,0,0,0,0,0,0,0,0,0,0,0,0,0,0,0,0,0,0,0,0,0,0,0,0,0,0,0,0,0,0,0,0,0,0,0,0,0,0,0,0,0,0,0,0,0,0,0,0,0,0,0,0,0,0,0,0,0,0,0,0,0,0,0,0,0,0,0,0,0,0,0,0,0,0,0,0,0,0,0,0,0,0,0,0,0,0,0,0,0,0,0,0,0,0,0,0,0,0,0],"sum_hessian":[1.42092E5,4.4168E4,9.7924E4,2.3754E4,2.0414E4,3.221E3,9.4703E4,1.7718E4,6.036E3,5.635E3,1.4779E4,3.99E2,2.822E3,7.1061E4,2.3642E4,5.653E3,1.2065E4,4.058E3,1.978E3,1.984E3,3.651E3,1E4,4.779E3,9.7E1,3.02E2,1.632E3,1.19E3,6.2207E4,8.854E3,7.185E3,1.6457E4,4.037E3,1.616E3,6.081E3,5.984E3,8.01E2,3.257E3,1.581E3,3.97E2,1.2E3,7.84E2,2.032E3,1.619E3,5.609E3,4.391E3,2E3,2.779E3,4.4E1,5.3E1,3.5E1,2.67E2,1.232E3,4E2,8.11E2,3.79E2,1.0512E4,5.1695E4,5.252E3,3.602E3,3.59E3,3.595E3,1.2822E4,3.635E3,2.019E3,2.018E3,1.221E3,3.95E2,3.659E3,2.422E3,4.808E3,1.176E3,3.33E2,4.68E2,8E2,2.457E3,1.205E3,3.76E2,1.19E2,2.78E2,7.98E2,4.02E2,3.8E2,4.04E2,1.234E3,7.98E2,1.232E3,3.87E2,1.596E3,4.013E3,2.38E3,2.011E3,1.223E3,7.77E2,1.96E3,8.19E2,1.2E1,2.3E1,9.3E1,1.74E2,8.24E2,4.08E2,2.08E2,1.92E2,1.96E2,6.15E2,1.21E2,2.58E2,7.95E2,9.717E3,5.0461E4,1.234E3,8.17E2,4.435E3,1.597E3,2.005E3,8.02E2,2.788E3,1.194E3,2.401E3,3.985E3,8.837E3,1.626E3,2.009E3],"tree_param":{"num_deleted":"0","num_feature":"9","num_nodes":"123","size_leaf_vector":"1"}},{"base_weights":[1.3519316E-3,3.606632E0,-1.624807E0,1.6277483E0,5.909095E0,2.7869043E0,-1.7748842E0,3.319533E0,-3.3380232E0,1.2074913E1,3.5575073E0,2.4352486E1,-2.6978004E-1,-2.1620371E0,-6.1117214E-1,-9.466684E-1,5.3183546E0,-3.964852E0,-2.0506878E0,2.4802996E1,5.153413E0,6.963821E-1,9.542979E0,3.680344E1,1.9260836E1,1.2157011E0,-2.3063216E0,-3.0497947E0,-1.8390154E0,2.8962412E0,-1.3274865E0,-2.4223845E0,2.7391005E0,7.506506E0,3.093851E0,-2.7659366E0,-4.2587643E0,-3.584792E0,4.052336E0,3.3087574E1,1.2096522E1,1.0668239E1,-1.7705338E0,1.4010477E0,-3.0127041E0,1.811519E1,3.3694046E0,3.116807E1,4.0658836E0,1.8368612E1,2.4768806E0,2.0786569E-1,4.311575E0,-1.3188462E0,-4.2266784E0,-4.2138934E0,-1.4713446E0,-6.830573E-1,-2.4198914E0,6.76794E0,-2.970167E0,-4.2345853E0,6.858709E-1,2.3751543E-1,-3.579006E-1,4.9766764E-1,-4.1726604E-1,6.023382E-1,1.7193565E0,6.8012786E-1,5.9614725E-2,7.049339E-2,-4.480063E-1,-4.7122034E-1,-3.801314E-1,-5.200116E-1,-3.020846E-1,2.8593826E-1,9.5063704E-1,4.1128783E0,2.3430572E0,6.498236E-1,1.591488E0,5.393664E-1,1.8807703E0,-3.1523806E-1,2.6253098E-1,-3.0545238E-2,6.851952E-1,-5.7503945E-1,5.2216405E-1,2.0924325E0,1.1213475E0,9.36135E-2,1.7513472E0,3.4900975E0,2.4661016E0,2.188771E0,1.7732584E0,2.4317005E-1,-4.2783728E-1,7.505006E-1,8.31063E-2,-3.7167993E-1,1.01646006E-1,-3.7144303E-1,-5.277768E-1,-2.4814871E-1,-4.9518234E-1,2.6817182E-3,-4.9741092E-1,6.3098386E-2,-2.70941E-1,-2.7920264E-1,-6.5492995E-2,1.5901439E-1,1.7147316E0,-1.4280479E-1,-4.527987E-1,-4.7455454E-1,-2.2365104E-1,3.9432397E-1,-2.3273228E-1],"categories":[],"categories_nodes":[],"categories_segments":[],"categories_sizes":[],"default_left":[0,0,0,0,0,0,0,0,0,0,0,0,0,0,0,0,0,0,0,0,0,0,0,0,0,0,0,0,0,0,0,0,0,0,0,0,0,0,0,0,0,0,0,0,0,0,0,0,0,0,0,0,0,0,0,0,0,0,0,0,0,0,0,0,0,0,0,0,0,0,0,0,0,0,0,0,0,0,0,0,0,0,0,0,0,0,0,0,0,0,0,0,0,0,0,0,0,0,0,0,0,0,0,0,0,0,0,0,0,0,0,0,0,0,0,0,0,0,0,0,0,0,0],"id":5,"left_children":[1,3,5,7,9,11,13,15,17,19,21,23,25,27,29,31,33,35,37,39,41,43,45,47,49,51,53,55,57,59,61,63,65,67,69,71,73,75,77,79,81,83,85,87,89,91,93,95,-1,97,-1,99,101,103,105,107,109,111,113,115,117,119,121,-1,-1,-1,-1,-1,-1,-1,-1,-1,-1,-1,-1,-1,-1,-1,-1,-1,-1,-1,-1,-1,-1,-1,-1,-1,-1,-1,-1,-1,-1,-1,-1,-1,-1,-1,-1,-1,-1,-1,-1,-1,-1,-1,-1,-1,-1,-1,-1,-1,-1,-1,-1,-1,-1,-1,-1,-1,-1,-1,-1],"loss_changes":[8.3306275E5,2.0123788E5,6.4840812E4,1.9957722E5,2.9596344E5,2.1239816E5,4.2666125E4,1.511016E5,4.8633594E3,4.9638925E5,2.5310358E5,2.46495E4,8.543067E3,2.03725E4,5.940477E4,3.0759578E4,5.8708656E4,1.4185117E3,1.8543262E4,2.0855638E5,1.3946817E5,2.6143488E4,2.5290219E5,1.2312969E3,9.5053125E2,5.0942783E3,2.2529253E3,3.4826734E4,3.498586E4,9.109909E4,1.14921266E5,2.24151E4,2.5028627E4,8.727722E4,5.5417375E4,4.7746655E3,6.578828E2,1.4254219E3,2.5623682E3,9.2298625E4,1.6676953E4,8.717975E4,9.848773E3,7.818514E4,3.6031332E4,3.8560438E4,9.5661E4,3.7810547E2,0E0,1.7142969E2,0E0,1.2311617E4,4.450788E3,4.4165425E3,1.9791699E2,1.3935E4,4.2233688E4,4.640743E4,2.2775469E4,1.298141E5,3.8252725E3,8.1915938E3,1.1387395E5,0E0,0E0,0E0,0E0,0E0,0E0,0E0,0E0,0E0,0E0,0E0,0E0,0E0,0E0,0E0,0E0,0E0,0E0,0E0,0E0,0E0,0E0,0E0,0E0,0E0,0E0,0E0,0E0,0E0,0E0,0E0,0E0,0E0,0E0,0E0,0E0,0E0,0E0,0E0,0E0,0E0,0E0,0E0,0E0,0E0,0E0,0E0,0E0,0E0,0E0,0E0,0E0,0E0,0E0,0E0,0E0,0E0,0E0,0E0,0E0],"parents":[2147483647,0,0,1,1,2,2,3,3,4,4,5,5,6,6,7,7,8,8,9,9,10,10,11,11,12,12,13,13,14,14,15,15,16,16,17,17,18,18,19,19,20,20,21,21,22,22,23,23,24,24,25,25,26,26,27,27,28,28,29,29,30,30,31,31,32,32,33,33,34,34,35,35,36,36,37,37,38,38,39,39,40,40,41,41,42,42,43,43,44,44,45,45,46,46,47,47,49,49,51,51,52,52,53,53,54,54,55,55,56,56,57,57,58,58,59,59,60,60,61,61,62,62],"right_children":[2,4,6,8,10,12,14,16,18,20,22,24,26,28,30,32,34,36,38,40,42,44,46,48,50,52,54,56,58,60,62,64,66,68,70,72,74,76,78,80,82,84,86,88,90,92,94,96,-1,98,-1,100,102,104,106,108,110,112,114,116,118,120,122,-1,-1,-1,-1,-1,-1,-1,-1,-1,-1,-1,-1,-1,-1,-1,-1,-1,-1,-1,-1,-1,-1,-1,-1,-1,-1,-1,-1,-1,-1,-1,-1,-1,-1,-1,-1,-1,-1,-1,-1,-1,-1,-1,-1,-1,-1,-1,-1,-1,-1,-1,-1,-1,-1,-1,-1,-1,-1,-1,-1],"split_conditions":[-4.6258968E-1,-1.0404258E0,-1.5844189E0,8.3335793E-1,-5.482288E-1,-1.7367166E-1,1.2709184E0,-8.936255E-1,1.4090191E0,-5.136537E-1,9.484902E-1,-6.4554393E-1,9.855777E-1,-6.63361E-1,-1.0087577E0,9.855777E-1,-1.3293438E0,9.484902E-1,-1.3293438E0,-7.515077E-1,-7.515077E-1,7.182257E-1,-1.3909909E-2,2.2736632E-3,1.5278875E0,1.2709184E0,9.820004E-1,4.8583388E-1,1.1524635E-1,-1.3909909E-2,-1.3909909E-2,-1.0133975E0,-1.2390221E0,6.030935E-1,-1.3909909E-2,-5.0064856E-1,-1.3293438E0,1.5241513E0,1.2380966E0,2.2382863E-1,-2.1085766E-1,1.4853215E0,1.4853215E0,3.7282905E-1,1.4853215E0,8.0341035E-1,1.4853215E0,-1.0802302E0,4.0658836E0,-3.557531E-1,2.4768806E0,6.930824E-1,7.8933194E-2,1.1524635E-1,6.585149E-1,-1.3541545E0,1.4853215E0,8.3335793E-1,1.4090191E0,-1.2390221E0,-1.3541545E0,1.0932012E0,9.855777E-1,2.3751543E-1,-3.579006E-1,4.9766764E-1,-4.1726604E-1,6.023382E-1,1.7193565E0,6.8012786E-1,5.9614725E-2,7.049339E-2,-4.480063E-1,-4.7122034E-1,-3.801314E-1,-5.200116E-1,-3.020846E-1,2.8593826E-1,9.5063704E-1,4.1128783E0,2.3430572E0,6.498236E-1,1.591488E0,5.393664E-1,1.8807703E0,-3.1523806E-1,2.6253098E-1,-3.0545238E-2,6.851952E-1,-5.7503945E-1,5.2216405E-1,2.0924325E0,1.1213475E0,9.36135E-2,1.7513472E0,3.4900975E0,2.4661016E0,2.188771E0,1.7732584E0,2.4317005E-1,-4.2783728E-1,7.505006E-1,8.31063E-2,-3.7167993E-1,1.01646006E-1,-3.7144303E-1,-5.277768E-1,-2.4814871E-1,-4.9518234E-1,2.6817182E-3,-4.9741092E-1,6.3098386E-2,-2.70941E-1,-2.7920264E-1,-6.5492995E-2,1.5901439E-1,1.7147316E0,-1.4280479E-1,-4.527987E-1,-4.7455454E-1,-2.2365104E-1,3.9432397E-1,-2.3273228E-1],"split_indices":[5,5,4,4,4,5,5,4,4,6,4,3,6,4,4,6,5,4,5,5,5,4,6,1,3,5,5,6,5,6,6,6,4,4,6,3,5,4,3,3,3,6,6,4,6,3,6,3,0,3,0,5,3,5,3,4,6,4,4,4,4,3,6,0,0,0,0,0,0,0,0,0,0,0,0,0,0,0,0,0,0,0,0,0,0,0,0,0,0,0,0,0,0,0,0,0,0,0,0,0,0,0,0,0,0,0,0,0,0,0,0,0,0,0,0,0,0,0,0,0,0,0,0],"split_type":[0,0,0,0,0,0,0,0,0,0,0,0,0,0,0,0,0,0,0,0,0,0,0,0,0,0,0,0,0,0,0,0,0,0,0,0,0,0,0,0,0,0,0,0,0,0,0,0,0,0,0,0,0,0,0,0,0,0,0,0,0,0,0,0,0,0,0,0,0,0,0,0,0,0,0,0,0,0,0,0,0,0,0,0,0,0,0,0,0,0,0,0,0,0,0,0,0,0,0,0,0,0,0,0,0,0,0,0,0,0,0,0,0,0,0,0,0,0,0,0,0,0,0],"sum_hessian":[1.42092E5,4.4168E4,9.7924E4,2.3754E4,2.0414E4,3.221E3,9.4703E4,1.7718E4,6.036E3,5.635E3,1.4779E4,3.99E2,2.822E3,7.1061E4,2.3642E4,5.653E3,1.2065E4,4.058E3,1.978E3,1.984E3,3.651E3,1E4,4.779E3,1.14E2,2.85E2,1.632E3,1.19E3,1.8956E4,5.2105E4,4.009E3,1.9633E4,4.037E3,1.616E3,6.081E3,5.984E3,8.01E2,3.257E3,1.581E3,3.97E2,1.2E3,7.84E2,2.032E3,1.619E3,8.404E3,1.596E3,2E3,2.779E3,5E1,6.4E1,2.49E2,3.6E1,1.232E3,4E2,7.87E2,4.03E2,1.0909E4,8.047E3,1.7427E4,3.4678E4,2.415E3,1.594E3,8.033E3,1.16E4,7.84E2,3.253E3,1.221E3,3.95E2,5.275E3,8.06E2,2.408E3,3.576E3,2.65E2,5.36E2,1.631E3,1.626E3,4.07E2,1.174E3,3.27E2,7E1,6.53E2,5.47E2,3.19E2,4.65E2,1.234E3,7.98E2,1.232E3,3.87E2,6.401E3,2.003E3,1.198E3,3.98E2,1.42E3,5.8E2,2.372E3,4.07E2,2.9E1,2.1E1,3.3E1,2.16E2,8.24E2,4.08E2,2.08E2,1.92E2,3.88E2,3.99E2,2.74E2,1.29E2,3.26E3,7.649E3,5.637E3,2.41E3,1.0572E4,6.855E3,2.8639E4,6.039E3,1.612E3,8.03E2,8.02E2,7.92E2,6.396E3,1.637E3,5.574E3,6.026E3],"tree_param":{"num_deleted":"0","num_feature":"9","num_nodes":"123","size_leaf_vector":"1"}},{"base_weights":[1.4547289E-3,3.2463975E0,-1.4621743E0,1.4650663E0,5.3190045E0,2.5131614E0,-1.597407E0,2.9877503E0,-3.004356E0,1.0869385E1,3.2021396E0,2.1958391E1,-2.4298632E-1,-3.0811696E0,-1.3450737E0,-8.520086E-1,4.786773E0,-4.3619404E0,-2.5100658E0,2.2327078E1,4.63872E0,6.268041E-1,8.58974E0,3.4582623E1,1.7802835E1,1.0945286E0,-2.0766714E0,-2.6543794E0,-5.5597153E0,-1.7993501E0,3.9862927E-2,-2.9806771E0,1.2656976E0,6.7562375E0,2.7845895E0,-3.8794785E0,-4.8467937E-1,-3.4716554E0,-1.3096107E0,1.7515162E1,4.1173077E1,9.602605E0,-1.5935131E0,1.2610209E0,-2.711467E0,1.6305277E1,3.0331278E0,2.926124E0,3.8376691E0,2.2941374E1,1.7046156E1,1.8692955E-1,3.8824964E0,-1.1873046E0,-3.8062365E0,1.8074527E0,-3.1803224E0,-9.237773E-1,-4.62078E0,-2.0118086E0,-2.2691971E-1,2.6608014E0,-1.0758703E0,-4.43501E-1,6.906503E-2,6.0643023E-1,-2.2650178E-1,3.930187E-1,1.1022266E0,4.1751632E-1,-2.8993985E-1,-3.5102805E-1,-4.2491293E-1,-1.627669E-1,-3.957176E-1,7.698919E-2,-2.7190185E-1,2.4002588E0,1.0889724E0,4.654725E0,2.696902E0,4.8547336E-1,1.6929287E0,-2.837398E-1,2.3634551E-1,-2.7491191E-2,6.167099E-1,-5.175835E-1,4.7007847E-1,1.4221162E0,2.5016212E0,-3.43343E-1,7.910711E-1,1.6797316E0,2.5313516E0,1.3559989E0,1.8821318E0,2.1888255E-1,-3.8515815E-1,6.758097E-1,7.4838765E-2,-2.6759326E-1,2.0081906E-1,-3.0749223E-1,-4.4039044E-1,-4.1728362E-1,4.6846914E-1,-2.4080722E-1,-4.4112465E-1,-4.6905556E-1,-4.2381668E-1,-5.9303254E-2,-2.2929673E-1,1.938447E-1,-2.422874E-1,6.813448E-1,-2.0493518E-1,-2.727439E-1,2.4932794E-1],"categories":[],"categories_nodes":[],"categories_segments":[],"categories_sizes":[],"default_left":[0,0,0,0,0,0,0,0,0,0,0,0,0,0,0,0,0,0,0,0,0,0,0,0,0,0,0,0,0,0,0,0,0,0,0,0,0,0,0,0,0,0,0,0,0,0,0,0,0,0,0,0,0,0,0,0,0,0,0,0,0,0,0,0,0,0,0,0,0,0,0,0,0,0,0,0,0,0,0,0,0,0,0,0,0,0,0,0,0,0,0,0,0,0,0,0,0,0,0,0,0,0,0,0,0,0,0,0,0,0,0,0,0,0,0,0,0,0,0],"id":6,"left_children":[1,3,5,7,9,11,13,15,17,19,21,23,25,27,29,31,33,35,37,39,41,43,45,47,49,51,53,55,57,59,61,63,65,67,69,71,-1,73,75,77,79,81,83,85,87,89,91,-1,-1,93,95,97,99,101,103,105,107,-1,109,111,113,115,117,-1,-1,-1,-1,-1,-1,-1,-1,-1,-1,-1,-1,-1,-1,-1,-1,-1,-1,-1,-1,-1,-1,-1,-1,-1,-1,-1,-1,-1,-1,-1,-1,-1,-1,-1,-1,-1,-1,-1,-1,-1,-1,-1,-1,-1,-1,-1,-1,-1,-1,-1,-1,-1,-1,-1,-1],"loss_changes":[6.748601E5,1.6306412E5,5.2648E4,1.6167403E5,2.3982931E5,1.7268494E5,3.545328E4,1.2240364E5,4.040121E3,4.0224506E5,2.0506533E5,2.036861E4,6.9259087E3,1.45450625E4,5.092361E4,2.5491406E4,4.7560188E4,3.5781445E2,5.1068926E3,1.7928931E5,1.1299391E5,2.1177412E4,2.0487988E5,8.556328E2,7.870703E2,4.131347E3,1.827498E3,2.7565031E4,6.936746E3,2.0361172E4,5.8467758E4,1.5059979E4,4.8045746E4,7.328134E4,4.731757E4,9.590137E1,0E0,2.1941895E3,5.7788315E3,6.777916E4,2.9507688E4,7.063803E4,7.9803677E3,6.3336785E4,2.9195951E4,3.5971562E4,8.771163E4,0E0,0E0,9.948242E1,1.4033047E3,9.97684E3,3.6089326E3,3.753814E3,1.6304004E2,2.1338676E4,9.97618E3,0E0,2.3160156E1,2.1417234E4,3.450731E4,1.1678479E5,8.2674016E4,0E0,0E0,0E0,0E0,0E0,0E0,0E0,0E0,0E0,0E0,0E0,0E0,0E0,0E0,0E0,0E0,0E0,0E0,0E0,0E0,0E0,0E0,0E0,0E0,0E0,0E0,0E0,0E0,0E0,0E0,0E0,0E0,0E0,0E0,0E0,0E0,0E0,0E0,0E0,0E0,0E0,0E0,0E0,0E0,0E0,0E0,0E0,0E0,0E0,0E0,0E0,0E0,0E0,0E0,0E0,0E0],"parents":[2147483647,0,0,1,1,2,2,3,3,4,4,5,5,6,6,7,7,8,8,9,9,10,10,11,11,12,12,13,13,14,14,15,15,16,16,17,17,18,18,19,19,20,20,21,21,22,22,23,23,24,24,25,25,26,26,27,27,28,28,29,29,30,30,31,31,32,32,33,33,34,34,35,35,37,37,38,38,39,39,40,40,41,41,42,42,43,43,44,44,45,45,46,46,49,49,50,50,51,51,52,52,53,53,54,54,55,55,56,56,58,58,59,59,60,60,61,61,62,62],"right_children":[2,4,6,8,10,12,14,16,18,20,22,24,26,28,30,32,34,36,38,40,42,44,46,48,50,52,54,56,58,60,62,64,66,68,70,72,-1,74,76,78,80,82,84,86,88,90,92,-1,-1,94,96,98,100,102,104,106,108,-1,110,112,114,116,118,-1,-1,-1,-1,-1,-1,-1,-1,-1,-1,-1,-1,-1,-1,-1,-1,-1,-1,-1,-1,-1,-1,-1,-1,-1,-1,-1,-1,-1,-1,-1,-1,-1,-1,-1,-1,-1,-1,-1,-1,-1,-1,-1,-1,-1,-1,-1,-1,-1,-1,-1,-1,-1,-1,-1,-1],"split_conditions":[-4.6258968E-1,-1.0404258E0,-1.5844189E0,8.3335793E-1,-5.482288E-1,-1.7367166E-1,-1.0133975E0,-8.936255E-1,-5.136537E-1,-5.136537E-1,9.484902E-1,-7.9043937E-1,9.855777E-1,1.5598364E0,1.2709184E0,-1.3293438E0,-1.3293438E0,1.1787547E0,1.2938869E0,-7.784933E-1,-7.515077E-1,7.182257E-1,-1.3909909E-2,2.2736632E-3,-5.0064856E-1,1.2709184E0,9.820004E-1,-1.2390221E0,-1.4692867E0,1.4090191E0,-5.482288E-1,9.855777E-1,-1.3541545E0,4.8583388E-1,4.8796126E-1,7.8933194E-2,-4.8467937E-1,-9.353348E-1,1.5241513E0,-1.2390221E0,8.0341035E-1,1.4853215E0,1.4853215E0,3.7282905E-1,1.4853215E0,1.6392835E0,-7.515077E-1,2.926124E0,3.8376691E0,2.2736632E-3,3.6872405E-1,6.930824E-1,7.8933194E-2,6.585149E-1,-6.596223E-2,1.1524635E-1,6.930824E-1,-9.237773E-1,1.2380966E0,-1.7367166E-1,4.8583388E-1,1.5598364E0,1.0636225E0,-4.43501E-1,6.906503E-2,6.0643023E-1,-2.2650178E-1,3.930187E-1,1.1022266E0,4.1751632E-1,-2.8993985E-1,-3.5102805E-1,-4.2491293E-1,-1.627669E-1,-3.957176E-1,7.698919E-2,-2.7190185E-1,2.4002588E0,1.0889724E0,4.654725E0,2.696902E0,4.8547336E-1,1.6929287E0,-2.837398E-1,2.3634551E-1,-2.7491191E-2,6.167099E-1,-5.175835E-1,4.7007847E-1,1.4221162E0,2.5016212E0,-3.43343E-1,7.910711E-1,1.6797316E0,2.5313516E0,1.3559989E0,1.8821318E0,2.1888255E-1,-3.8515815E-1,6.758097E-1,7.4838765E-2,-2.6759326E-1,2.0081906E-1,-3.0749223E-1,-4.4039044E-1,-4.1728362E-1,4.6846914E-1,-2.4080722E-1,-4.4112465E-1,-4.6905556E-1,-4.2381668E-1,-5.9303254E-2,-2.2929673E-1,1.938447E-1,-2.422874E-1,6.813448E-1,-2.0493518E-1,-2.727439E-1,2.4932794E-1],"split_indices":[5,5,4,4,4,5,6,4,6,6,4,3,6,5,5,5,5,4,4,4,5,4,6,1,3,5,5,4,4,4,4,6,4,6,4,3,0,3,4,4,3,6,6,4,6,4,5,0,0,1,3,5,3,3,3,5,5,0,3,5,6,5,4,0,0,0,0,0,0,0,0,0,0,0,0,0,0,0,0,0,0,0,0,0,0,0,0,0,0,0,0,0,0,0,0,0,0,0,0,0,0,0,0,0,0,0,0,0,0,0,0,0,0,0,0,0,0,0,0],"split_type":[0,0,0,0,0,0,0,0,0,0,0,0,0,0,0,0,0,0,0,0,0,0,0,0,0,0,0,0,0,0,0,0,0,0,0,0,0,0,0,0,0,0,0,0,0,0,0,0,0,0,0,0,0,0,0,0,0,0,0,0,0,0,0,0,0,0,0,0,0,0,0,0,0,0,0,0,0,0,0,0,0,0,0,0,0,0,0,0,0,0,0,0,0,0,0,0,0,0,0,0,0,0,0,0,0,0,0,0,0,0,0,0,0,0,0,0,0,0,0],"sum_hessian":[1.42092E5,4.4168E4,9.7924E4,2.3754E4,2.0414E4,3.221E3,9.4703E4,1.7718E4,6.036E3,5.635E3,1.4779E4,3.99E2,2.822E3,1.3763E4,8.094E4,5.653E3,1.2065E4,1.609E3,4.427E3,1.984E3,3.651E3,1E4,4.779E3,9.7E1,3.02E2,1.632E3,1.19E3,1.1743E4,2.02E3,6.0948E4,1.9992E4,2.819E3,2.834E3,6.081E3,5.984E3,8.11E2,7.98E2,2.457E3,1.97E3,1.582E3,4.02E2,2.032E3,1.619E3,8.404E3,1.596E3,2E3,2.779E3,4.4E1,5.3E1,3.5E1,2.67E2,1.232E3,4E2,7.87E2,4.03E2,1.238E3,1.0505E4,4.09E2,1.611E3,5.3693E4,7.255E3,5.969E3,1.4023E4,2.019E3,8E2,1.201E3,1.633E3,3.659E3,2.422E3,4.808E3,1.176E3,4.11E2,4E2,5.13E2,1.944E3,7.96E2,1.174E3,7.98E2,7.84E2,2.9E2,1.12E2,1.234E3,7.98E2,1.232E3,3.87E2,6.401E3,2.003E3,1.198E3,3.98E2,1.616E3,3.84E2,1.195E3,1.584E3,1.2E1,2.3E1,9.3E1,1.74E2,8.24E2,4.08E2,2.08E2,1.92E2,5.37E2,2.5E2,1.84E2,2.19E2,4.02E2,8.36E2,6.457E3,4.048E3,1.353E3,2.58E2,8.881E3,4.4812E4,3.653E3,3.602E3,3.172E3,2.797E3,9.587E3,4.436E3],"tree_param":{"num_deleted":"0","num_feature":"9","num_nodes":"119","size_leaf_vector":"1"}},{"base_weights":[1.514408E-3,2.922154E0,-1.315838E0,1.3185433E0,4.7879806E0,2.266185E0,-1.4376909E0,2.689067E0,-2.704254E0,9.784748E0,2.8822582E0,1.9798084E1,-2.1876925E-1,-1.2032183E0,-2.9214177E0,-7.668068E-1,4.30823E0,-3.2420368E0,-1.5998755E0,2.0099833E1,4.1754317E0,5.6417805E-1,7.7316804E0,3.1193378E1,1.6047136E1,9.854335E-1,-1.8696882E0,-2.2475243E0,-6.987967E-1,-2.5417154E0,-5.572834E0,9.152681E-1,-3.036276E0,6.080859E0,2.5061514E0,-2.1428065E0,-3.5116317E0,-2.9003618E0,3.5734138E0,1.576585E1,3.707401E1,-1.4487336E0,8.659977E0,3.893455E0,-6.847146E-2,1.4676711E1,2.7299762E0,2.640014E1,3.4610088E0,2.076421E1,1.5353622E1,1.6810171E-1,3.4961185E0,-1.0686587E0,-3.427464E0,6.314559E-1,-2.7619925E0,-1.2061241E0,9.141235E-1,-3.9473982E0,-2.0756688E0,-6.37998E0,-3.1946845E0,9.38532E-1,-2.2701459E-2,-4.238057E-1,-1.8517926E-1,4.702645E-1,1.5083808E0,5.70409E-1,3.5173737E-2,4.076836E-2,-3.9545783E-1,-3.7449202E-1,-2.5997958E-1,-3.4703192E-1,-1.4131758E-1,-7.939677E-2,4.8157477E-1,2.1605334E0,9.8021406E-1,4.190852E0,2.4295986E0,1.5833505E0,-2.0543969E-1,6.1211723E-1,1.8448279E0,-1.5944809E-1,1.994318E0,-3.0247137E-1,1.7643094E-1,1.7204859E0,8.468151E-1,6.050756E-1,-5.214877E-1,2.8698626E0,2.044047E0,1.5246794E0,2.2887635E0,1.2593085E0,1.7225131E0,1.9702081E-1,-3.4673652E-1,6.0855204E-1,6.739367E-2,-3.224871E-1,1.03092924E-1,-2.99447E-1,-4.3170476E-1,-3.7921354E-1,3.5469517E-1,-1.7366515E-1,-3.7904516E-1,-1.705027E-1,-6.0126822E-2,-1.14236185E-2,5.4910296E-1,-5.012061E-1,-2.5400904E-1,9.188566E-1,-2.621869E-1,-5.947163E-1,-6.59762E-1,-4.996346E-1,-2.4016206E-1],"categories":[],"categories_nodes":[],"categories_segments":[],"categories_sizes":[],"default_left":[0,0,0,0,0,0,0,0,0,0,0,0,0,0,0,0,0,0,0,0,0,0,0,0,0,0,0,0,0,0,0,0,0,0,0,0,0,0,0,0,0,0,0,0,0,0,0,0,0,0,0,0,0,0,0,0,0,0,0,0,0,0,0,0,0,0,0,0,0,0,0,0,0,0,0,0,0,0,0,0,0,0,0,0,0,0,0,0,0,0,0,0,0,0,0,0,0,0,0,0,0,0,0,0,0,0,0,0,0,0,0,0,0,0,0,0,0,0,0,0,0,0,0,0,0],"id":7,"left_children":[1,3,5,7,9,11,13,15,17,19,21,23,25,27,29,31,33,35,37,39,41,43,45,47,49,51,53,55,57,59,61,63,65,67,69,71,73,75,77,79,81,83,85,87,89,91,93,95,-1,97,99,101,103,105,107,109,111,113,115,117,119,121,123,-1,-1,-1,-1,-1,-1,-1,-1,-1,-1,-1,-1,-1,-1,-1,-1,-1,-1,-1,-1,-1,-1,-1,-1,-1,-1,-1,-1,-1,-1,-1,-1,-1,-1,-1,-1,-1,-1,-1,-1,-1,-1,-1,-1,-1,-1,-1,-1,-1,-1,-1,-1,-1,-1,-1,-1,-1,-1,-1,-1,-1,-1],"loss_changes":[5.4670825E5,1.3214994E5,4.274558E4,1.3097664E5,1.9437269E5,1.4037388E5,3.294336E4,9.915216E4,3.5802812E3,3.2601825E5,1.6614278E5,1.6596688E4,5.614082E3,4.3078758E4,1.2996047E4,2.1586457E4,3.852858E4,1.1953477E3,1.3324664E4,1.4544362E5,9.212265E4,2.106503E4,1.6600275E5,6.912422E2,6.7241406E2,3.3504307E3,1.4824961E3,3.94535E4,4.5126703E4,7.3985234E3,3.0853945E3,3.1427162E4,3.4184922E3,7.5394516E4,4.1232746E4,3.7075786E3,6.833086E2,1.3360508E3,2.1632705E3,5.4916188E4,2.387725E4,1.6999889E4,5.038347E4,1.4069534E5,4.5544836E4,3.1262281E4,7.337659E4,2.980664E1,0E0,7.280762E1,1.167668E3,8.0848286E3,2.9263115E3,3.5707246E3,1.4268701E2,5.2104277E4,2.38235E4,1.265859E4,6.2110316E4,4.203508E3,5.227751E4,7.445703E1,5.766797E2,0E0,0E0,0E0,0E0,0E0,0E0,0E0,0E0,0E0,0E0,0E0,0E0,0E0,0E0,0E0,0E0,0E0,0E0,0E0,0E0,0E0,0E0,0E0,0E0,0E0,0E0,0E0,0E0,0E0,0E0,0E0,0E0,0E0,0E0,0E0,0E0,0E0,0E0,0E0,0E0,0E0,0E0,0E0,0E0,0E0,0E0,0E0,0E0,0E0,0E0,0E0,0E0,0E0,0E0,0E0,0E0,0E0,0E0,0E0,0E0,0E0,0E0],"parents":[2147483647,0,0,1,1,2,2,3,3,4,4,5,5,6,6,7,7,8,8,9,9,10,10,11,11,12,12,13,13,14,14,15,15,16,16,17,17,18,18,19,19,20,20,21,21,22,22,23,23,24,24,25,25,26,26,27,27,28,28,29,29,30,30,31,31,32,32,33,33,34,34,35,35,36,36,37,37,38,38,39,39,40,40,41,41,42,42,43,43,44,44,45,45,46,46,47,47,49,49,50,50,51,51,52,52,53,53,54,54,55,55,56,56,57,57,58,58,59,59,60,60,61,61,62,62],"right_children":[2,4,6,8,10,12,14,16,18,20,22,24,26,28,30,32,34,36,38,40,42,44,46,48,50,52,54,56,58,60,62,64,66,68,70,72,74,76,78,80,82,84,86,88,90,92,94,96,-1,98,100,102,104,106,108,110,112,114,116,118,120,122,124,-1,-1,-1,-1,-1,-1,-1,-1,-1,-1,-1,-1,-1,-1,-1,-1,-1,-1,-1,-1,-1,-1,-1,-1,-1,-1,-1,-1,-1,-1,-1,-1,-1,-1,-1,-1,-1,-1,-1,-1,-1,-1,-1,-1,-1,-1,-1,-1,-1,-1,-1,-1,-1,-1,-1,-1,-1,-1,-1,-1,-1,-1],"split_conditions":[-4.6258968E-1,-1.0404258E0,-1.5844189E0,8.3335793E-1,-5.482288E-1,-1.7367166E-1,1.4853215E0,-8.936255E-1,1.4090191E0,-5.136537E-1,9.484902E-1,-7.9043937E-1,9.855777E-1,-5.136537E-1,1.5598364E0,-1.2390221E0,-1.3293438E0,9.484902E-1,-1.3293438E0,-7.784933E-1,9.855777E-1,-3.1796435E-1,-1.3909909E-2,2.2736632E-3,-5.0064856E-1,1.2709184E0,9.820004E-1,-1.1238899E0,1.2709184E0,-7.784933E-1,8.3335793E-1,-1.0133975E0,-1.3293438E0,6.030935E-1,-1.3909909E-2,-2.1085766E-1,1.0932012E0,8.0341035E-1,-9.353348E-1,-1.2390221E0,8.0341035E-1,-1.5149165E0,-7.784933E-1,9.855777E-1,1.4256458E-1,8.0341035E-1,1.4090191E0,-1.0802302E0,3.4610088E0,2.2736632E-3,5.136195E-1,6.930824E-1,7.8933194E-2,1.1524635E-1,6.585149E-1,6.930824E-1,6.930824E-1,2.576968E-1,1.2938869E0,6.930824E-1,-5.482288E-1,-7.784933E-1,-6.4554393E-1,9.38532E-1,-2.2701459E-2,-4.238057E-1,-1.8517926E-1,4.702645E-1,1.5083808E0,5.70409E-1,3.5173737E-2,4.076836E-2,-3.9545783E-1,-3.7449202E-1,-2.5997958E-1,-3.4703192E-1,-1.4131758E-1,-7.939677E-2,4.8157477E-1,2.1605334E0,9.8021406E-1,4.190852E0,2.4295986E0,1.5833505E0,-2.0543969E-1,6.1211723E-1,1.8448279E0,-1.5944809E-1,1.994318E0,-3.0247137E-1,1.7643094E-1,1.7204859E0,8.468151E-1,6.050756E-1,-5.214877E-1,2.8698626E0,2.044047E0,1.5246794E0,2.2887635E0,1.2593085E0,1.7225131E0,1.9702081E-1,-3.4673652E-1,6.0855204E-1,6.739367E-2,-3.224871E-1,1.03092924E-1,-2.99447E-1,-4.3170476E-1,-3.7921354E-1,3.5469517E-1,-1.7366515E-1,-3.7904516E-1,-1.705027E-1,-6.0126822E-2,-1.14236185E-2,5.4910296E-1,-5.012061E-1,-2.5400904E-1,9.188566E-1,-2.621869E-1,-5.947163E-1,-6.59762E-1,-4.996346E-1,-2.4016206E-1],"split_indices":[5,5,4,4,4,5,6,4,4,6,4,3,6,6,5,4,5,4,5,4,6,4,6,1,3,5,5,4,5,4,4,6,5,4,6,3,3,3,3,4,3,3,4,6,4,3,4,3,0,1,3,5,3,5,3,5,5,4,4,5,4,4,3,0,0,0,0,0,0,0,0,0,0,0,0,0,0,0,0,0,0,0,0,0,0,0,0,0,0,0,0,0,0,0,0,0,0,0,0,0,0,0,0,0,0,0,0,0,0,0,0,0,0,0,0,0,0,0,0,0,0,0,0,0,0],"split_type":[0,0,0,0,0,0,0,0,0,0,0,0,0,0,0,0,0,0,0,0,0,0,0,0,0,0,0,0,0,0,0,0,0,0,0,0,0,0,0,0,0,0,0,0,0,0,0,0,0,0,0,0,0,0,0,0,0,0,0,0,0,0,0,0,0,0,0,0,0,0,0,0,0,0,0,0,0,0,0,0,0,0,0,0,0,0,0,0,0,0,0,0,0,0,0,0,0,0,0,0,0,0,0,0,0,0,0,0,0,0,0,0,0,0,0,0,0,0,0,0,0,0,0,0,0],"sum_hessian":[1.42092E5,4.4168E4,9.7924E4,2.3754E4,2.0414E4,3.221E3,9.4703E4,1.7718E4,6.036E3,5.635E3,1.4779E4,3.99E2,2.822E3,8.1781E4,1.2922E4,5.653E3,1.2065E4,4.058E3,1.978E3,1.984E3,3.651E3,1E4,4.779E3,9.7E1,3.02E2,1.632E3,1.19E3,2.6635E4,5.5146E4,1.1305E4,1.617E3,3.247E3,2.406E3,6.081E3,5.984E3,8.01E2,3.257E3,1.581E3,3.97E2,1.582E3,4.02E2,1.62E3,2.031E3,1.596E3,8.404E3,2E3,2.779E3,4.4E1,5.3E1,3.5E1,2.67E2,1.232E3,4E2,7.87E2,4.03E2,4.038E3,2.2597E4,4.1951E4,1.3195E4,2.813E3,8.492E3,1.206E3,4.11E2,3.85E2,2.862E3,1.193E3,1.213E3,5.275E3,8.06E2,2.408E3,3.576E3,3.33E2,4.68E2,2.591E3,6.66E2,1.142E3,4.39E2,8.8E1,3.09E2,7.98E2,7.84E2,2.9E2,1.12E2,5.4E1,1.566E3,1.614E3,4.17E2,1.19E3,4.06E2,3.216E3,5.188E3,1.42E3,5.8E2,1.96E3,8.19E2,2.9E1,1.5E1,1.2E1,2.3E1,1.11E2,1.56E2,8.24E2,4.08E2,2.08E2,1.92E2,3.88E2,3.99E2,2.74E2,1.29E2,1.604E3,2.434E3,1.1317E4,1.128E4,2.2988E4,1.8963E4,1.0775E4,2.42E3,1.6E3,1.213E3,3.92E2,8.1E3,4.13E2,7.93E2,1.24E2,2.87E2],"tree_param":{"num_deleted":"0","num_feature":"9","num_nodes":"125","size_leaf_vector":"1"}},{"base_weights":[1.589262E-3,2.630386E0,-1.1841277E0,1.1867654E0,4.310062E0,2.0441432E0,-1.2939467E0,2.4203234E0,-2.4340065E0,8.808686E0,2.5943274E0,1.7856201E1,-1.970426E-1,-1.0828998E0,-2.6294377E0,-6.900719E-1,3.8776212E0,-3.5910616E0,-2.012757E0,1.8094767E1,3.7589386E0,5.079311E-1,6.959067E0,2.7108385E1,1.40734825E1,8.872126E-1,-1.6835176E0,-2.544904E0,-7.8703964E-1,-2.2875526E0,-5.016783E0,-1.8655231E0,2.2457118E0,5.4730988E0,2.2556376E0,-3.1420064E0,-4.0429288E-1,-2.818809E0,-1.0065224E0,1.4191249E1,3.3383038E1,7.924902E0,-1.4714092E0,1.1015636E0,-2.6166701E0,1.3210322E1,2.4570084E0,2.9310022E1,2.1238646E1,1.331002E1,1.8851645E0,1.5117027E-1,3.1481926E0,-2.3014715E0,3.0730832E-1,-2.1610394E0,-4.774276E0,-1.2553089E0,6.41913E-1,-3.5529268E0,-1.8680246E0,-5.743021E0,-2.8770118E0,-3.8105828E-1,8.142382E-3,4.074261E-1,-3.4026036E-1,-2.9319128E-1,6.770538E-1,3.4545597E-1,-2.644849E-1,-2.7569386E-1,-3.4726846E-1,-9.638055E-2,-3.1810406E-1,-1.7096092E-1,1.7765558E-1,1.9447502E0,8.8231754E-1,3.7351532E0,2.0650969E0,3.9986178E-1,1.3983772E0,-4.723928E-1,-3.8334824E-2,-2.3610828E-2,5.374355E-1,-4.8349664E-1,4.0558958E-1,1.0099726E0,1.8087136E0,3.9088923E-2,1.4467901E0,2.506824E0,3.2146378E0,1.6478872E0,2.362712E0,1.1678294E0,1.4234767E0,1.7734264E-1,-3.1214765E-1,5.47988E-1,6.068926E-2,-3.3957607E-1,-1.9958946E-1,-4.8520985E-1,2.7383897E-1,1.5104602E-1,-2.5938234E-1,-8.670079E-1,-3.780446E-1,-1.7271738E-1,-6.574464E-2,3.5535714E-1,-3.7881162E-2,-4.5111677E-1,-2.2862904E-1,3.833342E-1,-2.8057504E-1,-5.3538835E-1,-5.938689E-1,-4.5007083E-1,-2.1622927E-1],"categories":[],"categories_nodes":[],"categories_segments":[],"categories_sizes":[],"default_left":[0,0,0,0,0,0,0,0,0,0,0,0,0,0,0,0,0,0,0,0,0,0,0,0,0,0,0,0,0,0,0,0,0,0,0,0,0,0,0,0,0,0,0,0,0,0,0,0,0,0,0,0,0,0,0,0,0,0,0,0,0,0,0,0,0,0,0,0,0,0,0,0,0,0,0,0,0,0,0,0,0,0,0,0,0,0,0,0,0,0,0,0,0,0,0,0,0,0,0,0,0,0,0,0,0,0,0,0,0,0,0,0,0,0,0,0,0,0,0,0,0,0,0],"id":8,"left_children":[1,3,5,7,9,11,13,15,17,19,21,23,25,27,29,31,33,35,37,39,41,43,45,47,49,51,53,55,57,59,61,63,65,67,69,71,-1,73,75,77,79,81,83,85,87,89,91,93,95,97,-1,99,101,103,105,107,109,111,113,115,117,119,121,-1,-1,-1,-1,-1,-1,-1,-1,-1,-1,-1,-1,-1,-1,-1,-1,-1,-1,-1,-1,-1,-1,-1,-1,-1,-1,-1,-1,-1,-1,-1,-1,-1,-1,-1,-1,-1,-1,-1,-1,-1,-1,-1,-1,-1,-1,-1,-1,-1,-1,-1,-1,-1,-1,-1,-1,-1,-1,-1,-1],"loss_changes":[4.4290828E5,1.0709653E5,3.4719562E4,1.0610599E5,1.5754922E5,1.1418397E5,2.668961E4,8.0318875E4,2.9352617E3,2.642173E5,1.3459166E5,1.3617859E4,4.5513745E3,3.5372703E4,1.0536258E4,1.9515412E4,3.1212531E4,3.1398633E2,3.5886133E3,1.17987125E5,7.9586695E4,1.855338E4,1.344936E5,8.636406E2,7.9239844E2,2.7171248E3,1.4659216E3,1.1768594E4,4.5514668E4,5.9952695E3,2.4978203E3,1.5291922E4,1.6714598E4,6.6343984E4,3.517283E4,9.38208E1,0E0,1.6485664E3,3.8597825E3,4.449425E4,1.9591094E4,4.8306812E4,5.7312705E3,4.8040824E4,2.3657969E4,3.0172094E4,6.898264E4,1.6867188E2,8.551758E0,2.1099219E2,0E0,6.5516206E3,2.3728071E3,2.9718213E2,3.562938E3,1.8664727E4,7.7920625E3,1.4451656E4,4.9898273E4,3.4051562E3,4.5417035E4,6.0109375E1,4.6838843E2,0E0,0E0,0E0,0E0,0E0,0E0,0E0,0E0,0E0,0E0,0E0,0E0,0E0,0E0,0E0,0E0,0E0,0E0,0E0,0E0,0E0,0E0,0E0,0E0,0E0,0E0,0E0,0E0,0E0,0E0,0E0,0E0,0E0,0E0,0E0,0E0,0E0,0E0,0E0,0E0,0E0,0E0,0E0,0E0,0E0,0E0,0E0,0E0,0E0,0E0,0E0,0E0,0E0,0E0,0E0,0E0,0E0,0E0,0E0,0E0],"parents":[2147483647,0,0,1,1,2,2,3,3,4,4,5,5,6,6,7,7,8,8,9,9,10,10,11,11,12,12,13,13,14,14,15,15,16,16,17,17,18,18,19,19,20,20,21,21,22,22,23,23,24,24,25,25,26,26,27,27,28,28,29,29,30,30,31,31,32,32,33,33,34,34,35,35,37,37,38,38,39,39,40,40,41,41,42,42,43,43,44,44,45,45,46,46,47,47,48,48,49,49,51,51,52,52,53,53,54,54,55,55,56,56,57,57,58,58,59,59,60,60,61,61,62,62],"right_children":[2,4,6,8,10,12,14,16,18,20,22,24,26,28,30,32,34,36,38,40,42,44,46,48,50,52,54,56,58,60,62,64,66,68,70,72,-1,74,76,78,80,82,84,86,88,90,92,94,96,98,-1,100,102,104,106,108,110,112,114,116,118,120,122,-1,-1,-1,-1,-1,-1,-1,-1,-1,-1,-1,-1,-1,-1,-1,-1,-1,-1,-1,-1,-1,-1,-1,-1,-1,-1,-1,-1,-1,-1,-1,-1,-1,-1,-1,-1,-1,-1,-1,-1,-1,-1,-1,-1,-1,-1,-1,-1,-1,-1,-1,-1,-1,-1,-1,-1,-1,-1,-1,-1],"split_conditions":[-4.6258968E-1,-1.0404258E0,-1.5844189E0,8.3335793E-1,-5.482288E-1,-1.7367166E-1,1.4853215E0,-8.936255E-1,-5.136537E-1,-5.136537E-1,9.484902E-1,-6.4554393E-1,9.855777E-1,-1.0133975E0,1.5598364E0,9.855777E-1,-1.3293438E0,1.1787547E0,1.2938869E0,-7.784933E-1,-7.515077E-1,7.182257E-1,-1.3909909E-2,-9.353348E-1,1.5278875E0,1.2709184E0,9.483058E-1,1.5598364E0,1.2709184E0,-7.784933E-1,8.3335793E-1,-1.3293438E0,-1.2390221E0,-6.63361E-1,4.8796126E-1,-6.596223E-2,-4.0429288E-1,-1.0802302E0,1.0932012E0,-1.2390221E0,9.483058E-1,1.4853215E0,-1.1238899E0,3.7282905E-1,1.4853215E0,1.5241513E0,1.4853215E0,2.2736632E-3,2.2736632E-3,2.2736632E-3,1.8851645E0,6.930824E-1,7.8933194E-2,-1.0802302E0,1.1524635E-1,-1.2390221E0,-1.4692867E0,2.576968E-1,-6.63361E-1,6.930824E-1,-4.330966E-1,-7.784933E-1,-6.4554393E-1,-3.8105828E-1,8.142382E-3,4.074261E-1,-3.4026036E-1,-2.9319128E-1,6.770538E-1,3.4545597E-1,-2.644849E-1,-2.7569386E-1,-3.4726846E-1,-9.638055E-2,-3.1810406E-1,-1.7096092E-1,1.7765558E-1,1.9447502E0,8.8231754E-1,3.7351532E0,2.0650969E0,3.9986178E-1,1.3983772E0,-4.723928E-1,-3.8334824E-2,-2.3610828E-2,5.374355E-1,-4.8349664E-1,4.0558958E-1,1.0099726E0,1.8087136E0,3.9088923E-2,1.4467901E0,2.506824E0,3.2146378E0,1.6478872E0,2.362712E0,1.1678294E0,1.4234767E0,1.7734264E-1,-3.1214765E-1,5.47988E-1,6.068926E-2,-3.3957607E-1,-1.9958946E-1,-4.8520985E-1,2.7383897E-1,1.5104602E-1,-2.5938234E-1,-8.670079E-1,-3.780446E-1,-1.7271738E-1,-6.574464E-2,3.5535714E-1,-3.7881162E-2,-4.5111677E-1,-2.2862904E-1,3.833342E-1,-2.8057504E-1,-5.3538835E-1,-5.938689E-1,-4.5007083E-1,-2.1622927E-1],"split_indices":[5,5,4,4,4,5,6,4,6,6,4,3,6,6,5,6,5,4,4,4,5,4,6,3,3,5,3,5,5,4,4,5,4,4,4,3,0,3,3,4,3,6,4,4,6,4,6,1,1,1,0,5,3,3,5,4,4,4,4,5,4,4,3,0,0,0,0,0,0,0,0,0,0,0,0,0,0,0,0,0,0,0,0,0,0,0,0,0,0,0,0,0,0,0,0,0,0,0,0,0,0,0,0,0,0,0,0,0,0,0,0,0,0,0,0,0,0,0,0,0,0,0,0],"split_type":[0,0,0,0,0,0,0,0,0,0,0,0,0,0,0,0,0,0,0,0,0,0,0,0,0,0,0,0,0,0,0,0,0,0,0,0,0,0,0,0,0,0,0,0,0,0,0,0,0,0,0,0,0,0,0,0,0,0,0,0,0,0,0,0,0,0,0,0,0,0,0,0,0,0,0,0,0,0,0,0,0,0,0,0,0,0,0,0,0,0,0,0,0,0,0,0,0,0,0,0,0,0,0,0,0,0,0,0,0,0,0,0,0,0,0,0,0,0,0,0,0,0,0],"sum_hessian":[1.42092E5,4.4168E4,9.7924E4,2.3754E4,2.0414E4,3.221E3,9.4703E4,1.7718E4,6.036E3,5.635E3,1.4779E4,3.99E2,2.822E3,8.1781E4,1.2922E4,5.653E3,1.2065E4,1.609E3,4.427E3,1.984E3,3.651E3,1E4,4.779E3,1.14E2,2.85E2,1.632E3,1.19E3,1.3763E4,6.8018E4,1.1305E4,1.617E3,4.037E3,1.616E3,6.081E3,5.984E3,8.11E2,7.98E2,2.457E3,1.97E3,1.582E3,4.02E2,2.032E3,1.619E3,8.404E3,1.596E3,2E3,2.779E3,8E1,3.4E1,2.49E2,3.6E1,1.232E3,4E2,9.08E2,2.82E2,1.1743E4,2.02E3,5.123E4,1.6788E4,2.813E3,8.492E3,1.206E3,4.11E2,2.019E3,2.018E3,1.221E3,3.95E2,8.13E2,5.268E3,4.808E3,1.176E3,3.79E2,4.32E2,4.02E2,2.055E3,1.573E3,3.97E2,7.98E2,7.84E2,3.05E2,9.7E1,1.234E3,7.98E2,4.05E2,1.214E3,6.401E3,2.003E3,1.198E3,3.98E2,1.223E3,7.77E2,2.372E3,4.07E2,3.6E1,4.4E1,1.4E1,2E1,9.5E1,1.54E2,8.24E2,4.08E2,2.08E2,1.92E2,1.96E2,7.12E2,9E1,1.92E2,1.238E3,1.0505E4,4.09E2,1.611E3,2.8631E4,2.2599E4,4.357E3,1.2431E4,1.6E3,1.213E3,1.199E3,7.293E3,4.13E2,7.93E2,1.24E2,2.87E2],"tree_param":{"num_deleted":"0","num_feature":"9","num_nodes":"123","size_leaf_vector":"1"}},{"base_weights":[1.5969118E-3,2.3676505E0,-1.0656098E0,1.0680352E0,3.8797736E0,-7.129256E-1,-1.9187034E0,2.1783E0,-2.1908436E0,7.9295764E0,2.3352153E0,-1.5654455E0,5.087743E-1,-1.1742287E0,-2.4591553E0,-6.2111884E-1,3.4898975E0,-2.6355553E0,-1.2776166E0,1.6289635E1,3.3833976E0,4.5718166E-1,6.2640605E0,1.6787643E-2,-1.9570985E0,5.850636E0,1.0309E-1,-9.357139E-3,-2.351344E0,-1.1730163E0,-2.9011738E0,-1.6790633E0,2.0211823E0,5.76605E0,2.3489807E0,-1.646648E0,-2.878179E0,-2.4308767E0,3.3096576E0,1.277391E1,3.0059124E1,7.133297E0,-1.3245834E0,3.5288544E0,-1.265088E-1,1.1890699E1,2.2118418E0,-2.3835576E0,5.662957E0,-7.6173604E-1,-3.1309035E0,1.2187434E1,2.5508873E0,-1.1240709E0,2.125716E0,-2.007993E0,2.22993E0,-2.0352259E0,-4.264274E0,-3.7555578E0,-1.9989274E-1,-1.7243959E0,-3.5105429E0,2.0107467E-1,-2.5686827E-1,3.6671683E-1,-3.0632022E-1,-1.6802236E-1,1.3191006E0,-5.761421E-1,4.3920016E-1,1.397479E-1,-2.8656754E-1,-3.0603775E-1,-1.9217087E-1,-2.8929666E-1,-1.22496895E-1,5.481891E-1,8.293197E-2,1.7505184E0,7.941982E-1,3.400975E0,1.9619375E0,3.59908E-1,1.2587146E0,-4.2526984E-1,-3.4504488E-2,-1.411576E-1,1.7977316E0,-2.6987332E-1,1.4682053E-1,1.0130429E0,1.9252945E0,-2.9825586E-1,6.1300063E-1,-4.742013E-1,-1.0736562E-1,-7.8051853E-1,8.4114754E-1,-1.4242403E-1,3.0226725E-1,-4.412279E-1,-2.720236E-1,2.2794333E0,5.323353E-1,6.8962055E-1,-5.3057134E-2,-1.8166794E-2,-3.4052905E-1,5.3144615E-2,1.0391716E0,1.0303406E-1,-3.1122217E-1,2.6786634E-1,-5.3009015E-1,-2.4192372E-1,5.2444983E-2,-2.1649697E-1,-4.7828293E-1,-1.8755858E-1,-4.998121E-1,4.8712417E-1,-1.1338699E-1,-2.5865847E-1,1.34075E-1,-4.0273046E-1,-2.2135618E-1],"categories":[],"categories_nodes":[],"categories_segments":[],"categories_sizes":[],"default_left":[0,0,0,0,0,0,0,0,0,0,0,0,0,0,0,0,0,0,0,0,0,0,0,0,0,0,0,0,0,0,0,0,0,0,0,0,0,0,0,0,0,0,0,0,0,0,0,0,0,0,0,0,0,0,0,0,0,0,0,0,0,0,0,0,0,0,0,0,0,0,0,0,0,0,0,0,0,0,0,0,0,0,0,0,0,0,0,0,0,0,0,0,0,0,0,0,0,0,0,0,0,0,0,0,0,0,0,0,0,0,0,0,0,0,0,0,0,0,0,0,0,0,0,0,0,0,0],"id":9,"left_children":[1,3,5,7,9,11,13,15,17,19,21,23,25,27,29,31,33,35,37,39,41,43,45,47,49,51,53,55,57,59,61,63,65,67,69,71,73,75,77,79,81,83,85,87,89,91,93,95,97,99,101,103,105,107,109,111,113,115,117,119,121,123,125,-1,-1,-1,-1,-1,-1,-1,-1,-1,-1,-1,-1,-1,-1,-1,-1,-1,-1,-1,-1,-1,-1,-1,-1,-1,-1,-1,-1,-1,-1,-1,-1,-1,-1,-1,-1,-1,-1,-1,-1,-1,-1,-1,-1,-1,-1,-1,-1,-1,-1,-1,-1,-1,-1,-1,-1,-1,-1,-1,-1,-1,-1,-1,-1],"loss_changes":[3.5879706E5,8.67958E4,2.9461594E4,8.595555E4,1.276805E5,7.21617E4,1.1521297E4,6.506121E4,2.4483965E3,2.1414856E5,1.0905142E5,2.5288195E4,6.1712168E4,1.6521428E4,9.430242E3,1.580863E4,3.1320656E4,9.6914453E2,1.0477589E4,9.5709375E4,6.4483523E4,1.79313E4,1.0895947E5,1.0976371E5,4.5895164E4,4.1997688E4,6.569828E4,2.7112697E4,3.6153633E3,1.0670008E4,8.84932E3,1.3260009E4,1.3543627E4,2.2272323E5,1.3322928E5,2.9801255E3,5.6188086E2,8.7800684E2,2.1398276E3,3.6050234E4,1.5953875E4,3.9140945E4,4.645019E3,1.1402181E5,3.4480957E4,2.5736969E4,5.6598277E4,1.7551652E4,8.949977E4,4.0640793E4,8.672719E3,4.996961E4,1.771852E4,3.541565E4,1.3171092E5,1.074261E4,9.668964E3,5.0585176E3,9.138711E2,2.705039E3,1.4617082E4,1.1142592E4,5.4434062E3,0E0,0E0,0E0,0E0,0E0,0E0,0E0,0E0,0E0,0E0,0E0,0E0,0E0,0E0,0E0,0E0,0E0,0E0,0E0,0E0,0E0,0E0,0E0,0E0,0E0,0E0,0E0,0E0,0E0,0E0,0E0,0E0,0E0,0E0,0E0,0E0,0E0,0E0,0E0,0E0,0E0,0E0,0E0,0E0,0E0,0E0,0E0,0E0,0E0,0E0,0E0,0E0,0E0,0E0,0E0,0E0,0E0,0E0,0E0,0E0,0E0,0E0,0E0,0E0],"parents":[2147483647,0,0,1,1,2,2,3,3,4,4,5,5,6,6,7,7,8,8,9,9,10,10,11,11,12,12,13,13,14,14,15,15,16,16,17,17,18,18,19,19,20,20,21,21,22,22,23,23,24,24,25,25,26,26,27,27,28,28,29,29,30,30,31,31,32,32,33,33,34,34,35,35,36,36,37,37,38,38,39,39,40,40,41,41,42,42,43,43,44,44,45,45,46,46,47,47,48,48,49,49,50,50,51,51,52,52,53,53,54,54,55,55,56,56,57,57,58,58,59,59,60,60,61,61,62,62],"right_children":[2,4,6,8,10,12,14,16,18,20,22,24,26,28,30,32,34,36,38,40,42,44,46,48,50,52,54,56,58,60,62,64,66,68,70,72,74,76,78,80,82,84,86,88,90,92,94,96,98,100,102,104,106,108,110,112,114,116,118,120,122,124,126,-1,-1,-1,-1,-1,-1,-1,-1,-1,-1,-1,-1,-1,-1,-1,-1,-1,-1,-1,-1,-1,-1,-1,-1,-1,-1,-1,-1,-1,-1,-1,-1,-1,-1,-1,-1,-1,-1,-1,-1,-1,-1,-1,-1,-1,-1,-1,-1,-1,-1,-1,-1,-1,-1,-1,-1,-1,-1,-1,-1,-1,-1,-1,-1],"split_conditions":[-4.6258968E-1,-1.0404258E0,9.855777E-1,8.3335793E-1,-5.482288E-1,-1.3909909E-2,-2.1085766E-1,-8.936255E-1,1.4090191E0,-5.136537E-1,9.484902E-1,-1.0087577E0,-1.4692867E0,1.4853215E0,1.1524635E-1,9.855777E-1,-3.1796435E-1,9.484902E-1,-1.3293438E0,-7.784933E-1,-7.515077E-1,-3.1796435E-1,-1.3909909E-2,1.2709184E0,6.930824E-1,-5.0064856E-1,9.820004E-1,6.930824E-1,1.5598364E0,-7.784933E-1,-4.330966E-1,-1.0133975E0,-1.2390221E0,4.8583388E-1,-8.769988E-2,-6.4554393E-1,1.2380966E0,8.0341035E-1,2.2382863E-1,-1.2390221E0,8.0341035E-1,1.4853215E0,-1.1238899E0,9.855777E-1,1.4256458E-1,1.6392835E0,-7.515077E-1,1.1524635E-1,-1.4692867E0,1.4090191E0,-3.1796435E-1,-1.7367166E-1,4.8583388E-1,8.3335793E-1,1.2938869E0,-1.7367166E-1,1.5241513E0,1.2709184E0,-1.5844189E0,-1.3541545E0,-4.330966E-1,-7.784933E-1,1.1787547E0,2.0107467E-1,-2.5686827E-1,3.6671683E-1,-3.0632022E-1,-1.6802236E-1,1.3191006E0,-5.761421E-1,4.3920016E-1,1.397479E-1,-2.8656754E-1,-3.0603775E-1,-1.9217087E-1,-2.8929666E-1,-1.22496895E-1,5.481891E-1,8.293197E-2,1.7505184E0,7.941982E-1,3.400975E0,1.9619375E0,3.59908E-1,1.2587146E0,-4.2526984E-1,-3.4504488E-2,-1.411576E-1,1.7977316E0,-2.6987332E-1,1.4682053E-1,1.0130429E0,1.9252945E0,-2.9825586E-1,6.1300063E-1,-4.742013E-1,-1.0736562E-1,-7.8051853E-1,8.4114754E-1,-1.4242403E-1,3.0226725E-1,-4.412279E-1,-2.720236E-1,2.2794333E0,5.323353E-1,6.8962055E-1,-5.3057134E-2,-1.8166794E-2,-3.4052905E-1,5.3144615E-2,1.0391716E0,1.0303406E-1,-3.1122217E-1,2.6786634E-1,-5.3009015E-1,-2.4192372E-1,5.2444983E-2,-2.1649697E-1,-4.7828293E-1,-1.8755858E-1,-4.998121E-1,4.8712417E-1,-1.1338699E-1,-2.5865847E-1,1.34075E-1,-4.0273046E-1,-2.2135618E-1],"split_indices":[5,5,6,4,4,6,3,4,4,6,4,4,4,6,5,6,4,4,5,4,5,4,6,5,5,3,5,5,5,4,4,6,4,6,4,3,3,3,3,4,3,6,4,6,4,4,5,5,4,4,4,5,6,4,4,5,4,5,4,4,4,4,4,0,0,0,0,0,0,0,0,0,0,0,0,0,0,0,0,0,0,0,0,0,0,0,0,0,0,0,0,0,0,0,0,0,0,0,0,0,0,0,0,0,0,0,0,0,0,0,0,0,0,0,0,0,0,0,0,0,0,0,0,0,0,0,0],"split_type":[0,0,0,0,0,0,0,0,0,0,0,0,0,0,0,0,0,0,0,0,0,0,0,0,0,0,0,0,0,0,0,0,0,0,0,0,0,0,0,0,0,0,0,0,0,0,0,0,0,0,0,0,0,0,0,0,0,0,0,0,0,0,0,0,0,0,0,0,0,0,0,0,0,0,0,0,0,0,0,0,0,0,0,0,0,0,0,0,0,0,0,0,0,0,0,0,0,0,0,0,0,0,0,0,0,0,0,0,0,0,0,0,0,0,0,0,0,0,0,0,0,0,0,0,0,0,0],"sum_hessian":[1.42092E5,4.4168E4,9.7924E4,2.3754E4,2.0414E4,6.9283E4,2.8641E4,1.7718E4,6.036E3,5.635E3,1.4779E4,4.0807E4,2.8476E4,1.2048E4,1.6593E4,5.653E3,1.2065E4,4.058E3,1.978E3,1.984E3,3.651E3,1E4,4.779E3,8.097E3,3.271E4,2.009E3,2.6467E4,6.056E3,5.992E3,4.245E3,1.2348E4,4.037E3,1.616E3,4.027E3,8.038E3,8.01E2,3.257E3,1.581E3,3.97E2,1.582E3,4.02E2,2.032E3,1.619E3,1.596E3,8.404E3,2E3,2.779E3,5.682E3,2.415E3,1.6207E4,1.6503E4,6.87E2,1.322E3,1.6473E4,9.994E3,3.2E3,2.856E3,5.144E3,8.48E2,1.161E3,3.084E3,4.214E3,8.134E3,7.84E2,3.253E3,1.221E3,3.95E2,2.011E3,2.016E3,1.617E3,6.421E3,2.29E2,5.72E2,2.734E3,5.23E2,1.142E3,4.39E2,2.11E2,1.86E2,7.98E2,7.84E2,2.9E2,1.12E2,1.234E3,7.98E2,4.05E2,1.214E3,1.19E3,4.06E2,3.216E3,5.188E3,1.616E3,3.84E2,1.195E3,1.584E3,2.028E3,3.654E3,4.09E2,2.006E3,1.3793E4,2.414E3,4.003E3,1.25E4,2.69E2,4.18E2,5.48E2,7.74E2,1.1658E4,4.815E3,8.379E3,1.615E3,8.53E2,2.347E3,2.696E3,1.6E2,4.473E3,6.71E2,1.69E2,6.79E2,4.63E2,6.98E2,4.79E2,2.605E3,3.289E3,9.25E2,5.815E3,2.319E3],"tree_param":{"num_deleted":"0","num_feature":"9","num_nodes":"127","size_leaf_vector":"1"}},{"base_weights":[1.5438156E-3,2.1312125E0,-9.590418E-1,9.6125674E-1,3.4924748E0,-6.4158815E-1,-1.7269175E0,1.9605275E0,-1.9718295E0,7.1382275E0,2.1020179E0,-1.1332172E0,1.2314593E0,-1.0569183E0,-2.2133038E0,-1.250728E-1,3.4116178E0,-2.9560137E0,-1.6135395E0,1.4664655E1,3.0453753E0,8.0960923E-1,6.8294606E0,3.6436076E0,-1.2795984E0,3.21805E-1,8.496008E0,-8.499049E-3,-2.1163573E0,-1.9350458E0,-4.1009192E0,-1.6725867E0,2.9757595E0,7.7366314E0,2.114066E0,-2.5411417E0,-3.3739362E0,-2.2900314E0,-7.6907915E-1,1.1498125E1,2.706652E1,-1.2408112E0,6.463123E0,2.5150983E0,-8.922036E-1,-2.9974933E0,1.2920793E1,1.4893566E1,-8.9692585E-3,-1.5030262E0,3.369022E-1,2.0937397E0,-3.543074E0,5.725256E-2,3.3212322E1,-1.8072588E0,2.0068452E0,-1.83174E0,-3.838665E0,-9.797588E-1,-2.4615576E0,-4.95695E0,-1.0898066E0,-3.0369693E-1,2.4270209E-2,1.9204964E-1,8.551332E-1,1.6227639E0,-8.59972E-2,-5.1856345E-1,3.95287E-1,-2.2006424E-1,-2.8846446E-1,-3.22426E-1,-3.492387E-1,-1.2189596E-1,-2.815729E-1,7.703481E-2,-1.8126148E-1,1.5756857E0,7.148795E-1,3.0309265E0,1.6665026E0,1.406283E0,-1.7771606E-1,2.9222393E-1,1.1597937E0,1.809965E-1,1.2077684E0,-7.8059793E-3,-1.1505383E0,-2.4046877E-2,-5.4416245E-1,6.8738675E-1,1.7341642E0,2.3187637E0,1.2161843E0,2.8493413E-1,-1.4208114E-1,-1.7386895E-1,-5.997951E-2,-1.4379895E-1,2.0942143E-1,6.031732E-2,4.2653844E-1,-2.8636032E-1,-6.228143E-1,3.1491706E-1,-6.1734575E-1,1.0926461E0,4.6263833E0,9.274271E-2,-2.8011322E-1,2.4108963E-1,-4.7741038E-1,-2.1773675E-1,4.720828E-2,-1.9497463E-1,-4.3052498E-1,-2.2101466E-1,2.2935079E-1,-1.0205263E-1,-3.020103E-1,-5.75573E-1,-4.3398458E-1,4.2624035E-1,-4.2187262E-1],"categories":[],"categories_nodes":[],"categories_segments":[],"categories_sizes":[],"default_left":[0,0,0,0,0,0,0,0,0,0,0,0,0,0,0,0,0,0,0,0,0,0,0,0,0,0,0,0,0,0,0,0,0,0,0,0,0,0,0,0,0,0,0,0,0,0,0,0,0,0,0,0,0,0,0,0,0,0,0,0,0,0,0,0,0,0,0,0,0,0,0,0,0,0,0,0,0,0,0,0,0,0,0,0,0,0,0,0,0,0,0,0,0,0,0,0,0,0,0,0,0,0,0,0,0,0,0,0,0,0,0,0,0,0,0,0,0,0,0,0,0,0,0,0,0,0,0],"id":10,"left_children":[1,3,5,7,9,11,13,15,17,19,21,23,25,27,29,31,33,35,37,39,41,43,45,47,49,51,53,55,57,59,61,63,65,67,69,71,73,75,77,79,81,83,85,87,89,91,93,95,97,99,101,103,105,107,109,111,113,115,117,119,121,123,125,-1,-1,-1,-1,-1,-1,-1,-1,-1,-1,-1,-1,-1,-1,-1,-1,-1,-1,-1,-1,-1,-1,-1,-1,-1,-1,-1,-1,-1,-1,-1,-1,-1,-1,-1,-1,-1,-1,-1,-1,-1,-1,-1,-1,-1,-1,-1,-1,-1,-1,-1,-1,-1,-1,-1,-1,-1,-1,-1,-1,-1,-1,-1,-1],"loss_changes":[2.906858E5,7.034094E4,2.386957E4,6.962853E4,1.03474E5,6.3801195E4,9.331469E3,5.36251E4,2.1240176E3,1.7356981E5,9.0297125E4,3.8378766E4,9.51888E4,1.3383242E4,8.707969E3,3.489546E4,5.8622695E4,2.7057617E2,2.5278262E3,7.76415E4,5.3506547E4,3.369357E4,1.8997206E5,6.70612E4,1.9232523E4,8.768637E4,3.3434372E5,2.1960982E4,2.9307285E3,7.272543E3,5.4874805E3,1.2677305E4,1.4228004E4,1.7600202E5,1.07925734E5,8.8625E1,2.9052734E0,1.3805674E3,3.1677036E3,2.9208672E4,1.3087844E4,1.333032E4,3.6911484E4,3.9073457E4,5.020995E4,8.186005E3,5.2249844E4,8.780844E3,4.979799E3,9.957109E3,2.0173832E4,2.8414883E4,7.3254766E3,2.3060193E4,1.18167125E5,8.702694E3,7.8392607E3,4.0978086E3,7.398633E2,2.070987E4,7.501633E3,7.9279297E2,7.93914E3,0E0,0E0,0E0,0E0,0E0,0E0,0E0,0E0,0E0,0E0,0E0,0E0,0E0,0E0,0E0,0E0,0E0,0E0,0E0,0E0,0E0,0E0,0E0,0E0,0E0,0E0,0E0,0E0,0E0,0E0,0E0,0E0,0E0,0E0,0E0,0E0,0E0,0E0,0E0,0E0,0E0,0E0,0E0,0E0,0E0,0E0,0E0,0E0,0E0,0E0,0E0,0E0,0E0,0E0,0E0,0E0,0E0,0E0,0E0,0E0,0E0,0E0,0E0,0E0],"parents":[2147483647,0,0,1,1,2,2,3,3,4,4,5,5,6,6,7,7,8,8,9,9,10,10,11,11,12,12,13,13,14,14,15,15,16,16,17,17,18,18,19,19,20,20,21,21,22,22,23,23,24,24,25,25,26,26,27,27,28,28,29,29,30,30,31,31,32,32,33,33,34,34,35,35,36,36,37,37,38,38,39,39,40,40,41,41,42,42,43,43,44,44,45,45,46,46,47,47,48,48,49,49,50,50,51,51,52,52,53,53,54,54,55,55,56,56,57,57,58,58,59,59,60,60,61,61,62,62],"right_children":[2,4,6,8,10,12,14,16,18,20,22,24,26,28,30,32,34,36,38,40,42,44,46,48,50,52,54,56,58,60,62,64,66,68,70,72,74,76,78,80,82,84,86,88,90,92,94,96,98,100,102,104,106,108,110,112,114,116,118,120,122,124,126,-1,-1,-1,-1,-1,-1,-1,-1,-1,-1,-1,-1,-1,-1,-1,-1,-1,-1,-1,-1,-1,-1,-1,-1,-1,-1,-1,-1,-1,-1,-1,-1,-1,-1,-1,-1,-1,-1,-1,-1,-1,-1,-1,-1,-1,-1,-1,-1,-1,-1,-1,-1,-1,-1,-1,-1,-1,-1,-1,-1,-1,-1,-1,-1],"split_conditions":[-4.6258968E-1,-1.0404258E0,9.855777E-1,8.3335793E-1,-5.482288E-1,4.8583388E-1,-2.1085766E-1,-6.63361E-1,-5.136537E-1,-5.136537E-1,1.1787547E0,-1.5844189E0,1.5598364E0,1.4853215E0,1.5598364E0,9.855777E-1,-3.1796435E-1,1.1787547E0,1.2938869E0,-7.784933E-1,9.855777E-1,7.8933194E-2,-7.515077E-1,-1.7367166E-1,1.4090191E0,6.030935E-1,6.030935E-1,6.930824E-1,1.5598364E0,-4.330966E-1,8.3335793E-1,-1.3293438E0,1.2380966E0,-1.3293438E0,-8.769988E-2,7.8933194E-2,-6.596223E-2,4.8583388E-1,1.5241513E0,-1.2390221E0,9.483058E-1,-1.5149165E0,-1.0087577E0,1.0636225E0,1.0636225E0,-6.596223E-2,-2.1085766E-1,-7.9043937E-1,4.0416437E-1,1.0932012E0,-5.136537E-1,6.930824E-1,1.2709184E0,-2.0283212E-1,-3.557531E-1,-1.7367166E-1,1.5241513E0,1.2709184E0,-1.5844189E0,-7.784933E-1,1.1524635E-1,1.4853215E0,5.136195E-1,-3.0369693E-1,2.4270209E-2,1.9204964E-1,8.551332E-1,1.6227639E0,-8.59972E-2,-5.1856345E-1,3.95287E-1,-2.2006424E-1,-2.8846446E-1,-3.22426E-1,-3.492387E-1,-1.2189596E-1,-2.815729E-1,7.703481E-2,-1.8126148E-1,1.5756857E0,7.148795E-1,3.0309265E0,1.6665026E0,1.406283E0,-1.7771606E-1,2.9222393E-1,1.1597937E0,1.809965E-1,1.2077684E0,-7.8059793E-3,-1.1505383E0,-2.4046877E-2,-5.4416245E-1,6.8738675E-1,1.7341642E0,2.3187637E0,1.2161843E0,2.8493413E-1,-1.4208114E-1,-1.7386895E-1,-5.997951E-2,-1.4379895E-1,2.0942143E-1,6.031732E-2,4.2653844E-1,-2.8636032E-1,-6.228143E-1,3.1491706E-1,-6.1734575E-1,1.0926461E0,4.6263833E0,9.274271E-2,-2.8011322E-1,2.4108963E-1,-4.7741038E-1,-2.1773675E-1,4.720828E-2,-1.9497463E-1,-4.3052498E-1,-2.2101466E-1,2.2935079E-1,-1.0205263E-1,-3.020103E-1,-5.75573E-1,-4.3398458E-1,4.2624035E-1,-4.2187262E-1],"split_indices":[5,5,6,4,4,6,3,4,6,6,4,4,5,6,5,6,4,4,4,4,6,3,5,5,4,4,4,5,5,4,4,5,3,5,4,3,3,6,4,4,3,3,4,4,4,3,3,3,5,3,6,5,5,4,3,5,4,5,4,4,5,6,3,0,0,0,0,0,0,0,0,0,0,0,0,0,0,0,0,0,0,0,0,0,0,0,0,0,0,0,0,0,0,0,0,0,0,0,0,0,0,0,0,0,0,0,0,0,0,0,0,0,0,0,0,0,0,0,0,0,0,0,0,0,0,0,0],"split_type":[0,0,0,0,0,0,0,0,0,0,0,0,0,0,0,0,0,0,0,0,0,0,0,0,0,0,0,0,0,0,0,0,0,0,0,0,0,0,0,0,0,0,0,0,0,0,0,0,0,0,0,0,0,0,0,0,0,0,0,0,0,0,0,0,0,0,0,0,0,0,0,0,0,0,0,0,0,0,0,0,0,0,0,0,0,0,0,0,0,0,0,0,0,0,0,0,0,0,0,0,0,0,0,0,0,0,0,0,0,0,0,0,0,0,0,0,0,0,0,0,0,0,0,0,0,0,0],"sum_hessian":[1.42092E5,4.4168E4,9.7924E4,2.3754E4,2.0414E4,6.9283E4,2.8641E4,1.7718E4,6.036E3,5.635E3,1.4779E4,5.4879E4,1.4404E4,1.2048E4,1.6593E4,7.27E3,1.0448E4,1.609E3,4.427E3,1.984E3,3.651E3,1.1607E4,3.172E3,1.631E3,5.3248E4,1.2802E4,1.602E3,6.056E3,5.992E3,1.4463E4,2.13E3,4.85E3,2.42E3,2.41E3,8.038E3,8.11E2,7.98E2,2.457E3,1.97E3,1.582E3,4.02E2,1.62E3,2.031E3,5.797E3,5.81E3,1.214E3,1.958E3,3.99E2,1.232E3,4.6782E4,6.466E3,8.778E3,4.024E3,1.195E3,4.07E2,3.2E3,2.856E3,5.144E3,8.48E2,5.14E3,9.323E3,1.658E3,4.72E2,2.832E3,2.018E3,2.036E3,3.84E2,1.212E3,1.198E3,1.617E3,6.421E3,4.11E2,4E2,3.65E2,4.33E2,8.1E2,1.647E3,7.96E2,1.174E3,7.98E2,7.84E2,3.05E2,9.7E1,5.4E1,1.566E3,1.203E3,8.28E2,5.4E3,3.97E2,5.397E3,4.13E2,5.71E2,6.43E2,8.28E2,1.13E3,9.7E1,3.02E2,4.07E2,8.25E2,3.7101E4,9.681E3,3.217E3,3.249E3,5.206E3,3.572E3,3.213E3,8.11E2,7.99E2,3.96E2,1.51E2,2.56E2,8.53E2,2.347E3,2.696E3,1.6E2,4.473E3,6.71E2,1.69E2,6.79E2,3.736E3,1.404E3,2.605E3,6.718E3,7.19E2,9.39E2,1.74E2,2.98E2],"tree_param":{"num_deleted":"0","num_feature":"9","num_nodes":"127","size_leaf_vector":"1"}},{"base_weights":[1.5170345E-3,1.9183685E0,-8.6307746E-1,3.3777132E0,1.0128598E0,1.564678E0,-9.4566494E-1,1.6547496E0,6.7962894E0,-1.798001E0,1.8826563E0,1.3413047E1,-1.1471012E-1,-1.9492426E0,-7.749951E-1,5.6329017E0,-1.2730917E0,4.1118913E0,1.6618776E1,-5.2001166E0,-6.885651E-1,4.4138565E0,-1.3521184E-1,2.1908224E1,1.122079E1,2.6792377E-1,-2.4064412E0,-1.6407447E0,-3.7409546E0,-3.632267E-1,-1.5772941E0,3.045535E-1,1.1001505E1,-7.2296214E-1,-5.1387815E0,2.5975268E0,1.0036107E1,2.1866177E1,1.326039E1,-8.457742E0,-4.1107817E0,1.7521678E0,-3.0990686E0,7.6224957E0,2.3500893E0,-1.104074E0,2.9060736E0,1.8155245E0,2.4507158E0,1.4050257E1,1.041595E1,-2.1857343E0,7.375129E-1,-1.9468287E0,-3.360187E0,1.4166787E0,-2.0011585E0,-6.877014E-1,-2.9410007E0,-8.735852E-1,1.075715E0,-9.5904773E-1,-2.1094775E0,3.9352292E-1,-3.4340698E-1,1.3201709E0,-1.9646809E-2,-1.6355516E-1,2.623293E-1,-3.0274597E-1,-6.66945E-1,-2.2822697E-1,3.7055963E-1,7.0022005E-1,2.4245706E0,3.2661228E0,1.6450752E0,7.463078E-1,1.628631E0,-3.2467774E-1,-8.938201E-1,-6.3513243E-1,-3.354291E-1,9.041409E-1,2.7894203E-2,-1.21823326E-1,-4.9590182E-1,1.1912433E-1,1.2794516E0,1.3433674E-1,1.6038017E0,9.585472E-2,-1.8525507E-1,-2.7978992E-2,1.1152917E0,9.783333E-1,1.6303507E0,6.228346E-1,1.1742667E0,-1.13967575E-1,-3.7242433E-1,1.0600327E-2,3.2899278E-1,-3.0388907E-1,-1.702521E-1,-2.9816395E-1,-3.7039763E-1,-2.9056984E-1,3.4961304E-1,-1.3544203E-1,-2.8837487E-1,-3.0177093E-1,-2.7435276E-1,-1.1507364E-1,1.3021421E-1,2.2597605E-2,7.6497865E-1,-1.97038E-1,1.2741565E-2,-7.53395E-2,-2.569645E-1],"categories":[],"categories_nodes":[],"categories_segments":[],"categories_sizes":[],"default_left":[0,0,0,0,0,0,0,0,0,0,0,0,0,0,0,0,0,0,0,0,0,0,0,0,0,0,0,0,0,0,0,0,0,0,0,0,0,0,0,0,0,0,0,0,0,0,0,0,0,0,0,0,0,0,0,0,0,0,0,0,0,0,0,0,0,0,0,0,0,0,0,0,0,0,0,0,0,0,0,0,0,0,0,0,0,0,0,0,0,0,0,0,0,0,0,0,0,0,0,0,0,0,0,0,0,0,0,0,0,0,0,0,0,0,0,0,0,0,0,0,0],"id":11,"left_children":[1,3,5,7,9,11,13,15,17,19,21,23,25,27,29,31,33,35,37,39,41,43,45,47,49,51,53,55,57,59,61,63,65,67,69,71,73,75,77,79,81,83,85,87,89,91,93,-1,-1,95,97,99,101,103,105,107,109,-1,111,113,115,117,119,-1,-1,-1,-1,-1,-1,-1,-1,-1,-1,-1,-1,-1,-1,-1,-1,-1,-1,-1,-1,-1,-1,-1,-1,-1,-1,-1,-1,-1,-1,-1,-1,-1,-1,-1,-1,-1,-1,-1,-1,-1,-1,-1,-1,-1,-1,-1,-1,-1,-1,-1,-1,-1,-1,-1,-1,-1,-1],"loss_changes":[2.3549228E5,5.836367E4,1.9635656E4,9.960183E4,6.664584E4,6.411293E4,1.62194375E4,1.3099381E5,1.4935606E5,2.4311291E4,1.06326086E5,7.203617E3,2.4761165E3,7.6017656E3,2.673921E4,1.3638905E5,1.3774722E4,3.991471E4,2.1139344E4,5.586289E3,2.8592848E4,6.112858E4,3.4136465E4,3.45125E2,5.823789E2,2.7899624E3,1.7055322E2,1.2943986E4,5.0498633E3,3.928272E4,9.03025E3,3.2509018E4,5.8517438E4,1.7328254E4,2.5878184E3,1.918763E4,3.888842E4,2.7114172E4,1.2929859E4,9.6242773E2,1.9939902E3,2.5931432E4,8.547201E3,1.2019566E5,7.7435484E4,1.3565813E4,7.354214E4,0E0,0E0,4.9428027E2,1.3324688E3,6.2180054E2,3.2749805E3,6.8196045E1,5.8743896E0,1.1146508E4,5.9929688E3,0E0,1.6139648E1,2.3811773E4,7.823363E4,1.3955798E4,9.20368E3,0E0,0E0,0E0,0E0,0E0,0E0,0E0,0E0,0E0,0E0,0E0,0E0,0E0,0E0,0E0,0E0,0E0,0E0,0E0,0E0,0E0,0E0,0E0,0E0,0E0,0E0,0E0,0E0,0E0,0E0,0E0,0E0,0E0,0E0,0E0,0E0,0E0,0E0,0E0,0E0,0E0,0E0,0E0,0E0,0E0,0E0,0E0,0E0,0E0,0E0,0E0,0E0,0E0,0E0,0E0,0E0,0E0,0E0],"parents":[2147483647,0,0,1,1,2,2,3,3,4,4,5,5,6,6,7,7,8,8,9,9,10,10,11,11,12,12,13,13,14,14,15,15,16,16,17,17,18,18,19,19,20,20,21,21,22,22,23,23,24,24,25,25,26,26,27,27,28,28,29,29,30,30,31,31,32,32,33,33,34,34,35,35,36,36,37,37,38,38,39,39,40,40,41,41,42,42,43,43,44,44,45,45,46,46,49,49,50,50,51,51,52,52,53,53,54,54,55,55,56,56,58,58,59,59,60,60,61,61,62,62],"right_children":[2,4,6,8,10,12,14,16,18,20,22,24,26,28,30,32,34,36,38,40,42,44,46,48,50,52,54,56,58,60,62,64,66,68,70,72,74,76,78,80,82,84,86,88,90,92,94,-1,-1,96,98,100,102,104,106,108,110,-1,112,114,116,118,120,-1,-1,-1,-1,-1,-1,-1,-1,-1,-1,-1,-1,-1,-1,-1,-1,-1,-1,-1,-1,-1,-1,-1,-1,-1,-1,-1,-1,-1,-1,-1,-1,-1,-1,-1,-1,-1,-1,-1,-1,-1,-1,-1,-1,-1,-1,-1,-1,-1,-1,-1,-1,-1,-1,-1,-1,-1,-1],"split_conditions":[-4.6258968E-1,-3.1796435E-1,-1.5844189E0,9.855777E-1,1.4256458E-1,-1.7367166E-1,-1.0133975E0,-5.136537E-1,-6.63361E-1,-5.136537E-1,-1.3909909E-2,-9.353348E-1,1.5598364E0,1.5598364E0,9.855777E-1,-1.0404258E0,-4.330966E-1,1.0932012E0,2.2736632E-3,-2.0283212E-1,7.8933194E-2,7.182257E-1,-7.515077E-1,2.2736632E-3,-3.557531E-1,1.1524635E-1,6.585149E-1,-1.2390221E0,-1.4692867E0,4.8583388E-1,-6.596223E-2,7.8933194E-2,-5.482288E-1,-6.63361E-1,-2.1085766E-1,-1.5844189E0,-7.784933E-1,-4.330966E-1,-5.0064856E-1,-1.3700211E0,-7.9043937E-1,-1.3293438E0,-1.0404258E0,-1.0133975E0,1.6392835E0,4.8583388E-1,1.1787547E0,1.8155245E0,2.4507158E0,2.2736632E-3,2.2382863E-1,3.6872405E-1,1.0932012E0,-1.2251257E0,1.2380966E0,1.1524635E-1,4.8796126E-1,-6.877014E-1,8.0341035E-1,1.4090191E0,1.5598364E0,6.930824E-1,1.1524635E-1,3.9352292E-1,-3.4340698E-1,1.3201709E0,-1.9646809E-2,-1.6355516E-1,2.623293E-1,-3.0274597E-1,-6.66945E-1,-2.2822697E-1,3.7055963E-1,7.0022005E-1,2.4245706E0,3.2661228E0,1.6450752E0,7.463078E-1,1.628631E0,-3.2467774E-1,-8.938201E-1,-6.3513243E-1,-3.354291E-1,9.041409E-1,2.7894203E-2,-1.21823326E-1,-4.9590182E-1,1.1912433E-1,1.2794516E0,1.3433674E-1,1.6038017E0,9.585472E-2,-1.8525507E-1,-2.7978992E-2,1.1152917E0,9.783333E-1,1.6303507E0,6.228346E-1,1.1742667E0,-1.13967575E-1,-3.7242433E-1,1.0600327E-2,3.2899278E-1,-3.0388907E-1,-1.702521E-1,-2.9816395E-1,-3.7039763E-1,-2.9056984E-1,3.4961304E-1,-1.3544203E-1,-2.8837487E-1,-3.0177093E-1,-2.7435276E-1,-1.1507364E-1,1.3021421E-1,2.2597605E-2,7.6497865E-1,-1.97038E-1,1.2741565E-2,-7.53395E-2,-2.569645E-1],"split_indices":[5,4,4,6,4,5,6,6,4,6,6,3,5,5,6,5,4,3,1,4,3,4,5,1,3,5,3,4,4,6,3,3,4,4,3,4,4,4,3,3,3,5,5,6,4,6,4,0,0,1,3,3,3,3,3,5,4,0,3,4,5,5,5,0,0,0,0,0,0,0,0,0,0,0,0,0,0,0,0,0,0,0,0,0,0,0,0,0,0,0,0,0,0,0,0,0,0,0,0,0,0,0,0,0,0,0,0,0,0,0,0,0,0,0,0,0,0,0,0,0,0],"split_type":[0,0,0,0,0,0,0,0,0,0,0,0,0,0,0,0,0,0,0,0,0,0,0,0,0,0,0,0,0,0,0,0,0,0,0,0,0,0,0,0,0,0,0,0,0,0,0,0,0,0,0,0,0,0,0,0,0,0,0,0,0,0,0,0,0,0,0,0,0,0,0,0,0,0,0,0,0,0,0,0,0,0,0,0,0,0,0,0,0,0,0,0,0,0,0,0,0,0,0,0,0,0,0,0,0,0,0,0,0,0,0,0,0,0,0,0,0,0,0,0,0],"sum_hessian":[1.42092E5,4.4168E4,9.7924E4,1.6911E4,2.7257E4,3.221E3,9.4703E4,1.1245E4,5.666E3,6.441E3,2.0816E4,3.99E2,2.822E3,1.3763E4,8.094E4,4.767E3,6.478E3,4.451E3,1.215E3,1.583E3,4.858E3,9.233E3,1.1583E4,8E1,3.19E2,2.419E3,4.03E2,1.1743E4,2.02E3,5.3489E4,2.7451E4,2.393E3,2.374E3,5.672E3,8.06E2,3.546E3,9.05E2,4.72E2,7.43E2,3.95E2,1.188E3,2.414E3,2.444E3,3.613E3,5.62E3,8.785E3,2.798E3,3.6E1,4.4E1,6.7E1,2.52E2,3.88E2,2.031E3,2.74E2,1.29E2,1.238E3,1.0505E4,4.09E2,1.611E3,3.9485E4,1.4004E4,1.27E4,1.4751E4,1.214E3,1.179E3,1.984E3,3.9E2,4.457E3,1.215E3,3.4E2,4.66E2,6.56E2,2.89E3,7.47E2,1.58E2,1.56E2,3.16E2,2.56E2,4.87E2,3.4E1,3.61E2,2.98E2,8.9E2,4.05E2,2.009E3,1.216E3,1.228E3,1.611E3,2.002E3,5.236E3,3.84E2,2.339E3,6.446E3,2.019E3,7.79E2,2.5E1,4.2E1,6.2E1,1.9E2,2.32E2,1.56E2,1.629E3,4.02E2,4.8E1,2.26E2,6.6E1,6.3E1,4.02E2,8.36E2,6.064E3,4.441E3,1.15E3,4.61E2,3.5024E4,4.461E3,1.2402E4,1.602E3,6.577E3,6.123E3,3.738E3,1.1013E4],"tree_param":{"num_deleted":"0","num_feature":"9","num_nodes":"121","size_leaf_vector":"1"}},{"base_weights":[1.5013994E-3,1.7268326E0,-7.76708E-1,7.414754E-1,2.8733149E0,1.4105015E0,-8.511126E-1,1.5979966E0,-1.7725948E0,5.8290796E0,1.7460101E0,1.2093423E1,-1.0369581E-1,-1.7544366E0,-6.97492E-1,-5.7408726E-1,2.6156797E0,-2.5705655E0,-1.2394637E0,1.1882203E1,2.5373821E0,2.65701E-1,4.8428354E0,1.8895697E1,9.8534355E0,2.410708E-1,-2.1686254E0,-1.4767013E0,-3.3674843E0,-3.2688907E-1,-1.4195834E0,7.2330755E-1,-2.3245502E0,3.838314E0,1.372793E0,-2.7423353E0,-1.6762388E0,-1.8192276E0,-4.010446E-2,9.030421E0,2.3054628E1,5.5630817E0,-1.2612503E0,-1.7988209E0,1.0473654E0,9.507532E0,1.4835182E0,1.5448545E1,2.1418402E0,9.2390585E0,1.4020604E0,-1.9684113E0,6.639288E-1,-1.7538698E0,-3.0293112E0,1.2750584E0,-1.8010828E0,-6.190991E-1,-2.647258E0,-7.8622633E-1,9.681997E-1,-8.131596E-1,-1.8596634E0,-4.012281E-1,2.3112717E-1,-3.3855912E-1,-1.2790745E-1,2.687064E-1,1.1360193E0,4.127924E-1,-4.8308726E-2,-2.3200808E-1,-3.104242E-1,-4.69596E-1,2.3527114E-2,-7.169756E-2,-2.3491843E-1,3.088226E-1,-1.6281599E-1,1.2864622E0,5.1163363E-1,7.788056E-1,2.51458E0,3.601027E-1,1.318097E0,1.2908608E-1,-2.1469703E-1,3.305984E-1,-2.533402E-1,1.7329344E-1,-1.3767749E-1,1.2015804E0,4.4274685E-1,-7.911368E-4,1.01543E0,1.7301229E0,1.100923E0,1.2001609E0,8.5472196E-1,-1.02619745E-1,-3.3541912E-1,9.54096E-3,2.9617512E-1,-2.741203E-1,-1.5330188E-1,-2.7467877E-1,-3.4264132E-1,-2.6158497E-1,3.146935E-1,-1.259257E-1,-2.6648295E-1,-2.7136275E-1,-2.444092E-1,-1.0356661E-1,1.1719569E-1,2.0338017E-2,6.8852854E-1,9.037102E-3,-1.8098576E-1,-7.4911915E-2,-2.2351693E-1],"categories":[],"categories_nodes":[],"categories_segments":[],"categories_sizes":[],"default_left":[0,0,0,0,0,0,0,0,0,0,0,0,0,0,0,0,0,0,0,0,0,0,0,0,0,0,0,0,0,0,0,0,0,0,0,0,0,0,0,0,0,0,0,0,0,0,0,0,0,0,0,0,0,0,0,0,0,0,0,0,0,0,0,0,0,0,0,0,0,0,0,0,0,0,0,0,0,0,0,0,0,0,0,0,0,0,0,0,0,0,0,0,0,0,0,0,0,0,0,0,0,0,0,0,0,0,0,0,0,0,0,0,0,0,0,0,0,0,0,0,0],"id":12,"left_children":[1,3,5,7,9,11,13,15,17,19,21,23,25,27,29,31,33,35,37,39,41,43,45,47,49,51,53,55,57,59,61,63,65,67,69,71,73,75,77,79,81,83,85,87,89,91,93,95,-1,97,-1,99,101,103,105,107,109,-1,111,113,115,117,119,-1,-1,-1,-1,-1,-1,-1,-1,-1,-1,-1,-1,-1,-1,-1,-1,-1,-1,-1,-1,-1,-1,-1,-1,-1,-1,-1,-1,-1,-1,-1,-1,-1,-1,-1,-1,-1,-1,-1,-1,-1,-1,-1,-1,-1,-1,-1,-1,-1,-1,-1,-1,-1,-1,-1,-1,-1,-1],"loss_changes":[1.907852E5,4.9895344E4,1.5937367E4,5.115577E4,6.801359E4,5.2120492E4,1.3140758E4,3.9169227E4,2.5650938E3,1.1226741E5,6.775405E4,5.9086094E3,2.0102695E3,6.1613086E3,2.1660094E4,1.2842149E4,1.8330172E4,3.6669824E2,2.5177715E3,6.30365E4,4.198135E4,1.6141131E4,7.488944E4,5.2133984E2,6.46209E2,2.2623062E3,1.3890454E2,1.0485227E4,4.0934434E3,3.182103E4,7.324742E3,2.4434057E4,2.6657363E3,5.2636938E4,3.060446E4,3.024043E2,2.2638179E3,1.4242168E3,5.8721914E3,2.3690875E4,1.2669953E4,3.0339215E4,3.6647095E3,1.030933E4,1.205958E4,2.544389E4,3.5950652E4,1.7963574E2,0E0,4.0772266E2,0E0,5.0447546E2,2.6542334E3,5.576245E1,5.1730957E0,9.03224E3,4.913457E3,0E0,1.5102539E1,1.9288098E4,6.3378258E4,1.0397881E4,6.631797E3,0E0,0E0,0E0,0E0,0E0,0E0,0E0,0E0,0E0,0E0,0E0,0E0,0E0,0E0,0E0,0E0,0E0,0E0,0E0,0E0,0E0,0E0,0E0,0E0,0E0,0E0,0E0,0E0,0E0,0E0,0E0,0E0,0E0,0E0,0E0,0E0,0E0,0E0,0E0,0E0,0E0,0E0,0E0,0E0,0E0,0E0,0E0,0E0,0E0,0E0,0E0,0E0,0E0,0E0,0E0,0E0,0E0,0E0],"parents":[2147483647,0,0,1,1,2,2,3,3,4,4,5,5,6,6,7,7,8,8,9,9,10,10,11,11,12,12,13,13,14,14,15,15,16,16,17,17,18,18,19,19,20,20,21,21,22,22,23,23,24,24,25,25,26,26,27,27,28,28,29,29,30,30,31,31,32,32,33,33,34,34,35,35,36,36,37,37,38,38,39,39,40,40,41,41,42,42,43,43,44,44,45,45,46,46,47,47,49,49,51,51,52,52,53,53,54,54,55,55,56,56,58,58,59,59,60,60,61,61,62,62],"right_children":[2,4,6,8,10,12,14,16,18,20,22,24,26,28,30,32,34,36,38,40,42,44,46,48,50,52,54,56,58,60,62,64,66,68,70,72,74,76,78,80,82,84,86,88,90,92,94,96,-1,98,-1,100,102,104,106,108,110,-1,112,114,116,118,120,-1,-1,-1,-1,-1,-1,-1,-1,-1,-1,-1,-1,-1,-1,-1,-1,-1,-1,-1,-1,-1,-1,-1,-1,-1,-1,-1,-1,-1,-1,-1,-1,-1,-1,-1,-1,-1,-1,-1,-1,-1,-1,-1,-1,-1,-1,-1,-1,-1,-1,-1,-1,-1,-1,-1,-1,-1,-1],"split_conditions":[-4.6258968E-1,-1.0404258E0,-1.5844189E0,8.3335793E-1,-5.482288E-1,-1.7367166E-1,-1.0133975E0,-8.936255E-1,-1.3909909E-2,-5.136537E-1,9.484902E-1,-7.9043937E-1,1.5598364E0,1.5598364E0,9.855777E-1,-1.2390221E0,-1.3293438E0,1.5241513E0,1.4090191E0,-7.784933E-1,-7.515077E-1,-5.136537E-1,-1.3909909E-2,2.2736632E-3,1.5278875E0,1.1524635E-1,6.585149E-1,-1.2390221E0,-1.4692867E0,4.8583388E-1,-2.1085766E-1,-1.5844189E0,-1.3293438E0,6.030935E-1,-1.3909909E-2,-6.596223E-2,-3.557531E-1,4.8583388E-1,1.5241513E0,-1.2390221E0,-1.2251257E0,1.0932012E0,-1.3909909E-2,-1.2251257E0,6.030935E-1,6.585149E-1,1.4853215E0,-1.0802302E0,2.1418402E0,-3.557531E-1,1.4020604E0,3.6872405E-1,1.0932012E0,-1.2251257E0,1.382992E0,1.1524635E-1,6.930824E-1,-6.190991E-1,9.484902E-1,1.4090191E0,1.5598364E0,1.4853215E0,1.1524635E-1,-4.012281E-1,2.3112717E-1,-3.3855912E-1,-1.2790745E-1,2.687064E-1,1.1360193E0,4.127924E-1,-4.8308726E-2,-2.3200808E-1,-3.104242E-1,-4.69596E-1,2.3527114E-2,-7.169756E-2,-2.3491843E-1,3.088226E-1,-1.6281599E-1,1.2864622E0,5.1163363E-1,7.788056E-1,2.51458E0,3.601027E-1,1.318097E0,1.2908608E-1,-2.1469703E-1,3.305984E-1,-2.533402E-1,1.7329344E-1,-1.3767749E-1,1.2015804E0,4.4274685E-1,-7.911368E-4,1.01543E0,1.7301229E0,1.100923E0,1.2001609E0,8.5472196E-1,-1.02619745E-1,-3.3541912E-1,9.54096E-3,2.9617512E-1,-2.741203E-1,-1.5330188E-1,-2.7467877E-1,-3.4264132E-1,-2.6158497E-1,3.146935E-1,-1.259257E-1,-2.6648295E-1,-2.7136275E-1,-2.444092E-1,-1.0356661E-1,1.1719569E-1,2.0338017E-2,6.8852854E-1,9.037102E-3,-1.8098576E-1,-7.4911915E-2,-2.2351693E-1],"split_indices":[5,5,4,4,4,5,6,4,6,6,4,3,5,5,6,4,5,4,4,4,5,6,6,1,3,5,3,4,4,6,3,4,5,4,6,3,3,6,4,4,3,3,6,3,4,3,6,3,0,3,0,3,3,3,3,5,5,0,4,4,5,6,5,0,0,0,0,0,0,0,0,0,0,0,0,0,0,0,0,0,0,0,0,0,0,0,0,0,0,0,0,0,0,0,0,0,0,0,0,0,0,0,0,0,0,0,0,0,0,0,0,0,0,0,0,0,0,0,0,0,0],"split_type":[0,0,0,0,0,0,0,0,0,0,0,0,0,0,0,0,0,0,0,0,0,0,0,0,0,0,0,0,0,0,0,0,0,0,0,0,0,0,0,0,0,0,0,0,0,0,0,0,0,0,0,0,0,0,0,0,0,0,0,0,0,0,0,0,0,0,0,0,0,0,0,0,0,0,0,0,0,0,0,0,0,0,0,0,0,0,0,0,0,0,0,0,0,0,0,0,0,0,0,0,0,0,0,0,0,0,0,0,0,0,0,0,0,0,0,0,0,0,0,0,0],"sum_hessian":[1.42092E5,4.4168E4,9.7924E4,2.3754E4,2.0414E4,3.221E3,9.4703E4,1.7718E4,6.036E3,5.635E3,1.4779E4,3.99E2,2.822E3,1.3763E4,8.094E4,5.653E3,1.2065E4,2.416E3,3.62E3,1.984E3,3.651E3,1E4,4.779E3,9.7E1,3.02E2,2.419E3,4.03E2,1.1743E4,2.02E3,5.3489E4,2.7451E4,3.247E3,2.406E3,6.081E3,5.984E3,2.025E3,3.91E2,2.44E3,1.18E3,1.582E3,4.02E2,2.032E3,1.619E3,2.746E3,7.254E3,2E3,2.779E3,4.4E1,5.3E1,2.66E2,3.6E1,3.88E2,2.031E3,2.74E2,1.29E2,1.238E3,1.0505E4,4.09E2,1.611E3,3.9485E4,1.4004E4,1.1545E4,1.5906E4,8.15E2,2.432E3,1.193E3,1.213E3,5.275E3,8.06E2,2.408E3,3.576E3,9.38E2,1.087E3,1.51E2,2.4E2,7.93E2,1.647E3,3.97E2,7.83E2,7.98E2,7.84E2,4.9E1,3.53E2,1.617E3,4.15E2,4.17E2,1.202E3,3.45E2,2.401E3,5.655E3,1.599E3,1.338E3,6.62E2,2.372E3,4.07E2,2.9E1,1.5E1,5E1,2.16E2,2.32E2,1.56E2,1.629E3,4.02E2,4.8E1,2.26E2,8E1,4.9E1,4.02E2,8.36E2,6.457E3,4.048E3,1.205E3,4.06E2,3.5024E4,4.461E3,1.2402E4,1.602E3,6.056E3,5.489E3,4.02E3,1.1886E4],"tree_param":{"num_deleted":"0","num_feature":"9","num_nodes":"121","size_leaf_vector":"1"}},{"base_weights":[1.4601237E-3,1.554363E0,-6.989756E-1,2.7984927E0,7.8239596E-1,1.2717025E0,-7.660142E-1,1.210696E0,5.9489365E0,-1.718294E0,1.5562185E0,1.0905155E1,-9.3743026E-2,-9.701998E-1,-1.5227652E-1,4.5400085E0,-1.2395855E0,2.5006793E0,1.2116218E1,-4.0658073E0,-3.1785214E-1,3.1492376E0,-7.807338E-1,1.7892035E1,9.102523E0,2.1690926E-1,-1.9543489E0,-1.6909753E0,-7.079515E-1,1.7952041E-1,-3.7233922E0,1.7303586E-1,8.940005E0,-7.157796E-1,-4.9202685E0,-1.6297427E0,3.713496E0,8.216671E0,1.4726261E1,-4.908132E0,2.3714265E-1,2.9120257E0,-3.504657E0,5.85918E0,1.4321797E0,-1.6379902E0,1.9927294E0,1.4824464E0,2.0016658E0,8.607462E0,1.2656437E0,-1.7726963E0,5.9768665E-1,-1.5800372E0,-2.7311287E0,-2.6920776E0,-3.336544E-1,2.0411856E-1,-1.1662936E0,-4.9105445E-1,8.425791E0,-5.108037E0,-2.815073E0,7.938861E-1,-1.31914E-1,1.0696548E0,-3.45846E-5,-1.5347432E-1,2.2872268E-1,-3.0170825E-1,-6.299426E-1,1.1037081E-1,-4.8565403E-1,8.760377E-3,5.1558757E-1,4.289712E-1,2.09774E0,1.9454482E0,1.170049E0,-8.011171E-1,-4.2882967E-1,-4.6508285E-1,9.476175E-1,1.96975E0,9.790044E-2,-5.1627195E-1,-2.7864197E-1,9.888985E-2,8.3184385E-1,-9.6482E-2,4.1099915E-1,-2.356622E-1,1.919555E-1,-2.8527543E-1,9.5317346E-1,1.1388124E0,7.696437E-1,-9.878813E-2,-3.1460738E-1,1.4583229E-2,2.996833E-1,-2.4726772E-1,-1.3803923E-1,-2.4173467E-1,-3.0169454E-1,-4.05159E-1,-2.0113905E-1,-1.4961748E-1,2.3801552E-1,1.4062655E-1,-1.6498056E-1,-1.2748505E-1,3.235229E-1,8.7217875E-2,-2.5225246E-1,-1.6344208E-1,1.8475653E0,-5.702494E-1,-3.4029958E-1,-1.9427824E-1,-4.596323E-1],"categories":[],"categories_nodes":[],"categories_segments":[],"categories_sizes":[],"default_left":[0,0,0,0,0,0,0,0,0,0,0,0,0,0,0,0,0,0,0,0,0,0,0,0,0,0,0,0,0,0,0,0,0,0,0,0,0,0,0,0,0,0,0,0,0,0,0,0,0,0,0,0,0,0,0,0,0,0,0,0,0,0,0,0,0,0,0,0,0,0,0,0,0,0,0,0,0,0,0,0,0,0,0,0,0,0,0,0,0,0,0,0,0,0,0,0,0,0,0,0,0,0,0,0,0,0,0,0,0,0,0,0,0,0,0,0,0,0,0,0,0],"id":13,"left_children":[1,3,5,7,9,11,13,15,17,19,21,23,25,27,29,31,33,35,37,39,41,43,45,47,49,51,53,55,57,59,61,63,65,67,69,71,73,75,77,79,81,83,85,87,89,91,93,-1,-1,95,-1,97,99,101,103,105,107,109,111,113,115,117,119,-1,-1,-1,-1,-1,-1,-1,-1,-1,-1,-1,-1,-1,-1,-1,-1,-1,-1,-1,-1,-1,-1,-1,-1,-1,-1,-1,-1,-1,-1,-1,-1,-1,-1,-1,-1,-1,-1,-1,-1,-1,-1,-1,-1,-1,-1,-1,-1,-1,-1,-1,-1,-1,-1,-1,-1,-1,-1],"loss_changes":[1.5455688E5,4.241892E4,1.2938E4,8.459109E4,5.274936E4,4.2383066E4,1.186782E4,9.174772E4,1.2048622E5,2.1177143E4,7.750019E4,4.875047E3,1.6321221E3,1.3431086E4,2.801491E4,9.1613984E4,1.2487754E4,1.8220393E4,2.0560688E4,8.725297E3,4.155271E4,5.759268E4,2.0067568E4,2.3117773E2,4.540703E2,1.8344438E3,1.1315088E2,2.5758191E4,2.178264E4,1.1963457E5,2.5135977E3,2.775209E4,3.729728E4,1.3955418E4,2.0992031E3,7.2909214E3,1.470084E4,4.0850594E4,1.7169094E4,3.8373945E3,1.7882322E4,6.5036312E4,2.4054863E3,5.7494688E4,4.86514E4,1.6486701E4,7.2831734E4,0E0,0E0,6.317969E2,0E0,4.1617468E2,2.2023826E3,4.5594727E1,4.365967E0,1.0088E4,2.5393867E4,3.8843914E4,1.6574277E4,5.541171E4,1.64526E5,7.863828E2,1.8804512E3,0E0,0E0,0E0,0E0,0E0,0E0,0E0,0E0,0E0,0E0,0E0,0E0,0E0,0E0,0E0,0E0,0E0,0E0,0E0,0E0,0E0,0E0,0E0,0E0,0E0,0E0,0E0,0E0,0E0,0E0,0E0,0E0,0E0,0E0,0E0,0E0,0E0,0E0,0E0,0E0,0E0,0E0,0E0,0E0,0E0,0E0,0E0,0E0,0E0,0E0,0E0,0E0,0E0,0E0,0E0,0E0,0E0,0E0],"parents":[2147483647,0,0,1,1,2,2,3,3,4,4,5,5,6,6,7,7,8,8,9,9,10,10,11,11,12,12,13,13,14,14,15,15,16,16,17,17,18,18,19,19,20,20,21,21,22,22,23,23,24,24,25,25,26,26,27,27,28,28,29,29,30,30,31,31,32,32,33,33,34,34,35,35,36,36,37,37,38,38,39,39,40,40,41,41,42,42,43,43,44,44,45,45,46,46,49,49,51,51,52,52,53,53,54,54,55,55,56,56,57,57,58,58,59,59,60,60,61,61,62,62],"right_children":[2,4,6,8,10,12,14,16,18,20,22,24,26,28,30,32,34,36,38,40,42,44,46,48,50,52,54,56,58,60,62,64,66,68,70,72,74,76,78,80,82,84,86,88,90,92,94,-1,-1,96,-1,98,100,102,104,106,108,110,112,114,116,118,120,-1,-1,-1,-1,-1,-1,-1,-1,-1,-1,-1,-1,-1,-1,-1,-1,-1,-1,-1,-1,-1,-1,-1,-1,-1,-1,-1,-1,-1,-1,-1,-1,-1,-1,-1,-1,-1,-1,-1,-1,-1,-1,-1,-1,-1,-1,-1,-1,-1,-1,-1,-1,-1,-1,-1,-1,-1,-1],"split_conditions":[-4.6258968E-1,-3.1796435E-1,-1.5844189E0,9.855777E-1,1.4256458E-1,-1.7367166E-1,1.2709184E0,-5.136537E-1,-7.784933E-1,-1.3909909E-2,4.8583388E-1,-9.353348E-1,1.5598364E0,-6.63361E-1,1.5241513E0,-1.0404258E0,-4.330966E-1,-1.5844189E0,-6.63361E-1,1.2380966E0,7.8933194E-2,7.182257E-1,-7.515077E-1,2.2736632E-3,1.5278875E0,1.1524635E-1,6.585149E-1,4.8583388E-1,1.1524635E-1,1.2938869E0,1.5598364E0,-1.3541545E0,-5.482288E-1,-6.63361E-1,-2.1085766E-1,2.2382863E-1,-1.3293438E0,9.483058E-1,2.2736632E-3,-2.0283212E-1,-5.136537E-1,-1.3293438E0,-2.0283212E-1,-1.0133975E0,-1.0404258E0,1.2380966E0,1.1787547E0,1.4824464E0,2.0016658E0,-3.557531E-1,1.2656437E0,5.136195E-1,1.2380966E0,-1.2251257E0,1.2380966E0,1.1524635E-1,6.930824E-1,8.3335793E-1,4.480588E0,1.4256458E-1,1.5598364E0,9.483058E-1,1.7544158E0,7.938861E-1,-1.31914E-1,1.0696548E0,-3.45846E-5,-1.5347432E-1,2.2872268E-1,-3.0170825E-1,-6.299426E-1,1.1037081E-1,-4.8565403E-1,8.760377E-3,5.1558757E-1,4.289712E-1,2.09774E0,1.9454482E0,1.170049E0,-8.011171E-1,-4.2882967E-1,-4.6508285E-1,9.476175E-1,1.96975E0,9.790044E-2,-5.1627195E-1,-2.7864197E-1,9.888985E-2,8.3184385E-1,-9.6482E-2,4.1099915E-1,-2.356622E-1,1.919555E-1,-2.8527543E-1,9.5317346E-1,1.1388124E0,7.696437E-1,-9.878813E-2,-3.1460738E-1,1.4583229E-2,2.996833E-1,-2.4726772E-1,-1.3803923E-1,-2.4173467E-1,-3.0169454E-1,