{"learner":{"attributes":{"scikit_learn":"{\"_estimator_type\": \"regressor\"}"},"feature_names":[],"feature_types":[],"gradient_booster":{"model":{"gbtree_model_param":{"num_parallel_tree":"1","num_trees":"100"},"iteration_indptr":[0,1,2,3,4,5,6,7,8,9,10,11,12,13,14,15,16,17,18,19,20,21,22,23,24,25,26,27,28,29,30,31,32,33,34,35,36,37,38,39,40,41,42,43,44,45,46,47,48,49,50,51,52,53,54,55,56,57,58,59,60,61,62,63,64,65,66,67,68,69,70,71,72,73,74,75,76,77,78,79,80,81,82,83,84,85,86,87,88,89,90,91,92,93,94,95,96,97,98,99,100],"tree_info":[0,0,0,0,0,0,0,0,0,0,0,0,0,0,0,0,0,0,0,0,0,0,0,0,0,0,0,0,0,0,0,0,0,0,0,0,0,0,0,0,0,0,0,0,0,0,0,0,0,0,0,0,0,0,0,0,0,0,0,0,0,0,0,0,0,0,0,0,0,0,0,0,0,0,0,0,0,0,0,0,0,0,0,0,0,0,0,0,0,0,0,0,0,0,0,0,0,0,0,0],"trees":[{"base_weights":[1.6667639E-7,1.6704798E1,-1.6122518E0,2.6273602E1,-6.912788E0,-4.4915476E0,5.6119933E0,1.4265677E0,4.340076E1,-7.9867673E0,-4.683082E0,2.0400279E0,-6.486745E0,2.3928335E0,1.9682129E1,-2.6188214E0,1.5439554E1,1.01470146E2,2.6027931E1,-8.225055E-1,-7.5208883E0,-4.546481E-1,-6.7913256E0,3.1811047E1,-3.15034E0,-7.8184195E0,-5.932198E0,1.5568015E1,-1.7910789E0,2.2376413E0,3.1949322E1,-6.5655394E0,7.3374696E0,3.657102E1,-6.3085413E0,5.8769028E1,1.2360322E2,-4.165758E0,3.352654E1,-6.728938E0,-8.265439E-1,-5.224231E0,8.561804E0,-8.159377E-1,-5.7736998E0,-3.871906E0,6.801001E1,-3.882702E0,5.961771E-1,-8.04051E0,-6.6935134E0,-3.3124375E0,-6.743337E0,2.3282776E1,-4.40866E0,-7.335434E0,5.753273E-1,-3.4322166E0,1.9284044E1,5.282268E1,1.1183879E1,-7.7333236E-1,-1.5540619E-1,2.2533562E0,-8.260891E-1,-7.097293E-1,5.9233994E0,-8.1232995E-1,-5.219142E-1,3.9141107E-1,8.657981E0,1.5082687E1,1.0645507E1,-5.141575E-1,9.630477E-2,4.2280726E0,7.0602125E-1,-7.474366E-1,-3.7469897E-1,-7.907704E-1,1.9116981E-3,1.2183605E0,-5.2215207E-1,-3.856164E-1,-6.3199466E-1,-6.096807E-1,2.7199885E-1,8.872859E0,4.325322E0,-2.791174E-1,-5.942392E-1,3.4973438E0,-1.8373922E-2,-8.178283E-1,-7.2162265E-1,-8.093071E-1,-3.5907704E-1,-5.795209E-1,-9.409304E-2,-5.903202E-1,-7.474163E-1,5.234783E-1,3.137491E0,6.911888E-1,-6.6326016E-1,-6.899566E-1,-8.127312E-1,3.7363762E-1,-4.1294417E-1,-6.825432E-1,5.0065297E-1,9.206352E0,7.182219E-1,8.176157E0,3.3510334E0,2.3730114E0,-7.742478E-1],"categories":[],"categories_nodes":[],"categories_segments":[],"categories_sizes":[],"default_left":[0,0,0,0,0,0,0,0,0,0,0,0,0,0,0,0,0,0,0,0,0,0,0,0,0,0,0,0,0,0,0,0,0,0,0,0,0,0,0,0,0,0,0,0,0,0,0,0,0,0,0,0,0,0,0,0,0,0,0,0,0,0,0,0,0,0,0,0,0,0,0,0,0,0,0,0,0,0,0,0,0,0,0,0,0,0,0,0,0,0,0,0,0,0,0,0,0,0,0,0,0,0,0,0,0,0,0,0,0,0,0,0,0,0,0,0,0],"id":0,"left_children":[1,3,5,7,9,11,13,15,17,19,21,23,25,27,29,31,33,35,37,-1,39,41,43,45,47,49,51,53,55,57,59,61,63,65,67,69,71,73,75,77,-1,79,81,-1,83,85,87,89,91,93,95,97,99,101,103,105,107,109,111,113,115,-1,-1,-1,-1,-1,-1,-1,-1,-1,-1,-1,-1,-1,-1,-1,-1,-1,-1,-1,-1,-1,-1,-1,-1,-1,-1,-1,-1,-1,-1,-1,-1,-1,-1,-1,-1,-1,-1,-1,-1,-1,-1,-1,-1,-1,-1,-1,-1,-1,-1,-1,-1,-1,-1,-1,-1],"loss_changes":[3.8269242E6,2.826664E6,2.6955305E6,3.78784E6,8.600125E3,1.2075119E6,1.6726609E6,2.0598788E5,5.312881E6,2.0823438E2,1.0471531E4,3.3504578E6,5.23685E4,1.6567739E6,1.4713575E6,1.1085916E5,3.7431994E5,1.13915E6,9.1868775E5,0E0,4.3673828E2,1.6902578E4,1.0443477E3,4.1582005E6,5.066397E4,5.1585E3,1.064695E5,1.1165135E6,2.9930216E5,2.745541E5,1.7492252E6,1.1809672E4,1.9005045E5,4.0914744E5,7.5235547E2,6.342931E5,3.56479E5,4.0488066E3,7.526985E5,8.8335156E2,0E0,3.6162402E3,6.852799E3,0E0,4.5012305E2,2.3805346E4,8.158165E5,3.4706984E4,8.097681E4,1.919125E3,1.4935078E4,6.976629E4,2.345025E4,7.63076E5,5.087666E4,2.2992188E3,2.378039E5,6.108289E4,6.238009E5,1.1222815E6,4.810291E5,0E0,0E0,0E0,0E0,0E0,0E0,0E0,0E0,0E0,0E0,0E0,0E0,0E0,0E0,0E0,0E0,0E0,0E0,0E0,0E0,0E0,0E0,0E0,0E0,0E0,0E0,0E0,0E0,0E0,0E0,0E0,0E0,0E0,0E0,0E0,0E0,0E0,0E0,0E0,0E0,0E0,0E0,0E0,0E0,0E0,0E0,0E0,0E0,0E0,0E0,0E0,0E0,0E0,0E0,0E0,0E0],"parents":[2147483647,0,0,1,1,2,2,3,3,4,4,5,5,6,6,7,7,8,8,9,9,10,10,11,11,12,12,13,13,14,14,15,15,16,16,17,17,18,18,20,20,21,21,22,22,23,23,24,24,25,25,26,26,27,27,28,28,29,29,30,30,31,31,32,32,33,33,34,34,35,35,36,36,37,37,38,38,39,39,41,41,42,42,44,44,45,45,46,46,47,47,48,48,49,49,50,50,51,51,52,52,53,53,54,54,55,55,56,56,57,57,58,58,59,59,60,60],"right_children":[2,4,6,8,10,12,14,16,18,20,22,24,26,28,30,32,34,36,38,-1,40,42,44,46,48,50,52,54,56,58,60,62,64,66,68,70,72,74,76,78,-1,80,82,-1,84,86,88,90,92,94,96,98,100,102,104,106,108,110,112,114,116,-1,-1,-1,-1,-1,-1,-1,-1,-1,-1,-1,-1,-1,-1,-1,-1,-1,-1,-1,-1,-1,-1,-1,-1,-1,-1,-1,-1,-1,-1,-1,-1,-1,-1,-1,-1,-1,-1,-1,-1,-1,-1,-1,-1,-1,-1,-1,-1,-1,-1,-1,-1,-1,-1,-1,-1],"split_conditions":[-1.3293438E0,8.3335793E-1,9.820004E-1,-6.63361E-1,1.5241513E0,-7.515077E-1,1.1787547E0,-8.936255E-1,-3.1796435E-1,9.855777E-1,1.6392835E0,-1.2390221E0,-6.4554393E-1,-1.0087577E0,-1.3909909E-2,9.855777E-1,-7.784933E-1,-5.0064856E-1,-8.769988E-2,-8.225055E-1,1.1787547E0,5.136195E-1,-2.1085766E-1,-1.0404258E0,1.2380966E0,6.930824E-1,-6.596223E-2,9.855777E-1,-5.136537E-1,9.483058E-1,9.855777E-1,4.8583388E-1,-1.2390221E0,-5.0064856E-1,-3.557531E-1,-5.482288E-1,2.2736632E-3,1.2380966E0,9.855777E-1,1.0932012E0,-8.265439E-1,-2.1085766E-1,1.5278875E0,-8.159377E-1,2.2382863E-1,1.4853215E0,2.2382863E-1,2.2382863E-1,-1.1238899E0,-7.9043937E-1,9.855777E-1,1.1524635E-1,8.0341035E-1,1.2709184E0,-1.0802302E0,1.5598364E0,9.855777E-1,-5.136537E-1,1.2938869E0,1.4090191E0,1.5241513E0,-7.7333236E-1,-1.5540619E-1,2.2533562E0,-8.260891E-1,-7.097293E-1,5.9233994E0,-8.1232995E-1,-5.219142E-1,3.9141107E-1,8.657981E0,1.5082687E1,1.0645507E1,-5.141575E-1,9.630477E-2,4.2280726E0,7.0602125E-1,-7.474366E-1,-3.7469897E-1,-7.907704E-1,1.9116981E-3,1.2183605E0,-5.2215207E-1,-3.856164E-1,-6.3199466E-1,-6.096807E-1,2.7199885E-1,8.872859E0,4.325322E0,-2.791174E-1,-5.942392E-1,3.4973438E0,-1.8373922E-2,-8.178283E-1,-7.2162265E-1,-8.093071E-1,-3.5907704E-1,-5.795209E-1,-9.409304E-2,-5.903202E-1,-7.474163E-1,5.234783E-1,3.137491E0,6.911888E-1,-6.6326016E-1,-6.899566E-1,-8.127312E-1,3.7363762E-1,-4.1294417E-1,-6.825432E-1,5.0065297E-1,9.206352E0,7.182219E-1,8.176157E0,3.3510334E0,2.3730114E0,-7.742478E-1],"split_indices":[5,4,5,4,4,5,4,4,4,6,4,4,3,4,6,6,4,3,4,0,4,3,3,5,3,5,3,6,6,3,6,6,4,3,3,4,1,3,6,3,0,3,3,0,3,6,3,3,4,3,6,5,3,5,3,5,6,6,4,4,4,0,0,0,0,0,0,0,0,0,0,0,0,0,0,0,0,0,0,0,0,0,0,0,0,0,0,0,0,0,0,0,0,0,0,0,0,0,0,0,0,0,0,0,0,0,0,0,0,0,0,0,0,0,0,0,0],"split_type":[0,0,0,0,0,0,0,0,0,0,0,0,0,0,0,0,0,0,0,0,0,0,0,0,0,0,0,0,0,0,0,0,0,0,0,0,0,0,0,0,0,0,0,0,0,0,0,0,0,0,0,0,0,0,0,0,0,0,0,0,0,0,0,0,0,0,0,0,0,0,0,0,0,0,0,0,0,0,0,0,0,0,0,0,0,0,0,0,0,0,0,0,0,0,0,0,0,0,0,0,0,0,0,0,0,0,0,0,0,0,0,0,0,0,0,0,0],"sum_hessian":[1.42092E5,1.2506E4,1.29586E5,8.9E3,3.606E3,9.2657E4,3.6929E4,3.632E3,5.268E3,2.432E3,1.174E3,2.1681E4,7.0976E4,3.0054E4,6.875E3,2.819E3,8.13E2,1.212E3,4.056E3,1.598E3,8.34E2,3.91E2,7.83E2,3.218E3,1.8463E4,2.0863E4,5.0113E4,7.243E3,2.2811E4,2.839E3,4.036E3,2.019E3,8E2,4.12E2,4.01E2,4.15E2,7.97E2,8.07E2,3.249E3,4.09E2,4.25E2,2.56E2,1.35E2,3.31E2,4.52E2,1.621E3,1.597E3,1.5444E4,3.019E3,1.7418E4,3.445E3,1.1849E4,3.8264E4,5.225E3,2.018E3,6.823E3,1.5988E4,2.131E3,7.08E2,2.012E3,2.024E3,1.637E3,3.82E2,4.05E2,3.95E2,1.41E2,2.71E2,1.48E2,2.53E2,1.4E2,2.75E2,3.05E2,4.92E2,6.78E2,1.29E2,2.441E3,8.08E2,3.26E2,8.3E1,1.69E2,8.7E1,1.07E2,2.8E1,1.02E2,3.5E2,1.212E3,4.09E2,8.68E2,7.29E2,1.0096E4,5.348E3,6.6E1,2.953E3,1.4916E4,2.502E3,2.373E3,1.072E3,5.788E3,6.061E3,1.7805E4,2.0459E4,1.618E3,3.607E3,3.31E2,1.687E3,4.407E3,2.416E3,9.563E3,6.425E3,1.52E3,6.11E2,1E2,6.08E2,8.04E2,1.208E3,1.217E3,8.07E2],"tree_param":{"num_deleted":"0","num_feature":"9","num_nodes":"117","size_leaf_vector":"1"}},{"base_weights":[5.2606454E-4,1.5037434E1,-1.4507507E0,2.3651148E1,-6.2228117E0,-4.042277E0,5.051471E0,1.285116E0,3.9068142E1,-7.1892295E0,-4.216413E0,1.8367383E0,-5.8381367E0,2.1536214E0,1.7717241E1,-2.3567624E0,1.3900364E1,9.13518E1,2.342625E1,-7.4030644E-1,-6.7711334E0,-4.094198E-1,-6.114532E0,2.8633938E1,-2.835165E0,-7.0367074E0,-5.3390183E0,1.4011722E1,-1.6120385E0,2.0173075E0,2.875764E1,-5.9094453E0,6.6055045E0,3.292654E1,-5.681006E0,5.2913876E1,1.1127514E2,-3.7496998E0,3.0175404E1,-6.058781E0,-7.440836E-1,-6.6087136E0,5.220082E0,-7.3458976E-1,-5.198576E0,-3.4849236E0,6.1217266E1,-3.4944882E0,5.3771085E-1,-7.236548E0,-6.0245013E0,-3.3091283E0,-6.188586E0,2.664787E1,3.910621E0,-6.6021104E0,5.177922E-1,-2.4892623E0,1.943051E1,4.754614E1,1.006628E1,-6.960463E-1,-1.3990618E-1,2.0285757E0,-7.4368876E-1,-6.392562E-1,5.333237E0,-4.639752E-1,-7.534468E-1,3.525476E-1,7.7953196E0,1.3579348E1,9.583116E0,-6.172726E-1,-1.9940495E-1,3.534499E0,-7.495973E-1,-6.638323E-1,-2.9375613E-1,-7.4409914E-1,-2.9110762E-1,1.14244476E-1,9.3664724E-1,-3.4742916E-1,-5.689752E-1,-5.487629E-1,2.4486537E-1,2.406347E0,7.4358134E0,-2.512084E-1,-5.3482634E-1,-7.061636E-2,1.8365952E0,-7.360509E-1,-6.494893E-1,-7.2841054E-1,-3.232028E-1,-5.0310874E-1,-1.6736706E-1,-5.543372E-1,-6.843237E-1,-9.4607145E-1,4.8440075E0,1.2439007E0,-8.953425E-1,-7.4393946E-1,-6.253436E-1,4.3209693E-1,-2.9256126E-1,-5.4384285E-1,4.8738113E-1,8.991059E0,7.9020864E-1,7.3595567E0,3.0162075E0,2.135905E0,-6.969189E-1],"categories":[],"categories_nodes":[],"categories_segments":[],"categories_sizes":[],"default_left":[0,0,0,0,0,0,0,0,0,0,0,0,0,0,0,0,0,0,0,0,0,0,0,0,0,0,0,0,0,0,0,0,0,0,0,0,0,0,0,0,0,0,0,0,0,0,0,0,0,0,0,0,0,0,0,0,0,0,0,0,0,0,0,0,0,0,0,0,0,0,0,0,0,0,0,0,0,0,0,0,0,0,0,0,0,0,0,0,0,0,0,0,0,0,0,0,0,0,0,0,0,0,0,0,0,0,0,0,0,0,0,0,0,0,0,0,0],"id":1,"left_children":[1,3,5,7,9,11,13,15,17,19,21,23,25,27,29,31,33,35,37,-1,39,41,43,45,47,49,51,53,55,57,59,61,63,65,67,69,71,73,75,77,-1,79,81,-1,83,85,87,89,91,93,95,97,99,101,103,105,107,109,111,113,115,-1,-1,-1,-1,-1,-1,-1,-1,-1,-1,-1,-1,-1,-1,-1,-1,-1,-1,-1,-1,-1,-1,-1,-1,-1,-1,-1,-1,-1,-1,-1,-1,-1,-1,-1,-1,-1,-1,-1,-1,-1,-1,-1,-1,-1,-1,-1,-1,-1,-1,-1,-1,-1,-1,-1,-1],"loss_changes":[3.1008765E6,2.2905502E6,2.1836492E6,3.069166E6,6.9637344E3,9.782836E5,1.3554222E6,1.6694439E5,4.3069285E6,1.6739844E2,8.488193E3,2.7145358E6,4.242275E4,1.3420858E6,1.1917832E6,8.982809E4,3.0344975E5,9.23041E5,7.4422625E5,0E0,3.5326562E2,1.3714881E4,8.4606836E2,3.3690232E6,4.106242E4,4.17675E3,8.6402625E4,9.2451275E5,2.4244956E5,2.2291398E5,1.4172455E6,9.566055E3,1.5402572E5,3.3170694E5,7.408711E2,5.1417225E5,2.89158E5,3.424913E3,6.331875E5,7.221377E2,0E0,5.538237E2,3.4722393E3,0E0,3.6388867E2,1.9288E4,7.78407E5,2.8114344E4,6.698477E4,1.553625E3,1.2097453E4,4.163742E4,1.488375E4,2.532656E6,4.419117E5,1.9456562E3,2.0940264E5,4.9037098E4,4.738037E5,9.093575E5,3.8971356E5,0E0,0E0,0E0,0E0,0E0,0E0,0E0,0E0,0E0,0E0,0E0,0E0,0E0,0E0,0E0,0E0,0E0,0E0,0E0,0E0,0E0,0E0,0E0,0E0,0E0,0E0,0E0,0E0,0E0,0E0,0E0,0E0,0E0,0E0,0E0,0E0,0E0,0E0,0E0,0E0,0E0,0E0,0E0,0E0,0E0,0E0,0E0,0E0,0E0,0E0,0E0,0E0,0E0,0E0,0E0,0E0],"parents":[2147483647,0,0,1,1,2,2,3,3,4,4,5,5,6,6,7,7,8,8,9,9,10,10,11,11,12,12,13,13,14,14,15,15,16,16,17,17,18,18,20,20,21,21,22,22,23,23,24,24,25,25,26,26,27,27,28,28,29,29,30,30,31,31,32,32,33,33,34,34,35,35,36,36,37,37,38,38,39,39,41,41,42,42,44,44,45,45,46,46,47,47,48,48,49,49,50,50,51,51,52,52,53,53,54,54,55,55,56,56,57,57,58,58,59,59,60,60],"right_children":[2,4,6,8,10,12,14,16,18,20,22,24,26,28,30,32,34,36,38,-1,40,42,44,46,48,50,52,54,56,58,60,62,64,66,68,70,72,74,76,78,-1,80,82,-1,84,86,88,90,92,94,96,98,100,102,104,106,108,110,112,114,116,-1,-1,-1,-1,-1,-1,-1,-1,-1,-1,-1,-1,-1,-1,-1,-1,-1,-1,-1,-1,-1,-1,-1,-1,-1,-1,-1,-1,-1,-1,-1,-1,-1,-1,-1,-1,-1,-1,-1,-1,-1,-1,-1,-1,-1,-1,-1,-1,-1,-1,-1,-1,-1,-1,-1,-1],"split_conditions":[-1.3293438E0,8.3335793E-1,9.820004E-1,-6.63361E-1,1.5241513E0,-7.515077E-1,1.1787547E0,-8.936255E-1,-3.1796435E-1,9.855777E-1,1.6392835E0,-1.2390221E0,-6.4554393E-1,-1.0087577E0,-1.3909909E-2,9.855777E-1,-7.784933E-1,-5.0064856E-1,-8.769988E-2,-7.4030644E-1,1.1787547E0,-6.596223E-2,-2.1085766E-1,-1.0404258E0,1.2380966E0,6.930824E-1,7.8933194E-2,-1.3909909E-2,-5.136537E-1,1.0932012E0,9.855777E-1,4.8583388E-1,-1.2390221E0,-5.0064856E-1,6.585149E-1,-5.482288E-1,2.2736632E-3,-2.1085766E-1,1.4853215E0,1.2380966E0,-7.440836E-1,-3.557531E-1,8.0341035E-1,-7.3458976E-1,2.2382863E-1,1.4853215E0,-1.5844189E0,2.2382863E-1,1.4090191E0,-7.9043937E-1,9.855777E-1,1.1524635E-1,9.483058E-1,-1.4692867E0,-1.2390221E0,-6.4554393E-1,2.7432345E-2,-5.136537E-1,1.2938869E0,1.4090191E0,1.5241513E0,-6.960463E-1,-1.3990618E-1,2.0285757E0,-7.4368876E-1,-6.392562E-1,5.333237E0,-4.639752E-1,-7.534468E-1,3.525476E-1,7.7953196E0,1.3579348E1,9.583116E0,-6.172726E-1,-1.9940495E-1,3.534499E0,-7.495973E-1,-6.638323E-1,-2.9375613E-1,-7.4409914E-1,-2.9110762E-1,1.14244476E-1,9.3664724E-1,-3.4742916E-1,-5.689752E-1,-5.487629E-1,2.4486537E-1,2.406347E0,7.4358134E0,-2.512084E-1,-5.3482634E-1,-7.061636E-2,1.8365952E0,-7.360509E-1,-6.494893E-1,-7.2841054E-1,-3.232028E-1,-5.0310874E-1,-1.6736706E-1,-5.543372E-1,-6.843237E-1,-9.4607145E-1,4.8440075E0,1.2439007E0,-8.953425E-1,-7.4393946E-1,-6.253436E-1,4.3209693E-1,-2.9256126E-1,-5.4384285E-1,4.8738113E-1,8.991059E0,7.9020864E-1,7.3595567E0,3.0162075E0,2.135905E0,-6.969189E-1],"split_indices":[5,4,5,4,4,5,4,4,4,6,4,4,3,4,6,6,4,3,4,0,4,3,3,5,3,5,3,6,6,3,6,6,4,3,3,4,1,3,6,3,0,3,3,0,3,6,4,3,4,3,6,5,3,4,4,3,4,6,4,4,4,0,0,0,0,0,0,0,0,0,0,0,0,0,0,0,0,0,0,0,0,0,0,0,0,0,0,0,0,0,0,0,0,0,0,0,0,0,0,0,0,0,0,0,0,0,0,0,0,0,0,0,0,0,0,0,0],"split_type":[0,0,0,0,0,0,0,0,0,0,0,0,0,0,0,0,0,0,0,0,0,0,0,0,0,0,0,0,0,0,0,0,0,0,0,0,0,0,0,0,0,0,0,0,0,0,0,0,0,0,0,0,0,0,0,0,0,0,0,0,0,0,0,0,0,0,0,0,0,0,0,0,0,0,0,0,0,0,0,0,0,0,0,0,0,0,0,0,0,0,0,0,0,0,0,0,0,0,0,0,0,0,0,0,0,0,0,0,0,0,0,0,0,0,0,0,0],"sum_hessian":[1.42092E5,1.2506E4,1.29586E5,8.9E3,3.606E3,9.2657E4,3.6929E4,3.632E3,5.268E3,2.432E3,1.174E3,2.1681E4,7.0976E4,3.0054E4,6.875E3,2.819E3,8.13E2,1.212E3,4.056E3,1.598E3,8.34E2,3.91E2,7.83E2,3.218E3,1.8463E4,2.0863E4,5.0113E4,7.243E3,2.2811E4,2.839E3,4.036E3,2.019E3,8E2,4.12E2,4.01E2,4.15E2,7.97E2,8.07E2,3.249E3,4.09E2,4.25E2,1.86E2,2.05E2,3.31E2,4.52E2,1.621E3,1.597E3,1.5444E4,3.019E3,1.7418E4,3.445E3,1.4787E4,3.5326E4,3.217E3,4.026E3,6.823E3,1.5988E4,2.256E3,5.83E2,2.012E3,2.024E3,1.637E3,3.82E2,4.05E2,3.95E2,1.41E2,2.71E2,2.59E2,1.42E2,1.4E2,2.75E2,3.05E2,4.92E2,3.38E2,4.69E2,2.857E3,3.92E2,3.44E2,6.5E1,1.51E2,3.5E1,1.04E2,1.01E2,1.02E2,3.5E2,1.212E3,4.09E2,4.18E2,1.179E3,1.0096E4,5.348E3,2.823E3,1.96E2,1.4916E4,2.502E3,2.373E3,1.072E3,7.202E3,7.585E3,1.7796E4,1.753E4,1.211E3,2.006E3,2.421E3,1.605E3,2E3,4.823E3,7.597E3,8.391E3,1.611E3,6.45E2,8.1E1,5.02E2,8.04E2,1.208E3,1.217E3,8.07E2],"tree_param":{"num_deleted":"0","num_feature":"9","num_nodes":"117","size_leaf_vector":"1"}},{"base_weights":[9.2289E-4,1.3536339E1,-1.3054384E0,2.1290213E1,-5.6016607E0,-3.6379824E0,4.5469894E0,1.1576848E0,3.5167645E1,-6.4713106E0,-3.7961638E0,1.6535497E0,-5.254384E0,1.9383599E0,1.5948649E1,-2.120927E0,1.2514599E1,8.224243E1,2.1084112E1,-6.663221E-1,-6.096058E0,-3.6843786E-1,-5.5051847E0,2.5773506E1,-2.5515952E0,-6.455531E0,-4.849937E0,1.2611136E1,-1.4508884E0,1.8190008E0,2.5884804E1,-5.3189144E0,5.9465575E0,2.964525E1,-5.115934E0,4.7642075E1,1.0017665E2,-3.3757408E0,2.715872E1,-5.455239E0,-6.698499E-1,-4.2591553E0,6.9865828E0,-6.7102474E-1,-4.7362237E0,-3.1366186E0,5.51017E1,-3.834455E0,-8.79415E-1,-6.624507E0,-5.6017914E0,-3.6838148E0,-5.7924385E0,1.916131E1,-4.349646E0,-5.9421E0,4.6602196E-1,-2.8410263E0,1.582938E1,4.279668E1,9.060363E0,-6.2313217E-1,-7.761766E-2,1.669795E0,-9.136073E-1,4.631103E0,-1.2913561E0,-6.85556E-1,-4.075303E-1,2.5421507E0,9.47323E0,1.2761367E1,8.64504E0,-4.2210528E-1,1.06535435E-1,3.4521337E0,4.9007878E-1,-6.7913187E-1,-4.2473555E-1,-6.4298266E-1,-1.7413069E-3,1.0307456E0,-5.621723E-1,-4.0176508E-1,-5.4381263E-1,-4.9393186E-1,2.2043855E-1,7.375248E0,3.282412E0,6.2496597E-1,-4.2679167E-1,-4.3723345E-1,2.618956E-1,-5.526449E-1,-6.687576E-1,-6.692782E-1,-3.1715357E-1,-4.6266595E-1,-2.782379E-1,-5.9967107E-1,-4.2502174E-1,1.341986E0,4.1580806E0,5.8653873E-1,-6.3561875E-1,-5.550153E-1,-6.6544545E-1,3.3241966E-1,-3.7879542E-1,-5.599852E-1,4.0201092E-1,7.5839972E0,5.850892E-1,6.6245155E0,2.714836E0,1.9224898E0,-6.273133E-1],"categories":[],"categories_nodes":[],"categories_segments":[],"categories_sizes":[],"default_left":[0,0,0,0,0,0,0,0,0,0,0,0,0,0,0,0,0,0,0,0,0,0,0,0,0,0,0,0,0,0,0,0,0,0,0,0,0,0,0,0,0,0,0,0,0,0,0,0,0,0,0,0,0,0,0,0,0,0,0,0,0,0,0,0,0,0,0,0,0,0,0,0,0,0,0,0,0,0,0,0,0,0,0,0,0,0,0,0,0,0,0,0,0,0,0,0,0,0,0,0,0,0,0,0,0,0,0,0,0,0,0,0,0,0,0,0,0],"id":2,"left_children":[1,3,5,7,9,11,13,15,17,19,21,23,25,27,29,31,33,35,37,-1,39,41,43,45,47,49,51,53,55,57,59,61,63,65,67,69,71,73,75,77,-1,79,81,-1,83,85,87,89,91,93,95,97,99,101,103,105,107,109,111,113,115,-1,-1,-1,-1,-1,-1,-1,-1,-1,-1,-1,-1,-1,-1,-1,-1,-1,-1,-1,-1,-1,-1,-1,-1,-1,-1,-1,-1,-1,-1,-1,-1,-1,-1,-1,-1,-1,-1,-1,-1,-1,-1,-1,-1,-1,-1,-1,-1,-1,-1,-1,-1,-1,-1,-1,-1],"loss_changes":[2.5125268E6,1.8560785E6,1.7690144E6,2.486789E6,5.638961E3,7.92535E5,1.0983674E6,1.3530097E5,3.4915045E6,1.3459375E2,6.8811875E3,2.199226E6,3.44495E4,1.0871885E6,9.653046E5,7.278682E4,2.45998E5,7.47931E5,6.0289725E5,0E0,2.8581445E2,1.1247349E4,6.9470703E2,2.729504E6,3.9605094E4,2.541625E3,5.83415E4,8.048631E5,1.96397E5,1.8546503E5,1.1482715E6,8.367715E3,1.3004215E5,2.9352897E5,6.9980566E2,4.3288225E5,2.895005E5,3.0378174E3,5.324295E5,6.328242E2,0E0,2.3661978E3,5.752344E3,0E0,2.2125684E2,1.5627877E4,6.615385E5,4.569567E4,9.797541E4,9.961875E2,7.826875E3,2.0162406E4,9.2255625E3,6.721349E5,4.142049E4,1.8683594E3,1.9441655E5,4.0378453E4,4.2411612E5,7.3683E5,3.1573272E5,0E0,0E0,0E0,0E0,0E0,0E0,0E0,0E0,0E0,0E0,0E0,0E0,0E0,0E0,0E0,0E0,0E0,0E0,0E0,0E0,0E0,0E0,0E0,0E0,0E0,0E0,0E0,0E0,0E0,0E0,0E0,0E0,0E0,0E0,0E0,0E0,0E0,0E0,0E0,0E0,0E0,0E0,0E0,0E0,0E0,0E0,0E0,0E0,0E0,0E0,0E0,0E0,0E0,0E0,0E0,0E0],"parents":[2147483647,0,0,1,1,2,2,3,3,4,4,5,5,6,6,7,7,8,8,9,9,10,10,11,11,12,12,13,13,14,14,15,15,16,16,17,17,18,18,20,20,21,21,22,22,23,23,24,24,25,25,26,26,27,27,28,28,29,29,30,30,31,31,32,32,33,33,34,34,35,35,36,36,37,37,38,38,39,39,41,41,42,42,44,44,45,45,46,46,47,47,48,48,49,49,50,50,51,51,52,52,53,53,54,54,55,55,56,56,57,57,58,58,59,59,60,60],"right_children":[2,4,6,8,10,12,14,16,18,20,22,24,26,28,30,32,34,36,38,-1,40,42,44,46,48,50,52,54,56,58,60,62,64,66,68,70,72,74,76,78,-1,80,82,-1,84,86,88,90,92,94,96,98,100,102,104,106,108,110,112,114,116,-1,-1,-1,-1,-1,-1,-1,-1,-1,-1,-1,-1,-1,-1,-1,-1,-1,-1,-1,-1,-1,-1,-1,-1,-1,-1,-1,-1,-1,-1,-1,-1,-1,-1,-1,-1,-1,-1,-1,-1,-1,-1,-1,-1,-1,-1,-1,-1,-1,-1,-1,-1,-1,-1,-1,-1],"split_conditions":[-1.3293438E0,8.3335793E-1,9.820004E-1,-6.63361E-1,1.5241513E0,-7.515077E-1,1.1787547E0,-8.936255E-1,-3.1796435E-1,9.855777E-1,1.6392835E0,-1.2390221E0,-7.9043937E-1,-1.0087577E0,-1.3909909E-2,9.855777E-1,-7.784933E-1,-5.0064856E-1,-8.769988E-2,-6.663221E-1,1.1787547E0,5.136195E-1,-3.557531E-1,-1.0404258E0,3.7282905E-1,6.930824E-1,3.6872405E-1,9.855777E-1,-5.136537E-1,9.483058E-1,9.855777E-1,1.2380966E0,3.6872405E-1,8.0341035E-1,-3.557531E-1,-4.330966E-1,-5.482288E-1,1.2380966E0,9.855777E-1,-6.596223E-2,-6.698499E-1,-2.1085766E-1,1.5278875E0,-6.7102474E-1,1.7544158E0,1.4853215E0,2.2382863E-1,-1.1238899E0,-1.0404258E0,-1.4692867E0,9.855777E-1,1.1524635E-1,1.4090191E0,1.0932012E0,-1.0802302E0,1.5598364E0,9.855777E-1,-5.136537E-1,1.2938869E0,1.4090191E0,1.5241513E0,-6.2313217E-1,-7.761766E-2,1.669795E0,-9.136073E-1,4.631103E0,-1.2913561E0,-6.85556E-1,-4.075303E-1,2.5421507E0,9.47323E0,1.2761367E1,8.64504E0,-4.2210528E-1,1.06535435E-1,3.4521337E0,4.9007878E-1,-6.7913187E-1,-4.2473555E-1,-6.4298266E-1,-1.7413069E-3,1.0307456E0,-5.621723E-1,-4.0176508E-1,-5.4381263E-1,-4.9393186E-1,2.2043855E-1,7.375248E0,3.282412E0,6.2496597E-1,-4.2679167E-1,-4.3723345E-1,2.618956E-1,-5.526449E-1,-6.687576E-1,-6.692782E-1,-3.1715357E-1,-4.6266595E-1,-2.782379E-1,-5.9967107E-1,-4.2502174E-1,1.341986E0,4.1580806E0,5.8653873E-1,-6.3561875E-1,-5.550153E-1,-6.6544545E-1,3.3241966E-1,-3.7879542E-1,-5.599852E-1,4.0201092E-1,7.5839972E0,5.850892E-1,6.6245155E0,2.714836E0,1.9224898E0,-6.273133E-1],"split_indices":[5,4,5,4,4,5,4,4,4,6,4,4,3,4,6,6,4,3,4,0,4,3,3,5,4,5,3,6,6,3,6,3,3,3,3,4,4,3,6,3,0,3,3,0,4,6,3,4,5,4,6,5,4,3,3,5,6,6,4,4,4,0,0,0,0,0,0,0,0,0,0,0,0,0,0,0,0,0,0,0,0,0,0,0,0,0,0,0,0,0,0,0,0,0,0,0,0,0,0,0,0,0,0,0,0,0,0,0,0,0,0,0,0,0,0,0,0],"split_type":[0,0,0,0,0,0,0,0,0,0,0,0,0,0,0,0,0,0,0,0,0,0,0,0,0,0,0,0,0,0,0,0,0,0,0,0,0,0,0,0,0,0,0,0,0,0,0,0,0,0,0,0,0,0,0,0,0,0,0,0,0,0,0,0,0,0,0,0,0,0,0,0,0,0,0,0,0,0,0,0,0,0,0,0,0,0,0,0,0,0,0,0,0,0,0,0,0,0,0,0,0,0,0,0,0,0,0,0,0,0,0,0,0,0,0,0,0],"sum_hessian":[1.42092E5,1.2506E4,1.29586E5,8.9E3,3.606E3,9.2657E4,3.6929E4,3.632E3,5.268E3,2.432E3,1.174E3,2.1681E4,7.0976E4,3.0054E4,6.875E3,2.819E3,8.13E2,1.212E3,4.056E3,1.598E3,8.34E2,3.91E2,7.83E2,3.218E3,1.8463E4,1.7875E4,5.3101E4,7.243E3,2.2811E4,2.839E3,4.036E3,2.019E3,8E2,4.12E2,4.01E2,4.15E2,7.97E2,8.07E2,3.249E3,4.09E2,4.25E2,2.56E2,1.35E2,3.02E2,4.81E2,1.621E3,1.597E3,1.0447E4,8.016E3,1.4916E4,2.959E3,2.3737E4,2.9364E4,5.225E3,2.018E3,6.823E3,1.5988E4,2.131E3,7.08E2,2.012E3,2.024E3,1.681E3,3.38E2,4.67E2,3.33E2,2.96E2,1.16E2,1.48E2,2.53E2,2.83E2,1.32E2,2.63E2,5.34E2,6.78E2,1.29E2,2.441E3,8.08E2,1.92E2,2.17E2,1.69E2,8.7E1,1.07E2,2.8E1,2.41E2,2.4E2,1.212E3,4.09E2,8.68E2,7.29E2,4.3E2,1.0017E4,4.011E3,4.005E3,8.15E2,1.4101E4,2.041E3,9.18E2,1.16E4,1.2137E4,2.5927E4,3.437E3,4.161E3,1.064E3,3.31E2,1.687E3,4.407E3,2.416E3,9.563E3,6.425E3,1.52E3,6.11E2,1E2,6.08E2,8.04E2,1.208E3,1.217E3,8.07E2],"tree_param":{"num_deleted":"0","num_feature":"9","num_nodes":"117","size_leaf_vector":"1"}},{"base_weights":[1.2836872E-3,1.2185513E1,-1.1746688E0,1.9165611E1,-5.0426683E0,-3.2741148E0,4.092909E0,1.0425501E0,3.165791E1,-5.825182E0,-3.4180732E0,1.4886746E0,-4.729002E0,1.7446632E0,1.4356496E1,-1.9088145E0,1.1265899E1,7.4045746E1,1.8976595E1,-5.997315E-1,-5.4885764E0,-3.3204353E-1,-4.956728E0,2.3199383E1,-2.2964344E0,-5.727387E0,-4.313249E0,1.1350775E1,-1.3058549E0,1.6399218E0,2.3298958E1,-4.7873697E0,5.352846E0,2.6688812E1,-4.6070595E0,4.290675E1,9.0185814E1,-3.038557E0,2.4444061E1,-5.7669873E0,-4.3818707E0,-3.2008119E0,7.855639E0,-5.9624743E-1,-4.208683E0,-2.8231256E0,4.9598198E1,-2.7991927E0,1.298656E0,-5.8902993E0,-4.9022264E0,-1.8158075E0,-4.851855E0,2.2066904E1,2.7846327E0,-4.438288E0,1.1446419E0,-2.0633855E0,1.5949383E1,3.8521652E1,8.154965E0,-5.7313436E-1,-7.3771805E-2,1.7678213E0,-7.297286E-1,-7.674889E-1,4.7577577E0,-3.6133376E-1,-6.3816094E-1,8.174003E0,1.8563439E0,1.1233686E1,7.6253953E0,-5.3544015E-1,-1.6384476E-1,2.8791947E0,-7.237115E-1,-6.1271304E-1,-5.341034E-1,-2.5875112E-1,-6.0261893E-1,-5.7906264E-1,4.341825E-2,1.2818437E0,-5.078936E-1,-2.666174E-1,-4.6493372E-1,-4.1053483E-1,3.7287518E-1,1.6170927E0,6.142568E0,-3.704663E-1,-1.6159078E-1,-2.025955E-1,8.7085104E-1,-4.957326E-1,-5.944296E-1,-5.9416914E-1,-2.5978538E-1,-4.5106307E-1,7.4526384E-2,-4.133199E-1,-5.399596E-1,-1.0430208E0,4.1680474E0,1.0457658E0,-8.788749E-1,-5.455913E-1,-3.88848E-2,5.7347524E-1,-3.4092173E-1,-4.48242E-1,3.976161E-1,7.3537674E0,6.529523E-1,-9.575225E-2,4.822103E0,3.051544E0,2.3021924E-1],"categories":[],"categories_nodes":[],"categories_segments":[],"categories_sizes":[],"default_left":[0,0,0,0,0,0,0,0,0,0,0,0,0,0,0,0,0,0,0,0,0,0,0,0,0,0,0,0,0,0,0,0,0,0,0,0,0,0,0,0,0,0,0,0,0,0,0,0,0,0,0,0,0,0,0,0,0,0,0,0,0,0,0,0,0,0,0,0,0,0,0,0,0,0,0,0,0,0,0,0,0,0,0,0,0,0,0,0,0,0,0,0,0,0,0,0,0,0,0,0,0,0,0,0,0,0,0,0,0,0,0,0,0,0,0,0,0,0,0],"id":3,"left_children":[1,3,5,7,9,11,13,15,17,19,21,23,25,27,29,31,33,35,37,-1,39,41,43,45,47,49,51,53,55,57,59,61,63,65,67,69,71,73,75,77,79,81,83,-1,85,87,89,91,93,95,97,99,101,103,105,107,109,111,113,115,117,-1,-1,-1,-1,-1,-1,-1,-1,-1,-1,-1,-1,-1,-1,-1,-1,-1,-1,-1,-1,-1,-1,-1,-1,-1,-1,-1,-1,-1,-1,-1,-1,-1,-1,-1,-1,-1,-1,-1,-1,-1,-1,-1,-1,-1,-1,-1,-1,-1,-1,-1,-1,-1,-1,-1,-1,-1,-1],"loss_changes":[2.0359335E6,1.5041185E6,1.4331152E6,2.0151415E6,4.5655547E3,6.420641E5,8.900405E5,1.0963939E5,2.830859E6,1.0805469E2,5.5776475E3,1.7818236E6,2.94365E4,8.8073506E5,7.818831E5,5.8972344E4,1.9939605E5,6.057665E5,4.8840362E5,0E0,2.3200781E2,9.232662E3,5.6474414E2,2.2114755E6,3.3376586E4,2.775875E3,6.740131E4,6.64908E5,1.7511039E5,1.5053112E5,9.30345E5,7.717754E3,1.25018945E5,2.9682288E5,6.8583203E2,3.917402E5,2.377005E5,2.6111147E3,4.4788338E5,6.913672E1,4.9189282E2,2.7419766E3,6.6126553E3,0E0,2.9551416E2,1.3641676E4,6.3079275E5,1.7350102E4,5.584028E4,8.48E2,8.238805E3,6.1372695E4,1.62046875E4,2.0515378E6,3.5770094E5,4.1259547E4,2.675743E5,3.2992305E4,3.1632444E5,7.7087075E5,2.6494306E5,0E0,0E0,0E0,0E0,0E0,0E0,0E0,0E0,0E0,0E0,0E0,0E0,0E0,0E0,0E0,0E0,0E0,0E0,0E0,0E0,0E0,0E0,0E0,0E0,0E0,0E0,0E0,0E0,0E0,0E0,0E0,0E0,0E0,0E0,0E0,0E0,0E0,0E0,0E0,0E0,0E0,0E0,0E0,0E0,0E0,0E0,0E0,0E0,0E0,0E0,0E0,0E0,0E0,0E0,0E0,0E0,0E0,0E0],"parents":[2147483647,0,0,1,1,2,2,3,3,4,4,5,5,6,6,7,7,8,8,9,9,10,10,11,11,12,12,13,13,14,14,15,15,16,16,17,17,18,18,20,20,21,21,22,22,23,23,24,24,25,25,26,26,27,27,28,28,29,29,30,30,31,31,32,32,33,33,34,34,35,35,36,36,37,37,38,38,39,39,40,40,41,41,42,42,44,44,45,45,46,46,47,47,48,48,49,49,50,50,51,51,52,52,53,53,54,54,55,55,56,56,57,57,58,58,59,59,60,60],"right_children":[2,4,6,8,10,12,14,16,18,20,22,24,26,28,30,32,34,36,38,-1,40,42,44,46,48,50,52,54,56,58,60,62,64,66,68,70,72,74,76,78,80,82,84,-1,86,88,90,92,94,96,98,100,102,104,106,108,110,112,114,116,118,-1,-1,-1,-1,-1,-1,-1,-1,-1,-1,-1,-1,-1,-1,-1,-1,-1,-1,-1,-1,-1,-1,-1,-1,-1,-1,-1,-1,-1,-1,-1,-1,-1,-1,-1,-1,-1,-1,-1,-1,-1,-1,-1,-1,-1,-1,-1,-1,-1,-1,-1,-1,-1,-1,-1,-1,-1,-1],"split_conditions":[-1.3293438E0,8.3335793E-1,9.820004E-1,-6.63361E-1,1.5241513E0,-7.515077E-1,1.1787547E0,-8.936255E-1,-3.1796435E-1,9.855777E-1,1.6392835E0,-1.2390221E0,-6.4554393E-1,-1.0087577E0,-1.3909909E-2,9.855777E-1,-7.784933E-1,-5.0064856E-1,-8.769988E-2,-5.997315E-1,1.0932012E0,8.0341035E-1,-2.1085766E-1,-1.0404258E0,1.382992E0,6.930824E-1,-2.1085766E-1,-1.3909909E-2,-1.3909909E-2,1.0932012E0,9.855777E-1,4.8583388E-1,-1.2390221E0,-3.557531E-1,6.585149E-1,2.2736632E-3,2.2736632E-3,-3.557531E-1,1.4853215E0,-2.1085766E-1,1.1787547E0,-2.1085766E-1,1.5278875E0,-5.9624743E-1,2.2382863E-1,1.2380966E0,-1.5844189E0,3.7282905E-1,7.182257E-1,-1.4692867E0,9.855777E-1,1.1524635E-1,6.585149E-1,-1.4692867E0,-1.2390221E0,8.3335793E-1,9.855777E-1,-5.136537E-1,1.2938869E0,1.2938869E0,1.2938869E0,-5.7313436E-1,-7.3771805E-2,1.7678213E0,-7.297286E-1,-7.674889E-1,4.7577577E0,-3.6133376E-1,-6.3816094E-1,8.174003E0,1.8563439E0,1.1233686E1,7.6253953E0,-5.3544015E-1,-1.6384476E-1,2.8791947E0,-7.237115E-1,-6.1271304E-1,-5.341034E-1,-2.5875112E-1,-6.0261893E-1,-5.7906264E-1,4.341825E-2,1.2818437E0,-5.078936E-1,-2.666174E-1,-4.6493372E-1,-4.1053483E-1,3.7287518E-1,1.6170927E0,6.142568E0,-3.704663E-1,-1.6159078E-1,-2.025955E-1,8.7085104E-1,-4.957326E-1,-5.944296E-1,-5.9416914E-1,-2.5978538E-1,-4.5106307E-1,7.4526384E-2,-4.133199E-1,-5.399596E-1,-1.0430208E0,4.1680474E0,1.0457658E0,-8.788749E-1,-5.455913E-1,-3.88848E-2,5.7347524E-1,-3.4092173E-1,-4.48242E-1,3.976161E-1,7.3537674E0,6.529523E-1,-9.575225E-2,4.822103E0,3.051544E0,2.3021924E-1],"split_indices":[5,4,5,4,4,5,4,4,4,6,4,4,3,4,6,6,4,3,4,0,3,3,3,5,3,5,3,6,6,3,6,6,4,3,3,1,1,3,6,3,4,3,3,0,3,3,4,4,4,4,6,5,3,4,4,4,6,6,4,4,4,0,0,0,0,0,0,0,0,0,0,0,0,0,0,0,0,0,0,0,0,0,0,0,0,0,0,0,0,0,0,0,0,0,0,0,0,0,0,0,0,0,0,0,0,0,0,0,0,0,0,0,0,0,0,0,0,0,0],"split_type":[0,0,0,0,0,0,0,0,0,0,0,0,0,0,0,0,0,0,0,0,0,0,0,0,0,0,0,0,0,0,0,0,0,0,0,0,0,0,0,0,0,0,0,0,0,0,0,0,0,0,0,0,0,0,0,0,0,0,0,0,0,0,0,0,0,0,0,0,0,0,0,0,0,0,0,0,0,0,0,0,0,0,0,0,0,0,0,0,0,0,0,0,0,0,0,0,0,0,0,0,0,0,0,0,0,0,0,0,0,0,0,0,0,0,0,0,0,0,0],"sum_hessian":[1.42092E5,1.2506E4,1.29586E5,8.9E3,3.606E3,9.2657E4,3.6929E4,3.632E3,5.268E3,2.432E3,1.174E3,2.1681E4,7.0976E4,3.0054E4,6.875E3,2.819E3,8.13E2,1.212E3,4.056E3,1.598E3,8.34E2,3.91E2,7.83E2,3.218E3,1.8463E4,2.0863E4,5.0113E4,7.243E3,2.2811E4,2.839E3,4.036E3,2.019E3,8E2,4.12E2,4.01E2,4.15E2,7.97E2,8.07E2,3.249E3,6.63E2,1.71E2,2.9E2,1.01E2,3.31E2,4.52E2,1.621E3,1.597E3,1.6198E4,2.265E3,1.7418E4,3.445E3,8.891E3,4.1222E4,3.217E3,4.026E3,1.0012E4,1.2799E4,2.256E3,5.83E2,2.012E3,2.024E3,1.637E3,3.82E2,4.05E2,3.95E2,1.56E2,2.56E2,2.59E2,1.42E2,1.59E2,2.56E2,3.05E2,4.92E2,3.03E2,5.04E2,2.857E3,3.92E2,3.52E2,3.11E2,8.3E1,8.8E1,1.69E2,1.21E2,7.3E1,2.8E1,1.02E2,3.5E2,1.356E3,2.65E2,4.18E2,1.179E3,9.175E3,7.023E3,1.564E3,7.01E2,9.58E2,1.646E4,2.373E3,1.072E3,4.332E3,4.559E3,1.7833E4,2.3389E4,1.211E3,2.006E3,2.421E3,1.605E3,8.001E3,2.011E3,6.374E3,6.425E3,1.611E3,6.45E2,8.1E1,5.02E2,3.97E2,1.615E3,4.19E2,1.605E3],"tree_param":{"num_deleted":"0","num_feature":"9","num_nodes":"119","size_leaf_vector":"1"}},{"base_weights":[1.5319699E-3,1.0969362E1,-1.0570207E0,1.725284E1,-4.5394263E0,-2.9466538E0,3.68413E0,9.39226E-1,2.8497879E1,-5.243736E0,-3.077193E0,1.3401695E0,-4.256148E0,1.5702949E0,1.2923168E1,-1.7177944E0,1.0142983E1,6.6664986E1,1.7079294E1,-5.397959E-1,-4.942124E0,-2.982313E-1,-4.462749E0,2.0881844E1,-2.0667837E0,-5.1547413E0,-3.8819509E0,1.0216152E1,-1.1752847E0,1.478731E0,2.0971045E1,-4.308953E0,4.8188577E0,2.4029593E1,-4.1488395E0,4.088098E1,8.269505E1,-2.735567E0,2.2000319E1,-4.401604E0,-5.4507416E-1,-2.8825712E0,7.0776625E0,-5.447157E-1,-3.8346608E0,-2.540836E0,4.4643234E1,5.976276E0,-2.2588928E0,-5.3013325E0,-4.4122515E0,-1.634269E0,-4.3666925E0,1.5777884E1,-4.1849494E0,6.628391E-1,-4.84872E0,-2.3513765E0,1.29939785E1,3.4671833E1,7.3410897E0,-5.128395E-1,-2.3045745E-2,1.4505781E0,-8.768865E-1,4.148229E0,-1.2618061E0,-5.815696E-1,-3.1547043E-1,2.0944111E0,8.329025E0,1.1605609E1,7.0117106E0,-4.5216647E-1,-1.01636544E-1,2.8192601E0,3.2814628E-1,-4.8530418E-1,-1.9751255E-1,-5.21497E-1,3.9112043E-2,1.3559201E0,-1.4336006E-1,-3.1901038E-1,-4.4659805E-1,-4.1621834E-1,2.2621754E-1,6.1432366E0,2.4596117E0,-3.648851E-1,3.70578E0,-3.4912154E-1,-7.1870714E-2,-5.489023E-1,-5.0385594E-1,-5.347773E-1,-2.3383108E-1,-4.059672E-1,6.7075394E-2,-3.8685343E-1,-5.0397E-1,1.0610805E0,3.5955918E0,1.0063657E0,-5.441731E-1,-3.6632645E-1,3.8187727E-1,-5.6349486E-1,9.221782E-1,-4.5922875E-1,3.2217887E-1,6.2517815E0,4.75933E-1,5.7238083E0,1.9617655E0,1.6103401E0,-5.876531E-1],"categories":[],"categories_nodes":[],"categories_segments":[],"categories_sizes":[],"default_left":[0,0,0,0,0,0,0,0,0,0,0,0,0,0,0,0,0,0,0,0,0,0,0,0,0,0,0,0,0,0,0,0,0,0,0,0,0,0,0,0,0,0,0,0,0,0,0,0,0,0,0,0,0,0,0,0,0,0,0,0,0,0,0,0,0,0,0,0,0,0,0,0,0,0,0,0,0,0,0,0,0,0,0,0,0,0,0,0,0,0,0,0,0,0,0,0,0,0,0,0,0,0,0,0,0,0,0,0,0,0,0,0,0,0,0,0,0],"id":4,"left_children":[1,3,5,7,9,11,13,15,17,19,21,23,25,27,29,31,33,35,37,-1,39,41,43,45,47,49,51,53,55,57,59,61,63,65,67,69,71,73,75,77,-1,79,81,-1,83,85,87,89,91,93,95,97,99,101,103,105,107,109,111,113,115,-1,-1,-1,-1,-1,-1,-1,-1,-1,-1,-1,-1,-1,-1,-1,-1,-1,-1,-1,-1,-1,-1,-1,-1,-1,-1,-1,-1,-1,-1,-1,-1,-1,-1,-1,-1,-1,-1,-1,-1,-1,-1,-1,-1,-1,-1,-1,-1,-1,-1,-1,-1,-1,-1,-1,-1],"loss_changes":[1.649715E6,1.2188745E6,1.1609854E6,1.632837E6,3.698586E3,5.2014775E5,7.2121525E5,8.8860875E4,2.295167E6,8.649219E1,4.5228965E3,1.4435781E6,2.3846125E4,7.1345425E5,6.332721E5,4.7784516E4,1.6165017E5,4.97976E5,3.9565588E5,0E0,2.0556445E2,7.492634E3,4.6385547E2,1.7916656E6,2.8543023E4,2.2475E3,5.459425E4,5.802747E5,1.5403506E5,1.2528773E5,7.536196E5,6.74984E3,1.0555741E5,2.6467844E5,6.477998E2,3.931078E5,3.053135E5,2.4764995E3,3.7662275E5,4.3953076E2,0E0,2.2239866E3,5.6463774E3,0E0,1.8188965E2,1.2640493E4,5.363335E5,1.2907474E5,3.4226125E4,8.3146875E2,6.6734688E3,4.971442E4,1.3801125E4,5.44489E5,3.6209766E4,2.0760625E5,8.4216484E4,2.6641275E4,2.8884075E5,6.82726E5,2.3462388E5,0E0,0E0,0E0,0E0,0E0,0E0,0E0,0E0,0E0,0E0,0E0,0E0,0E0,0E0,0E0,0E0,0E0,0E0,0E0,0E0,0E0,0E0,0E0,0E0,0E0,0E0,0E0,0E0,0E0,0E0,0E0,0E0,0E0,0E0,0E0,0E0,0E0,0E0,0E0,0E0,0E0,0E0,0E0,0E0,0E0,0E0,0E0,0E0,0E0,0E0,0E0,0E0,0E0,0E0,0E0,0E0],"parents":[2147483647,0,0,1,1,2,2,3,3,4,4,5,5,6,6,7,7,8,8,9,9,10,10,11,11,12,12,13,13,14,14,15,15,16,16,17,17,18,18,20,20,21,21,22,22,23,23,24,24,25,25,26,26,27,27,28,28,29,29,30,30,31,31,32,32,33,33,34,34,35,35,36,36,37,37,38,38,39,39,41,41,42,42,44,44,45,45,46,46,47,47,48,48,49,49,50,50,51,51,52,52,53,53,54,54,55,55,56,56,57,57,58,58,59,59,60,60],"right_children":[2,4,6,8,10,12,14,16,18,20,22,24,26,28,30,32,34,36,38,-1,40,42,44,46,48,50,52,54,56,58,60,62,64,66,68,70,72,74,76,78,-1,80,82,-1,84,86,88,90,92,94,96,98,100,102,104,106,108,110,112,114,116,-1,-1,-1,-1,-1,-1,-1,-1,-1,-1,-1,-1,-1,-1,-1,-1,-1,-1,-1,-1,-1,-1,-1,-1,-1,-1,-1,-1,-1,-1,-1,-1,-1,-1,-1,-1,-1,-1,-1,-1,-1,-1,-1,-1,-1,-1,-1,-1,-1,-1,-1,-1,-1,-1,-1,-1],"split_conditions":[-1.3293438E0,8.3335793E-1,9.820004E-1,-6.63361E-1,1.5241513E0,-7.515077E-1,1.1787547E0,-8.936255E-1,-3.1796435E-1,9.855777E-1,1.6392835E0,-1.2390221E0,-6.4554393E-1,-1.0087577E0,-1.3909909E-2,9.855777E-1,-7.784933E-1,-3.557531E-1,-8.769988E-2,-5.397959E-1,1.1787547E0,8.0341035E-1,-3.557531E-1,-1.0404258E0,-1.1238899E0,6.930824E-1,-2.1085766E-1,9.855777E-1,1.5598364E0,9.483058E-1,9.855777E-1,1.2380966E0,3.6872405E-1,6.585149E-1,-3.557531E-1,-4.330966E-1,2.2382863E-1,-2.0283212E-1,9.855777E-1,1.2380966E0,-5.4507416E-1,-2.1085766E-1,1.382992E0,-5.447157E-1,1.7544158E0,1.4853215E0,2.2382863E-1,9.483058E-1,3.7282905E-1,1.1524635E-1,9.855777E-1,1.1524635E-1,9.483058E-1,1.0932012E0,-1.3700211E0,-1.3909909E-2,1.0636225E0,-5.136537E-1,1.2938869E0,1.4090191E0,1.5241513E0,-5.128395E-1,-2.3045745E-2,1.4505781E0,-8.768865E-1,4.148229E0,-1.2618061E0,-5.815696E-1,-3.1547043E-1,2.0944111E0,8.329025E0,1.1605609E1,7.0117106E0,-4.5216647E-1,-1.01636544E-1,2.8192601E0,3.2814628E-1,-4.8530418E-1,-1.9751255E-1,-5.21497E-1,3.9112043E-2,1.3559201E0,-1.4336006E-1,-3.1901038E-1,-4.4659805E-1,-4.1621834E-1,2.2621754E-1,6.1432366E0,2.4596117E0,-3.648851E-1,3.70578E0,-3.4912154E-1,-7.1870714E-2,-5.489023E-1,-5.0385594E-1,-5.347773E-1,-2.3383108E-1,-4.059672E-1,6.7075394E-2,-3.8685343E-1,-5.0397E-1,1.0610805E0,3.5955918E0,1.0063657E0,-5.441731E-1,-3.6632645E-1,3.8187727E-1,-5.6349486E-1,9.221782E-1,-4.5922875E-1,3.2217887E-1,6.2517815E0,4.75933E-1,5.7238083E0,1.9617655E0,1.6103401E0,-5.876531E-1],"split_indices":[5,4,5,4,4,5,4,4,4,6,4,4,3,4,6,6,4,3,4,0,4,3,3,5,4,5,3,6,5,3,6,3,3,3,3,4,3,4,6,3,0,3,3,0,4,6,3,3,4,5,6,5,3,3,3,6,4,6,4,4,4,0,0,0,0,0,0,0,0,0,0,0,0,0,0,0,0,0,0,0,0,0,0,0,0,0,0,0,0,0,0,0,0,0,0,0,0,0,0,0,0,0,0,0,0,0,0,0,0,0,0,0,0,0,0,0,0],"split_type":[0,0,0,0,0,0,0,0,0,0,0,0,0,0,0,0,0,0,0,0,0,0,0,0,0,0,0,0,0,0,0,0,0,0,0,0,0,0,0,0,0,0,0,0,0,0,0,0,0,0,0,0,0,0,0,0,0,0,0,0,0,0,0,0,0,0,0,0,0,0,0,0,0,0,0,0,0,0,0,0,0,0,0,0,0,0,0,0,0,0,0,0,0,0,0,0,0,0,0,0,0,0,0,0,0,0,0,0,0,0,0,0,0,0,0,0,0],"sum_hessian":[1.42092E5,1.2506E4,1.29586E5,8.9E3,3.606E3,9.2657E4,3.6929E4,3.632E3,5.268E3,2.432E3,1.174E3,2.1681E4,7.0976E4,3.0054E4,6.875E3,2.819E3,8.13E2,1.212E3,4.056E3,1.598E3,8.34E2,3.91E2,7.83E2,3.218E3,1.8463E4,2.0863E4,5.0113E4,7.243E3,2.2811E4,2.839E3,4.036E3,2.019E3,8E2,4.12E2,4.01E2,4.66E2,7.46E2,8.07E2,3.249E3,4.09E2,4.25E2,2.9E2,1.01E2,3.02E2,4.81E2,1.621E3,1.597E3,4.3E2,1.8033E4,1.7418E4,3.445E3,8.891E3,4.1222E4,5.225E3,2.018E3,1.5204E4,7.607E3,2.131E3,7.08E2,2.012E3,2.024E3,1.681E3,3.38E2,4.67E2,3.33E2,2.79E2,1.33E2,1.48E2,2.53E2,3.18E2,1.48E2,2.02E2,5.44E2,3.95E2,4.12E2,2.441E3,8.08E2,3.44E2,6.5E1,1.69E2,1.21E2,5.7E1,4.4E1,2.41E2,2.4E2,1.212E3,4.09E2,8.68E2,7.29E2,3.29E2,1.01E2,1.0017E4,8.016E3,1.0149E4,7.269E3,2.373E3,1.072E3,4.332E3,4.559E3,2.3692E4,1.753E4,4.161E3,1.064E3,1.63E2,1.855E3,6.413E3,8.791E3,7.205E3,4.02E2,1.52E3,6.11E2,1E2,6.08E2,8.04E2,1.208E3,1.217E3,8.07E2],"tree_param":{"num_deleted":"0","num_feature":"9","num_nodes":"117","size_leaf_vector":"1"}},{"base_weights":[1.8037193E-3,9.874929E0,-9.5109427E-1,1.5531338E1,-4.086135E0,-2.651899E0,3.31628E0,8.4586114E-1,2.5654095E1,-4.720089E0,-2.7699673E0,1.2066753E0,-3.8305762E0,1.4134481E0,1.1633076E1,-5.429997E0,4.009416E0,6.0022427E1,1.5372004E1,-4.9590006E-1,-4.5467424E0,-2.665454E-1,-4.018145E0,1.8796272E1,-1.8599472E0,-4.6393547E0,-3.4937804E0,9.195244E0,-1.0577399E0,1.3331784E0,1.8876097E1,-2.5349069E0,-7.7784853E0,1.3013469E1,-5.0803003E0,8.527191E1,4.426671E1,-2.4626956E0,1.9801254E1,-4.8043498E-1,-4.0359807E0,-3.1399722E0,5.165346E0,-4.8396668E-1,-3.4071887E0,-2.2868698E0,4.0184296E1,-2.389596E0,8.4941876E-1,-4.7712593E0,-3.9712496E0,-1.4708802E0,-3.930045E0,1.8282192E1,1.9315253E0,-4.834447E0,4.94541E-1,-1.7099966E0,1.3091933E1,3.1208467E1,6.607486E0,-5.6430095E-1,6.8079036E-1,-5.137192E-1,-9.528785E-1,3.6000523E-1,4.638765E0,-1.072304E-2,-7.51131E-1,1.0119081E1,5.2781286E0,1.2614542E0,6.0677137E0,-3.196747E-1,1.3902543E-1,1.4683113E0,3.9123228E0,-3.0835924E-1,-4.9112722E-1,-4.969716E-1,-4.8656624E-2,7.699455E-1,-4.4501397E-1,-2.2442608E-1,-3.888656E-1,-3.6231932E-1,2.936142E-1,2.1947289E0,5.839383E0,-1.4987956E-1,-4.070662E-1,2.7571409E0,2.430468E-2,-3.9366558E-1,-4.8195925E-1,-2.5586435E-1,-5.1085824E-1,-3.653798E-1,6.036933E-2,-4.1344735E-1,-2.4021359E-1,4.8086554E-1,5.8730335E0,7.695248E-1,-1.1717968E0,-4.383223E-2,-6.386563E-1,-4.1444764E-1,2.4670509E-1,2.0287254E-1,-4.5141616E-1,6.0098047E0,5.402882E-1,-6.5714353E-1,4.049386E0,2.5864656E0,1.5672499E-1],"categories":[],"categories_nodes":[],"categories_segments":[],"categories_sizes":[],"default_left":[0,0,0,0,0,0,0,0,0,0,0,0,0,0,0,0,0,0,0,0,0,0,0,0,0,0,0,0,0,0,0,0,0,0,0,0,0,0,0,0,0,0,0,0,0,0,0,0,0,0,0,0,0,0,0,0,0,0,0,0,0,0,0,0,0,0,0,0,0,0,0,0,0,0,0,0,0,0,0,0,0,0,0,0,0,0,0,0,0,0,0,0,0,0,0,0,0,0,0,0,0,0,0,0,0,0,0,0,0,0,0,0,0,0,0,0,0],"id":5,"left_children":[1,3,5,7,9,11,13,15,17,19,21,23,25,27,29,31,33,35,37,-1,39,41,43,45,47,49,51,53,55,57,59,61,63,65,67,69,71,73,75,-1,77,79,81,-1,83,85,87,89,91,93,95,97,99,101,103,105,107,109,111,113,115,-1,-1,-1,-1,-1,-1,-1,-1,-1,-1,-1,-1,-1,-1,-1,-1,-1,-1,-1,-1,-1,-1,-1,-1,-1,-1,-1,-1,-1,-1,-1,-1,-1,-1,-1,-1,-1,-1,-1,-1,-1,-1,-1,-1,-1,-1,-1,-1,-1,-1,-1,-1,-1,-1,-1,-1],"loss_changes":[1.336832E6,9.877346E5,9.405474E5,1.3231788E6,2.9965703E3,4.2141438E5,5.844179E5,7.215144E4,1.8610275E6,7.821484E1,3.6704707E3,1.1695761E6,1.93175E4,5.7797575E5,5.129408E5,8.261566E3,1.978019E5,4.78785E5,3.2052888E5,0E0,1.6771094E2,6.134611E3,3.7701074E2,1.4516251E6,2.6498098E4,1.8196875E3,4.4220875E4,4.7810506E5,1.3373797E5,1.01648805E5,6.1059625E5,1.592243E4,3.0577422E3,3.8122938E5,1.4542963E4,2.35164E5,3.8828425E5,2.2896807E3,3.208265E5,0E0,3.8749268E2,1.2453306E3,3.3481328E3,0E0,2.4491309E2,1.1331604E4,5.2939375E5,2.3122703E4,4.892776E4,6.8371875E2,5.5232773E3,4.0270727E4,1.28659375E4,1.753462E6,3.169019E5,4.5338016E4,1.4795562E5,2.3671531E4,2.1075183E5,7.06429E5,1.9650733E5,0E0,0E0,0E0,0E0,0E0,0E0,0E0,0E0,0E0,0E0,0E0,0E0,0E0,0E0,0E0,0E0,0E0,0E0,0E0,0E0,0E0,0E0,0E0,0E0,0E0,0E0,0E0,0E0,0E0,0E0,0E0,0E0,0E0,0E0,0E0,0E0,0E0,0E0,0E0,0E0,0E0,0E0,0E0,0E0,0E0,0E0,0E0,0E0,0E0,0E0,0E0,0E0,0E0,0E0,0E0,0E0],"parents":[2147483647,0,0,1,1,2,2,3,3,4,4,5,5,6,6,7,7,8,8,9,9,10,10,11,11,12,12,13,13,14,14,15,15,16,16,17,17,18,18,20,20,21,21,22,22,23,23,24,24,25,25,26,26,27,27,28,28,29,29,30,30,31,31,32,32,33,33,34,34,35,35,36,36,37,37,38,38,40,40,41,41,42,42,44,44,45,45,46,46,47,47,48,48,49,49,50,50,51,51,52,52,53,53,54,54,55,55,56,56,57,57,58,58,59,59,60,60],"right_children":[2,4,6,8,10,12,14,16,18,20,22,24,26,28,30,32,34,36,38,-1,40,42,44,46,48,50,52,54,56,58,60,62,64,66,68,70,72,74,76,-1,78,80,82,-1,84,86,88,90,92,94,96,98,100,102,104,106,108,110,112,114,116,-1,-1,-1,-1,-1,-1,-1,-1,-1,-1,-1,-1,-1,-1,-1,-1,-1,-1,-1,-1,-1,-1,-1,-1,-1,-1,-1,-1,-1,-1,-1,-1,-1,-1,-1,-1,-1,-1,-1,-1,-1,-1,-1,-1,-1,-1,-1,-1,-1,-1,-1,-1,-1,-1,-1,-1],"split_conditions":[-1.3293438E0,8.3335793E-1,9.820004E-1,-6.63361E-1,1.5241513E0,-7.515077E-1,1.1787547E0,-5.0064856E-1,-3.1796435E-1,-2.1085766E-1,1.6392835E0,-1.2390221E0,-6.4554393E-1,-1.0087577E0,-1.3909909E-2,-1.2390221E0,6.585149E-1,2.2736632E-3,-8.769988E-2,-4.9590006E-1,9.855777E-1,5.136195E-1,-2.1085766E-1,-1.0404258E0,1.2380966E0,6.930824E-1,-2.1085766E-1,-1.3909909E-2,-6.4554393E-1,1.0932012E0,9.855777E-1,-1.3541545E0,-5.136537E-1,-8.936255E-1,-1.3541545E0,-4.330966E-1,-5.0064856E-1,1.2380966E0,1.0932012E0,-4.8043498E-1,1.1787547E0,-3.557531E-1,1.5278875E0,-4.8396668E-1,3.6872405E-1,1.0932012E0,-1.4692867E0,2.2382863E-1,-1.1238899E0,-1.4692867E0,-8.769988E-2,1.1524635E-1,1.4090191E0,-1.2390221E0,1.5598364E0,-4.330966E-1,-5.136537E-1,1.2709184E0,1.2938869E0,1.2938869E0,1.2938869E0,-5.6430095E-1,6.8079036E-1,-5.137192E-1,-9.528785E-1,3.6000523E-1,4.638765E0,-1.072304E-2,-7.51131E-1,1.0119081E1,5.2781286E0,1.2614542E0,6.0677137E0,-3.196747E-1,1.3902543E-1,1.4683113E0,3.9123228E0,-3.0835924E-1,-4.9112722E-1,-4.969716E-1,-4.8656624E-2,7.699455E-1,-4.4501397E-1,-2.2442608E-1,-3.888656E-1,-3.6231932E-1,2.936142E-1,2.1947289E0,5.839383E0,-1.4987956E-1,-4.070662E-1,2.7571409E0,2.430468E-2,-3.9366558E-1,-4.8195925E-1,-2.5586435E-1,-5.1085824E-1,-3.653798E-1,6.036933E-2,-4.1344735E-1,-2.4021359E-1,4.8086554E-1,5.8730335E0,7.695248E-1,-1.1717968E0,-4.383223E-2,-6.386563E-1,-4.1444764E-1,2.4670509E-1,2.0287254E-1,-4.5141616E-1,6.0098047E0,5.402882E-1,-6.5714353E-1,4.049386E0,2.5864656E0,1.5672499E-1],"split_indices":[5,4,5,4,4,5,4,3,4,3,4,4,3,4,6,4,3,1,4,0,6,3,3,5,3,5,3,6,3,3,6,4,6,4,4,4,3,3,3,0,4,3,3,0,3,3,4,3,4,4,4,5,4,4,5,4,6,5,4,4,4,0,0,0,0,0,0,0,0,0,0,0,0,0,0,0,0,0,0,0,0,0,0,0,0,0,0,0,0,0,0,0,0,0,0,0,0,0,0,0,0,0,0,0,0,0,0,0,0,0,0,0,0,0,0,0,0],"split_type":[0,0,0,0,0,0,0,0,0,0,0,0,0,0,0,0,0,0,0,0,0,0,0,0,0,0,0,0,0,0,0,0,0,0,0,0,0,0,0,0,0,0,0,0,0,0,0,0,0,0,0,0,0,0,0,0,0,0,0,0,0,0,0,0,0,0,0,0,0,0,0,0,0,0,0,0,0,0,0,0,0,0,0,0,0,0,0,0,0,0,0,0,0,0,0,0,0,0,0,0,0,0,0,0,0,0,0,0,0,0,0,0,0,0,0,0,0],"sum_hessian":[1.42092E5,1.2506E4,1.29586E5,8.9E3,3.606E3,9.2657E4,3.6929E4,3.632E3,5.268E3,2.432E3,1.174E3,2.1681E4,7.0976E4,3.0054E4,6.875E3,1.217E3,2.415E3,1.212E3,4.056E3,1.011E3,1.421E3,3.91E2,7.83E2,3.218E3,1.8463E4,2.0863E4,5.0113E4,7.243E3,2.2811E4,2.839E3,4.036E3,5.46E2,6.71E2,1.213E3,1.202E3,4.64E2,7.48E2,8.07E2,3.249E3,9.39E2,4.82E2,2.56E2,1.35E2,3.31E2,4.52E2,1.621E3,1.597E3,1.5444E4,3.019E3,1.7418E4,3.445E3,8.891E3,4.1222E4,3.217E3,4.026E3,6.644E3,1.6167E4,2.256E3,5.83E2,2.012E3,2.024E3,4.1E2,1.36E2,2.69E2,4.02E2,9.47E2,2.66E2,3.95E2,8.07E2,3.1E2,1.54E2,2.56E2,4.92E2,6.78E2,1.29E2,2.57E3,6.79E2,2.33E2,2.49E2,1.51E2,1.05E2,1.07E2,2.8E1,1.34E2,3.18E2,1.291E3,3.3E2,7.99E2,7.98E2,1.0096E4,5.348E3,6.6E1,2.953E3,9.58E2,1.646E4,1.538E3,1.907E3,4.332E3,4.559E3,3.6356E4,4.866E3,2.414E3,8.03E2,2.831E3,1.195E3,1.734E3,4.91E3,4.823E3,1.1344E4,9.67E2,1.289E3,8.1E1,5.02E2,3.97E2,1.615E3,4.19E2,1.605E3],"tree_param":{"num_deleted":"0","num_feature":"9","num_nodes":"117","size_leaf_vector":"1"}},{"base_weights":[1.9953174E-3,8.889653E0,-8.557909E-1,1.4408462E1,-2.8123267E0,-2.3866272E0,2.985127E0,7.620697E-1,2.4591928E1,4.9461427E0,-3.678379E0,1.0864778E0,-3.447555E0,1.2722731E0,1.0471578E1,-4.8881054E0,3.6102283E0,5.4038918E1,1.4812505E1,2.3504211E1,-2.521271E1,-4.24881E0,-2.4940922E0,1.6919119E1,-1.673832E0,-4.25812E0,-3.1746256E0,8.276541E0,-9.520031E-1,-1.901463E0,1.5633353E1,-2.281203E0,-7.002819E0,1.171624E1,-4.5729036E0,7.677783E1,3.9849823E1,9.617032E0,3.4427273E1,1.5666422E1,3.435662E1,-1.3697915E1,-2.6541567E0,-4.4635907E-1,-4.0929685E0,-2.4045375E-1,-3.6177304E0,-2.0582252E0,3.617089E1,-2.078881E0,1.2224892E0,-4.4817204E0,-3.9787583E0,-2.2346647E0,-3.7778125E0,1.3074975E1,-4.147874E0,6.9769675E-1,-4.2488923E0,1.100227E1,-5.1641254E0,1.2667797E1,4.8518703E1,-5.080082E-1,6.1320823E-1,-4.6253753E-1,-8.578271E-1,3.2404268E-1,4.1766257E0,-9.653437E-3,-6.7611086E-1,9.110426E0,4.7537208E0,1.1357996E0,5.462173E0,-3.371144E-1,1.6126356E0,4.7961707E0,-1.2164308E0,4.2088013E0,7.033889E-1,6.2301035E0,1.3636771E0,-2.8051376E-2,-1.8836876E0,-4.3244264E-1,-3.6340377E-1,-2.4104957E-1,5.952906E-1,-4.4218692E-1,-3.104718E-1,-3.5173127E-1,2.2635587E-1,7.918799E-1,4.617213E0,-3.025818E-1,-1.0461463E-1,-1.7674701E-1,7.886398E-1,-4.7846895E-1,-4.4612536E-1,-4.2240497E-1,-2.7524456E-1,-3.3851823E-1,-1.7722867E-1,-3.9414573E-1,-2.5438672E-1,8.4262323E-1,3.1229897E0,4.4263503E-1,-5.831816E-1,-2.1164489E-1,4.5780444E-1,-4.9516854E-1,8.3282185E-1,-3.776079E-1,4.8362894E0,-6.825917E-1,-3.4668866E-1,2.184738E0,-3.424155E-1,3.6825333E0,8.73929E0],"categories":[],"categories_nodes":[],"categories_segments":[],"categories_sizes":[],"default_left":[0,0,0,0,0,0,0,0,0,0,0,0,0,0,0,0,0,0,0,0,0,0,0,0,0,0,0,0,0,0,0,0,0,0,0,0,0,0,0,0,0,0,0,0,0,0,0,0,0,0,0,0,0,0,0,0,0,0,0,0,0,0,0,0,0,0,0,0,0,0,0,0,0,0,0,0,0,0,0,0,0,0,0,0,0,0,0,0,0,0,0,0,0,0,0,0,0,0,0,0,0,0,0,0,0,0,0,0,0,0,0,0,0,0,0,0,0,0,0,0,0,0,0],"id":6,"left_children":[1,3,5,7,9,11,13,15,17,19,21,23,25,27,29,31,33,35,37,39,41,43,45,47,49,51,53,55,57,59,61,63,65,67,69,71,73,75,77,79,81,83,-1,-1,85,87,89,91,93,95,97,99,101,103,105,107,109,111,113,115,117,119,121,-1,-1,-1,-1,-1,-1,-1,-1,-1,-1,-1,-1,-1,-1,-1,-1,-1,-1,-1,-1,-1,-1,-1,-1,-1,-1,-1,-1,-1,-1,-1,-1,-1,-1,-1,-1,-1,-1,-1,-1,-1,-1,-1,-1,-1,-1,-1,-1,-1,-1,-1,-1,-1,-1,-1,-1,-1,-1,-1,-1],"loss_changes":[1.0832834E6,8.0775475E5,7.619549E5,1.1810665E6,2.6955629E4,3.41422E5,4.7354725E5,5.8482047E4,1.400772E6,2.2614769E5,2.426125E3,9.4759656E5,1.56885E4,4.6824756E5,4.391783E5,6.6986797E3,1.6031305E5,3.8830825E5,3.7214262E5,2.0726469E4,1.9928672E3,6.316797E1,2.9745522E3,1.1761282E6,2.1663621E4,1.0988125E3,3.0098875E4,4.3192512E5,1.2407465E5,8.531038E4,4.7256875E5,1.2911778E4,2.477332E3,3.0906844E5,1.1782988E4,1.90464E5,3.1461762E5,2.4447184E5,4.8298512E5,3.323249E4,5.9366844E4,1.235843E3,0E0,0E0,1.3533398E2,5.282771E3,3.0969824E2,1.0236068E4,4.5115862E5,1.5838406E4,4.5163566E4,4.0171875E1,2.3815703E3,1.1037242E4,6.5211562E3,4.4079856E5,2.9177145E4,1.6604622E5,6.728916E4,2.2600312E5,4.5370156E3,6.577125E5,1.7906438E5,0E0,0E0,0E0,0E0,0E0,0E0,0E0,0E0,0E0,0E0,0E0,0E0,0E0,0E0,0E0,0E0,0E0,0E0,0E0,0E0,0E0,0E0,0E0,0E0,0E0,0E0,0E0,0E0,0E0,0E0,0E0,0E0,0E0,0E0,0E0,0E0,0E0,0E0,0E0,0E0,0E0,0E0,0E0,0E0,0E0,0E0,0E0,0E0,0E0,0E0,0E0,0E0,0E0,0E0,0E0,0E0,0E0,0E0,0E0,0E0],"parents":[2147483647,0,0,1,1,2,2,3,3,4,4,5,5,6,6,7,7,8,8,9,9,10,10,11,11,12,12,13,13,14,14,15,15,16,16,17,17,18,18,19,19,20,20,21,21,22,22,23,23,24,24,25,25,26,26,27,27,28,28,29,29,30,30,31,31,32,32,33,33,34,34,35,35,36,36,37,37,38,38,39,39,40,40,41,41,44,44,45,45,46,46,47,47,48,48,49,49,50,50,51,51,52,52,53,53,54,54,55,55,56,56,57,57,58,58,59,59,60,60,61,61,62,62],"right_children":[2,4,6,8,10,12,14,16,18,20,22,24,26,28,30,32,34,36,38,40,42,44,46,48,50,52,54,56,58,60,62,64,66,68,70,72,74,76,78,80,82,84,-1,-1,86,88,90,92,94,96,98,100,102,104,106,108,110,112,114,116,118,120,122,-1,-1,-1,-1,-1,-1,-1,-1,-1,-1,-1,-1,-1,-1,-1,-1,-1,-1,-1,-1,-1,-1,-1,-1,-1,-1,-1,-1,-1,-1,-1,-1,-1,-1,-1,-1,-1,-1,-1,-1,-1,-1,-1,-1,-1,-1,-1,-1,-1,-1,-1,-1,-1,-1,-1,-1,-1,-1,-1,-1],"split_conditions":[-1.3293438E0,7.182257E-1,9.820004E-1,-6.63361E-1,8.3335793E-1,-7.515077E-1,1.1787547E0,-5.0064856E-1,-3.1796435E-1,5.136195E-1,1.5241513E0,-1.2390221E0,-7.9043937E-1,-1.0087577E0,-5.136537E-1,-1.2390221E0,6.585149E-1,2.2736632E-3,1.0932012E0,-3.557531E-1,6.585149E-1,-2.1085766E-1,1.6392835E0,-1.0404258E0,1.382992E0,4.8583388E-1,2.2382863E-1,9.855777E-1,1.5598364E0,1.2938869E0,1.7544158E0,-1.3541545E0,-5.136537E-1,-8.936255E-1,-1.3541545E0,-4.330966E-1,-5.0064856E-1,2.7432345E-2,9.855777E-1,-1.3700211E0,2.2736632E-3,-7.695552E-1,-2.6541567E0,-4.4635907E-1,9.855777E-1,8.0341035E-1,-3.557531E-1,1.4853215E0,-1.5844189E0,-1.0404258E0,7.182257E-1,-1.4692867E0,6.930824E-1,-5.0064856E-1,1.4090191E0,1.0932012E0,-1.0802302E0,4.8583388E-1,1.0636225E0,8.0341035E-1,-1.0133975E0,1.5241513E0,1.0932012E0,-5.080082E-1,6.1320823E-1,-4.6253753E-1,-8.578271E-1,3.2404268E-1,4.1766257E0,-9.653437E-3,-6.7611086E-1,9.110426E0,4.7537208E0,1.1357996E0,5.462173E0,-3.371144E-1,1.6126356E0,4.7961707E0,-1.2164308E0,4.2088013E0,7.033889E-1,6.2301035E0,1.3636771E0,-2.8051376E-2,-1.8836876E0,-4.3244264E-1,-3.6340377E-1,-2.4104957E-1,5.952906E-1,-4.4218692E-1,-3.104718E-1,-3.5173127E-1,2.2635587E-1,7.918799E-1,4.617213E0,-3.025818E-1,-1.0461463E-1,-1.7674701E-1,7.886398E-1,-4.7846895E-1,-4.4612536E-1,-4.2240497E-1,-2.7524456E-1,-3.3851823E-1,-1.7722867E-1,-3.9414573E-1,-2.5438672E-1,8.4262323E-1,3.1229897E0,4.4263503E-1,-5.831816E-1,-2.1164489E-1,4.5780444E-1,-4.9516854E-1,8.3282185E-1,-3.776079E-1,4.8362894E0,-6.825917E-1,-3.4668866E-1,2.184738E0,-3.424155E-1,3.6825333E0,8.73929E0],"split_indices":[5,4,5,4,4,5,4,3,4,3,4,4,3,4,6,4,3,1,3,3,3,3,4,5,3,6,3,6,5,4,4,4,6,4,4,4,3,4,6,3,1,1,0,0,6,3,3,6,4,5,4,4,5,3,4,3,3,6,4,3,6,4,3,0,0,0,0,0,0,0,0,0,0,0,0,0,0,0,0,0,0,0,0,0,0,0,0,0,0,0,0,0,0,0,0,0,0,0,0,0,0,0,0,0,0,0,0,0,0,0,0,0,0,0,0,0,0,0,0,0,0,0,0],"split_type":[0,0,0,0,0,0,0,0,0,0,0,0,0,0,0,0,0,0,0,0,0,0,0,0,0,0,0,0,0,0,0,0,0,0,0,0,0,0,0,0,0,0,0,0,0,0,0,0,0,0,0,0,0,0,0,0,0,0,0,0,0,0,0,0,0,0,0,0,0,0,0,0,0,0,0,0,0,0,0,0,0,0,0,0,0,0,0,0,0,0,0,0,0,0,0,0,0,0,0,0,0,0,0,0,0,0,0,0,0,0,0,0,0,0,0,0,0,0,0,0,0,0,0],"sum_hessian":[1.42092E5,1.2506E4,1.29586E5,8.498E3,4.008E3,9.2657E4,3.6929E4,3.632E3,4.866E3,4.02E2,3.606E3,2.1681E4,7.0976E4,3.0054E4,6.875E3,1.217E3,2.415E3,1.212E3,3.654E3,2.49E2,1.53E2,2.432E3,1.174E3,3.218E3,1.8463E4,1.7875E4,5.3101E4,7.243E3,2.2811E4,2.024E3,4.851E3,5.46E2,6.71E2,1.213E3,1.202E3,4.64E2,7.48E2,2.89E3,7.64E2,1.46E2,1.03E2,1.7E1,1.36E2,1.011E3,1.421E3,3.91E2,7.83E2,1.621E3,1.597E3,1.6198E4,2.265E3,9.92E3,7.955E3,2.0758E4,3.2343E4,5.225E3,2.018E3,1.5204E4,7.607E3,4.08E2,1.616E3,4.451E3,4E2,4.1E2,1.36E2,2.69E2,4.02E2,9.47E2,2.66E2,3.95E2,8.07E2,3.1E2,1.54E2,2.56E2,4.92E2,9.65E2,1.925E3,5.92E2,1.72E2,3.5E1,1.11E2,4.3E1,6E1,5E0,1.2E1,9.39E2,4.82E2,2.9E2,1.01E2,3.02E2,4.81E2,1.212E3,4.09E2,4.18E2,1.179E3,8.449E3,7.749E3,1.564E3,7.01E2,6.13E2,9.307E3,6.627E3,1.328E3,5.949E3,1.4809E4,2.8554E4,3.789E3,4.161E3,1.064E3,3.31E2,1.687E3,8.813E3,6.391E3,7.205E3,4.02E2,2.93E2,1.15E2,8.15E2,8.01E2,2.834E3,1.617E3,3.09E2,9.1E1],"tree_param":{"num_deleted":"0","num_feature":"9","num_nodes":"123","size_leaf_vector":"1"}},{"base_weights":[2.2110748E-3,8.003424E0,-7.700205E-1,1.29709E1,-2.5295224E0,-2.1479354E0,2.6872125E0,6.865784E-1,2.2137936E1,4.471231E0,-3.3109958E0,9.780831E-1,-3.102839E0,1.1451924E0,9.426992E0,-4.062861E0,3.563642E0,4.8651894E1,1.3332582E1,2.1203814E1,-2.2721087E1,-3.8244393E0,-2.245022E0,1.5228848E1,-1.5064377E0,-3.7622652E0,-2.8282375E0,7.4494147E0,-8.5677725E-1,1.9206148E1,4.091389E0,-5.446501E0,8.7381876E-1,1.3838787E1,-3.3320556E0,6.912986E1,3.587365E1,8.078677E0,2.9056757E1,1.4133197E1,3.0993975E1,-1.2434331E1,-2.3906782E0,-4.0024805E-1,-3.671537E0,-3.9636493E0,-9.660927E-1,-1.8524798E0,3.2557186E1,5.4397407E0,-1.6723629E0,-4.0398583E0,-3.4989583E0,-1.0929091E0,-3.2024877E0,1.1768236E1,-3.7331564E0,1.6221803E0,-3.081829E0,-2.1977403E0,4.0418694E1,1.5354778E1,-2.3867066E0,-4.6033928E-1,-7.5488526E-1,8.9236397E-1,-7.50825E-1,4.9282238E-1,4.5810924E0,2.8551194E-1,-4.1161832E-1,8.202312E0,4.2814155E0,1.0226616E0,4.9170637E0,1.4434793E0,-4.8961887E-1,4.0866685E0,-1.153405E0,3.7996125E0,6.3367814E-1,5.6212525E0,1.2295449E0,-2.5713762E-2,-1.7098087E0,-3.8945305E-1,-3.2297888E-1,-4.075422E-1,-2.823889E-1,2.6783776E-1,-2.7580371E-1,-3.0551118E-1,2.8473783E-1,4.766273E0,1.4530787E0,-2.780693E-1,3.198193E0,-2.7416584E-1,-3.3596862E-2,-4.1337886E-1,-3.9984494E-1,-3.9251333E-1,-2.995815E-1,-3.0570805E-1,7.73724E-2,-2.7864212E-1,-3.7646157E-1,-8.8222526E-2,1.7441553E0,8.14957E-2,-6.7872417E-1,-2.4799453E-1,6.702489E-1,-1.7913905E-1,-6.6403633E-1,9.912945E-1,-8.378855E-1,9.504346E-1,1.0184524E1,-3.1806585E-1,3.3871331E0,1.6140562E0,-9.916255E-1],"categories":[],"categories_nodes":[],"categories_segments":[],"categories_sizes":[],"default_left":[0,0,0,0,0,0,0,0,0,0,0,0,0,0,0,0,0,0,0,0,0,0,0,0,0,0,0,0,0,0,0,0,0,0,0,0,0,0,0,0,0,0,0,0,0,0,0,0,0,0,0,0,0,0,0,0,0,0,0,0,0,0,0,0,0,0,0,0,0,0,0,0,0,0,0,0,0,0,0,0,0,0,0,0,0,0,0,0,0,0,0,0,0,0,0,0,0,0,0,0,0,0,0,0,0,0,0,0,0,0,0,0,0,0,0,0,0,0,0,0,0,0,0],"id":7,"left_children":[1,3,5,7,9,11,13,15,17,19,21,23,25,27,29,31,33,35,37,39,41,43,45,47,49,51,53,55,57,59,61,63,65,67,69,71,73,75,77,79,81,83,-1,-1,85,87,89,91,93,95,97,99,101,103,105,107,109,111,113,115,117,119,121,-1,-1,-1,-1,-1,-1,-1,-1,-1,-1,-1,-1,-1,-1,-1,-1,-1,-1,-1,-1,-1,-1,-1,-1,-1,-1,-1,-1,-1,-1,-1,-1,-1,-1,-1,-1,-1,-1,-1,-1,-1,-1,-1,-1,-1,-1,-1,-1,-1,-1,-1,-1,-1,-1,-1,-1,-1,-1,-1,-1],"loss_changes":[8.779688E5,6.54426E5,6.1732875E5,9.57064E5,2.1947654E4,2.765914E5,3.837982E5,4.965739E4,1.1356245E6,1.8384583E5,1.9655859E3,7.677029E5,1.28418125E4,3.7932638E5,3.586952E5,9.369492E3,1.6038938E5,3.1492875E5,3.0171688E5,1.6867578E4,1.5810703E3,5.1535156E1,2.5788242E3,9.528554E5,2.1289715E4,1.5108438E3,3.2542875E4,3.4989675E5,1.2583165E5,1.1020219E6,3.247323E5,1.8636055E3,2.0376719E4,2.5873897E5,6.585583E3,1.5426075E5,2.5492738E5,2.2612023E5,4.3909912E5,2.7107879E4,4.835E4,1.0178501E3,0E0,0E0,1.1755078E2,5.2315918E1,4.4156016E3,9.176568E3,4.3444025E5,9.4128086E4,2.5769672E4,2.29375E1,2.2858281E3,3.260388E4,9.630875E3,3.7508588E5,2.80501E4,2.2490175E5,5.519396E4,9.058581E4,2.3138665E6,5.578279E5,3.9439262E5,0E0,0E0,0E0,0E0,0E0,0E0,0E0,0E0,0E0,0E0,0E0,0E0,0E0,0E0,0E0,0E0,0E0,0E0,0E0,0E0,0E0,0E0,0E0,0E0,0E0,0E0,0E0,0E0,0E0,0E0,0E0,0E0,0E0,0E0,0E0,0E0,0E0,0E0,0E0,0E0,0E0,0E0,0E0,0E0,0E0,0E0,0E0,0E0,0E0,0E0,0E0,0E0,0E0,0E0,0E0,0E0,0E0,0E0,0E0,0E0],"parents":[2147483647,0,0,1,1,2,2,3,3,4,4,5,5,6,6,7,7,8,8,9,9,10,10,11,11,12,12,13,13,14,14,15,15,16,16,17,17,18,18,19,19,20,20,21,21,22,22,23,23,24,24,25,25,26,26,27,27,28,28,29,29,30,30,31,31,32,32,33,33,34,34,35,35,36,36,37,37,38,38,39,39,40,40,41,41,44,44,45,45,46,46,47,47,48,48,49,49,50,50,51,51,52,52,53,53,54,54,55,55,56,56,57,57,58,58,59,59,60,60,61,61,62,62],"right_children":[2,4,6,8,10,12,14,16,18,20,22,24,26,28,30,32,34,36,38,40,42,44,46,48,50,52,54,56,58,60,62,64,66,68,70,72,74,76,78,80,82,84,-1,-1,86,88,90,92,94,96,98,100,102,104,106,108,110,112,114,116,118,120,122,-1,-1,-1,-1,-1,-1,-1,-1,-1,-1,-1,-1,-1,-1,-1,-1,-1,-1,-1,-1,-1,-1,-1,-1,-1,-1,-1,-1,-1,-1,-1,-1,-1,-1,-1,-1,-1,-1,-1,-1,-1,-1,-1,-1,-1,-1,-1,-1,-1,-1,-1,-1,-1,-1,-1,-1,-1,-1,-1,-1],"split_conditions":[-1.3293438E0,7.182257E-1,9.820004E-1,-6.63361E-1,8.3335793E-1,-7.515077E-1,1.1787547E0,-3.557531E-1,-3.1796435E-1,5.136195E-1,1.5241513E0,-1.2390221E0,-6.4554393E-1,-1.0087577E0,1.4090191E0,9.855777E-1,5.136195E-1,2.2736632E-3,9.483058E-1,-3.557531E-1,6.585149E-1,-6.596223E-2,-2.1085766E-1,-1.0404258E0,-1.1238899E0,1.1524635E-1,-2.1085766E-1,9.855777E-1,2.7432345E-2,4.8583388E-1,1.2709184E0,-8.936255E-1,-1.2390221E0,-8.936255E-1,6.585149E-1,-4.330966E-1,-5.0064856E-1,4.8583388E-1,9.855777E-1,-1.3700211E0,2.2736632E-3,-7.695552E-1,-2.3906782E0,-4.0024805E-1,9.855777E-1,-3.557531E-1,1.6392835E0,1.0932012E0,2.2382863E-1,9.483058E-1,3.7282905E-1,-5.482288E-1,4.8583388E-1,1.1524635E-1,9.483058E-1,1.2709184E0,1.4853215E0,4.8583388E-1,9.855777E-1,-5.136537E-1,1.2709184E0,1.6392835E0,1.5241513E0,-4.6033928E-1,-7.5488526E-1,8.9236397E-1,-7.50825E-1,4.9282238E-1,4.5810924E0,2.8551194E-1,-4.1161832E-1,8.202312E0,4.2814155E0,1.0226616E0,4.9170637E0,1.4434793E0,-4.8961887E-1,4.0866685E0,-1.153405E0,3.7996125E0,6.3367814E-1,5.6212525E0,1.2295449E0,-2.5713762E-2,-1.7098087E0,-3.8945305E-1,-3.2297888E-1,-4.075422E-1,-2.823889E-1,2.6783776E-1,-2.7580371E-1,-3.0551118E-1,2.8473783E-1,4.766273E0,1.4530787E0,-2.780693E-1,3.198193E0,-2.7416584E-1,-3.3596862E-2,-4.1337886E-1,-3.9984494E-1,-3.9251333E-1,-2.995815E-1,-3.0570805E-1,7.73724E-2,-2.7864212E-1,-3.7646157E-1,-8.8222526E-2,1.7441553E0,8.14957E-2,-6.7872417E-1,-2.4799453E-1,6.702489E-1,-1.7913905E-1,-6.6403633E-1,9.912945E-1,-8.378855E-1,9.504346E-1,1.0184524E1,-3.1806585E-1,3.3871331E0,1.6140562E0,-9.916255E-1],"split_indices":[5,4,5,4,4,5,4,3,4,3,4,4,3,4,4,6,3,1,3,3,3,3,3,5,4,5,3,6,4,6,5,4,4,4,3,4,3,6,6,3,1,1,0,0,6,3,4,3,3,3,4,4,6,5,3,5,6,6,6,6,5,4,4,0,0,0,0,0,0,0,0,0,0,0,0,0,0,0,0,0,0,0,0,0,0,0,0,0,0,0,0,0,0,0,0,0,0,0,0,0,0,0,0,0,0,0,0,0,0,0,0,0,0,0,0,0,0,0,0,0,0,0,0],"split_type":[0,0,0,0,0,0,0,0,0,0,0,0,0,0,0,0,0,0,0,0,0,0,0,0,0,0,0,0,0,0,0,0,0,0,0,0,0,0,0,0,0,0,0,0,0,0,0,0,0,0,0,0,0,0,0,0,0,0,0,0,0,0,0,0,0,0,0,0,0,0,0,0,0,0,0,0,0,0,0,0,0,0,0,0,0,0,0,0,0,0,0,0,0,0,0,0,0,0,0,0,0,0,0,0,0,0,0,0,0,0,0,0,0,0,0,0,0,0,0,0,0,0,0],"sum_hessian":[1.42092E5,1.2506E4,1.29586E5,8.498E3,4.008E3,9.2657E4,3.6929E4,3.632E3,4.866E3,4.02E2,3.606E3,2.1681E4,7.0976E4,3.0054E4,6.875E3,1.37E3,2.262E3,1.212E3,3.654E3,2.49E2,1.53E2,2.432E3,1.174E3,3.218E3,1.8463E4,2.0863E4,5.0113E4,7.243E3,2.2811E4,2.426E3,4.449E3,1.07E3,3E2,9.08E2,1.354E3,4.64E2,7.48E2,2.74E3,9.14E2,1.46E2,1.03E2,1.7E1,1.36E2,1.112E3,1.32E3,5E2,6.74E2,1.621E3,1.597E3,4.3E2,1.8033E4,1.0149E4,1.0714E4,8.891E3,4.1222E4,5.225E3,2.018E3,1.079E4,1.2021E4,1.208E3,1.218E3,1.624E3,2.825E3,7.66E2,3.04E2,1.53E2,1.47E2,7.11E2,1.97E2,1.52E2,1.202E3,3.1E2,1.54E2,2.56E2,4.92E2,1.839E3,9.01E2,7.08E2,2.06E2,3.5E1,1.11E2,4.3E1,6E1,5E0,1.2E1,8.72E2,4.48E2,4.53E2,4.7E1,2.22E2,4.52E2,1.291E3,3.3E2,8.68E2,7.29E2,3.29E2,1.01E2,1.0017E4,8.016E3,3.075E3,7.074E3,5.797E3,4.917E3,4.332E3,4.559E3,2.3692E4,1.753E4,1.618E3,3.607E3,8.11E2,1.207E3,5.97E3,4.82E3,8.823E3,3.198E3,4.08E2,8E2,8.11E2,4.07E2,8.12E2,8.12E2,8.16E2,2.009E3],"tree_param":{"num_deleted":"0","num_feature":"9","num_nodes":"123","size_leaf_vector":"1"}},{"base_weights":[2.3669787E-3,7.2056026E0,-6.928483E-1,1.167689E1,-2.2752366E0,-1.9330726E0,2.4189143E0,6.1898685E-1,1.9928726E1,4.0418687E0,-2.9803982E0,8.80681E-1,-2.7925887E0,-4.885308E0,3.6287158E0,-3.6573582E0,3.209464E0,4.3801895E1,1.2000387E1,2.0704138E1,-1.8685328E1,-3.442453E0,-2.0211139E0,1.3707889E1,-1.3556526E0,-2.969392E0,-1.8941871E0,-1.6294544E1,-3.9176137E0,6.2907E0,-1.7668023E0,-4.902985E0,7.869068E-1,1.3945007E1,-2.1639915E0,2.4907259E1,5.555557E1,-5.020697E0,1.682519E1,1.2750035E1,3.390585E1,-7.0026875E0,-2.1533554E1,-3.2865548E0,-3.5937554E-1,-3.5686615E0,-8.694953E-1,-1.6672447E0,2.9305359E1,-2.8110092E0,-6.209256E-1,-2.7207482E0,-3.9288814E0,-3.7409935E0,4.194076E-1,-1.4625475E0,-2.23231E0,-5.743738E0,-3.1567397E0,3.6193182E0,1.6575974E1,-3.2604702E0,4.46248E0,-4.1436535E-1,-6.796442E-1,8.0370694E-1,-6.762498E-1,6.3093644E-1,4.120998E0,3.881238E-1,-3.7049073E-1,5.290145E-1,6.6739154E0,8.57845E0,4.4194045E0,-3.6760798E-1,-7.6863563E-1,2.7161488E-1,2.5558577E0,3.4302056E0,5.7087606E-1,6.0129466E0,1.5099005E0,4.6829954E-1,-1.4120728E0,-1.6401675E0,-2.20766E0,-3.5220337E-1,-2.8184932E-1,-3.6687776E-1,-2.547383E-1,2.411741E-1,-2.4828422E-1,-2.9803166E-1,2.2215925E-1,1.390221E0,4.469111E0,-4.031446E-1,5.147458E-1,-1.0951376E-1,6.281479E-1,-3.4367722E-1,-2.196896E-1,-1.9903395E-1,-3.9824262E-1,-1.9763398E-1,-4.156838E-1,3.1986102E-1,-3.9909133E-1,-2.0908718E0,-4.3172422E-1,5.6923276E-1,-4.0006572E-1,1.3339165E-1,1.0604554E0,4.5313864E0,1.0806497E0,5.314211E-2,-6.108824E-1,2.015664E0,3.553756E-2],"categories":[],"categories_nodes":[],"categories_segments":[],"categories_sizes":[],"default_left":[0,0,0,0,0,0,0,0,0,0,0,0,0,0,0,0,0,0,0,0,0,0,0,0,0,0,0,0,0,0,0,0,0,0,0,0,0,0,0,0,0,0,0,0,0,0,0,0,0,0,0,0,0,0,0,0,0,0,0,0,0,0,0,0,0,0,0,0,0,0,0,0,0,0,0,0,0,0,0,0,0,0,0,0,0,0,0,0,0,0,0,0,0,0,0,0,0,0,0,0,0,0,0,0,0,0,0,0,0,0,0,0,0,0,0,0,0,0,0,0,0],"id":8,"left_children":[1,3,5,7,9,11,13,15,17,19,21,23,25,27,29,31,33,35,37,39,41,43,45,47,49,51,53,55,57,59,61,63,65,67,69,71,73,75,77,79,81,83,85,87,-1,89,91,93,95,97,99,101,103,105,107,-1,-1,109,111,113,115,117,119,-1,-1,-1,-1,-1,-1,-1,-1,-1,-1,-1,-1,-1,-1,-1,-1,-1,-1,-1,-1,-1,-1,-1,-1,-1,-1,-1,-1,-1,-1,-1,-1,-1,-1,-1,-1,-1,-1,-1,-1,-1,-1,-1,-1,-1,-1,-1,-1,-1,-1,-1,-1,-1,-1,-1,-1,-1,-1],"loss_changes":[7.1157825E5,5.3021775E5,5.0011766E5,7.755046E5,1.787046E4,2.2409275E5,3.263555E5,4.0257293E4,9.2067375E5,1.529976E5,1.5918164E3,6.2198656E5,1.1268375E4,5.7877516E4,4.5506722E5,7.5935723E3,1.3057578E5,2.68001E5,3.0024538E5,2.4034508E4,5.539199E3,4.558008E1,2.0909639E3,7.720074E5,1.9741617E4,1.4137469E4,4.988179E4,3.7989688E3,6.705422E3,5.828685E5,9.741383E4,1.5116797E3,1.6529408E4,1.5692008E5,1.4070999E4,3.8287694E5,2.527635E5,2.8678496E3,3.5086025E5,2.2111969E4,4.199908E4,2.9773977E3,1.9703125E1,1.234375E2,0E0,4.1879395E1,3.5792847E3,8.289076E3,3.7808725E5,6.0181867E4,4.017235E4,1.766E4,1.2587344E3,4.755742E3,6.3541703E4,0E0,0E0,3.0671543E4,2.5547988E4,2.688687E5,7.2473075E5,9.120393E4,1.3051939E5,0E0,0E0,0E0,0E0,0E0,0E0,0E0,0E0,0E0,0E0,0E0,0E0,0E0,0E0,0E0,0E0,0E0,0E0,0E0,0E0,0E0,0E0,0E0,0E0,0E0,0E0,0E0,0E0,0E0,0E0,0E0,0E0,0E0,0E0,0E0,0E0,0E0,0E0,0E0,0E0,0E0,0E0,0E0,0E0,0E0,0E0,0E0,0E0,0E0,0E0,0E0,0E0,0E0,0E0,0E0,0E0,0E0,0E0],"parents":[2147483647,0,0,1,1,2,2,3,3,4,4,5,5,6,6,7,7,8,8,9,9,10,10,11,11,12,12,13,13,14,14,15,15,16,16,17,17,18,18,19,19,20,20,21,21,22,22,23,23,24,24,25,25,26,26,27,27,28,28,29,29,30,30,31,31,32,32,33,33,34,34,35,35,36,36,37,37,38,38,39,39,40,40,41,41,42,42,43,43,45,45,46,46,47,47,48,48,49,49,50,50,51,51,52,52,53,53,54,54,57,57,58,58,59,59,60,60,61,61,62,62],"right_children":[2,4,6,8,10,12,14,16,18,20,22,24,26,28,30,32,34,36,38,40,42,44,46,48,50,52,54,56,58,60,62,64,66,68,70,72,74,76,78,80,82,84,86,88,-1,90,92,94,96,98,100,102,104,106,108,-1,-1,110,112,114,116,118,120,-1,-1,-1,-1,-1,-1,-1,-1,-1,-1,-1,-1,-1,-1,-1,-1,-1,-1,-1,-1,-1,-1,-1,-1,-1,-1,-1,-1,-1,-1,-1,-1,-1,-1,-1,-1,-1,-1,-1,-1,-1,-1,-1,-1,-1,-1,-1,-1,-1,-1,-1,-1,-1,-1,-1,-1,-1,-1],"split_conditions":[-1.3293438E0,7.182257E-1,9.820004E-1,-6.63361E-1,8.3335793E-1,-7.515077E-1,-1.0133975E0,-3.557531E-1,-3.1796435E-1,3.6872405E-1,1.5241513E0,-1.2390221E0,6.930824E-1,-1.4692867E0,9.855777E-1,9.855777E-1,3.6872405E-1,-3.557531E-1,-8.769988E-2,-3.557531E-1,6.585149E-1,1.1787547E0,-2.1085766E-1,-1.0404258E0,-5.0064856E-1,1.0932012E0,4.8583388E-1,1.0932012E0,-6.4554393E-1,1.0932012E0,1.0636225E0,-8.936255E-1,-1.2390221E0,-8.936255E-1,6.585149E-1,-4.330966E-1,2.2382863E-1,6.585149E-1,2.2736632E-3,-1.3700211E0,2.2736632E-3,2.2736632E-3,8.0341035E-1,1.0636225E0,-3.5937554E-1,-3.557531E-1,1.6392835E0,1.4853215E0,-1.4692867E0,1.4853215E0,1.4090191E0,-5.0064856E-1,-1.5844189E0,-1.2390221E0,1.4853215E0,-1.4625475E0,-2.23231E0,-1.2390221E0,-1.2390221E0,4.8583388E-1,-1.1238899E0,-5.482288E-1,1.2938869E0,-4.1436535E-1,-6.796442E-1,8.0370694E-1,-6.762498E-1,6.3093644E-1,4.120998E0,3.881238E-1,-3.7049073E-1,5.290145E-1,6.6739154E0,8.57845E0,4.4194045E0,-3.6760798E-1,-7.6863563E-1,2.7161488E-1,2.5558577E0,3.4302056E0,5.7087606E-1,6.0129466E0,1.5099005E0,4.6829954E-1,-1.4120728E0,-1.6401675E0,-2.20766E0,-3.5220337E-1,-2.8184932E-1,-3.6687776E-1,-2.547383E-1,2.411741E-1,-2.4828422E-1,-2.9803166E-1,2.2215925E-1,1.390221E0,4.469111E0,-4.031446E-1,5.147458E-1,-1.0951376E-1,6.281479E-1,-3.4367722E-1,-2.196896E-1,-1.9903395E-1,-3.9824262E-1,-1.9763398E-1,-4.156838E-1,3.1986102E-1,-3.9909133E-1,-2.0908718E0,-4.3172422E-1,5.6923276E-1,-4.0006572E-1,1.3339165E-1,1.0604554E0,4.5313864E0,1.0806497E0,5.314211E-2,-6.108824E-1,2.015664E0,3.553756E-2],"split_indices":[5,4,5,4,4,5,6,3,4,3,4,4,5,4,6,6,3,3,4,3,3,4,3,5,3,3,6,3,3,3,4,4,4,4,3,4,3,3,1,3,1,1,3,4,0,3,4,6,4,6,4,3,4,4,6,0,0,4,4,6,4,4,4,0,0,0,0,0,0,0,0,0,0,0,0,0,0,0,0,0,0,0,0,0,0,0,0,0,0,0,0,0,0,0,0,0,0,0,0,0,0,0,0,0,0,0,0,0,0,0,0,0,0,0,0,0,0,0,0,0,0],"split_type":[0,0,0,0,0,0,0,0,0,0,0,0,0,0,0,0,0,0,0,0,0,0,0,0,0,0,0,0,0,0,0,0,0,0,0,0,0,0,0,0,0,0,0,0,0,0,0,0,0,0,0,0,0,0,0,0,0,0,0,0,0,0,0,0,0,0,0,0,0,0,0,0,0,0,0,0,0,0,0,0,0,0,0,0,0,0,0,0,0,0,0,0,0,0,0,0,0,0,0,0,0,0,0,0,0,0,0,0,0,0,0,0,0,0,0,0,0,0,0,0,0],"sum_hessian":[1.42092E5,1.2506E4,1.29586E5,8.498E3,4.008E3,9.2657E4,3.6929E4,3.632E3,4.866E3,4.02E2,3.606E3,2.1681E4,7.0976E4,5.247E3,3.1682E4,1.37E3,2.262E3,1.212E3,3.654E3,2.32E2,1.7E2,2.432E3,1.174E3,3.218E3,1.8463E4,5.9303E4,1.1673E4,4.09E2,4.838E3,2.1215E4,1.0467E4,1.07E3,3E2,7.54E2,1.508E3,4.66E2,7.46E2,8.07E2,2.847E3,1.46E2,8.6E1,3.4E1,1.36E2,1.209E3,1.223E3,5E2,6.74E2,1.621E3,1.597E3,6.193E3,1.227E4,4.7101E4,1.2202E4,6.491E3,5.182E3,3.23E2,8.6E1,1.421E3,3.417E3,1.6842E4,4.373E3,8.443E3,2.024E3,7.66E2,3.04E2,1.53E2,1.47E2,5.9E2,1.64E2,3.06E2,1.202E3,3.18E2,1.48E2,2.02E2,5.44E2,5.38E2,2.69E2,1.089E3,1.758E3,3.5E1,1.11E2,3.5E1,5.1E1,1.3E1,2.1E1,1.6E1,1.2E2,8E2,4.09E2,4.53E2,4.7E1,2.22E2,4.52E2,1.212E3,4.09E2,7.99E2,7.98E2,5.37E3,8.23E2,1.1482E4,7.88E2,1.9898E4,2.7203E4,3.29E2,1.1873E4,1.239E3,5.252E3,3.179E3,2.003E3,1.21E2,1.3E3,2.97E2,3.12E3,1.2691E4,4.151E3,7.3E2,3.643E3,3.622E3,4.821E3,4.19E2,1.605E3],"tree_param":{"num_deleted":"0","num_feature":"9","num_nodes":"121","size_leaf_vector":"1"}},{"base_weights":[2.3949756E-3,6.4875054E0,-6.23511E-1,1.0512225E1,-2.0464382E0,-1.7397162E0,2.1770837E0,5.5813503E-1,1.7940353E1,3.654388E0,-2.6828082E0,7.929086E-1,-2.513356E0,8.1647754E-1,8.123978E0,-1.0568334E0,6.1523027E0,3.943836E1,1.0800812E1,1.8683184E1,-1.6844816E1,-3.098616E0,-1.8195374E0,1.2338896E1,-1.2200532E0,-2.6564908E0,-1.448175E0,6.122837E0,-8.6860424E-1,1.659275E1,3.50334E0,-4.089062E0,3.1425307E0,1.8501308E1,-6.549916E0,5.790268E1,2.7922543E1,6.5196443E0,2.696559E1,1.1502251E1,3.0601736E1,-6.329384E0,-1.9408285E1,-3.274607E-1,-2.9711885E0,-3.213036E0,-7.825562E-1,-1.5005668E0,2.6378489E1,5.1187625E0,-1.3714788E0,-2.335498E0,-3.4195216E0,1.548546E0,-2.6493173E0,1.3420185E1,2.89962E-1,-4.180726E0,4.9272174E-1,-2.3093472E0,3.5326176E1,1.3674614E1,-2.346562E0,-3.243572E-1,-4.5123225E-1,7.625144E-1,-5.7853526E-1,-8.8247615E-1,3.5122678E0,-2.1227589E-1,-8.682148E-1,7.032535E0,3.2603626E0,6.6964364E-1,3.8931034E0,1.2277336E0,-5.2203166E-1,3.8143177E0,-1.1504217E0,3.0967133E0,5.142983E-1,5.4283547E0,1.3618139E0,4.2481455E-1,-1.277284E0,-1.7258686E0,-2.0639617E0,-2.703092E-1,-3.2310283E-1,-3.302708E-1,-2.297952E-1,2.1716486E-1,-2.2351061E-1,-2.4584141E-1,3.3915356E-1,3.9968555E0,1.016459E0,-2.254587E-1,2.8923533E0,-2.3090151E-1,-1.997674E-2,-2.6302075E-1,-8.461194E-2,-2.9669645E-1,-3.9107317E-1,-1.1988553E-1,7.162957E-1,-3.4671748E-1,-1.434965E-1,-1.3406422E0,2.9613721E0,5.874123E-1,-1.2932976E0,-5.0399978E-2,-5.47882E-1,2.2393756E-1,-3.0110687E-1,8.60341E-1,-7.8786457E-1,7.4978244E-1,9.062346E0,-2.8188282E-1,3.0151236E0,1.4348809E0,-9.131522E-1],"categories":[],"categories_nodes":[],"categories_segments":[],"categories_sizes":[],"default_left":[0,0,0,0,0,0,0,0,0,0,0,0,0,0,0,0,0,0,0,0,0,0,0,0,0,0,0,0,0,0,0,0,0,0,0,0,0,0,0,0,0,0,0,0,0,0,0,0,0,0,0,0,0,0,0,0,0,0,0,0,0,0,0,0,0,0,0,0,0,0,0,0,0,0,0,0,0,0,0,0,0,0,0,0,0,0,0,0,0,0,0,0,0,0,0,0,0,0,0,0,0,0,0,0,0,0,0,0,0,0,0,0,0,0,0,0,0,0,0,0,0,0,0,0,0],"id":9,"left_children":[1,3,5,7,9,11,13,15,17,19,21,23,25,27,29,31,33,35,37,39,41,43,45,47,49,51,53,55,57,59,61,63,65,67,69,71,73,75,77,79,81,83,85,-1,87,89,91,93,95,97,99,101,103,105,107,109,111,113,115,117,119,121,123,-1,-1,-1,-1,-1,-1,-1,-1,-1,-1,-1,-1,-1,-1,-1,-1,-1,-1,-1,-1,-1,-1,-1,-1,-1,-1,-1,-1,-1,-1,-1,-1,-1,-1,-1,-1,-1,-1,-1,-1,-1,-1,-1,-1,-1,-1,-1,-1,-1,-1,-1,-1,-1,-1,-1,-1,-1,-1,-1,-1,-1,-1],"loss_changes":[5.7676944E5,4.29596E5,4.0509772E5,6.284082E5,1.4553793E4,1.8155044E5,2.9880806E5,3.282849E4,7.465899E5,1.2447029E5,1.2891113E3,5.039401E5,1.0817594E4,2.687466E5,2.6900753E5,3.5921133E4,1.2780505E5,2.563055E5,2.5276525E5,1.9589617E4,4.486629E3,4.4833984E1,1.695398E3,6.254927E5,1.7729857E4,1.5316625E4,3.0275803E4,3.0833347E5,1.0285857E5,8.594848E5,2.648113E5,5.71541E2,4.7388062E4,1.878932E5,3.7763418E3,1.4384812E5,1.7475619E5,1.9548147E5,3.2938862E5,1.8036744E4,3.4252375E4,2.439715E3,6.4140625E0,0E0,9.032617E1,3.3521484E1,2.9013665E3,7.6088467E3,3.5170962E5,7.571472E4,1.9810285E4,1.9330203E4,4.106547E3,3.713666E4,5.958004E3,1.3983528E6,2.974257E5,3.1712078E4,9.895343E4,7.354645E4,1.8751572E6,4.4168884E5,3.2025306E5,0E0,0E0,0E0,0E0,0E0,0E0,0E0,0E0,0E0,0E0,0E0,0E0,0E0,0E0,0E0,0E0,0E0,0E0,0E0,0E0,0E0,0E0,0E0,0E0,0E0,0E0,0E0,0E0,0E0,0E0,0E0,0E0,0E0,0E0,0E0,0E0,0E0,0E0,0E0,0E0,0E0,0E0,0E0,0E0,0E0,0E0,0E0,0E0,0E0,0E0,0E0,0E0,0E0,0E0,0E0,0E0,0E0,0E0,0E0,0E0,0E0,0E0],"parents":[2147483647,0,0,1,1,2,2,3,3,4,4,5,5,6,6,7,7,8,8,9,9,10,10,11,11,12,12,13,13,14,14,15,15,16,16,17,17,18,18,19,19,20,20,21,21,22,22,23,23,24,24,25,25,26,26,27,27,28,28,29,29,30,30,31,31,32,32,33,33,34,34,35,35,36,36,37,37,38,38,39,39,40,40,41,41,42,42,44,44,45,45,46,46,47,47,48,48,49,49,50,50,51,51,52,52,53,53,54,54,55,55,56,56,57,57,58,58,59,59,60,60,61,61,62,62],"right_children":[2,4,6,8,10,12,14,16,18,20,22,24,26,28,30,32,34,36,38,40,42,44,46,48,50,52,54,56,58,60,62,64,66,68,70,72,74,76,78,80,82,84,86,-1,88,90,92,94,96,98,100,102,104,106,108,110,112,114,116,118,120,122,124,-1,-1,-1,-1,-1,-1,-1,-1,-1,-1,-1,-1,-1,-1,-1,-1,-1,-1,-1,-1,-1,-1,-1,-1,-1,-1,-1,-1,-1,-1,-1,-1,-1,-1,-1,-1,-1,-1,-1,-1,-1,-1,-1,-1,-1,-1,-1,-1,-1,-1,-1,-1,-1,-1,-1,-1,-1,-1,-1,-1,-1,-1],"split_conditions":[-1.3293438E0,7.182257E-1,9.820004E-1,-6.63361E-1,8.3335793E-1,-7.515077E-1,1.1787547E0,-8.936255E-1,-3.1796435E-1,3.6872405E-1,1.5241513E0,-1.2390221E0,1.4090191E0,-1.0087577E0,1.4090191E0,4.8583388E-1,-7.784933E-1,2.2736632E-3,1.0932012E0,-3.557531E-1,6.585149E-1,-2.1085766E-1,-2.1085766E-1,-1.0404258E0,-1.1238899E0,4.8796126E-1,1.5241513E0,-1.3909909E-2,-6.4554393E-1,4.8583388E-1,1.2709184E0,-5.0064856E-1,-1.2390221E0,-3.557531E-1,-5.0064856E-1,-4.330966E-1,-5.0064856E-1,4.8583388E-1,9.855777E-1,-1.3700211E0,2.2736632E-3,2.2736632E-3,1.0932012E0,-3.274607E-1,1.1787547E0,-3.557531E-1,1.6392835E0,1.2380966E0,2.2382863E-1,9.483058E-1,3.7282905E-1,6.930824E-1,1.1524635E-1,4.0416437E-1,4.8583388E-1,-1.4692867E0,1.5598364E0,-4.330966E-1,1.5598364E0,-5.136537E-1,1.2709184E0,1.6392835E0,1.5241513E0,-3.243572E-1,-4.5123225E-1,7.625144E-1,-5.7853526E-1,-8.8247615E-1,3.5122678E0,-2.1227589E-1,-8.682148E-1,7.032535E0,3.2603626E0,6.6964364E-1,3.8931034E0,1.2277336E0,-5.2203166E-1,3.8143177E0,-1.1504217E0,3.0967133E0,5.142983E-1,5.4283547E0,1.3618139E0,4.2481455E-1,-1.277284E0,-1.7258686E0,-2.0639617E0,-2.703092E-1,-3.2310283E-1,-3.302708E-1,-2.297952E-1,2.1716486E-1,-2.2351061E-1,-2.4584141E-1,3.3915356E-1,3.9968555E0,1.016459E0,-2.254587E-1,2.8923533E0,-2.3090151E-1,-1.997674E-2,-2.6302075E-1,-8.461194E-2,-2.9669645E-1,-3.9107317E-1,-1.1988553E-1,7.162957E-1,-3.4671748E-1,-1.434965E-1,-1.3406422E0,2.9613721E0,5.874123E-1,-1.2932976E0,-5.0399978E-2,-5.47882E-1,2.2393756E-1,-3.0110687E-1,8.60341E-1,-7.8786457E-1,7.4978244E-1,9.062346E0,-2.8188282E-1,3.0151236E0,1.4348809E0,-9.131522E-1],"split_indices":[5,4,5,4,4,5,4,4,4,3,4,4,4,4,4,6,4,1,3,3,3,3,3,5,4,4,4,6,3,6,5,3,4,3,3,4,3,6,6,3,1,1,3,0,4,3,4,3,3,3,4,5,5,5,6,4,5,4,5,6,5,4,4,0,0,0,0,0,0,0,0,0,0,0,0,0,0,0,0,0,0,0,0,0,0,0,0,0,0,0,0,0,0,0,0,0,0,0,0,0,0,0,0,0,0,0,0,0,0,0,0,0,0,0,0,0,0,0,0,0,0,0,0,0,0],"split_type":[0,0,0,0,0,0,0,0,0,0,0,0,0,0,0,0,0,0,0,0,0,0,0,0,0,0,0,0,0,0,0,0,0,0,0,0,0,0,0,0,0,0,0,0,0,0,0,0,0,0,0,0,0,0,0,0,0,0,0,0,0,0,0,0,0,0,0,0,0,0,0,0,0,0,0,0,0,0,0,0,0,0,0,0,0,0,0,0,0,0,0,0,0,0,0,0,0,0,0,0,0,0,0,0,0,0,0,0,0,0,0,0,0,0,0,0,0,0,0,0,0,0,0,0,0],"sum_hessian":[1.42092E5,1.2506E4,1.29586E5,8.498E3,4.008E3,9.2657E4,3.6929E4,3.632E3,4.866E3,4.02E2,3.606E3,2.1681E4,7.0976E4,3.0054E4,6.875E3,2.819E3,8.13E2,1.212E3,3.654E3,2.32E2,1.7E2,2.432E3,1.174E3,3.218E3,1.8463E4,6.2567E4,8.409E3,7.243E3,2.2811E4,2.426E3,4.449E3,1.637E3,1.182E3,4.12E2,4.01E2,4.64E2,7.48E2,2.89E3,7.64E2,1.46E2,8.6E1,3.4E1,1.36E2,1.011E3,1.421E3,5E2,6.74E2,1.621E3,1.597E3,4.3E2,1.8033E4,4.4043E4,1.8524E4,2.406E3,6.003E3,3.217E3,4.026E3,6.644E3,1.6167E4,1.208E3,1.218E3,1.624E3,2.825E3,5.49E2,1.088E3,7.87E2,3.95E2,1.56E2,2.56E2,1.31E2,2.7E2,3.1E2,1.54E2,2.56E2,4.92E2,1.939E3,9.51E2,5.92E2,1.72E2,3.5E1,1.11E2,3.5E1,5.1E1,1.3E1,2.1E1,5.5E1,8.1E1,7.05E2,7.16E2,4.53E2,4.7E1,2.22E2,4.52E2,1.356E3,2.65E2,8.68E2,7.29E2,3.29E2,1.01E2,1.0017E4,8.016E3,3.6767E4,7.276E3,9.645E3,8.879E3,1.616E3,7.9E2,3.586E3,2.417E3,1.211E3,2.006E3,2.831E3,1.195E3,1.734E3,4.91E3,1.0789E4,5.378E3,4.08E2,8E2,8.11E2,4.07E2,8.12E2,8.12E2,8.16E2,2.009E3],"tree_param":{"num_deleted":"0","num_feature":"9","num_nodes":"125","size_leaf_vector":"1"}},{"base_weights":[2.4611228E-3,5.8406305E0,-5.610058E-1,9.46326E0,-1.8407288E0,-1.5656734E0,1.9597377E0,5.025852E-1,1.6150063E1,3.303239E0,-2.4149396E0,7.1396476E-1,-2.2620335E0,-4.3834643E0,3.0103693E0,2.496888E0,-3.5278826E0,3.550677E1,9.721653E0,1.6859507E1,-1.5187482E1,-2.7891328E0,-1.6380657E0,1.1106593E1,-1.097917E0,-2.8874831E0,-2.0514426E0,-1.333673E1,-3.623964E0,5.289499E0,-1.6091394E0,-2.468043E0,1.07835655E1,7.448691E-1,-5.6175876E0,5.213455E1,2.513638E1,-6.27765E0,1.4257367E1,9.299226E0,2.6147745E1,-5.7208014E0,-1.749512E1,-2.9347926E-1,-2.6642966E0,-2.8928504E0,-7.043099E-1,-1.3504527E0,2.3743778E1,-2.3910391E0,-4.4510165E-1,-3.030713E0,-2.708515E0,-1.2953087E0,-2.5366802E0,-1.1830938E0,-1.8791217E0,-5.0351725E0,-3.0357947E0,2.910262E0,1.4450037E1,-2.9045086E0,3.793185E0,-4.179038E-1,3.672174E-1,2.2961982E-1,4.0944676E0,-4.0336272E-1,1.0442084E0,-1.1045322E0,-4.502681E-1,4.498386E0,8.871837E0,7.5132024E-1,3.6067848E0,-4.8206386E-1,-1.0742075E0,8.9626724E-1,3.4121819E0,2.4071157E0,-5.417813E-2,4.520147E0,1.1975428E0,3.8536742E-1,-1.1553613E0,-1.3233641E0,-1.7949253E0,-2.853982E-1,-2.2895539E-1,-2.9731646E-1,-2.0729442E-1,1.9554575E-1,-2.0120887E-1,-2.5314167E-1,2.1467665E-1,1.7316159E0,5.784589E0,-3.4922415E-1,4.789725E-1,2.6509938E-1,-1.5009938E-1,-3.1382954E-1,-2.9469708E-1,-2.4058834E-1,-3.1780607E-1,-7.59428E-2,-2.1646313E-1,-2.694275E-1,-1.6487764E-1,-2.1772084E0,-3.4618148E-1,2.17357E-1,-3.5322237E-1,9.230392E-2,8.9841837E-1,5.200212E0,1.0605091E0,3.8069602E-2,-5.372238E-1,-5.919552E-1,9.794675E-1],"categories":[],"categories_nodes":[],"categories_segments":[],"categories_sizes":[],"default_left":[0,0,0,0,0,0,0,0,0,0,0,0,0,0,0,0,0,0,0,0,0,0,0,0,0,0,0,0,0,0,0,0,0,0,0,0,0,0,0,0,0,0,0,0,0,0,0,0,0,0,0,0,0,0,0,0,0,0,0,0,0,0,0,0,0,0,0,0,0,0,0,0,0,0,0,0,0,0,0,0,0,0,0,0,0,0,0,0,0,0,0,0,0,0,0,0,0,0,0,0,0,0,0,0,0,0,0,0,0,0,0,0,0,0,0,0,0,0,0,0,0],"id":10,"left_children":[1,3,5,7,9,11,13,15,17,19,21,23,25,27,29,31,33,35,37,39,41,43,45,47,49,51,53,55,57,59,61,63,65,67,69,71,73,75,77,79,81,83,85,-1,87,89,91,93,95,97,99,101,103,105,107,-1,-1,109,111,113,115,117,119,-1,-1,-1,-1,-1,-1,-1,-1,-1,-1,-1,-1,-1,-1,-1,-1,-1,-1,-1,-1,-1,-1,-1,-1,-1,-1,-1,-1,-1,-1,-1,-1,-1,-1,-1,-1,-1,-1,-1,-1,-1,-1,-1,-1,-1,-1,-1,-1,-1,-1,-1,-1,-1,-1,-1,-1,-1,-1],"loss_changes":[4.6743453E5,3.480462E5,3.2818334E5,5.0923725E5,1.1849447E4,1.4709148E5,2.4612839E5,2.9210764E4,6.052695E5,1.0127411E5,1.0439902E3,4.0828888E5,9.342719E3,3.5638125E4,3.335817E5,1.0004471E5,1.0745522E4,2.0785488E5,2.653265E5,1.6118508E4,3.6355234E3,3.641992E1,1.374666E3,5.067734E5,1.5585689E4,4.5003125E2,1.9480094E4,3.1451406E3,4.0012188E3,4.6236256E5,7.326613E4,1.599479E4,2.3311144E5,1.8392006E4,4.8398105E3,1.17653E5,1.4402178E5,5.2040312E3,2.99236E5,1.8911227E4,2.7542367E4,1.9991376E3,2.7597656E1,0E0,8.736719E1,2.6827637E1,2.351846E3,6.70444E3,3.4927262E5,4.899562E4,4.011963E4,8.013281E1,1.1228945E3,9.669004E3,4.521422E3,0E0,0E0,3.737037E4,8.846896E3,2.0329067E5,6.3099194E5,6.845752E4,1.1809704E5,0E0,0E0,0E0,0E0,0E0,0E0,0E0,0E0,0E0,0E0,0E0,0E0,0E0,0E0,0E0,0E0,0E0,0E0,0E0,0E0,0E0,0E0,0E0,0E0,0E0,0E0,0E0,0E0,0E0,0E0,0E0,0E0,0E0,0E0,0E0,0E0,0E0,0E0,0E0,0E0,0E0,0E0,0E0,0E0,0E0,0E0,0E0,0E0,0E0,0E0,0E0,0E0,0E0,0E0,0E0,0E0,0E0,0E0],"parents":[2147483647,0,0,1,1,2,2,3,3,4,4,5,5,6,6,7,7,8,8,9,9,10,10,11,11,12,12,13,13,14,14,15,15,16,16,17,17,18,18,19,19,20,20,21,21,22,22,23,23,24,24,25,25,26,26,27,27,28,28,29,29,30,30,31,31,32,32,33,33,34,34,35,35,36,36,37,37,38,38,39,39,40,40,41,41,42,42,44,44,45,45,46,46,47,47,48,48,49,49,50,50,51,51,52,52,53,53,54,54,57,57,58,58,59,59,60,60,61,61,62,62],"right_children":[2,4,6,8,10,12,14,16,18,20,22,24,26,28,30,32,34,36,38,40,42,44,46,48,50,52,54,56,58,60,62,64,66,68,70,72,74,76,78,80,82,84,86,-1,88,90,92,94,96,98,100,102,104,106,108,-1,-1,110,112,114,116,118,120,-1,-1,-1,-1,-1,-1,-1,-1,-1,-1,-1,-1,-1,-1,-1,-1,-1,-1,-1,-1,-1,-1,-1,-1,-1,-1,-1,-1,-1,-1,-1,-1,-1,-1,-1,-1,-1,-1,-1,-1,-1,-1,-1,-1,-1,-1,-1,-1,-1,-1,-1,-1,-1,-1,-1,-1,-1,-1],"split_conditions":[-1.3293438E0,7.182257E-1,9.820004E-1,-6.63361E-1,8.3335793E-1,-7.515077E-1,-1.0133975E0,6.585149E-1,-3.1796435E-1,3.6872405E-1,1.5241513E0,-1.2390221E0,-7.9043937E-1,-1.4692867E0,9.855777E-1,-2.1085766E-1,-1.3541545E0,2.2736632E-3,-8.769988E-2,-5.0064856E-1,6.585149E-1,-6.596223E-2,-2.1085766E-1,-1.0404258E0,-5.0064856E-1,4.8583388E-1,2.2382863E-1,1.0932012E0,-6.4554393E-1,1.0932012E0,1.0636225E0,9.855777E-1,-8.936255E-1,-1.4692867E0,-1.2390221E0,1.2380966E0,-3.557531E-1,9.483058E-1,1.0932012E0,-1.2251257E0,2.2736632E-3,2.2736632E-3,8.0341035E-1,-2.9347926E-1,9.855777E-1,-3.557531E-1,1.6392835E0,1.4853215E0,1.2380966E0,1.4853215E0,7.8933194E-2,-8.769988E-2,4.8796126E-1,4.8796126E-1,1.2938869E0,-1.1830938E0,-1.8791217E0,-1.2390221E0,-1.2390221E0,4.8583388E-1,-1.3541545E0,-5.482288E-1,2.2736632E-3,-4.179038E-1,3.672174E-1,2.2961982E-1,4.0944676E0,-4.0336272E-1,1.0442084E0,-1.1045322E0,-4.502681E-1,4.498386E0,8.871837E0,7.5132024E-1,3.6067848E0,-4.8206386E-1,-1.0742075E0,8.9626724E-1,3.4121819E0,2.4071157E0,-5.417813E-2,4.520147E0,1.1975428E0,3.8536742E-1,-1.1553613E0,-1.3233641E0,-1.7949253E0,-2.853982E-1,-2.2895539E-1,-2.9731646E-1,-2.0729442E-1,1.9554575E-1,-2.0120887E-1,-2.5314167E-1,2.1467665E-1,1.7316159E0,5.784589E0,-3.4922415E-1,4.789725E-1,2.6509938E-1,-1.5009938E-1,-3.1382954E-1,-2.9469708E-1,-2.4058834E-1,-3.1780607E-1,-7.59428E-2,-2.1646313E-1,-2.694275E-1,-1.6487764E-1,-2.1772084E0,-3.4618148E-1,2.17357E-1,-3.5322237E-1,9.230392E-2,8.9841837E-1,5.200212E0,1.0605091E0,3.8069602E-2,-5.372238E-1,-5.919552E-1,9.794675E-1],"split_indices":[5,4,5,4,4,5,6,3,4,3,4,4,3,4,6,3,4,1,4,3,3,3,3,5,3,6,3,3,3,3,4,6,4,4,4,3,3,3,3,3,1,1,3,0,6,3,4,6,3,6,3,4,4,4,4,0,0,4,4,6,4,4,1,0,0,0,0,0,0,0,0,0,0,0,0,0,0,0,0,0,0,0,0,0,0,0,0,0,0,0,0,0,0,0,0,0,0,0,0,0,0,0,0,0,0,0,0,0,0,0,0,0,0,0,0,0,0,0,0,0,0],"split_type":[0,0,0,0,0,0,0,0,0,0,0,0,0,0,0,0,0,0,0,0,0,0,0,0,0,0,0,0,0,0,0,0,0,0,0,0,0,0,0,0,0,0,0,0,0,0,0,0,0,0,0,0,0,0,0,0,0,0,0,0,0,0,0,0,0,0,0,0,0,0,0,0,0,0,0,0,0,0,0,0,0,0,0,0,0,0,0,0,0,0,0,0,0,0,0,0,0,0,0,0,0,0,0,0,0,0,0,0,0,0,0,0,0,0,0,0,0,0,0,0,0],"sum_hessian":[1.42092E5,1.2506E4,1.29586E5,8.498E3,4.008E3,9.2657E4,3.6929E4,3.632E3,4.866E3,4.02E2,3.606E3,2.1681E4,7.0976E4,5.247E3,3.1682E4,2.43E3,1.202E3,1.212E3,3.654E3,2.32E2,1.7E2,2.432E3,1.174E3,3.218E3,1.8463E4,1.7875E4,5.3101E4,4.09E2,4.838E3,2.1215E4,1.0467E4,1.52E3,9.1E2,3.95E2,8.07E2,4.64E2,7.48E2,8.07E2,2.847E3,1.29E2,1.03E2,3.4E1,1.36E2,1.112E3,1.32E3,5E2,6.74E2,1.621E3,1.597E3,6.193E3,1.227E4,9.92E3,7.955E3,2.0758E4,3.2343E4,3.23E2,8.6E1,1.421E3,3.417E3,1.6842E4,4.373E3,8.443E3,2.024E3,1.189E3,3.31E2,7.11E2,1.99E2,2.65E2,1.3E2,1.36E2,6.71E2,3.9E2,7.4E1,2.87E2,4.61E2,6.1E2,1.97E2,2.249E3,5.98E2,5.1E1,7.8E1,4.3E1,6E1,1.3E1,2.1E1,1.6E1,1.2E2,8.72E2,4.48E2,4.53E2,4.7E1,2.22E2,4.52E2,1.212E3,4.09E2,1.345E3,2.52E2,5.37E3,8.23E2,3.12E3,9.15E3,4.326E3,5.594E3,4.841E3,3.114E3,1.2843E4,7.915E3,2.7466E4,4.877E3,1.21E2,1.3E3,2.97E2,3.12E3,1.2691E4,4.151E3,4.05E2,3.968E3,3.622E3,4.821E3,7.73E2,1.251E3],"tree_param":{"num_deleted":"0","num_feature":"9","num_nodes":"121","size_leaf_vector":"1"}},{"base_weights":[2.4539458E-3,5.2587023E0,-5.0484926E-1,8.519739E0,-1.6559415E0,-1.4090432E0,1.7638023E0,4.532513E-1,1.4539264E1,2.9832933E0,-2.173811E0,6.429244E-1,-2.0358567E0,5.6665117E-1,6.996294E0,-3.2168715E0,2.3033159E0,3.1970709E1,8.75024E0,1.5208193E1,-1.3691472E1,-2.5105515E0,-1.4746933E0,9.383105E0,-1.1255995E0,-2.1632326E0,-1.0879761E0,2.7790017E0,-2.7521057E0,-1.6405627E0,1.1357614E1,-1.8017879E0,-4.3639455E0,8.725555E0,-2.7319028E0,4.6949852E1,2.262856E1,-1.5936937E0,1.5091511E1,9.250903E0,2.5099152E1,-9.748761E-1,-1.5088922E1,-2.6768446E0,-2.4069521E0,-2.6045723E0,-6.3388723E-1,-6.885951E-2,2.126094E1,-1.9759341E0,-6.288567E-2,-1.8866576E0,-2.8206847E0,1.6100209E0,-2.1694202E0,5.2897353E0,-2.2764902E0,-4.729427E0,-7.9298925E-1,-3.7205293E0,1.387758E1,2.346661E1,4.7421603E0,1.9706716E-1,-4.0337062E-1,-2.5535744E-1,-5.566021E-1,3.3264846E-1,2.8241644E0,-2.1176941E-3,-4.0574542E-1,5.8128386E0,2.421776E0,1.2812885E0,4.205243E0,5.176912E-1,-6.9575197E-1,7.4725467E-1,4.1917853E0,3.5508103E0,5.54413E-1,4.461139E0,1.1108001E0,6.305369E-1,-7.4296093E-1,-1.0800751E0,-1.6169161E0,-2.552524E-1,-2.9236263E-1,-2.511515E-1,-1.86254E-1,-2.676503E-1,-1.8699683E-1,1.7607884E-1,-1.8113238E-1,-2.3313113E-1,6.835812E-1,-2.506966E-1,2.954909E0,-1.0388911E-1,-3.9914733E-1,-3.0929562E-1,2.9717386E-1,-2.1521123E-1,-5.45154E-2,-2.4131994E-1,-3.2630023E-1,-8.635052E-2,6.664486E-1,-2.526355E-1,1.2904427E-2,-9.828072E-2,1.1635745E0,6.629872E-1,-5.519446E-1,-4.013372E-1,-7.5712633E-1,7.8827214E-1,-2.954577E-1,-9.6196234E-1,7.7505726E-1,3.1554265E0,-3.140659E-1,-2.966724E-1,4.944896E0,1.3012799E0,-9.7416383E-1],"categories":[],"categories_nodes":[],"categories_segments":[],"categories_sizes":[],"default_left":[0,0,0,0,0,0,0,0,0,0,0,0,0,0,0,0,0,0,0,0,0,0,0,0,0,0,0,0,0,0,0,0,0,0,0,0,0,0,0,0,0,0,0,0,0,0,0,0,0,0,0,0,0,0,0,0,0,0,0,0,0,0,0,0,0,0,0,0,0,0,0,0,0,0,0,0,0,0,0,0,0,0,0,0,0,0,0,0,0,0,0,0,0,0,0,0,0,0,0,0,0,0,0,0,0,0,0,0,0,0,0,0,0,0,0,0,0,0,0,0,0,0,0,0,0,0,0],"id":11,"left_children":[1,3,5,7,9,11,13,15,17,19,21,23,25,27,29,31,33,35,37,39,41,43,45,47,49,51,53,55,57,59,61,63,65,67,69,71,73,75,77,79,81,83,85,87,89,91,93,95,97,99,101,103,105,107,109,111,113,115,117,119,121,123,125,-1,-1,-1,-1,-1,-1,-1,-1,-1,-1,-1,-1,-1,-1,-1,-1,-1,-1,-1,-1,-1,-1,-1,-1,-1,-1,-1,-1,-1,-1,-1,-1,-1,-1,-1,-1,-1,-1,-1,-1,-1,-1,-1,-1,-1,-1,-1,-1,-1,-1,-1,-1,-1,-1,-1,-1,-1,-1,-1,-1,-1,-1,-1,-1],"loss_changes":[3.788953E5,2.8203328E5,2.6582444E5,4.1267444E5,9.638183E3,1.1917816E5,2.3132861E5,2.467535E4,4.9085444E5,8.2358695E4,8.454629E2,3.35154E5,8.567156E3,2.2067906E5,2.590245E5,1.9692021E3,7.815095E4,1.6868162E5,2.3976894E5,1.3496945E4,3.0240938E3,3.5470703E1,1.1146101E3,4.096706E5,1.6296521E4,1.1371719E4,2.454163E4,2.289175E5,4.65671E4,7.454745E4,3.6589525E5,4.6135913E3,1.4481943E3,1.1180767E5,4.868709E3,1.16754125E5,1.4226434E5,5.0515742E4,4.6283216E5,1.4110573E4,2.325534E4,8.927032E2,5.3873047E2,2.0916016E1,8.122266E1,2.1468018E1,1.9064049E3,3.1774414E4,3.1861012E5,1.891632E4,7.3726516E4,1.5683266E4,3.3310312E3,3.0098914E4,4.9260195E3,4.7966897E5,1.7290095E5,1.2144484E4,1.1329328E5,1.3784886E5,8.222461E4,1.1086422E6,3.5422678E5,0E0,0E0,0E0,0E0,0E0,0E0,0E0,0E0,0E0,0E0,0E0,0E0,0E0,0E0,0E0,0E0,0E0,0E0,0E0,0E0,0E0,0E0,0E0,0E0,0E0,0E0,0E0,0E0,0E0,0E0,0E0,0E0,0E0,0E0,0E0,0E0,0E0,0E0,0E0,0E0,0E0,0E0,0E0,0E0,0E0,0E0,0E0,0E0,0E0,0E0,0E0,0E0,0E0,0E0,0E0,0E0,0E0,0E0,0E0,0E0,0E0,0E0,0E0,0E0],"parents":[2147483647,0,0,1,1,2,2,3,3,4,4,5,5,6,6,7,7,8,8,9,9,10,10,11,11,12,12,13,13,14,14,15,15,16,16,17,17,18,18,19,19,20,20,21,21,22,22,23,23,24,24,25,25,26,26,27,27,28,28,29,29,30,30,31,31,32,32,33,33,34,34,35,35,36,36,37,37,38,38,39,39,40,40,41,41,42,42,43,43,44,44,45,45,46,46,47,47,48,48,49,49,50,50,51,51,52,52,53,53,54,54,55,55,56,56,57,57,58,58,59,59,60,60,61,61,62,62],"right_children":[2,4,6,8,10,12,14,16,18,20,22,24,26,28,30,32,34,36,38,40,42,44,46,48,50,52,54,56,58,60,62,64,66,68,70,72,74,76,78,80,82,84,86,88,90,92,94,96,98,100,102,104,106,108,110,112,114,116,118,120,122,124,126,-1,-1,-1,-1,-1,-1,-1,-1,-1,-1,-1,-1,-1,-1,-1,-1,-1,-1,-1,-1,-1,-1,-1,-1,-1,-1,-1,-1,-1,-1,-1,-1,-1,-1,-1,-1,-1,-1,-1,-1,-1,-1,-1,-1,-1,-1,-1,-1,-1,-1,-1,-1,-1,-1,-1,-1,-1,-1,-1,-1,-1,-1,-1,-1],"split_conditions":[-1.3293438E0,7.182257E-1,9.820004E-1,-6.63361E-1,8.3335793E-1,-7.515077E-1,1.1787547E0,-5.0064856E-1,-3.1796435E-1,3.6872405E-1,1.5241513E0,-1.1238899E0,1.4090191E0,2.7432345E-2,-5.0064856E-1,-1.2390221E0,5.136195E-1,2.2736632E-3,2.2736632E-3,-3.557531E-1,5.136195E-1,2.2736632E-3,-2.1085766E-1,-1.0404258E0,3.7282905E-1,4.8796126E-1,1.5241513E0,1.5598364E0,6.030935E-1,1.7544158E0,1.4090191E0,-1.2251257E0,-5.136537E-1,-8.936255E-1,-1.3541545E0,-4.330966E-1,-4.330966E-1,1.4256458E-1,4.8796126E-1,-1.5149165E0,2.2736632E-3,2.2736632E-3,8.0341035E-1,6.585149E-1,1.2380966E0,-3.557531E-1,1.6392835E0,9.483058E-1,-1.5844189E0,-8.769988E-2,-1.0404258E0,6.930824E-1,1.1524635E-1,4.0416437E-1,1.4853215E0,1.2709184E0,-1.2390221E0,4.8796126E-1,7.182257E-1,1.5598364E0,1.2709184E0,4.8583388E-1,4.8583388E-1,1.9706716E-1,-4.0337062E-1,-2.5535744E-1,-5.566021E-1,3.3264846E-1,2.8241644E0,-2.1176941E-3,-4.0574542E-1,5.8128386E0,2.421776E0,1.2812885E0,4.205243E0,5.176912E-1,-6.9575197E-1,7.4725467E-1,4.1917853E0,3.5508103E0,5.54413E-1,4.461139E0,1.1108001E0,6.305369E-1,-7.4296093E-1,-1.0800751E0,-1.6169161E0,-2.552524E-1,-2.9236263E-1,-2.511515E-1,-1.86254E-1,-2.676503E-1,-1.8699683E-1,1.7607884E-1,-1.8113238E-1,-2.3313113E-1,6.835812E-1,-2.506966E-1,2.954909E0,-1.0388911E-1,-3.9914733E-1,-3.0929562E-1,2.9717386E-1,-2.1521123E-1,-5.45154E-2,-2.4131994E-1,-3.2630023E-1,-8.635052E-2,6.664486E-1,-2.526355E-1,1.2904427E-2,-9.828072E-2,1.1635745E0,6.629872E-1,-5.519446E-1,-4.013372E-1,-7.5712633E-1,7.8827214E-1,-2.954577E-1,-9.6196234E-1,7.7505726E-1,3.1554265E0,-3.140659E-1,-2.966724E-1,4.944896E0,1.3012799E0,-9.7416383E-1],"split_indices":[5,4,5,4,4,5,4,3,4,3,4,4,4,4,3,4,3,1,1,3,3,1,3,5,4,4,4,5,4,4,4,3,6,4,4,4,4,4,4,3,1,1,3,3,3,3,4,3,4,4,5,5,5,5,6,5,4,4,4,5,5,6,6,0,0,0,0,0,0,0,0,0,0,0,0,0,0,0,0,0,0,0,0,0,0,0,0,0,0,0,0,0,0,0,0,0,0,0,0,0,0,0,0,0,0,0,0,0,0,0,0,0,0,0,0,0,0,0,0,0,0,0,0,0,0,0,0],"split_type":[0,0,0,0,0,0,0,0,0,0,0,0,0,0,0,0,0,0,0,0,0,0,0,0,0,0,0,0,0,0,0,0,0,0,0,0,0,0,0,0,0,0,0,0,0,0,0,0,0,0,0,0,0,0,0,0,0,0,0,0,0,0,0,0,0,0,0,0,0,0,0,0,0,0,0,0,0,0,0,0,0,0,0,0,0,0,0,0,0,0,0,0,0,0,0,0,0,0,0,0,0,0,0,0,0,0,0,0,0,0,0,0,0,0,0,0,0,0,0,0,0,0,0,0,0,0,0],"sum_hessian":[1.42092E5,1.2506E4,1.29586E5,8.498E3,4.008E3,9.2657E4,3.6929E4,3.632E3,4.866E3,4.02E2,3.606E3,2.1681E4,7.0976E4,3.0054E4,6.875E3,1.217E3,2.415E3,1.212E3,3.654E3,2.32E2,1.7E2,2.432E3,1.174E3,3.648E3,1.8033E4,6.2567E4,8.409E3,1.8033E4,1.2021E4,2.307E3,4.568E3,5.46E2,6.71E2,1.061E3,1.354E3,4.64E2,7.48E2,1.389E3,2.265E3,1.46E2,8.6E1,1.7E1,1.53E2,9.24E2,1.508E3,5E2,6.74E2,2.032E3,1.616E3,1.0017E4,8.016E3,4.4043E4,1.8524E4,2.406E3,6.003E3,1.2049E4,5.984E3,5.982E3,6.039E3,2.035E3,2.72E2,1.613E3,2.955E3,2.03E2,3.43E2,2.69E2,4.02E2,8.32E2,2.29E2,4.45E2,9.09E2,3.1E2,1.54E2,4.98E2,2.5E2,6.14E2,7.75E2,1.765E3,5E2,1.7E1,1.29E2,3.5E1,5.1E1,8E0,9E0,3.3E1,1.2E2,6.22E2,3.02E2,1.262E3,2.46E2,4.53E2,4.7E1,2.22E2,4.52E2,1.531E3,5.01E2,4.18E2,1.198E3,6.839E3,3.178E3,4.011E3,4.005E3,3.6767E4,7.276E3,9.645E3,8.879E3,1.616E3,7.9E2,5.196E3,8.07E2,6.06E3,5.989E3,1.597E3,4.387E3,4.78E3,1.202E3,1.204E3,4.835E3,1.344E3,6.91E2,1.33E2,1.39E2,8E2,8.13E2,1.881E3,1.074E3],"tree_param":{"num_deleted":"0","num_feature":"9","num_nodes":"127","size_leaf_vector":"1"}},{"base_weights":[2.46135E-3,4.734882E0,-4.54285E-1,7.670143E0,-1.4889946E0,-1.2681158E0,1.5876426E0,4.0840235E-1,1.3089135E1,2.7020054E0,-1.9568304E0,5.787537E-1,-1.8322781E0,-4.208133E0,2.5476098E0,1.323668E0,-6.9511676E0,2.878495E1,7.876519E0,1.3728907E1,-1.2338755E1,-2.259901E0,-1.3276153E0,8.445659E0,-1.0130682E0,-2.3479884E0,-1.6175356E0,-1.2671895E1,-3.4901438E0,4.61159E0,-1.6358018E0,-7.4714494E-1,1.5460155E1,-9.449679E-2,-9.851047E0,1.41924095E1,3.7869198E1,-6.3129067E0,1.18994055E1,7.4454174E0,2.1451258E1,-8.836339E-1,-1.3597543E1,-2.135439E0,-2.3810935E0,-2.3450227E0,-5.70506E-1,-6.1751936E-2,1.9136518E1,-8.728934E-1,-6.976852E0,-2.5409942E0,-2.1649406E0,-1.4864844E-1,-1.9343424E0,-1.1312436E0,-1.7589058E0,-4.609041E0,-3.0236244E0,2.487783E0,1.2788698E1,7.014967E-1,-4.440904E0,-2.8899243E-1,4.6575508E-1,2.7621229E0,-1.5542397E0,-1.9000367E0,-1.5285753E-1,-3.7987694E-1,5.261519E0,6.2268233E0,2.5691535E0,-5.003113E-1,-1.0322862E0,1.5703858E0,-1.1906288E0,-7.160358E-1,1.6663532E0,3.7134614E0,9.787014E-1,5.7448936E-1,-6.7609453E-1,-9.7524446E-1,-1.4565607E0,-2.3380736E-1,-1.734352E-1,-2.3229638E-1,-2.4954644E-1,-2.4094419E-1,-1.6868672E-1,1.5854992E-1,-1.6305913E-1,-2.0983325E-1,6.1535925E-1,1.5478282E-1,3.015886E0,-1.2010106E-1,5.991718E-1,-6.02315E-1,-1.20983E0,-2.6468396E-1,-2.4946165E-1,-2.4726896E-1,-1.8016843E-1,-1.872826E-1,1.4897309E-1,-2.0980619E-1,-1.0168473E-1,-2.076676E0,-3.0903247E-1,-9.458938E-2,-4.1691065E-1,4.8455212E-1,-2.5545585E-1,4.653463E0,9.3335116E-1,-1.2295003E-1,8.787896E-1,-6.076356E-1,-3.053236E-1],"categories":[],"categories_nodes":[],"categories_segments":[],"categories_sizes":[],"default_left":[0,0,0,0,0,0,0,0,0,0,0,0,0,0,0,0,0,0,0,0,0,0,0,0,0,0,0,0,0,0,0,0,0,0,0,0,0,0,0,0,0,0,0,0,0,0,0,0,0,0,0,0,0,0,0,0,0,0,0,0,0,0,0,0,0,0,0,0,0,0,0,0,0,0,0,0,0,0,0,0,0,0,0,0,0,0,0,0,0,0,0,0,0,0,0,0,0,0,0,0,0,0,0,0,0,0,0,0,0,0,0,0,0,0,0,0,0,0,0,0,0],"id":12,"left_children":[1,3,5,7,9,11,13,15,17,19,21,23,25,27,29,31,33,35,37,39,41,43,45,47,49,51,53,55,57,59,61,63,65,-1,67,69,71,73,75,77,79,81,83,85,87,89,91,93,95,97,99,101,103,105,107,-1,-1,109,111,113,115,117,119,-1,-1,-1,-1,-1,-1,-1,-1,-1,-1,-1,-1,-1,-1,-1,-1,-1,-1,-1,-1,-1,-1,-1,-1,-1,-1,-1,-1,-1,-1,-1,-1,-1,-1,-1,-1,-1,-1,-1,-1,-1,-1,-1,-1,-1,-1,-1,-1,-1,-1,-1,-1,-1,-1,-1,-1,-1,-1],"loss_changes":[3.071384E5,2.284981E5,2.1534753E5,3.3444144E5,7.8657344E3,9.654461E4,2.0548019E5,2.448095E4,3.97973E5,6.700814E4,6.8484375E2,2.71526E5,7.856547E3,3.1847297E4,2.7357375E5,9.462518E4,6.992426E3,1.602605E5,2.0871144E5,1.1146219E4,2.4537324E3,3.1614258E1,9.037512E2,3.3188334E5,1.5069828E4,7.316094E2,2.3320453E4,2.54175E3,2.5119648E3,3.6841797E5,6.86351E4,3.2672078E4,1.5614031E5,0E0,2.0606234E4,3.2302344E5,2.2035125E5,4.1921426E3,2.5812362E5,1.7622219E4,1.866175E4,7.400835E2,4.311836E2,9.428662E1,2.340332E0,1.7177002E1,1.5453312E3,2.5746725E4,3.1343875E5,3.969668E4,1.9492461E3,4.3214844E1,1.1933945E3,2.5121418E4,6.1900312E3,0E0,0E0,3.4830277E4,8.1309043E3,2.0025072E5,5.095675E5,8.918701E4,1.0779555E4,0E0,0E0,0E0,0E0,0E0,0E0,0E0,0E0,0E0,0E0,0E0,0E0,0E0,0E0,0E0,0E0,0E0,0E0,0E0,0E0,0E0,0E0,0E0,0E0,0E0,0E0,0E0,0E0,0E0,0E0,0E0,0E0,0E0,0E0,0E0,0E0,0E0,0E0,0E0,0E0,0E0,0E0,0E0,0E0,0E0,0E0,0E0,0E0,0E0,0E0,0E0,0E0,0E0,0E0,0E0,0E0,0E0,0E0],"parents":[2147483647,0,0,1,1,2,2,3,3,4,4,5,5,6,6,7,7,8,8,9,9,10,10,11,11,12,12,13,13,14,14,15,15,16,16,17,17,18,18,19,19,20,20,21,21,22,22,23,23,24,24,25,25,26,26,27,27,28,28,29,29,30,30,31,31,32,32,34,34,35,35,36,36,37,37,38,38,39,39,40,40,41,41,42,42,43,43,44,44,45,45,46,46,47,47,48,48,49,49,50,50,51,51,52,52,53,53,54,54,57,57,58,58,59,59,60,60,61,61,62,62],"right_children":[2,4,6,8,10,12,14,16,18,20,22,24,26,28,30,32,34,36,38,40,42,44,46,48,50,52,54,56,58,60,62,64,66,-1,68,70,72,74,76,78,80,82,84,86,88,90,92,94,96,98,100,102,104,106,108,-1,-1,110,112,114,116,118,120,-1,-1,-1,-1,-1,-1,-1,-1,-1,-1,-1,-1,-1,-1,-1,-1,-1,-1,-1,-1,-1,-1,-1,-1,-1,-1,-1,-1,-1,-1,-1,-1,-1,-1,-1,-1,-1,-1,-1,-1,-1,-1,-1,-1,-1,-1,-1,-1,-1,-1,-1,-1,-1,-1,-1,-1,-1,-1],"split_conditions":[-1.3293438E0,7.182257E-1,9.820004E-1,-6.63361E-1,8.3335793E-1,-7.515077E-1,-1.0133975E0,-7.784933E-1,-3.1796435E-1,3.6872405E-1,1.5241513E0,-1.1238899E0,-6.4554393E-1,-1.4692867E0,9.855777E-1,-8.936255E-1,-5.0064856E-1,-3.557531E-1,-8.769988E-2,-5.0064856E-1,5.136195E-1,1.1787547E0,-2.1085766E-1,-1.0404258E0,1.5241513E0,1.1524635E-1,-2.1085766E-1,1.0932012E0,-6.4554393E-1,1.0932012E0,2.2382863E-1,9.855777E-1,8.0341035E-1,-9.449679E-2,6.585149E-1,-4.330966E-1,-5.482288E-1,9.483058E-1,1.4853215E0,2.2736632E-3,2.2736632E-3,2.2736632E-3,8.0341035E-1,1.0636225E0,6.585149E-1,-3.557531E-1,1.6392835E0,9.483058E-1,2.2736632E-3,1.4090191E0,1.2380966E0,-5.482288E-1,4.8583388E-1,1.1524635E-1,1.2938869E0,-1.1312436E0,-1.7589058E0,-1.2390221E0,2.2382863E-1,2.2382863E-1,-1.3541545E0,1.0636225E0,9.483058E-1,-2.8899243E-1,4.6575508E-1,2.7621229E0,-1.5542397E0,-1.9000367E0,-1.5285753E-1,-3.7987694E-1,5.261519E0,6.2268233E0,2.5691535E0,-5.003113E-1,-1.0322862E0,1.5703858E0,-1.1906288E0,-7.160358E-1,1.6663532E0,3.7134614E0,9.787014E-1,5.7448936E-1,-6.7609453E-1,-9.7524446E-1,-1.4565607E0,-2.3380736E-1,-1.734352E-1,-2.3229638E-1,-2.4954644E-1,-2.4094419E-1,-1.6868672E-1,1.5854992E-1,-1.6305913E-1,-2.0983325E-1,6.1535925E-1,1.5478282E-1,3.015886E0,-1.2010106E-1,5.991718E-1,-6.02315E-1,-1.20983E0,-2.6468396E-1,-2.4946165E-1,-2.4726896E-1,-1.8016843E-1,-1.872826E-1,1.4897309E-1,-2.0980619E-1,-1.0168473E-1,-2.076676E0,-3.0903247E-1,-9.458938E-2,-4.1691065E-1,4.8455212E-1,-2.5545585E-1,4.653463E0,9.3335116E-1,-1.2295003E-1,8.787896E-1,-6.076356E-1,-3.053236E-1],"split_indices":[5,4,5,4,4,5,6,4,4,3,4,4,3,4,6,4,3,3,4,3,3,4,3,5,4,5,3,3,3,3,3,6,3,0,3,4,4,3,6,1,1,1,3,4,3,3,4,3,1,4,3,4,6,5,4,0,0,4,3,3,4,4,3,0,0,0,0,0,0,0,0,0,0,0,0,0,0,0,0,0,0,0,0,0,0,0,0,0,0,0,0,0,0,0,0,0,0,0,0,0,0,0,0,0,0,0,0,0,0,0,0,0,0,0,0,0,0,0,0,0,0],"split_type":[0,0,0,0,0,0,0,0,0,0,0,0,0,0,0,0,0,0,0,0,0,0,0,0,0,0,0,0,0,0,0,0,0,0,0,0,0,0,0,0,0,0,0,0,0,0,0,0,0,0,0,0,0,0,0,0,0,0,0,0,0,0,0,0,0,0,0,0,0,0,0,0,0,0,0,0,0,0,0,0,0,0,0,0,0,0,0,0,0,0,0,0,0,0,0,0,0,0,0,0,0,0,0,0,0,0,0,0,0,0,0,0,0,0,0,0,0,0,0,0,0],"sum_hessian":[1.42092E5,1.2506E4,1.29586E5,8.498E3,4.008E3,9.2657E4,3.6929E4,3.632E3,4.866E3,4.02E2,3.606E3,2.1681E4,7.0976E4,5.247E3,3.1682E4,3.231E3,4.01E2,1.212E3,3.654E3,2.32E2,1.7E2,2.432E3,1.174E3,3.648E3,1.8033E4,2.0863E4,5.0113E4,4.09E2,4.838E3,2.1215E4,1.0467E4,2.819E3,4.12E2,1.31E2,2.7E2,4.66E2,7.46E2,8.07E2,2.847E3,1.29E2,1.03E2,1.7E1,1.53E2,1.209E3,1.223E3,5E2,6.74E2,2.032E3,1.616E3,1.762E4,4.13E2,1.0149E4,1.0714E4,8.891E3,4.1222E4,3.23E2,8.6E1,1.421E3,3.417E3,1.6842E4,4.373E3,5.71E3,4.757E3,2.019E3,8E2,2.96E2,1.16E2,1.28E2,1.42E2,3.18E2,1.48E2,2.47E2,4.99E2,6.1E2,1.97E2,2.455E3,3.92E2,5E1,7.9E1,4.3E1,6E1,8E0,9E0,3.3E1,1.2E2,8E2,4.09E2,8.25E2,3.98E2,4.53E2,4.7E1,2.22E2,4.52E2,1.531E3,5.01E2,6.23E2,9.93E2,1.6817E4,8.03E2,3.5E2,6.3E1,3.075E3,7.074E3,5.797E3,4.917E3,4.332E3,4.559E3,3.4979E4,6.243E3,1.21E2,1.3E3,1.215E3,2.202E3,1.1476E4,5.366E3,4.05E2,3.968E3,4.61E3,1.1E3,2.182E3,2.575E3],"tree_param":{"num_deleted":"0","num_feature":"9","num_nodes":"121","size_leaf_vector":"1"}},{"base_weights":[2.3165029E-3,4.262479E0,-4.0885013E-1,6.9045134E0,-1.3396447E0,-9.716786E-1,2.0118861E0,3.6735216E-1,1.1782796E1,2.4395194E0,-1.7615087E0,-1.0952414E0,7.030298E0,8.580692E0,4.015329E-1,-2.8975751E0,2.3451905E0,2.591773E1,7.0885525E0,1.336092E1,-1.0247023E1,-2.0342765E0,-1.1952062E0,5.2098185E-1,-1.5232964E0,-2.1041954E0,3.432513E1,1.8921122E1,-1.8409325E0,1.4354903E0,-8.665084E0,-8.6871904E-1,-4.556641E0,1.0616465E1,-1.7947412E0,3.94411E1,1.7487444E1,-2.2437348E0,1.2809996E1,7.439752E0,2.5432056E1,-8.571206E-1,-1.2253579E1,-2.1794851E-1,-1.9295048E0,-1.6548158E0,3.078511E-1,7.6020737E0,-9.118353E-1,-2.5242949E0,-1.1069145E0,5.343883E-1,-3.401179E0,2.4194544E1,6.80877E1,-8.011888E0,3.294353E1,9.062297E0,-1.28064375E1,-8.066683E-1,2.3482729E1,-1.5094992E1,-4.454194E0,-3.0707154E-1,5.785806E-1,-2.2420867E-1,-6.098131E-1,4.459548E-1,3.2102478E0,-5.5635016E-2,-6.14969E-1,4.985767E0,1.8286304E0,8.986438E-1,3.431818E0,4.1723916E-1,-7.3257893E-1,6.176495E-1,3.6167188E0,3.124256E0,4.0867504E-1,4.4032664E0,1.2296017E0,5.628745E-1,-6.2737906E-1,-7.1381706E-1,-1.2836235E0,-1.7027281E-1,-2.1501112E-1,-2.678114E-1,-9.9875666E-2,4.0602732E-1,-1.4409374E-1,-5.537728E-3,1.7224829E0,-1.17990434E-1,2.0984264E-1,-2.1088457E-1,-4.9408865E-1,8.825241E-2,-1.7228548E-1,2.2999294E-1,-2.8578222E-1,-2.4931224E-1,-3.749745E-1,3.5126083E0,-1.2984225E-1,1.1789899E1,4.0841002E0,-1.4654492E0,-5.275698E-1,2.3195102E0,7.0350785E0,3.8669083E0,1.4890704E-1,-8.2051766E-1,-1.5134437E0,1.8539017E-1,-3.463814E-1,2.6870668E-1,4.4249544E0,-2.6774848E0,-3.318273E-1,-3.3762273E-1,-8.8466513E-1],"categories":[],"categories_nodes":[],"categories_segments":[],"categories_sizes":[],"default_left":[0,0,0,0,0,0,0,0,0,0,0,0,0,0,0,0,0,0,0,0,0,0,0,0,0,0,0,0,0,0,0,0,0,0,0,0,0,0,0,0,0,0,0,0,0,0,0,0,0,0,0,0,0,0,0,0,0,0,0,0,0,0,0,0,0,0,0,0,0,0,0,0,0,0,0,0,0,0,0,0,0,0,0,0,0,0,0,0,0,0,0,0,0,0,0,0,0,0,0,0,0,0,0,0,0,0,0,0,0,0,0,0,0,0,0,0,0,0,0,0,0,0,0,0,0],"id":13,"left_children":[1,3,5,7,9,11,13,15,17,19,21,23,25,27,29,31,33,35,37,39,41,43,45,47,49,51,53,55,57,59,61,63,65,67,69,71,73,75,77,79,81,83,85,-1,87,89,91,93,95,97,99,101,103,105,107,109,111,113,115,117,119,121,123,-1,-1,-1,-1,-1,-1,-1,-1,-1,-1,-1,-1,-1,-1,-1,-1,-1,-1,-1,-1,-1,-1,-1,-1,-1,-1,-1,-1,-1,-1,-1,-1,-1,-1,-1,-1,-1,-1,-1,-1,-1,-1,-1,-1,-1,-1,-1,-1,-1,-1,-1,-1,-1,-1,-1,-1,-1,-1,-1,-1,-1,-1],"loss_changes":[2.4889703E5,1.8512539E5,1.7655898E5,2.7102975E5,6.3958193E3,1.0396652E5,2.5858875E5,2.3466887E4,3.227555E5,5.5974496E4,5.5473926E2,7.163587E4,3.9874206E5,5.187033E5,1.8407125E5,4.610836E3,7.750985E4,1.375995E5,1.9518439E5,1.5320918E4,3.512832E3,3.280957E1,8.122224E2,2.1999055E5,3.41175E4,4.105035E3,1.3550853E5,9.127044E5,2.8681953E5,8.712827E5,5.4354797E4,9.073468E3,2.6764941E3,9.973397E4,8.134812E3,1.01555875E5,1.0685719E5,4.5354434E4,3.5087053E5,1.1604514E4,1.6806594E4,1.2297946E3,3.67375E2,0E0,6.747949E1,6.0153467E2,1.8170157E3,2.688803E5,1.455516E4,2.4133078E4,7.084782E4,2.3782515E3,2.4513086E2,8.643558E4,1.20046625E5,1.4971941E4,5.778161E5,2.6967772E5,1.26870625E4,1.1311171E5,7.025167E5,1.0926372E5,5.727797E3,0E0,0E0,0E0,0E0,0E0,0E0,0E0,0E0,0E0,0E0,0E0,0E0,0E0,0E0,0E0,0E0,0E0,0E0,0E0,0E0,0E0,0E0,0E0,0E0,0E0,0E0,0E0,0E0,0E0,0E0,0E0,0E0,0E0,0E0,0E0,0E0,0E0,0E0,0E0,0E0,0E0,0E0,0E0,0E0,0E0,0E0,0E0,0E0,0E0,0E0,0E0,0E0,0E0,0E0,0E0,0E0,0E0,0E0,0E0,0E0,0E0,0E0],"parents":[2147483647,0,0,1,1,2,2,3,3,4,4,5,5,6,6,7,7,8,8,9,9,10,10,11,11,12,12,13,13,14,14,15,15,16,16,17,17,18,18,19,19,20,20,21,21,22,22,23,23,24,24,25,25,26,26,27,27,28,28,29,29,30,30,31,31,32,32,33,33,34,34,35,35,36,36,37,37,38,38,39,39,40,40,41,41,42,42,44,44,45,45,46,46,47,47,48,48,49,49,50,50,51,51,52,52,53,53,54,54,55,55,56,56,57,57,58,58,59,59,60,60,61,61,62,62],"right_children":[2,4,6,8,10,12,14,16,18,20,22,24,26,28,30,32,34,36,38,40,42,44,46,48,50,52,54,56,58,60,62,64,66,68,70,72,74,76,78,80,82,84,86,-1,88,90,92,94,96,98,100,102,104,106,108,110,112,114,116,118,120,122,124,-1,-1,-1,-1,-1,-1,-1,-1,-1,-1,-1,-1,-1,-1,-1,-1,-1,-1,-1,-1,-1,-1,-1,-1,-1,-1,-1,-1,-1,-1,-1,-1,-1,-1,-1,-1,-1,-1,-1,-1,-1,-1,-1,-1,-1,-1,-1,-1,-1,-1,-1,-1,-1,-1,-1,-1,-1,-1,-1,-1,-1,-1],"split_conditions":[-1.3293438E0,7.182257E-1,1.2709184E0,-6.63361E-1,8.3335793E-1,1.7544158E0,-1.0087577E0,-3.557531E-1,-3.1796435E-1,2.2382863E-1,1.5241513E0,-7.515077E-1,6.930824E-1,-1.3909909E-2,1.5241513E0,-1.2390221E0,3.6872405E-1,2.2736632E-3,2.2736632E-3,-3.557531E-1,5.136195E-1,-2.1085766E-1,9.483058E-1,-1.1238899E0,-6.4554393E-1,-1.7367166E-1,1.0932012E0,-1.0133975E0,-1.4692867E0,1.2938869E0,1.5598364E0,-1.3541545E0,-5.136537E-1,9.855777E-1,9.855777E-1,-4.330966E-1,-4.330966E-1,1.4256458E-1,4.8796126E-1,-1.5149165E0,2.2736632E-3,2.2736632E-3,6.585149E-1,-2.1794851E-1,1.1787547E0,2.2736632E-3,1.6392835E0,-1.0404258E0,1.5278875E0,9.820004E-1,-6.596223E-2,5.136195E-1,-6.4554393E-1,2.2382863E-1,2.2736632E-3,-6.4554393E-1,1.0932012E0,-9.353348E-1,-1.3541545E0,1.5598364E0,1.5598364E0,1.6392835E0,1.0932012E0,-3.0707154E-1,5.785806E-1,-2.2420867E-1,-6.098131E-1,4.459548E-1,3.2102478E0,-5.5635016E-2,-6.14969E-1,4.985767E0,1.8286304E0,8.986438E-1,3.431818E0,4.1723916E-1,-7.3257893E-1,6.176495E-1,3.6167188E0,3.124256E0,4.0867504E-1,4.4032664E0,1.2296017E0,5.628745E-1,-6.2737906E-1,-7.1381706E-1,-1.2836235E0,-1.7027281E-1,-2.1501112E-1,-2.678114E-1,-9.9875666E-2,4.0602732E-1,-1.4409374E-1,-5.537728E-3,1.7224829E0,-1.17990434E-1,2.0984264E-1,-2.1088457E-1,-4.9408865E-1,8.825241E-2,-1.7228548E-1,2.2999294E-1,-2.8578222E-1,-2.4931224E-1,-3.749745E-1,3.5126083E0,-1.2984225E-1,1.1789899E1,4.0841002E0,-1.4654492E0,-5.275698E-1,2.3195102E0,7.0350785E0,3.8669083E0,1.4890704E-1,-8.2051766E-1,-1.5134437E0,1.8539017E-1,-3.463814E-1,2.6870668E-1,4.4249544E0,-2.6774848E0,-3.318273E-1,-3.3762273E-1,-8.8466513E-1],"split_indices":[5,4,5,4,4,4,4,3,4,3,4,5,5,6,4,4,3,1,1,3,3,3,3,4,3,5,3,6,4,4,5,4,6,6,6,4,4,4,4,3,1,1,3,0,4,1,4,5,3,5,3,3,3,3,1,3,3,3,4,5,5,4,3,0,0,0,0,0,0,0,0,0,0,0,0,0,0,0,0,0,0,0,0,0,0,0,0,0,0,0,0,0,0,0,0,0,0,0,0,0,0,0,0,0,0,0,0,0,0,0,0,0,0,0,0,0,0,0,0,0,0,0,0,0,0],"split_type":[0,0,0,0,0,0,0,0,0,0,0,0,0,0,0,0,0,0,0,0,0,0,0,0,0,0,0,0,0,0,0,0,0,0,0,0,0,0,0,0,0,0,0,0,0,0,0,0,0,0,0,0,0,0,0,0,0,0,0,0,0,0,0,0,0,0,0,0,0,0,0,0,0,0,0,0,0,0,0,0,0,0,0,0,0,0,0,0,0,0,0,0,0,0,0,0,0,0,0,0,0,0,0,0,0,0,0,0,0,0,0,0,0,0,0,0,0,0,0,0,0,0,0,0,0],"sum_hessian":[1.42092E5,1.2506E4,1.29586E5,8.498E3,4.008E3,1.05141E5,2.4445E4,3.632E3,4.866E3,4.02E2,3.606E3,1.03543E5,1.598E3,4.812E3,1.9633E4,1.37E3,2.262E3,1.212E3,3.654E3,2.16E2,1.86E2,2.432E3,1.174E3,2.1681E4,8.1862E4,1.198E3,4E2,2.415E3,2.397E3,1.7624E4,2.009E3,6.17E2,7.53E2,7.54E2,1.508E3,4.64E2,7.48E2,1.389E3,2.265E3,1.46E2,7E1,3.3E1,1.53E2,1.011E3,1.421E3,8.99E2,2.75E2,3.648E3,1.8033E4,2.4047E4,5.7815E4,3.95E2,8.03E2,3.09E2,9.1E1,8.27E2,1.588E3,1.202E3,1.195E3,1.5998E4,1.626E3,7.94E2,1.215E3,4.64E2,1.53E2,3.02E2,4.51E2,5.87E2,1.67E2,1.175E3,3.33E2,3.1E2,1.54E2,4.98E2,2.5E2,6.14E2,7.75E2,1.765E3,5E2,1.7E1,1.29E2,2.8E1,4.2E1,1.5E1,1.8E1,1.7E1,1.36E2,7.05E2,7.16E2,3.5E2,5.49E2,8.7E1,1.88E2,2.032E3,1.616E3,1.6559E4,1.474E3,2.0521E4,3.526E3,1.3668E4,4.4147E4,2.6E2,1.35E2,2.25E2,5.78E2,2.16E2,9.3E1,3.1E1,6E1,2.4E2,5.87E2,1.261E3,3.27E2,2.44E2,9.58E2,4.03E2,7.92E2,7.994E3,8.004E3,8.13E2,8.13E2,3.98E2,3.96E2,9.77E2,2.38E2],"tree_param":{"num_deleted":"0","num_feature":"9","num_nodes":"125","size_leaf_vector":"1"}},{"base_weights":[2.4565966E-3,3.8381405E0,-3.6774182E-1,6.21612E0,-1.2040851E0,-1.045185E0,1.3319846E0,3.3128384E-1,1.0607612E1,2.213195E0,-1.5855544E0,4.6896705E-1,