{"learner":{"attributes":{"scikit_learn":"{\"_estimator_type\": \"regressor\"}"},"feature_names":[],"feature_types":[],"gradient_booster":{"model":{"gbtree_model_param":{"num_parallel_tree":"1","num_trees":"100"},"iteration_indptr":[0,1,2,3,4,5,6,7,8,9,10,11,12,13,14,15,16,17,18,19,20,21,22,23,24,25,26,27,28,29,30,31,32,33,34,35,36,37,38,39,40,41,42,43,44,45,46,47,48,49,50,51,52,53,54,55,56,57,58,59,60,61,62,63,64,65,66,67,68,69,70,71,72,73,74,75,76,77,78,79,80,81,82,83,84,85,86,87,88,89,90,91,92,93,94,95,96,97,98,99,100],"tree_info":[0,0,0,0,0,0,0,0,0,0,0,0,0,0,0,0,0,0,0,0,0,0,0,0,0,0,0,0,0,0,0,0,0,0,0,0,0,0,0,0,0,0,0,0,0,0,0,0,0,0,0,0,0,0,0,0,0,0,0,0,0,0,0,0,0,0,0,0,0,0,0,0,0,0,0,0,0,0,0,0,0,0,0,0,0,0,0,0,0,0,0,0,0,0,0,0,0,0,0,0],"trees":[{"base_weights":[-1.294034E-7,5.7028685E0,-2.5776865E0,2.0368776E0,9.961215E0,5.5926714E0,-2.8508215E0,5.0050564E0,-6.7591276E0,2.106453E1,5.803049E0,4.2202404E1,4.9426907E-1,-3.2978368E0,-4.612076E-1,-2.4701805E0,8.507869E0,-7.969832E0,-4.3904257E0,4.254103E1,8.962664E0,7.4739814E-1,1.6461979E1,6.738361E1,3.3193676E1,3.3493254E0,-3.278726E0,-1.6053479E0,-3.725332E0,-1.5467173E0,6.660827E0,9.0111536E-1,-6.939348E0,1.248272E1,4.513175E0,-5.8836164E0,-8.481676E0,-7.158745E0,7.129619E0,5.6858315E1,2.1189651E1,-2.6604004E0,1.7814726E1,-1.6965187E0,3.877032E0,3.1337143E1,5.584479E0,5.6661906E0,7.2210846E0,4.288265E0,3.1766043E1,-2.8721776E0,5.344262E0,-8.762958E0,-4.980428E-1,-3.6752841E0,4.6156816E0,-1.1181568E0,-4.603671E0,8.088576E-1,-4.186698E0,4.0848816E1,-2.0805788E0,1.2901137E0,-8.847191E-2,-9.570069E-1,-4.315861E-1,1.0495573E0,2.50585E0,7.025396E-1,-5.6634134E-1,-8.642563E-2,-9.409448E-1,-8.7658054E-1,-7.0552534E-1,-1.0083334E0,-6.170897E-1,-1.2119809E-4,9.3952715E-1,4.847832E0,7.379214E0,1.3381647E0,2.8964536E0,2.3548744E0,-3.4995574E-1,1.3290975E0,3.6332047E0,5.7447016E-1,-4.6294314E-1,1.0285453E0,-3.7013343E-1,2.5322435E0,4.0331626E0,1.9085146E-1,2.567758E0,2.7347093E0,3.4277894E0,-1.089918E-1,-5.143646E-1,7.979277E-1,4.0641204E-1,-9.3702984E-1,-7.515344E-1,6.518279E-1,-7.4256366E-1,-1.9134001E-1,-5.19695E-1,1.0969721E0,-4.8906168E-1,-8.0931294E-1,-3.6400255E-2,-6.3711697E-1,-3.3543774E-1,-6.597977E-2,5.5614924E-1,3.5627764E-2,-6.428831E-1,1.8935986E0,5.409607E0,1.3789791E0,-7.4499047E-1],"categories":[],"categories_nodes":[],"categories_segments":[],"categories_sizes":[],"default_left":[0,0,0,0,0,0,0,0,0,0,0,0,0,0,0,0,0,0,0,0,0,0,0,0,0,0,0,0,0,0,0,0,0,0,0,0,0,0,0,0,0,0,0,0,0,0,0,0,0,0,0,0,0,0,0,0,0,0,0,0,0,0,0,0,0,0,0,0,0,0,0,0,0,0,0,0,0,0,0,0,0,0,0,0,0,0,0,0,0,0,0,0,0,0,0,0,0,0,0,0,0,0,0,0,0,0,0,0,0,0,0,0,0,0,0,0,0,0,0,0,0],"id":0,"left_children":[1,3,5,7,9,11,13,15,17,19,21,23,25,27,29,31,33,35,37,39,41,43,45,47,49,51,53,55,57,59,61,63,65,67,69,71,73,75,77,79,81,83,85,87,89,91,93,-1,-1,-1,95,97,99,101,103,105,107,109,111,113,115,117,119,-1,-1,-1,-1,-1,-1,-1,-1,-1,-1,-1,-1,-1,-1,-1,-1,-1,-1,-1,-1,-1,-1,-1,-1,-1,-1,-1,-1,-1,-1,-1,-1,-1,-1,-1,-1,-1,-1,-1,-1,-1,-1,-1,-1,-1,-1,-1,-1,-1,-1,-1,-1,-1,-1,-1,-1,-1,-1],"loss_changes":[2.0888112E6,6.905039E5,2.184035E5,6.206498E5,9.446426E5,5.909167E5,1.0115206E5,4.6542162E5,1.7166094E4,1.4485932E6,8.023236E5,8.555444E4,2.9957457E4,5.7712312E4,1.15388305E5,8.546564E4,1.9211888E5,4.187172E3,6.4821996E4,6.1293375E5,3.6704925E5,7.7257086E4,7.74869E5,1.1357812E3,2.6076875E3,1.9662762E4,1.826503E4,2.0718431E5,1.4583481E5,8.054141E4,5.90017E5,6.93162E4,1.6791852E4,1.51326E5,1.5440633E5,1.3884338E4,1.2286094E3,4.670039E3,6.3654707E3,1.6699275E5,4.8663125E4,3.4018508E4,1.6914681E5,1.2381484E5,2.15134E5,1.08421375E5,2.0439969E5,0E0,0E0,0E0,1.8819375E3,1.5530071E3,4.0120312E3,2.3494336E2,3.8738957E4,3.2355047E4,2.4269406E5,8.442335E4,1.0516706E5,4.7781652E4,6.220792E4,1.1567019E5,1.3414306E5,0E0,0E0,0E0,0E0,0E0,0E0,0E0,0E0,0E0,0E0,0E0,0E0,0E0,0E0,0E0,0E0,0E0,0E0,0E0,0E0,0E0,0E0,0E0,0E0,0E0,0E0,0E0,0E0,0E0,0E0,0E0,0E0,0E0,0E0,0E0,0E0,0E0,0E0,0E0,0E0,0E0,0E0,0E0,0E0,0E0,0E0,0E0,0E0,0E0,0E0,0E0,0E0,0E0,0E0,0E0,0E0,0E0,0E0],"parents":[2147483647,0,0,1,1,2,2,3,3,4,4,5,5,6,6,7,7,8,8,9,9,10,10,11,11,12,12,13,13,14,14,15,15,16,16,17,17,18,18,19,19,20,20,21,21,22,22,23,23,24,24,25,25,26,26,27,27,28,28,29,29,30,30,31,31,32,32,33,33,34,34,35,35,36,36,37,37,38,38,39,39,40,40,41,41,42,42,43,43,44,44,45,45,46,46,50,50,51,51,52,52,53,53,54,54,55,55,56,56,57,57,58,58,59,59,60,60,61,61,62,62],"right_children":[2,4,6,8,10,12,14,16,18,20,22,24,26,28,30,32,34,36,38,40,42,44,46,48,50,52,54,56,58,60,62,64,66,68,70,72,74,76,78,80,82,84,86,88,90,92,94,-1,-1,-1,96,98,100,102,104,106,108,110,112,114,116,118,120,-1,-1,-1,-1,-1,-1,-1,-1,-1,-1,-1,-1,-1,-1,-1,-1,-1,-1,-1,-1,-1,-1,-1,-1,-1,-1,-1,-1,-1,-1,-1,-1,-1,-1,-1,-1,-1,-1,-1,-1,-1,-1,-1,-1,-1,-1,-1,-1,-1,-1,-1,-1,-1,-1,-1,-1,-1,-1],"split_conditions":[-4.6336132E-1,-1.0407907E0,-1.5870043E0,8.3206177E-1,-5.502617E-1,-1.7464665E-1,1.2928362E0,-8.9584255E-1,1.4080298E0,-5.148113E-1,9.472554E-1,-7.916054E-1,9.8021203E-1,-1.0110362E0,1.5576414E0,-1.2414234E0,-1.3295053E0,9.472554E-1,-1.3295053E0,-7.5207597E-1,9.832138E-1,2.5609365E-1,-1.546957E-2,3.7329295E-3,-5.020304E-1,1.1406802E-1,1.2689267E0,1.2689267E0,1.1406802E-1,4.8387212E-1,1.4080298E0,-1.0141529E0,-1.3295053E0,6.016745E-1,4.864809E-1,-2.1245532E-1,1.23542E0,1.5232234E0,-7.916054E-1,-1.2414234E0,-8.9584255E-1,-1.5155431E0,-7.8064895E-1,-3.1987447E-1,-7.5207597E-1,1.5232234E0,1.4825555E0,5.6661906E0,7.2210846E0,4.288265E0,3.666948E-1,2.2190727E-1,4.0278268E-1,6.5626985E-1,1.5576414E0,-6.766778E-2,-1.546957E-2,-7.8064895E-1,-1.546957E-2,-1.546957E-2,1.1406802E-1,-3.5724285E-1,1.5232234E0,1.2901137E0,-8.847191E-2,-9.570069E-1,-4.315861E-1,1.0495573E0,2.50585E0,7.025396E-1,-5.6634134E-1,-8.642563E-2,-9.409448E-1,-8.7658054E-1,-7.0552534E-1,-1.0083334E0,-6.170897E-1,-1.2119809E-4,9.3952715E-1,4.847832E0,7.379214E0,1.3381647E0,2.8964536E0,2.3548744E0,-3.4995574E-1,1.3290975E0,3.6332047E0,5.7447016E-1,-4.6294314E-1,1.0285453E0,-3.7013343E-1,2.5322435E0,4.0331626E0,1.9085146E-1,2.567758E0,2.7347093E0,3.4277894E0,-1.089918E-1,-5.143646E-1,7.979277E-1,4.0641204E-1,-9.3702984E-1,-7.515344E-1,6.518279E-1,-7.4256366E-1,-1.9134001E-1,-5.19695E-1,1.0969721E0,-4.8906168E-1,-8.0931294E-1,-3.6400255E-2,-6.3711697E-1,-3.3543774E-1,-6.597977E-2,5.5614924E-1,3.5627764E-2,-6.428831E-1,1.8935986E0,5.409607E0,1.3789791E0,-7.4499047E-1],"split_indices":[5,5,4,4,4,5,4,4,4,6,4,3,5,4,5,4,5,4,5,5,6,4,6,1,3,5,5,5,5,6,4,6,5,4,4,3,3,4,3,4,4,3,4,4,5,4,6,0,0,0,3,3,5,3,5,3,6,4,6,6,5,3,4,0,0,0,0,0,0,0,0,0,0,0,0,0,0,0,0,0,0,0,0,0,0,0,0,0,0,0,0,0,0,0,0,0,0,0,0,0,0,0,0,0,0,0,0,0,0,0,0,0,0,0,0,0,0,0,0,0,0],"split_type":[0,0,0,0,0,0,0,0,0,0,0,0,0,0,0,0,0,0,0,0,0,0,0,0,0,0,0,0,0,0,0,0,0,0,0,0,0,0,0,0,0,0,0,0,0,0,0,0,0,0,0,0,0,0,0,0,0,0,0,0,0,0,0,0,0,0,0,0,0,0,0,0,0,0,0,0,0,0,0,0,0,0,0,0,0,0,0,0,0,0,0,0,0,0,0,0,0,0,0,0,0,0,0,0,0,0,0,0,0,0,0,0,0,0,0,0,0,0,0,0,0],"sum_hessian":[1.42092E5,4.4232E4,9.786E4,2.377E4,2.0462E4,3.165E3,9.4695E4,1.7773E4,5.997E3,5.574E3,1.4888E4,3.86E2,2.779E3,7.9772E4,1.4923E4,5.671E3,1.2102E4,3.967E3,2.03E3,2.008E3,3.566E3,1.0099E4,4.789E3,1E2,2.86E2,1.582E3,1.197E3,1.6087E4,6.3685E4,1.295E4,1.973E3,3.233E3,2.438E3,6.065E3,6.037E3,7.84E2,3.183E3,1.637E3,3.93E2,1.201E3,8.07E2,1.542E3,2.024E3,5.671E3,4.428E3,2.022E3,2.767E3,3.5E1,6.5E1,3.3E1,2.53E2,3.84E2,1.198E3,4.02E2,7.95E2,1.2071E4,4.016E3,1.6049E4,4.7636E4,6.844E3,6.106E3,4.01E2,1.572E3,4.18E2,2.815E3,1.216E3,1.222E3,5.239E3,8.26E2,4.842E3,1.195E3,3.24E2,4.6E2,2.65E3,5.33E2,4.11E2,1.226E3,9.5E1,2.98E2,8.06E2,3.95E2,4.04E2,4.03E2,4.7E1,1.495E3,1.628E3,3.96E2,1.603E3,4.068E3,2.399E3,2.029E3,1.214E3,8.08E2,2.34E3,4.27E2,9.6E1,1.57E2,2.16E2,1.68E2,3.9E2,8.08E2,2.66E2,1.36E2,3.95E2,4E2,5.595E3,6.476E3,2.407E3,1.609E3,1.565E3,1.4484E4,1.9725E4,2.7911E4,5.229E3,1.615E3,2.018E3,4.088E3,1.52E2,2.49E2,3.97E2,1.175E3],"tree_param":{"num_deleted":"0","num_feature":"7","num_nodes":"121","size_leaf_vector":"1"}},{"base_weights":[4.3464304E-4,5.133344E0,-2.3196313E0,1.8331987E0,8.966732E0,5.040397E0,-2.565677E0,4.504748E0,-6.0837646E0,1.896228E1,5.223422E0,3.804247E1,4.4441098E-1,-2.968077E0,-4.1456267E-1,-2.2231953E0,7.6573863E0,-7.1735067E0,-3.9517212E0,3.8295124E1,8.068351E0,6.727344E-1,1.4817727E1,6.0772846E1,2.9910723E1,3.0147595E0,-2.952339E0,-2.6389468E0,-5.2465224E0,-1.3920544E0,5.9987655E0,8.113758E-1,-6.245983E0,1.1235034E1,4.0618806E0,-5.296563E0,-7.634005E0,-6.4438634E0,6.419041E0,5.1182655E1,1.9075928E1,-2.3930614E0,1.6035704E1,-1.5268472E0,3.4894774E0,2.8206675E1,5.0270276E0,5.115311E0,6.5099177E0,3.8720517E0,2.86137E1,-2.5865793E0,4.81084E0,-7.890852E0,-4.4835266E-1,-3.3407707E0,1.5336616E0,-5.87352E0,1.9852906E0,7.2804356E-1,-3.7681274E0,3.67821E1,-1.8721179E0,1.1614102E0,-7.962782E-2,-8.6138487E-1,-3.8846275E-1,-3.102397E-2,1.2991554E0,6.323002E-1,-5.097546E-1,-2.7420634E-2,-8.2063514E-1,-8.6345476E-1,-7.296876E-1,-9.077448E-1,-5.5543107E-1,-1.09212604E-4,8.458886E-1,4.3636494E0,6.6431565E0,1.2046785E0,2.607525E0,2.1242929E0,-3.1498358E-1,1.1962693E0,3.2707996E0,5.170589E-1,-4.1666016E-1,9.257335E-1,-3.3313832E-1,2.2792277E0,3.6303449E0,1.0107821E0,-7.462396E-1,2.5018816E0,3.114352E0,-6.452387E-2,-4.30588E-1,7.183389E-1,3.6582106E-1,-9.153232E-1,-7.329667E-1,5.868097E-1,-6.6849256E-1,-1.7264085E-1,-4.1595912E-1,1.145992E0,-4.0123343E-1,3.0027488E-2,-6.7956823E-1,-2.0188494E-2,1.2183264E0,-3.7318346E-1,2.1037154E-1,3.2066792E-2,-5.7861054E-1,1.4714974E0,4.763791E0,1.2414278E0,-6.7055476E-1],"categories":[],"categories_nodes":[],"categories_segments":[],"categories_sizes":[],"default_left":[0,0,0,0,0,0,0,0,0,0,0,0,0,0,0,0,0,0,0,0,0,0,0,0,0,0,0,0,0,0,0,0,0,0,0,0,0,0,0,0,0,0,0,0,0,0,0,0,0,0,0,0,0,0,0,0,0,0,0,0,0,0,0,0,0,0,0,0,0,0,0,0,0,0,0,0,0,0,0,0,0,0,0,0,0,0,0,0,0,0,0,0,0,0,0,0,0,0,0,0,0,0,0,0,0,0,0,0,0,0,0,0,0,0,0,0,0,0,0,0,0],"id":1,"left_children":[1,3,5,7,9,11,13,15,17,19,21,23,25,27,29,31,33,35,37,39,41,43,45,47,49,51,53,55,57,59,61,63,65,67,69,71,73,75,77,79,81,83,85,87,89,91,93,-1,-1,-1,95,97,99,101,103,105,107,109,111,113,115,117,119,-1,-1,-1,-1,-1,-1,-1,-1,-1,-1,-1,-1,-1,-1,-1,-1,-1,-1,-1,-1,-1,-1,-1,-1,-1,-1,-1,-1,-1,-1,-1,-1,-1,-1,-1,-1,-1,-1,-1,-1,-1,-1,-1,-1,-1,-1,-1,-1,-1,-1,-1,-1,-1,-1,-1,-1,-1,-1],"loss_changes":[1.6921531E6,5.5956375E5,1.7722969E5,5.0279728E5,7.6555325E5,4.801927E5,8.196844E4,3.770173E5,1.390725E4,1.1738452E6,6.500541E5,6.971444E4,2.4280611E4,5.9808375E4,9.356653E4,6.924564E4,1.5564075E5,3.3892344E3,5.2533406E4,4.9662875E5,2.97347E5,6.258145E4,6.277656E5,8.73375E2,2.1714688E3,1.5938146E4,1.481089E4,2.0413462E5,4.566328E4,6.52435E4,4.783533E5,5.6174273E4,1.3603898E4,1.2301944E5,1.2508269E5,1.1469736E4,1.011E3,3.7869453E3,5.1598643E3,1.3541625E5,3.9438875E4,2.7666723E4,1.3711925E5,1.0030017E5,1.7427545E5,8.7859125E4,1.7572214E5,0E0,0E0,0E0,1.5307969E3,1.2822549E3,3.2525918E3,2.1840625E2,3.1396053E4,7.886906E4,5.5259275E5,5.2749906E4,1.7935482E4,4.2004168E4,5.0391305E4,9.560075E4,1.08702484E5,0E0,0E0,0E0,0E0,0E0,0E0,0E0,0E0,0E0,0E0,0E0,0E0,0E0,0E0,0E0,0E0,0E0,0E0,0E0,0E0,0E0,0E0,0E0,0E0,0E0,0E0,0E0,0E0,0E0,0E0,0E0,0E0,0E0,0E0,0E0,0E0,0E0,0E0,0E0,0E0,0E0,0E0,0E0,0E0,0E0,0E0,0E0,0E0,0E0,0E0,0E0,0E0,0E0,0E0,0E0,0E0,0E0,0E0],"parents":[2147483647,0,0,1,1,2,2,3,3,4,4,5,5,6,6,7,7,8,8,9,9,10,10,11,11,12,12,13,13,14,14,15,15,16,16,17,17,18,18,19,19,20,20,21,21,22,22,23,23,24,24,25,25,26,26,27,27,28,28,29,29,30,30,31,31,32,32,33,33,34,34,35,35,36,36,37,37,38,38,39,39,40,40,41,41,42,42,43,43,44,44,45,45,46,46,50,50,51,51,52,52,53,53,54,54,55,55,56,56,57,57,58,58,59,59,60,60,61,61,62,62],"right_children":[2,4,6,8,10,12,14,16,18,20,22,24,26,28,30,32,34,36,38,40,42,44,46,48,50,52,54,56,58,60,62,64,66,68,70,72,74,76,78,80,82,84,86,88,90,92,94,-1,-1,-1,96,98,100,102,104,106,108,110,112,114,116,118,120,-1,-1,-1,-1,-1,-1,-1,-1,-1,-1,-1,-1,-1,-1,-1,-1,-1,-1,-1,-1,-1,-1,-1,-1,-1,-1,-1,-1,-1,-1,-1,-1,-1,-1,-1,-1,-1,-1,-1,-1,-1,-1,-1,-1,-1,-1,-1,-1,-1,-1,-1,-1,-1,-1,-1,-1,-1,-1],"split_conditions":[-4.6336132E-1,-1.0407907E0,-1.5870043E0,8.3206177E-1,-5.502617E-1,-1.7464665E-1,1.2928362E0,-8.9584255E-1,1.4080298E0,-5.148113E-1,9.472554E-1,-7.916054E-1,9.8021203E-1,1.5576414E0,1.5576414E0,-1.2414234E0,-1.3295053E0,9.472554E-1,-1.3295053E0,-7.5207597E-1,9.832138E-1,2.5609365E-1,-1.546957E-2,3.7329295E-3,-5.020304E-1,1.1406802E-1,1.2689267E0,1.2689267E0,1.062449E0,4.8387212E-1,1.4080298E0,-1.0141529E0,-1.3295053E0,-6.6545534E-1,4.864809E-1,-3.5724285E-1,-1.0141529E0,1.5232234E0,-7.916054E-1,-1.2414234E0,-8.9584255E-1,-1.5155431E0,-7.8064895E-1,-3.1987447E-1,-7.5207597E-1,1.5232234E0,1.4080298E0,5.115311E0,6.5099177E0,3.8720517E0,5.1148236E-1,-6.766778E-2,4.0278268E-1,-6.468179E-1,1.5576414E0,1.1406802E-1,-5.502617E-1,-1.2414234E0,1.23542E0,-1.0141529E0,1.1406802E-1,-5.020304E-1,1.5232234E0,1.1614102E0,-7.962782E-2,-8.6138487E-1,-3.8846275E-1,-3.102397E-2,1.2991554E0,6.323002E-1,-5.097546E-1,-2.7420634E-2,-8.2063514E-1,-8.6345476E-1,-7.296876E-1,-9.077448E-1,-5.5543107E-1,-1.09212604E-4,8.458886E-1,4.3636494E0,6.6431565E0,1.2046785E0,2.607525E0,2.1242929E0,-3.1498358E-1,1.1962693E0,3.2707996E0,5.170589E-1,-4.1666016E-1,9.257335E-1,-3.3313832E-1,2.2792277E0,3.6303449E0,1.0107821E0,-7.462396E-1,2.5018816E0,3.114352E0,-6.452387E-2,-4.30588E-1,7.183389E-1,3.6582106E-1,-9.153232E-1,-7.329667E-1,5.868097E-1,-6.6849256E-1,-1.7264085E-1,-4.1595912E-1,1.145992E0,-4.0123343E-1,3.0027488E-2,-6.7956823E-1,-2.0188494E-2,1.2183264E0,-3.7318346E-1,2.1037154E-1,3.2066792E-2,-5.7861054E-1,1.4714974E0,4.763791E0,1.2414278E0,-6.7055476E-1],"split_indices":[5,5,4,4,4,5,4,4,4,6,4,3,5,5,5,4,5,4,5,5,6,4,6,1,3,5,5,5,4,6,4,6,5,4,4,3,6,4,3,4,4,3,4,4,5,4,4,0,0,0,3,3,5,3,5,5,4,4,3,6,5,3,4,0,0,0,0,0,0,0,0,0,0,0,0,0,0,0,0,0,0,0,0,0,0,0,0,0,0,0,0,0,0,0,0,0,0,0,0,0,0,0,0,0,0,0,0,0,0,0,0,0,0,0,0,0,0,0,0,0,0],"split_type":[0,0,0,0,0,0,0,0,0,0,0,0,0,0,0,0,0,0,0,0,0,0,0,0,0,0,0,0,0,0,0,0,0,0,0,0,0,0,0,0,0,0,0,0,0,0,0,0,0,0,0,0,0,0,0,0,0,0,0,0,0,0,0,0,0,0,0,0,0,0,0,0,0,0,0,0,0,0,0,0,0,0,0,0,0,0,0,0,0,0,0,0,0,0,0,0,0,0,0,0,0,0,0,0,0,0,0,0,0,0,0,0,0,0,0,0,0,0,0,0,0],"sum_hessian":[1.42092E5,4.4232E4,9.786E4,2.377E4,2.0462E4,3.165E3,9.4695E4,1.7773E4,5.997E3,5.574E3,1.4888E4,3.86E2,2.779E3,7.9772E4,1.4923E4,5.671E3,1.2102E4,3.967E3,2.03E3,2.008E3,3.566E3,1.0099E4,4.789E3,1E2,2.86E2,1.582E3,1.197E3,6.9705E4,1.0067E4,1.295E4,1.973E3,3.233E3,2.438E3,6.065E3,6.037E3,7.84E2,3.183E3,1.637E3,3.93E2,1.201E3,8.07E2,1.542E3,2.024E3,5.671E3,4.428E3,2.022E3,2.767E3,3.5E1,6.5E1,3.3E1,2.53E2,3.84E2,1.198E3,4.02E2,7.95E2,5.9669E4,1.0036E4,9.264E3,8.03E2,6.844E3,6.106E3,4.01E2,1.572E3,4.18E2,2.815E3,1.216E3,1.222E3,8.01E2,5.264E3,4.842E3,1.195E3,2.88E2,4.96E2,7.96E2,2.387E3,4.11E2,1.226E3,9.5E1,2.98E2,8.06E2,3.95E2,4.04E2,4.03E2,4.7E1,1.495E3,1.628E3,3.96E2,1.603E3,4.068E3,2.399E3,2.029E3,1.214E3,8.08E2,1.967E3,8E2,1.09E2,1.44E2,1.81E2,2.03E2,3.9E2,8.08E2,1.19E2,2.83E2,3.95E2,4E2,2.0081E4,3.9588E4,3.597E3,6.439E3,1.204E3,8.06E3,6.62E2,1.41E2,1.613E3,5.231E3,2.018E3,4.088E3,1.33E2,2.68E2,3.97E2,1.175E3],"tree_param":{"num_deleted":"0","num_feature":"7","num_nodes":"121","size_leaf_vector":"1"}},{"base_weights":[7.6354295E-4,4.6206E0,-2.0873945E0,1.6498016E0,8.071425E0,4.542666E0,-2.3090372E0,4.054342E0,-5.4758983E0,1.7069836E1,4.701541E0,3.4292778E1,3.9955935E-1,-1.9499066E0,-4.572837E0,-2.000905E0,6.8917627E0,-6.4567714E0,-3.5568528E0,3.447299E1,7.263275E0,6.0552955E-1,1.3337243E1,5.270249E1,2.6120043E1,2.7136557E0,-2.6585493E0,-4.3810616E0,-1.461468E0,-2.1988947E0,-5.3463645E0,7.305728E-1,-5.6218967E0,1.0111739E1,3.6557124E0,-4.7679873E0,-6.8711047E0,-5.80037E0,5.779284E0,4.6073547E1,1.7173054E1,-2.1525826E0,1.443434E1,-1.3741449E0,3.1406634E0,2.5388927E1,4.5244203E0,5.6693268E1,4.2037575E1,2.4788288E1,3.1620636E0,-2.3292074E0,4.3306603E0,-7.105857E0,-4.036204E-1,-3.7504013E0,-8.03008E0,-2.1291535E0,5.608433E-1,-8.070713E0,-2.9031098E-1,-2.923333E0,-6.5400476E0,-7.609953E-2,1.1240228E0,-7.753171E-1,-3.496482E-1,8.3506423E-1,2.1258094E0,5.690832E-1,-4.5882177E-1,-2.4688022E-2,-7.387368E-1,-7.126891E-1,-5.5884093E-1,-8.1719077E-1,-4.999332E-1,4.5908403E-2,7.8124166E-1,5.562509E0,3.476328E0,1.0845082E0,2.347418E0,1.9162892E0,-2.8350627E-1,1.0767158E0,2.9445434E0,4.653852E-1,-3.7500438E-1,8.3319867E-1,-2.998409E-1,2.0514925E0,3.267759E0,1.2950699E-1,2.2177188E0,4.7753625E0,6.0852427E0,3.1268559E0,4.6119227E0,2.8858955E0,2.3950813E0,-9.1950946E-2,-4.327146E-1,6.4668876E-1,3.2928416E-1,-8.245536E-1,-6.5992814E-1,5.2827686E-1,-6.0181004E-1,2.0168248E-1,-4.418994E-1,-1.0961236E0,-7.27401E-1,-2.5097096E-1,7.028319E-2,5.465935E-1,-1.1680776E-1,-7.599554E-1,-8.5271806E-1,-2.246118E-1,6.9204405E-2,-5.777135E-1,5.6205213E-1,-7.150701E-1,-4.6603766E-1],"categories":[],"categories_nodes":[],"categories_segments":[],"categories_sizes":[],"default_left":[0,0,0,0,0,0,0,0,0,0,0,0,0,0,0,0,0,0,0,0,0,0,0,0,0,0,0,0,0,0,0,0,0,0,0,0,0,0,0,0,0,0,0,0,0,0,0,0,0,0,0,0,0,0,0,0,0,0,0,0,0,0,0,0,0,0,0,0,0,0,0,0,0,0,0,0,0,0,0,0,0,0,0,0,0,0,0,0,0,0,0,0,0,0,0,0,0,0,0,0,0,0,0,0,0,0,0,0,0,0,0,0,0,0,0,0,0,0,0,0,0,0,0,0,0],"id":2,"left_children":[1,3,5,7,9,11,13,15,17,19,21,23,25,27,29,31,33,35,37,39,41,43,45,47,49,51,53,55,57,59,61,63,65,67,69,71,73,75,77,79,81,83,85,87,89,91,93,95,97,99,-1,101,103,105,107,109,111,113,115,117,119,121,123,-1,-1,-1,-1,-1,-1,-1,-1,-1,-1,-1,-1,-1,-1,-1,-1,-1,-1,-1,-1,-1,-1,-1,-1,-1,-1,-1,-1,-1,-1,-1,-1,-1,-1,-1,-1,-1,-1,-1,-1,-1,-1,-1,-1,-1,-1,-1,-1,-1,-1,-1,-1,-1,-1,-1,-1,-1,-1,-1,-1,-1,-1],"loss_changes":[1.3707735E6,4.534505E5,1.4381775E5,4.0731525E5,6.204315E5,3.9022075E5,7.6978875E4,3.0539394E5,1.12673125E4,9.512074E5,5.2664475E5,5.6850562E4,1.9680602E4,9.704791E4,2.3796E4,5.610392E4,1.2607644E5,2.7437344E3,4.2574406E4,4.0239275E5,2.4088108E5,5.0693586E4,5.08628E5,2.639E3,1.1940312E3,1.2918398E4,1.201111E4,3.1435438E4,9.190042E4,3.572512E4,2.8262094E4,5.070431E4,1.1021172E4,1.18896875E5,1.0132795E5,9.294539E3,1.0048125E3,3.0708398E3,4.2581807E3,1.27919E5,3.1963094E4,2.2500945E4,1.1115591E5,8.1251336E4,1.4117681E5,7.11965E4,1.5776661E5,1.80125E2,1.403086E2,6.5625E1,0E0,1.0803699E3,2.6369082E3,1.7825195E2,2.544498E4,4.4969016E4,4.3836016E3,5.5145953E4,1.4327622E5,1.0337891E2,4.6261157E3,7.876345E4,7.4849375E3,0E0,0E0,0E0,0E0,0E0,0E0,0E0,0E0,0E0,0E0,0E0,0E0,0E0,0E0,0E0,0E0,0E0,0E0,0E0,0E0,0E0,0E0,0E0,0E0,0E0,0E0,0E0,0E0,0E0,0E0,0E0,0E0,0E0,0E0,0E0,0E0,0E0,0E0,0E0,0E0,0E0,0E0,0E0,0E0,0E0,0E0,0E0,0E0,0E0,0E0,0E0,0E0,0E0,0E0,0E0,0E0,0E0,0E0,0E0,0E0,0E0,0E0],"parents":[2147483647,0,0,1,1,2,2,3,3,4,4,5,5,6,6,7,7,8,8,9,9,10,10,11,11,12,12,13,13,14,14,15,15,16,16,17,17,18,18,19,19,20,20,21,21,22,22,23,23,24,24,25,25,26,26,27,27,28,28,29,29,30,30,31,31,32,32,33,33,34,34,35,35,36,36,37,37,38,38,39,39,40,40,41,41,42,42,43,43,44,44,45,45,46,46,47,47,48,48,49,49,51,51,52,52,53,53,54,54,55,55,56,56,57,57,58,58,59,59,60,60,61,61,62,62],"right_children":[2,4,6,8,10,12,14,16,18,20,22,24,26,28,30,32,34,36,38,40,42,44,46,48,50,52,54,56,58,60,62,64,66,68,70,72,74,76,78,80,82,84,86,88,90,92,94,96,98,100,-1,102,104,106,108,110,112,114,116,118,120,122,124,-1,-1,-1,-1,-1,-1,-1,-1,-1,-1,-1,-1,-1,-1,-1,-1,-1,-1,-1,-1,-1,-1,-1,-1,-1,-1,-1,-1,-1,-1,-1,-1,-1,-1,-1,-1,-1,-1,-1,-1,-1,-1,-1,-1,-1,-1,-1,-1,-1,-1,-1,-1,-1,-1,-1,-1,-1,-1,-1,-1,-1,-1],"split_conditions":[-4.6336132E-1,-1.0407907E0,-1.5870043E0,8.3206177E-1,-5.502617E-1,-1.7464665E-1,1.4825555E0,-8.9584255E-1,1.4080298E0,-5.148113E-1,9.472554E-1,-6.468179E-1,9.8021203E-1,-1.0141529E0,1.1406802E-1,-1.2414234E0,-1.3295053E0,9.472554E-1,-1.3295053E0,-7.5207597E-1,9.832138E-1,2.5609365E-1,-1.546957E-2,-9.3639296E-1,1.3802075E0,1.1406802E-1,1.2689267E0,1.5576414E0,1.2689267E0,-7.8064895E-1,-4.3506807E-1,1.4825555E0,-1.3295053E0,6.016745E-1,4.864809E-1,-3.5724285E-1,1.23542E0,1.5232234E0,-6.468179E-1,2.2190727E-1,-8.9584255E-1,-1.5155431E0,-7.8064895E-1,-3.1987447E-1,-7.5207597E-1,1.5232234E0,1.4825555E0,3.7329295E-3,3.7329295E-3,-3.5724285E-1,3.1620636E0,3.666948E-1,4.0278268E-1,-6.468179E-1,1.5576414E0,-1.2414234E0,-1.4718107E0,1.4080298E0,-6.6545534E-1,-1.2414234E0,2.5706405E-2,-7.8064895E-1,1.1776426E0,-7.609953E-2,1.1240228E0,-7.753171E-1,-3.496482E-1,8.3506423E-1,2.1258094E0,5.690832E-1,-4.5882177E-1,-2.4688022E-2,-7.387368E-1,-7.126891E-1,-5.5884093E-1,-8.1719077E-1,-4.999332E-1,4.5908403E-2,7.8124166E-1,5.562509E0,3.476328E0,1.0845082E0,2.347418E0,1.9162892E0,-2.8350627E-1,1.0767158E0,2.9445434E0,4.653852E-1,-3.7500438E-1,8.3319867E-1,-2.998409E-1,2.0514925E0,3.267759E0,1.2950699E-1,2.2177188E0,4.7753625E0,6.0852427E0,3.1268559E0,4.6119227E0,2.8858955E0,2.3950813E0,-9.1950946E-2,-4.327146E-1,6.4668876E-1,3.2928416E-1,-8.245536E-1,-6.5992814E-1,5.2827686E-1,-6.0181004E-1,2.0168248E-1,-4.418994E-1,-1.0961236E0,-7.27401E-1,-2.5097096E-1,7.028319E-2,5.465935E-1,-1.1680776E-1,-7.599554E-1,-8.5271806E-1,-2.246118E-1,6.9204405E-2,-5.777135E-1,5.6205213E-1,-7.150701E-1,-4.6603766E-1],"split_indices":[5,5,4,4,4,5,6,4,4,6,4,3,5,6,5,4,5,4,5,5,6,4,6,3,3,5,5,5,5,4,4,6,5,4,4,3,3,4,3,3,4,3,4,4,5,4,6,1,1,3,0,3,5,3,5,4,4,4,4,4,4,4,4,0,0,0,0,0,0,0,0,0,0,0,0,0,0,0,0,0,0,0,0,0,0,0,0,0,0,0,0,0,0,0,0,0,0,0,0,0,0,0,0,0,0,0,0,0,0,0,0,0,0,0,0,0,0,0,0,0,0,0,0,0,0],"split_type":[0,0,0,0,0,0,0,0,0,0,0,0,0,0,0,0,0,0,0,0,0,0,0,0,0,0,0,0,0,0,0,0,0,0,0,0,0,0,0,0,0,0,0,0,0,0,0,0,0,0,0,0,0,0,0,0,0,0,0,0,0,0,0,0,0,0,0,0,0,0,0,0,0,0,0,0,0,0,0,0,0,0,0,0,0,0,0,0,0,0,0,0,0,0,0,0,0,0,0,0,0,0,0,0,0,0,0,0,0,0,0,0,0,0,0,0,0,0,0,0,0,0,0,0,0],"sum_hessian":[1.42092E5,4.4232E4,9.786E4,2.377E4,2.0462E4,3.165E3,9.4695E4,1.7773E4,5.997E3,5.574E3,1.4888E4,3.86E2,2.779E3,8.1731E4,1.2964E4,5.671E3,1.2102E4,3.967E3,2.03E3,2.008E3,3.566E3,1.0099E4,4.789E3,1.17E2,2.69E2,1.582E3,1.197E3,1.3672E4,6.8059E4,3.187E3,9.777E3,3.233E3,2.438E3,6.065E3,6.037E3,7.84E2,3.183E3,1.637E3,3.93E2,1.201E3,8.07E2,1.542E3,2.024E3,5.671E3,4.428E3,2.022E3,2.767E3,8.2E1,3.5E1,2.21E2,4.8E1,3.84E2,1.198E3,4.02E2,7.95E2,1.1659E4,2.013E3,5.1166E4,1.6893E4,7.81E2,2.406E3,3.228E3,6.549E3,2.832E3,4.01E2,1.216E3,1.222E3,5.239E3,8.26E2,4.842E3,1.195E3,2.88E2,4.96E2,2.65E3,5.33E2,4.11E2,1.226E3,1.09E2,2.84E2,6.49E2,5.52E2,4.04E2,4.03E2,4.7E1,1.495E3,1.628E3,3.96E2,1.603E3,4.068E3,2.399E3,2.029E3,1.214E3,8.08E2,2.34E3,4.27E2,3E1,5.2E1,1.2E1,2.3E1,3.2E1,1.89E2,2.26E2,1.58E2,3.9E2,8.08E2,1.19E2,2.83E2,3.95E2,4E2,1.211E3,1.0448E4,4.1E2,1.603E3,4.5105E4,6.061E3,4.402E3,1.2491E4,3.93E2,3.88E2,8.04E2,1.602E3,2.42E3,8.08E2,4.941E3,1.608E3],"tree_param":{"num_deleted":"0","num_feature":"7","num_nodes":"125","size_leaf_vector":"1"}},{"base_weights":[1.0253012E-3,4.159148E0,-1.878439E0,1.4848413E0,7.265574E0,4.0965915E0,-2.0781841E0,3.6490762E0,-4.928729E0,1.5366103E1,4.2319436E0,3.0933378E1,3.5920566E-1,-1.7549382E0,-4.115782E0,-1.8008281E0,6.2028403E0,-5.811607E0,-3.2014086E0,3.1031897E1,6.5385327E0,5.450385E-1,1.2005119E1,4.9510834E1,2.4287886E1,2.4425757E0,-2.3939946E0,-3.9431067E0,-1.3153175E0,-1.9795597E0,-4.8118505E0,-4.7044654E0,1.1167839E0,9.101054E0,3.2901595E0,-4.292161E0,-6.1843934E0,-5.221137E0,5.2034554E0,4.1473713E1,1.5459995E1,-1.9362662E0,1.2992891E1,-1.2367142E0,2.8267176E0,2.2852665E1,4.0728264E0,4.1766143E0,5.2985053E0,3.1604065E1,2.3212933E1,-2.0976493E0,3.898409E0,-6.3989544E0,-3.633503E-1,-3.3753817E0,-7.227977E0,-1.9162418E0,5.0478446E-1,-7.265704E0,-2.6134425E-1,-2.6310043E0,-5.8862233E0,-6.3550174E-1,-3.8440224E-2,6.914478E-1,-3.2681453E-1,7.515738E-1,1.9134858E0,5.1218665E-1,-4.129779E-1,-5.591896E-2,-6.9145554E-1,-6.748556E-1,-5.612424E-1,-7.3567E-1,-4.4998065E-1,4.135934E-2,7.033917E-1,3.467137E0,5.523133E0,9.7632515E-1,2.1132572E0,1.7286526E0,-2.551746E-1,9.691103E-1,2.6508305E0,-4.2160675E-1,2.7285123E-1,7.499136E-1,-2.6987156E-1,1.8465118E0,2.941387E0,-4.2689487E-1,1.0111065E0,2.403572E0,3.5700119E0,1.9713141E0,2.5214622E0,-3.4249816E-2,-3.426474E-1,5.821853E-1,2.9639652E-1,-6.894453E-1,-5.386568E-1,4.755826E-1,-5.4177904E-1,1.8153091E-1,-3.9771372E-1,-9.867779E-1,-6.547063E-1,-5.132478E-2,-2.6085916E-1,4.9194652E-1,-1.0512789E-1,-6.841528E-1,-7.676655E-1,-8.236786E-2,2.5792423E-1,-5.19966E-1,5.059164E-1,-6.4357764E-1,-4.194629E-1],"categories":[],"categories_nodes":[],"categories_segments":[],"categories_sizes":[],"default_left":[0,0,0,0,0,0,0,0,0,0,0,0,0,0,0,0,0,0,0,0,0,0,0,0,0,0,0,0,0,0,0,0,0,0,0,0,0,0,0,0,0,0,0,0,0,0,0,0,0,0,0,0,0,0,0,0,0,0,0,0,0,0,0,0,0,0,0,0,0,0,0,0,0,0,0,0,0,0,0,0,0,0,0,0,0,0,0,0,0,0,0,0,0,0,0,0,0,0,0,0,0,0,0,0,0,0,0,0,0,0,0,0,0,0,0,0,0,0,0,0,0,0,0],"id":3,"left_children":[1,3,5,7,9,11,13,15,17,19,21,23,25,27,29,31,33,35,37,39,41,43,45,47,49,51,53,55,57,59,61,63,65,67,69,71,73,75,77,79,81,83,85,87,89,91,93,-1,-1,95,97,99,101,103,105,107,109,111,113,115,117,119,121,-1,-1,-1,-1,-1,-1,-1,-1,-1,-1,-1,-1,-1,-1,-1,-1,-1,-1,-1,-1,-1,-1,-1,-1,-1,-1,-1,-1,-1,-1,-1,-1,-1,-1,-1,-1,-1,-1,-1,-1,-1,-1,-1,-1,-1,-1,-1,-1,-1,-1,-1,-1,-1,-1,-1,-1,-1,-1,-1,-1],"loss_changes":[1.1104708E6,3.674565E5,1.16804E5,3.299707E5,5.0279288E5,3.1753688E5,6.2363812E4,2.4738564E5,9.128406E3,7.707689E5,4.2669678E5,4.6575062E4,1.5951747E4,7.861806E4,1.9268875E4,4.8056656E4,1.0213834E5,2.2210469E3,3.4504496E4,3.2602E5,1.951379E5,4.1063918E4,4.120668E5,5.04625E2,1.5235156E3,1.0471508E4,9.740588E3,2.5474422E4,7.4441125E4,2.895386E4,2.2894781E4,2.0269535E4,7.196821E4,9.634656E4,8.208453E4,7.68075E3,9.8953906E2,2.4901445E3,3.4515469E3,1.10573125E5,2.590436E4,1.8299715E4,9.010878E4,6.701943E4,1.1436431E5,5.7694125E4,1.394663E5,0E0,0E0,1.959336E2,1.2823281E3,8.967572E2,2.1377676E3,1.6502344E2,2.0621926E4,3.642753E4,3.5555156E3,4.9700375E4,1.1605889E5,8.379297E1,3.846968E3,6.3810016E4,6.062E3,0E0,0E0,0E0,0E0,0E0,0E0,0E0,0E0,0E0,0E0,0E0,0E0,0E0,0E0,0E0,0E0,0E0,0E0,0E0,0E0,0E0,0E0,0E0,0E0,0E0,0E0,0E0,0E0,0E0,0E0,0E0,0E0,0E0,0E0,0E0,0E0,0E0,0E0,0E0,0E0,0E0,0E0,0E0,0E0,0E0,0E0,0E0,0E0,0E0,0E0,0E0,0E0,0E0,0E0,0E0,0E0,0E0,0E0,0E0,0E0],"parents":[2147483647,0,0,1,1,2,2,3,3,4,4,5,5,6,6,7,7,8,8,9,9,10,10,11,11,12,12,13,13,14,14,15,15,16,16,17,17,18,18,19,19,20,20,21,21,22,22,23,23,24,24,25,25,26,26,27,27,28,28,29,29,30,30,31,31,32,32,33,33,34,34,35,35,36,36,37,37,38,38,39,39,40,40,41,41,42,42,43,43,44,44,45,45,46,46,49,49,50,50,51,51,52,52,53,53,54,54,55,55,56,56,57,57,58,58,59,59,60,60,61,61,62,62],"right_children":[2,4,6,8,10,12,14,16,18,20,22,24,26,28,30,32,34,36,38,40,42,44,46,48,50,52,54,56,58,60,62,64,66,68,70,72,74,76,78,80,82,84,86,88,90,92,94,-1,-1,96,98,100,102,104,106,108,110,112,114,116,118,120,122,-1,-1,-1,-1,-1,-1,-1,-1,-1,-1,-1,-1,-1,-1,-1,-1,-1,-1,-1,-1,-1,-1,-1,-1,-1,-1,-1,-1,-1,-1,-1,-1,-1,-1,-1,-1,-1,-1,-1,-1,-1,-1,-1,-1,-1,-1,-1,-1,-1,-1,-1,-1,-1,-1,-1,-1,-1,-1,-1,-1],"split_conditions":[-4.6336132E-1,-1.0407907E0,-1.5870043E0,8.3206177E-1,-5.502617E-1,-1.7464665E-1,1.4825555E0,-8.9584255E-1,1.4080298E0,-5.148113E-1,9.472554E-1,-7.916054E-1,9.8021203E-1,-1.0141529E0,1.1406802E-1,-1.3295053E0,-1.3295053E0,9.472554E-1,-1.3295053E0,-7.5207597E-1,9.832138E-1,2.5609365E-1,-1.546957E-2,3.7329295E-3,-5.020304E-1,1.1406802E-1,1.2689267E0,1.5576414E0,1.2689267E0,-7.8064895E-1,-4.3506807E-1,9.832138E-1,-1.356617E0,6.016745E-1,4.864809E-1,-2.1245532E-1,-1.3295053E0,1.5232234E0,-6.468179E-1,-1.2414234E0,-8.9584255E-1,-1.5155431E0,-7.8064895E-1,4.8387212E-1,-7.5207597E-1,1.5232234E0,-7.5207597E-1,4.1766143E0,5.2985053E0,3.7329295E-3,3.666948E-1,-2.1245532E-1,4.0278268E-1,6.5626985E-1,1.5576414E0,-1.2414234E0,-1.4718107E0,1.1406802E-1,-6.6545534E-1,-1.2414234E0,1.1776426E0,-7.8064895E-1,1.1776426E0,-6.3550174E-1,-3.8440224E-2,6.914478E-1,-3.2681453E-1,7.515738E-1,1.9134858E0,5.1218665E-1,-4.129779E-1,-5.591896E-2,-6.9145554E-1,-6.748556E-1,-5.612424E-1,-7.3567E-1,-4.4998065E-1,4.135934E-2,7.033917E-1,3.467137E0,5.523133E0,9.7632515E-1,2.1132572E0,1.7286526E0,-2.551746E-1,9.691103E-1,2.6508305E0,-4.2160675E-1,2.7285123E-1,7.499136E-1,-2.6987156E-1,1.8465118E0,2.941387E0,-4.2689487E-1,1.0111065E0,2.403572E0,3.5700119E0,1.9713141E0,2.5214622E0,-3.4249816E-2,-3.426474E-1,5.821853E-1,2.9639652E-1,-6.894453E-1,-5.386568E-1,4.755826E-1,-5.4177904E-1,1.8153091E-1,-3.9771372E-1,-9.867779E-1,-6.547063E-1,-5.132478E-2,-2.6085916E-1,4.9194652E-1,-1.0512789E-1,-6.841528E-1,-7.676655E-1,-8.236786E-2,2.5792423E-1,-5.19966E-1,5.059164E-1,-6.4357764E-1,-4.194629E-1],"split_indices":[5,5,4,4,4,5,6,4,4,6,4,3,5,6,5,5,5,4,5,5,6,4,6,1,3,5,5,5,5,4,4,6,4,4,4,3,5,4,3,4,4,3,4,6,5,4,5,0,0,1,3,3,5,3,5,4,4,5,4,4,4,4,4,0,0,0,0,0,0,0,0,0,0,0,0,0,0,0,0,0,0,0,0,0,0,0,0,0,0,0,0,0,0,0,0,0,0,0,0,0,0,0,0,0,0,0,0,0,0,0,0,0,0,0,0,0,0,0,0,0,0,0,0],"split_type":[0,0,0,0,0,0,0,0,0,0,0,0,0,0,0,0,0,0,0,0,0,0,0,0,0,0,0,0,0,0,0,0,0,0,0,0,0,0,0,0,0,0,0,0,0,0,0,0,0,0,0,0,0,0,0,0,0,0,0,0,0,0,0,0,0,0,0,0,0,0,0,0,0,0,0,0,0,0,0,0,0,0,0,0,0,0,0,0,0,0,0,0,0,0,0,0,0,0,0,0,0,0,0,0,0,0,0,0,0,0,0,0,0,0,0,0,0,0,0,0,0,0,0],"sum_hessian":[1.42092E5,4.4232E4,9.786E4,2.377E4,2.0462E4,3.165E3,9.4695E4,1.7773E4,5.997E3,5.574E3,1.4888E4,3.86E2,2.779E3,8.1731E4,1.2964E4,5.671E3,1.2102E4,3.967E3,2.03E3,2.008E3,3.566E3,1.0099E4,4.789E3,1E2,2.86E2,1.582E3,1.197E3,1.3672E4,6.8059E4,3.187E3,9.777E3,2.842E3,2.829E3,6.065E3,6.037E3,7.84E2,3.183E3,1.637E3,3.93E2,1.201E3,8.07E2,1.542E3,2.024E3,5.671E3,4.428E3,2.022E3,2.767E3,3.5E1,6.5E1,3.3E1,2.53E2,3.84E2,1.198E3,4.02E2,7.95E2,1.1659E4,2.013E3,5.1166E4,1.6893E4,7.81E2,2.406E3,3.228E3,6.549E3,2.056E3,7.86E2,1.218E3,1.611E3,5.239E3,8.26E2,4.842E3,1.195E3,3.24E2,4.6E2,1.597E3,1.586E3,4.11E2,1.226E3,1.09E2,2.84E2,8.06E2,3.95E2,4.04E2,4.03E2,4.7E1,1.495E3,1.628E3,3.96E2,3.238E3,2.433E3,2.399E3,2.029E3,1.214E3,8.08E2,1.162E3,1.605E3,1.4E1,1.9E1,9.6E1,1.57E2,1.66E2,2.18E2,3.9E2,8.08E2,2.66E2,1.36E2,3.95E2,4E2,1.211E3,1.0448E4,4.1E2,1.603E3,1.6907E4,3.4259E4,4.402E3,1.2491E4,3.93E2,3.88E2,2.009E3,3.97E2,2.42E3,8.08E2,4.941E3,1.608E3],"tree_param":{"num_deleted":"0","num_feature":"7","num_nodes":"123","size_leaf_vector":"1"}},{"base_weights":[1.1898014E-3,3.7437513E0,-1.6904414E0,1.3363584E0,6.5401344E0,3.692981E0,-1.8704091E0,3.2843065E0,-4.43626E0,1.3832574E1,3.8091328E0,2.789157E1,3.2300022E-1,-2.218496E0,-9.660571E-3,-1.6207999E0,5.5827847E0,-5.230946E0,-2.8814847E0,2.793472E1,5.886108E0,4.9056774E-1,1.0805729E1,4.2987244E1,2.1190899E1,2.198635E0,-2.1556752E0,-1.9017485E0,-4.411284E0,-9.232252E-1,5.9840503E0,6.8462145E-1,-4.6770163E0,8.191388E0,2.96116E0,-3.8638968E0,-5.566343E0,-4.699747E0,4.685E0,3.733382E1,1.391782E1,1.2003875E1,-1.8678397E0,1.36603E0,-4.076145E0,2.0569765E1,3.6657548E0,4.6325626E1,3.409632E1,2.0260738E1,2.7475812E0,-1.8888631E0,3.5093007E0,-5.7621064E0,-3.2709795E-1,-2.4613159E0,1.42507E0,-4.8087306E0,5.1571937E0,1.002818E0,-3.0818698E0,3.3340786E1,-1.0111126E0,9.8415834E-1,-6.781099E-2,-6.53877E-1,-2.820572E-1,4.952844E-1,1.3095487E0,7.0449376E-1,2.351929E-2,2.6480982E-2,-5.8278584E-1,-6.471549E-1,-5.2618974E-1,-5.391253E-1,-2.6685777E-1,3.288091E-1,1.0582677E0,4.594509E0,2.714456E0,8.789337E-1,1.9024547E0,5.684953E-1,2.1195107E0,-6.794781E-1,-1.8899342E-2,-8.2893424E-2,8.46909E-1,-6.698907E-1,3.8933676E-1,1.8124636E0,3.0233657E0,8.582806E-2,1.9013026E0,3.9090424E0,4.968347E0,2.548161E0,3.7341943E0,2.3621235E0,1.9627131E0,-8.1350684E-2,-3.7233564E-1,5.241156E-1,2.6679352E-1,-6.65721E-1,-5.286374E-1,4.281445E-1,-4.8773623E-1,-1.1591544E-1,-3.1217906E-1,9.5817786E-1,-3.132269E-1,2.9466152E-2,-5.534807E-1,4.2774582E-1,1.0869461E0,1.871137E-2,7.131528E-1,2.7430987E-2,-4.738276E-1,1.5404524E0,4.4184413E0,1.1397347E0,-5.209715E-1],"categories":[],"categories_nodes":[],"categories_segments":[],"categories_sizes":[],"default_left":[0,0,0,0,0,0,0,0,0,0,0,0,0,0,0,0,0,0,0,0,0,0,0,0,0,0,0,0,0,0,0,0,0,0,0,0,0,0,0,0,0,0,0,0,0,0,0,0,0,0,0,0,0,0,0,0,0,0,0,0,0,0,0,0,0,0,0,0,0,0,0,0,0,0,0,0,0,0,0,0,0,0,0,0,0,0,0,0,0,0,0,0,0,0,0,0,0,0,0,0,0,0,0,0,0,0,0,0,0,0,0,0,0,0,0,0,0,0,0,0,0,0,0,0,0],"id":4,"left_children":[1,3,5,7,9,11,13,15,17,19,21,23,25,27,29,31,33,35,37,39,41,43,45,47,49,51,53,55,57,59,61,63,65,67,69,71,73,75,77,79,81,83,85,87,89,91,93,95,97,99,-1,101,103,105,107,109,111,113,115,117,119,121,123,-1,-1,-1,-1,-1,-1,-1,-1,-1,-1,-1,-1,-1,-1,-1,-1,-1,-1,-1,-1,-1,-1,-1,-1,-1,-1,-1,-1,-1,-1,-1,-1,-1,-1,-1,-1,-1,-1,-1,-1,-1,-1,-1,-1,-1,-1,-1,-1,-1,-1,-1,-1,-1,-1,-1,-1,-1,-1,-1,-1,-1,-1],"loss_changes":[8.9960194E5,2.9776744E5,9.481878E4,2.6731384E5,4.0748162E5,2.581744E5,6.1334812E4,2.0039812E5,7.395797E3,6.245824E5,3.4569738E5,3.8234562E4,1.2929209E4,5.539878E4,8.1724016E4,3.996736E4,8.274547E4,1.7978359E3,2.7964215E4,2.6415875E5,1.6922962E5,4.038522E4,3.338592E5,1.9228594E3,1.02172656E3,8.487304E3,7.898491E3,1.2976669E5,3.8312984E4,5.3848723E4,3.7778784E5,4.0362074E4,8.411332E3,9.627619E4,6.721483E4,6.3668125E3,8.4341406E2,2.286293E3,3.2111797E3,1.04219375E5,2.0994125E4,1.15688375E5,1.3018177E4,1.32156E5,3.3992047E4,4.7254438E4,1.1924869E5,7.4296875E1,5.503125E1,4.5273438E1,0E0,7.564735E2,1.7331084E3,1.3641699E2,1.6713072E4,5.131528E4,3.7313425E5,3.582222E4,1.9736699E3,3.4218293E4,3.3951316E4,7.7506E4,8.200982E4,0E0,0E0,0E0,0E0,0E0,0E0,0E0,0E0,0E0,0E0,0E0,0E0,0E0,0E0,0E0,0E0,0E0,0E0,0E0,0E0,0E0,0E0,0E0,0E0,0E0,0E0,0E0,0E0,0E0,0E0,0E0,0E0,0E0,0E0,0E0,0E0,0E0,0E0,0E0,0E0,0E0,0E0,0E0,0E0,0E0,0E0,0E0,0E0,0E0,0E0,0E0,0E0,0E0,0E0,0E0,0E0,0E0,0E0,0E0,0E0,0E0,0E0],"parents":[2147483647,0,0,1,1,2,2,3,3,4,4,5,5,6,6,7,7,8,8,9,9,10,10,11,11,12,12,13,13,14,14,15,15,16,16,17,17,18,18,19,19,20,20,21,21,22,22,23,23,24,24,25,25,26,26,27,27,28,28,29,29,30,30,31,31,32,32,33,33,34,34,35,35,36,36,37,37,38,38,39,39,40,40,41,41,42,42,43,43,44,44,45,45,46,46,47,47,48,48,49,49,51,51,52,52,53,53,54,54,55,55,56,56,57,57,58,58,59,59,60,60,61,61,62,62],"right_children":[2,4,6,8,10,12,14,16,18,20,22,24,26,28,30,32,34,36,38,40,42,44,46,48,50,52,54,56,58,60,62,64,66,68,70,72,74,76,78,80,82,84,86,88,90,92,94,96,98,100,-1,102,104,106,108,110,112,114,116,118,120,122,124,-1,-1,-1,-1,-1,-1,-1,-1,-1,-1,-1,-1,-1,-1,-1,-1,-1,-1,-1,-1,-1,-1,-1,-1,-1,-1,-1,-1,-1,-1,-1,-1,-1,-1,-1,-1,-1,-1,-1,-1,-1,-1,-1,-1,-1,-1,-1,-1,-1,-1,-1,-1,-1,-1,-1,-1,-1,-1,-1,-1,-1,-1],"split_conditions":[-4.6336132E-1,-1.0407907E0,-1.5870043E0,8.3206177E-1,-5.502617E-1,-1.7464665E-1,1.2928362E0,-8.9584255E-1,1.4080298E0,-5.148113E-1,9.472554E-1,-6.468179E-1,9.8021203E-1,1.5576414E0,1.5576414E0,-1.2414234E0,-1.3295053E0,9.472554E-1,-1.3295053E0,-7.5207597E-1,-7.5207597E-1,7.168681E-1,-1.546957E-2,-9.3639296E-1,1.5249951E0,1.1406802E-1,1.2689267E0,1.2689267E0,1.1776426E0,4.8387212E-1,1.4080298E0,-1.0141529E0,-1.3295053E0,4.8387212E-1,-1.546957E-2,-5.020304E-1,-1.0141529E0,9.4584495E-1,1.23542E0,2.2190727E-1,-8.9584255E-1,1.4825555E0,-1.1262298E0,3.7128726E-1,1.4825555E0,1.6384171E0,1.4825555E0,3.7329295E-3,3.7329295E-3,-3.5724285E-1,2.7475812E0,5.1148236E-1,4.0278268E-1,-5.020304E-1,1.5576414E0,1.1406802E-1,-5.502617E-1,-1.2414234E0,1.3802075E0,1.7536107E0,1.1406802E-1,-3.5724285E-1,1.5232234E0,9.8415834E-1,-6.781099E-2,-6.53877E-1,-2.820572E-1,4.952844E-1,1.3095487E0,7.0449376E-1,2.351929E-2,2.6480982E-2,-5.8278584E-1,-6.471549E-1,-5.2618974E-1,-5.391253E-1,-2.6685777E-1,3.288091E-1,1.0582677E0,4.594509E0,2.714456E0,8.789337E-1,1.9024547E0,5.684953E-1,2.1195107E0,-6.794781E-1,-1.8899342E-2,-8.2893424E-2,8.46909E-1,-6.698907E-1,3.8933676E-1,1.8124636E0,3.0233657E0,8.582806E-2,1.9013026E0,3.9090424E0,4.968347E0,2.548161E0,3.7341943E0,2.3621235E0,1.9627131E0,-8.1350684E-2,-3.7233564E-1,5.241156E-1,2.6679352E-1,-6.65721E-1,-5.286374E-1,4.281445E-1,-4.8773623E-1,-1.1591544E-1,-3.1217906E-1,9.5817786E-1,-3.132269E-1,2.9466152E-2,-5.534807E-1,4.2774582E-1,1.0869461E0,1.871137E-2,7.131528E-1,2.7430987E-2,-4.738276E-1,1.5404524E0,4.4184413E0,1.1397347E0,-5.209715E-1],"split_indices":[5,5,4,4,4,5,4,4,4,6,4,3,5,5,5,4,5,4,5,5,5,4,6,3,3,5,5,5,4,6,4,6,5,6,6,3,6,3,3,3,4,6,4,4,6,4,6,1,1,3,0,3,5,3,5,5,4,4,3,4,5,3,4,0,0,0,0,0,0,0,0,0,0,0,0,0,0,0,0,0,0,0,0,0,0,0,0,0,0,0,0,0,0,0,0,0,0,0,0,0,0,0,0,0,0,0,0,0,0,0,0,0,0,0,0,0,0,0,0,0,0,0,0,0,0],"split_type":[0,0,0,0,0,0,0,0,0,0,0,0,0,0,0,0,0,0,0,0,0,0,0,0,0,0,0,0,0,0,0,0,0,0,0,0,0,0,0,0,0,0,0,0,0,0,0,0,0,0,0,0,0,0,0,0,0,0,0,0,0,0,0,0,0,0,0,0,0,0,0,0,0,0,0,0,0,0,0,0,0,0,0,0,0,0,0,0,0,0,0,0,0,0,0,0,0,0,0,0,0,0,0,0,0,0,0,0,0,0,0,0,0,0,0,0,0,0,0,0,0,0,0,0,0],"sum_hessian":[1.42092E5,4.4232E4,9.786E4,2.377E4,2.0462E4,3.165E3,9.4695E4,1.7773E4,5.997E3,5.574E3,1.4888E4,3.86E2,2.779E3,7.9772E4,1.4923E4,5.671E3,1.2102E4,3.967E3,2.03E3,2.008E3,3.566E3,1.0099E4,4.789E3,1.17E2,2.69E2,1.582E3,1.197E3,6.9705E4,1.0067E4,1.295E4,1.973E3,3.233E3,2.438E3,6.065E3,6.037E3,7.84E2,3.183E3,1.637E3,3.93E2,1.201E3,8.07E2,1.993E3,1.573E3,8.475E3,1.624E3,2.022E3,2.767E3,8.2E1,3.5E1,2.38E2,3.1E1,3.84E2,1.198E3,4.02E2,7.95E2,5.9669E4,1.0036E4,9.666E3,4.01E2,6.844E3,6.106E3,4.01E2,1.572E3,4.18E2,2.815E3,1.216E3,1.222E3,3.654E3,2.411E3,2.416E3,3.621E3,2.53E2,5.31E2,7.96E2,2.387E3,1.22E3,4.17E2,3.19E2,7.4E1,6.49E2,5.52E2,4.04E2,4.03E2,1.182E3,8.11E2,3.99E2,1.174E3,6.475E3,2E3,1.222E3,4.02E2,1.616E3,4.06E2,2.34E3,4.27E2,3E1,5.2E1,1.2E1,2.3E1,3.2E1,2.06E2,2.43E2,1.41E2,3.9E2,8.08E2,1.35E2,2.67E2,3.95E2,4E2,2.0081E4,3.9588E4,3.597E3,6.439E3,1.204E3,8.462E3,3.49E2,5.2E1,6.041E3,8.03E2,2.018E3,4.088E3,1.52E2,2.49E2,3.97E2,1.175E3],"tree_param":{"num_deleted":"0","num_feature":"7","num_nodes":"125","size_leaf_vector":"1"}},{"base_weights":[1.4235494E-3,3.3698454E0,-1.5210972E0,1.2027799E0,5.8870687E0,3.3304155E0,-1.6832832E0,2.9560173E0,-3.9928257E0,1.2451483E1,3.4287102E0,2.515986E1,2.903704E-1,-1.9966316E0,-8.234554E-3,-1.4587234E0,5.0247154E0,-4.7082872E0,-2.59305E0,2.514627E1,5.2980547E0,4.4155884E-1,9.726581E0,3.881699E1,1.9098003E1,1.9789847E0,-1.9411545E0,-1.7115709E0,-3.970057E0,-8.308805E-1,5.3889775E0,-3.9157982E0,1.0101539E0,7.3725467E0,2.6651642E0,-3.478216E0,-5.010077E0,-4.230264E0,4.220021E0,2.000986E1,4.6017544E1,1.0804835E1,-1.6814998E0,1.2295172E0,-3.6687038E0,1.8515179E1,3.2998974E0,4.1800022E1,3.0861197E1,1.801081E1,2.3633895E0,-1.7011554E0,3.1590307E0,-5.1888595E0,-2.9446322E-1,-2.2151916E0,1.2826271E0,-4.490361E0,2.0306766E0,9.026434E-1,-2.773756E0,3.0021528E1,-9.09608E-1,-5.418987E-1,1.8097734E-3,5.930628E-1,-2.7113524E-1,-2.35858E-1,8.8534564E-1,4.2465568E-1,-3.740646E-1,-3.9674096E-2,-5.6430775E-1,-5.2764153E-1,-3.9874467E-1,-6.149761E-1,-3.5822913E-1,-9.30235E-2,5.555807E-1,2.747471E0,1.2529482E0,5.1845474E0,3.1677043E0,5.1169384E-1,1.9078207E0,-3.256459E-1,3.027698E-1,-7.460537E-2,7.6226044E-1,-6.029565E-1,3.504997E-1,1.4809154E0,2.40582E0,7.3229766E-1,-6.588642E-1,3.5307481E0,4.4808865E0,2.312946E0,3.3763337E0,2.133069E0,1.7339407E0,-2.275898E-2,-2.8170654E-1,3.988429E-1,1.582556E-1,-5.5774575E-1,-4.248093E-1,3.8543817E-1,-4.3908426E-1,-1.0432448E-1,-2.80962E-1,8.623867E-1,-2.8190908E-1,2.652201E-2,-5.200693E-1,1.0412722E-2,1.1011462E0,-2.8643912E-2,4.7504148E-1,2.4689294E-2,-4.2645645E-1,1.2910206E0,4.0707135E0,1.0260477E0,-4.6891865E-1],"categories":[],"categories_nodes":[],"categories_segments":[],"categories_sizes":[],"default_left":[0,0,0,0,0,0,0,0,0,0,0,0,0,0,0,0,0,0,0,0,0,0,0,0,0,0,0,0,0,0,0,0,0,0,0,0,0,0,0,0,0,0,0,0,0,0,0,0,0,0,0,0,0,0,0,0,0,0,0,0,0,0,0,0,0,0,0,0,0,0,0,0,0,0,0,0,0,0,0,0,0,0,0,0,0,0,0,0,0,0,0,0,0,0,0,0,0,0,0,0,0,0,0,0,0,0,0,0,0,0,0,0,0,0,0,0,0,0,0,0,0,0,0,0,0],"id":5,"left_children":[1,3,5,7,9,11,13,15,17,19,21,23,25,27,29,31,33,35,37,39,41,43,45,47,49,51,53,55,57,59,61,63,65,67,69,71,73,75,77,79,81,83,85,87,89,91,93,95,97,99,-1,101,103,105,107,109,111,113,115,117,119,121,123,-1,-1,-1,-1,-1,-1,-1,-1,-1,-1,-1,-1,-1,-1,-1,-1,-1,-1,-1,-1,-1,-1,-1,-1,-1,-1,-1,-1,-1,-1,-1,-1,-1,-1,-1,-1,-1,-1,-1,-1,-1,-1,-1,-1,-1,-1,-1,-1,-1,-1,-1,-1,-1,-1,-1,-1,-1,-1,-1,-1,-1,-1],"loss_changes":[7.287279E5,2.4128338E5,7.70073E4,2.1654495E5,3.301827E5,2.1009634E5,4.9703406E4,1.6233311E5,5.9946953E3,5.061397E5,2.800979E5,3.1297484E4,1.04793955E4,4.4869188E4,6.626695E4,3.441153E4,6.702891E4,1.4555859E3,2.2672555E4,2.1445075E5,1.3711538E5,3.2715541E4,2.704854E5,1.5104219E3,9.058125E2,6.8799224E3,6.4053374E3,1.0511534E5,3.1443484E4,4.3621746E4,3.0629384E5,1.6811867E4,5.1837836E4,8.74375E4,6.118143E4,5.2344707E3,8.461719E2,2.0152832E3,2.7157456E3,8.9781375E4,3.1453625E4,9.373619E4,1.1683893E4,1.0705754E5,2.7542307E4,4.1201312E4,1.10165875E5,3.93125E1,2.6859375E1,1.2496875E2,0E0,6.3244006E2,1.5614111E3,1.2363574E2,1.3545137E4,4.156547E4,3.022554E5,3.1298953E4,1.3909605E4,3.1319414E4,2.7502148E4,7.2978125E4,6.645736E4,0E0,0E0,0E0,0E0,0E0,0E0,0E0,0E0,0E0,0E0,0E0,0E0,0E0,0E0,0E0,0E0,0E0,0E0,0E0,0E0,0E0,0E0,0E0,0E0,0E0,0E0,0E0,0E0,0E0,0E0,0E0,0E0,0E0,0E0,0E0,0E0,0E0,0E0,0E0,0E0,0E0,0E0,0E0,0E0,0E0,0E0,0E0,0E0,0E0,0E0,0E0,0E0,0E0,0E0,0E0,0E0,0E0,0E0,0E0,0E0,0E0,0E0],"parents":[2147483647,0,0,1,1,2,2,3,3,4,4,5,5,6,6,7,7,8,8,9,9,10,10,11,11,12,12,13,13,14,14,15,15,16,16,17,17,18,18,19,19,20,20,21,21,22,22,23,23,24,24,25,25,26,26,27,27,28,28,29,29,30,30,31,31,32,32,33,33,34,34,35,35,36,36,37,37,38,38,39,39,40,40,41,41,42,42,43,43,44,44,45,45,46,46,47,47,48,48,49,49,51,51,52,52,53,53,54,54,55,55,56,56,57,57,58,58,59,59,60,60,61,61,62,62],"right_children":[2,4,6,8,10,12,14,16,18,20,22,24,26,28,30,32,34,36,38,40,42,44,46,48,50,52,54,56,58,60,62,64,66,68,70,72,74,76,78,80,82,84,86,88,90,92,94,96,98,100,-1,102,104,106,108,110,112,114,116,118,120,122,124,-1,-1,-1,-1,-1,-1,-1,-1,-1,-1,-1,-1,-1,-1,-1,-1,-1,-1,-1,-1,-1,-1,-1,-1,-1,-1,-1,-1,-1,-1,-1,-1,-1,-1,-1,-1,-1,-1,-1,-1,-1,-1,-1,-1,-1,-1,-1,-1,-1,-1,-1,-1,-1,-1,-1,-1,-1,-1,-1,-1,-1,-1],"split_conditions":[-4.6336132E-1,-1.0407907E0,-1.5870043E0,8.3206177E-1,-5.502617E-1,-1.7464665E-1,1.2928362E0,-8.9584255E-1,1.4080298E0,-5.148113E-1,9.472554E-1,-6.468179E-1,9.8021203E-1,1.5576414E0,1.5576414E0,-1.3295053E0,-1.3295053E0,9.472554E-1,-1.3295053E0,-7.8064895E-1,-7.5207597E-1,7.168681E-1,-1.546957E-2,-9.3639296E-1,1.3802075E0,1.1406802E-1,1.2689267E0,1.2689267E0,1.062449E0,4.8387212E-1,1.4080298E0,9.832138E-1,-1.356617E0,-6.6545534E-1,4.864809E-1,-2.1245532E-1,1.0906324E0,1.5232234E0,-9.3639296E-1,-1.2414234E0,8.010574E-1,1.4825555E0,1.4825555E0,3.7128726E-1,1.4825555E0,1.5232234E0,1.4080298E0,3.7329295E-3,3.7329295E-3,-3.5724285E-1,2.3633895E0,-2.1245532E-1,6.914973E-1,8.010574E-1,1.5576414E0,1.1406802E-1,-5.502617E-1,-1.2414234E0,1.23542E0,-1.546957E-2,1.1406802E-1,3.7329295E-3,1.5232234E0,-5.418987E-1,1.8097734E-3,5.930628E-1,-2.7113524E-1,-2.35858E-1,8.8534564E-1,4.2465568E-1,-3.740646E-1,-3.9674096E-2,-5.6430775E-1,-5.2764153E-1,-3.9874467E-1,-6.149761E-1,-3.5822913E-1,-9.30235E-2,5.555807E-1,2.747471E0,1.2529482E0,5.1845474E0,3.1677043E0,5.1169384E-1,1.9078207E0,-3.256459E-1,3.027698E-1,-7.460537E-2,7.6226044E-1,-6.029565E-1,3.504997E-1,1.4809154E0,2.40582E0,7.3229766E-1,-6.588642E-1,3.5307481E0,4.4808865E0,2.312946E0,3.3763337E0,2.133069E0,1.7339407E0,-2.275898E-2,-2.8170654E-1,3.988429E-1,1.582556E-1,-5.5774575E-1,-4.248093E-1,3.8543817E-1,-4.3908426E-1,-1.0432448E-1,-2.80962E-1,8.623867E-1,-2.8190908E-1,2.652201E-2,-5.200693E-1,1.0412722E-2,1.1011462E0,-2.8643912E-2,4.7504148E-1,2.4689294E-2,-4.2645645E-1,1.2910206E0,4.0707135E0,1.0260477E0,-4.6891865E-1],"split_indices":[5,5,4,4,4,5,4,4,4,6,4,3,5,5,5,5,5,4,5,4,5,4,6,3,3,5,5,5,4,6,4,6,4,4,4,3,3,4,3,4,3,6,6,4,6,4,4,1,1,3,0,3,5,3,5,5,4,4,3,6,5,1,4,0,0,0,0,0,0,0,0,0,0,0,0,0,0,0,0,0,0,0,0,0,0,0,0,0,0,0,0,0,0,0,0,0,0,0,0,0,0,0,0,0,0,0,0,0,0,0,0,0,0,0,0,0,0,0,0,0,0,0,0,0,0],"split_type":[0,0,0,0,0,0,0,0,0,0,0,0,0,0,0,0,0,0,0,0,0,0,0,0,0,0,0,0,0,0,0,0,0,0,0,0,0,0,0,0,0,0,0,0,0,0,0,0,0,0,0,0,0,0,0,0,0,0,0,0,0,0,0,0,0,0,0,0,0,0,0,0,0,0,0,0,0,0,0,0,0,0,0,0,0,0,0,0,0,0,0,0,0,0,0,0,0,0,0,0,0,0,0,0,0,0,0,0,0,0,0,0,0,0,0,0,0,0,0,0,0,0,0,0,0],"sum_hessian":[1.42092E5,4.4232E4,9.786E4,2.377E4,2.0462E4,3.165E3,9.4695E4,1.7773E4,5.997E3,5.574E3,1.4888E4,3.86E2,2.779E3,7.9772E4,1.4923E4,5.671E3,1.2102E4,3.967E3,2.03E3,2.008E3,3.566E3,1.0099E4,4.789E3,1.17E2,2.69E2,1.582E3,1.197E3,6.9705E4,1.0067E4,1.295E4,1.973E3,2.842E3,2.829E3,6.065E3,6.037E3,7.84E2,3.183E3,1.637E3,3.93E2,1.613E3,3.95E2,1.993E3,1.573E3,8.475E3,1.624E3,2.022E3,2.767E3,8.2E1,3.5E1,2.21E2,4.8E1,3.84E2,1.198E3,4.02E2,7.95E2,5.9669E4,1.0036E4,9.264E3,8.03E2,6.844E3,6.106E3,4.01E2,1.572E3,2.056E3,7.86E2,1.218E3,1.611E3,8.01E2,5.264E3,4.842E3,1.195E3,3.24E2,4.6E2,2.522E3,6.61E2,4.11E2,1.226E3,8.1E1,3.12E2,8.06E2,8.07E2,2.79E2,1.16E2,1.182E3,8.11E2,1.179E3,3.94E2,6.475E3,2E3,1.222E3,4.02E2,1.214E3,8.08E2,1.967E3,8E2,3E1,5.2E1,1.2E1,2.3E1,3.2E1,1.89E2,1.66E2,2.18E2,7.84E2,4.14E2,2.81E2,1.21E2,3.95E2,4E2,2.0081E4,3.9588E4,3.597E3,6.439E3,1.204E3,8.06E3,6.62E2,1.41E2,5.229E3,1.615E3,2.018E3,4.088E3,1.55E2,2.46E2,3.97E2,1.175E3],"tree_param":{"num_deleted":"0","num_feature":"7","num_nodes":"125","size_leaf_vector":"1"}},{"base_weights":[1.5873156E-3,3.0332582E0,-1.3687226E0,1.0824362E0,5.2992973E0,3.003422E0,-1.5148834E0,2.6604426E0,-3.5938838E0,1.1208981E1,3.0861344E0,2.2695375E1,2.6105163E-1,-1.2359445E0,-3.2732108E0,-1.3128895E0,4.5223017E0,-4.2378445E0,-2.3339968E0,2.2637793E1,4.7689204E0,3.9744595E-1,8.754749E0,3.5051403E1,1.7211279E1,1.781246E0,-1.747904E0,-3.1516957E0,-8.510591E-1,-1.5957502E0,-3.819792E0,6.329206E-1,-3.8924046E0,6.635399E0,2.3986561E0,-3.1311638E0,-4.5093603E0,-3.8078322E0,3.7991922E0,1.801135E1,4.143688E1,9.725565E0,-1.5133647E0,4.4176745E0,-3.6150944E-1,1.6665583E1,2.9699342E0,3.890021E0,2.9769478E1,1.6427862E1,2.2524562E0,-1.5318304E0,2.8435922E0,-4.6724114E0,-2.6508427E-1,-2.2325985E0,-4.6414523E0,-1.3154783E0,5.555815E-1,-6.321032E0,-5.991054E-2,-2.3088052E0,-4.5640907E0,-5.4114975E-2,8.90533E-1,-5.521788E-1,-2.267832E-1,5.1806766E-1,1.5844723E0,5.916256E-1,5.066155E-3,2.77951E-2,-4.7529384E-1,-5.018502E-1,-3.993849E-1,-4.5035052E-1,-2.1447094E-1,2.570643E-1,8.990347E-1,2.4730644E0,1.1278083E0,4.61803E0,2.7125108E0,4.6056768E-1,1.7172736E0,-5.7921714E-1,-5.5461833E-3,-1.3355337E-1,2.1230438E0,-3.904148E-1,1.8390234E-1,1.943202E0,9.7991973E-1,5.0580967E-2,1.6440834E0,2.3047726E0,3.2759922E0,1.4990474E0,1.7577447E0,-5.4025378E-2,-2.9378435E-1,3.5900944E-1,1.4246818E-1,-5.5308825E-1,-4.2932254E-1,3.4699172E-1,-3.9528534E-1,-4.7209722E-1,-1.646431E-1,-8.9392537E-1,-4.272947E-1,-1.6009133E-1,8.0859706E-2,3.728916E-1,-5.6295414E-2,-5.9394306E-1,-6.691289E-1,9.047564E-2,-1.9879684E-1,-4.4002438E-1,3.9528537E-1,-5.119757E-1,-2.8545395E-1],"categories":[],"categories_nodes":[],"categories_segments":[],"categories_sizes":[],"default_left":[0,0,0,0,0,0,0,0,0,0,0,0,0,0,0,0,0,0,0,0,0,0,0,0,0,0,0,0,0,0,0,0,0,0,0,0,0,0,0,0,0,0,0,0,0,0,0,0,0,0,0,0,0,0,0,0,0,0,0,0,0,0,0,0,0,0,0,0,0,0,0,0,0,0,0,0,0,0,0,0,0,0,0,0,0,0,0,0,0,0,0,0,0,0,0,0,0,0,0,0,0,0,0,0,0,0,0,0,0,0,0,0,0,0,0,0,0,0,0,0,0,0,0],"id":6,"left_children":[1,3,5,7,9,11,13,15,17,19,21,23,25,27,29,31,33,35,37,39,41,43,45,47,49,51,53,55,57,59,61,63,65,67,69,71,73,75,77,79,81,83,85,87,89,91,93,-1,95,97,-1,99,101,103,105,107,109,111,113,115,117,119,121,-1,-1,-1,-1,-1,-1,-1,-1,-1,-1,-1,-1,-1,-1,-1,-1,-1,-1,-1,-1,-1,-1,-1,-1,-1,-1,-1,-1,-1,-1,-1,-1,-1,-1,-1,-1,-1,-1,-1,-1,-1,-1,-1,-1,-1,-1,-1,-1,-1,-1,-1,-1,-1,-1,-1,-1,-1,-1,-1,-1],"loss_changes":[5.903052E5,1.955324E5,6.2541266E4,1.7542202E5,2.676028E5,1.709664E5,4.644111E4,1.3149416E5,4.8563906E3,4.1022438E5,2.2692184E5,2.5620484E4,8.493242E3,6.0261977E4,1.1881094E4,2.8471629E4,5.429592E4,1.1781953E3,1.8373307E4,1.7398231E5,1.1108771E5,3.0818455E4,2.1915384E5,1.2407969E3,7.5384375E2,5.5759375E3,5.1939087E3,1.8711125E4,4.446235E4,2.3135814E4,1.09860625E4,3.1414691E4,6.4436367E3,8.118419E4,4.986937E4,4.3414414E3,8.1565234E2,1.8854922E3,2.4896597E3,7.274294E4,2.56305E4,7.59495E4,9.818422E3,1.5517897E5,6.624717E4,3.8237375E4,9.187261E4,0E0,3.3041406E2,1.314336E2,0E0,5.35168E2,1.2648887E3,1.0744043E2,1.0977679E4,1.2329105E4,8.222711E3,3.1023094E4,5.996714E4,7.074805E1,4.4786587E3,4.2303977E4,6.2075E3,0E0,0E0,0E0,0E0,0E0,0E0,0E0,0E0,0E0,0E0,0E0,0E0,0E0,0E0,0E0,0E0,0E0,0E0,0E0,0E0,0E0,0E0,0E0,0E0,0E0,0E0,0E0,0E0,0E0,0E0,0E0,0E0,0E0,0E0,0E0,0E0,0E0,0E0,0E0,0E0,0E0,0E0,0E0,0E0,0E0,0E0,0E0,0E0,0E0,0E0,0E0,0E0,0E0,0E0,0E0,0E0,0E0,0E0,0E0,0E0],"parents":[2147483647,0,0,1,1,2,2,3,3,4,4,5,5,6,6,7,7,8,8,9,9,10,10,11,11,12,12,13,13,14,14,15,15,16,16,17,17,18,18,19,19,20,20,21,21,22,22,23,23,24,24,25,25,26,26,27,27,28,28,29,29,30,30,31,31,32,32,33,33,34,34,35,35,36,36,37,37,38,38,39,39,40,40,41,41,42,42,43,43,44,44,45,45,46,46,48,48,49,49,51,51,52,52,53,53,54,54,55,55,56,56,57,57,58,58,59,59,60,60,61,61,62,62],"right_children":[2,4,6,8,10,12,14,16,18,20,22,24,26,28,30,32,34,36,38,40,42,44,46,48,50,52,54,56,58,60,62,64,66,68,70,72,74,76,78,80,82,84,86,88,90,92,94,-1,96,98,-1,100,102,104,106,108,110,112,114,116,118,120,122,-1,-1,-1,-1,-1,-1,-1,-1,-1,-1,-1,-1,-1,-1,-1,-1,-1,-1,-1,-1,-1,-1,-1,-1,-1,-1,-1,-1,-1,-1,-1,-1,-1,-1,-1,-1,-1,-1,-1,-1,-1,-1,-1,-1,-1,-1,-1,-1,-1,-1,-1,-1,-1,-1,-1,-1,-1,-1,-1,-1],"split_conditions":[-4.6336132E-1,-1.0407907E0,-1.5870043E0,8.3206177E-1,-5.502617E-1,-1.7464665E-1,1.4825555E0,-8.9584255E-1,1.4080298E0,-5.148113E-1,9.472554E-1,-6.468179E-1,9.8021203E-1,-1.0141529E0,1.1406802E-1,-1.2414234E0,-1.3295053E0,9.472554E-1,-1.3295053E0,-7.8064895E-1,-7.5207597E-1,-3.1987447E-1,-1.546957E-2,-1.0811805E0,1.5249951E0,1.1406802E-1,1.2689267E0,9.8021203E-1,1.2689267E0,-7.8064895E-1,-4.3506807E-1,1.4825555E0,-1.3295053E0,6.016745E-1,-1.546957E-2,-5.020304E-1,-1.3295053E0,8.010574E-1,1.23542E0,-1.2414234E0,9.4584495E-1,1.4825555E0,-1.1262298E0,9.832138E-1,1.4090003E-1,8.010574E-1,1.4825555E0,3.890021E0,3.7329295E-3,3.666948E-1,2.2524562E0,3.666948E-1,6.914973E-1,-6.468179E-1,1.5576414E0,-1.7464665E-1,-1.4718107E0,1.4080298E0,-6.6545534E-1,-1.2414234E0,8.3206177E-1,-7.8064895E-1,1.1776426E0,-5.4114975E-2,8.90533E-1,-5.521788E-1,-2.267832E-1,5.1806766E-1,1.5844723E0,5.916256E-1,5.066155E-3,2.77951E-2,-4.7529384E-1,-5.018502E-1,-3.993849E-1,-4.5035052E-1,-2.1447094E-1,2.570643E-1,8.990347E-1,2.4730644E0,1.1278083E0,4.61803E0,2.7125108E0,4.6056768E-1,1.7172736E0,-5.7921714E-1,-5.5461833E-3,-1.3355337E-1,2.1230438E0,-3.904148E-1,1.8390234E-1,1.943202E0,9.7991973E-1,5.0580967E-2,1.6440834E0,2.3047726E0,3.2759922E0,1.4990474E0,1.7577447E0,-5.4025378E-2,-2.9378435E-1,3.5900944E-1,1.4246818E-1,-5.5308825E-1,-4.2932254E-1,3.4699172E-1,-3.9528534E-1,-4.7209722E-1,-1.646431E-1,-8.9392537E-1,-4.272947E-1,-1.6009133E-1,8.0859706E-2,3.728916E-1,-5.6295414E-2,-5.9394306E-1,-6.691289E-1,9.047564E-2,-1.9879684E-1,-4.4002438E-1,3.9528537E-1,-5.119757E-1,-2.8545395E-1],"split_indices":[5,5,4,4,4,5,6,4,4,6,4,3,5,6,5,4,5,4,5,4,5,4,6,3,3,5,5,5,5,4,4,6,5,4,6,3,5,3,3,4,3,6,4,6,4,3,6,0,1,3,0,3,5,3,5,5,4,4,4,4,4,4,4,0,0,0,0,0,0,0,0,0,0,0,0,0,0,0,0,0,0,0,0,0,0,0,0,0,0,0,0,0,0,0,0,0,0,0,0,0,0,0,0,0,0,0,0,0,0,0,0,0,0,0,0,0,0,0,0,0,0,0,0],"split_type":[0,0,0,0,0,0,0,0,0,0,0,0,0,0,0,0,0,0,0,0,0,0,0,0,0,0,0,0,0,0,0,0,0,0,0,0,0,0,0,0,0,0,0,0,0,0,0,0,0,0,0,0,0,0,0,0,0,0,0,0,0,0,0,0,0,0,0,0,0,0,0,0,0,0,0,0,0,0,0,0,0,0,0,0,0,0,0,0,0,0,0,0,0,0,0,0,0,0,0,0,0,0,0,0,0,0,0,0,0,0,0,0,0,0,0,0,0,0,0,0,0,0,0],"sum_hessian":[1.42092E5,4.4232E4,9.786E4,2.377E4,2.0462E4,3.165E3,9.4695E4,1.7773E4,5.997E3,5.574E3,1.4888E4,3.86E2,2.779E3,8.1731E4,1.2964E4,5.671E3,1.2102E4,3.967E3,2.03E3,2.008E3,3.566E3,1.0099E4,4.789E3,1.17E2,2.69E2,1.582E3,1.197E3,1.3672E4,6.8059E4,3.187E3,9.777E3,3.233E3,2.438E3,6.065E3,6.037E3,7.84E2,3.183E3,1.637E3,3.93E2,1.613E3,3.95E2,1.993E3,1.573E3,1.603E3,8.496E3,2.022E3,2.767E3,6.4E1,5.3E1,2.38E2,3.1E1,3.84E2,1.198E3,4.02E2,7.95E2,8.457E3,5.215E3,5.1166E4,1.6893E4,7.81E2,2.406E3,3.228E3,6.549E3,2.832E3,4.01E2,1.216E3,1.222E3,5.239E3,8.26E2,2.416E3,3.621E3,2.53E2,5.31E2,1.597E3,1.586E3,1.153E3,4.84E2,3.19E2,7.4E1,8.06E2,8.07E2,2.95E2,1E2,1.182E3,8.11E2,3.99E2,1.174E3,1.195E3,4.08E2,3.255E3,5.241E3,1.44E3,5.82E2,2.34E3,4.27E2,1.9E1,3.4E1,1.12E2,1.26E2,2.26E2,1.58E2,7.84E2,4.14E2,1.19E2,2.83E2,3.95E2,4E2,1.611E3,6.846E3,4.1E2,4.805E3,4.5105E4,6.061E3,4.402E3,1.2491E4,3.93E2,3.88E2,1.604E3,8.02E2,2.42E3,8.08E2,4.941E3,1.608E3],"tree_param":{"num_deleted":"0","num_feature":"7","num_nodes":"123","size_leaf_vector":"1"}},{"base_weights":[1.6466787E-3,2.7304032E0,-1.2317464E0,9.7427243E-1,4.7702923E0,2.7075343E0,-1.3634366E0,2.3945534E0,-3.2346382E0,1.0090329E1,2.7779505E0,2.0464546E1,2.3463085E-1,-1.1123711E0,-2.9460607E0,-1.1815903E0,4.0702944E0,-4.628381E0,-2.729562E0,2.0379454E1,4.292475E0,3.578778E-1,7.880238E0,3.1626522E1,1.5510555E1,1.6032182E0,-1.5739739E0,-1.9199362E0,-3.465332E-1,-1.4366056E0,-3.437899E0,-3.2572818E0,9.0405375E-1,5.972205E0,2.1588895E0,-3.987619E0,-5.2657433E0,-3.7597253E0,-1.4945737E0,1.6212448E1,3.7311703E1,-1.5478729E0,8.740557E0,1.0947328E0,-3.485778E0,1.5000468E1,2.673553E0,3.4088467E1,2.507186E1,1.4607837E1,1.9283885E0,-1.3795507E0,2.559651E0,-4.2076077E0,-2.3863657E-1,5.389895E-1,-2.46425E0,-1.262785E0,6.404155E-1,-5.690544E0,-5.3964637E-2,-2.0779386E0,-4.107804E0,-4.6251997E-1,3.222161E-2,5.0813735E-1,-2.2554104E-1,3.0593807E-1,1.0383649E0,3.5243103E-1,-3.371956E-1,-4.169789E-1,-2.7573016E-1,-4.956873E-1,-5.505629E-1,-1.48605E-1,-4.1878366E-1,6.345782E-2,-2.8451154E-1,2.2260644E0,1.0151671E0,4.2077904E0,2.5586503E0,1.5306402E0,-2.0876172E-1,6.445932E-1,1.8134016E0,-6.3025795E-2,6.676914E-1,-5.6108534E-1,2.97192E-1,1.2941939E0,2.3142095E0,6.2085164E-1,-6.014938E-1,2.8484054E0,3.672334E0,1.8866951E0,2.738819E0,1.2849768E0,1.5645632E0,-5.5759806E-2,-2.782205E-1,2.1293902E-1,4.99952E-1,-4.6115747E-1,-3.531509E-1,3.1238016E-1,-3.5585544E-1,-3.1697384E-1,7.937739E-1,-6.6138245E-2,-4.218803E-1,1.1217324E-1,-2.0975983E-1,-1.1288856E-2,4.5945975E-1,-5.5135596E-1,-6.387826E-1,-1.809917E-1,8.2787916E-2,-3.9604014E-1,3.5580567E-1,-4.6078858E-1,-2.569263E-1],"categories":[],"categories_nodes":[],"categories_segments":[],"categories_sizes":[],"default_left":[0,0,0,0,0,0,0,0,0,0,0,0,0,0,0,0,0,0,0,0,0,0,0,0,0,0,0,0,0,0,0,0,0,0,0,0,0,0,0,0,0,0,0,0,0,0,0,0,0,0,0,0,0,0,0,0,0,0,0,0,0,0,0,0,0,0,0,0,0,0,0,0,0,0,0,0,0,0,0,0,0,0,0,0,0,0,0,0,0,0,0,0,0,0,0,0,0,0,0,0,0,0,0,0,0,0,0,0,0,0,0,0,0,0,0,0,0,0,0,0,0,0,0,0,0],"id":7,"left_children":[1,3,5,7,9,11,13,15,17,19,21,23,25,27,29,31,33,35,37,39,41,43,45,47,49,51,53,55,57,59,61,63,65,67,69,71,73,75,77,79,81,83,85,87,89,91,93,95,97,99,-1,101,103,105,107,109,111,113,115,117,119,121,123,-1,-1,-1,-1,-1,-1,-1,-1,-1,-1,-1,-1,-1,-1,-1,-1,-1,-1,-1,-1,-1,-1,-1,-1,-1,-1,-1,-1,-1,-1,-1,-1,-1,-1,-1,-1,-1,-1,-1,-1,-1,-1,-1,-1,-1,-1,-1,-1,-1,-1,-1,-1,-1,-1,-1,-1,-1,-1,-1,-1,-1,-1],"loss_changes":[4.7823575E5,1.5845172E5,5.07705E4,1.4210688E5,2.1686612E5,1.3901862E5,3.7623453E4,1.0651888E5,4.2096367E3,3.3248825E5,1.8384516E5,2.0909125E4,6.8836733E3,5.0547633E4,9.620391E3,2.4557902E4,4.3985406E4,6.299883E2,5.5985977E3,1.4114369E5,9.267828E4,2.8609209E4,1.775386E5,1.0495391E3,6.379922E2,4.519542E3,4.2121104E3,5.324664E4,3.793683E4,1.8750455E4,8.899648E3,1.3922125E4,3.736206E4,7.7914875E4,4.561044E4,1.6758008E2,3.16875E1,2.330871E3,5.7672E3,5.8938062E4,2.105375E4,1.4068622E4,4.3530906E4,8.16214E4,2.23167E4,3.360553E4,8.505229E4,1.79625E2,6.816406E-1,2.04E2,0E0,4.423211E2,1.24804E3,9.3782715E1,8.896879E3,1.9789461E5,1.0302983E5,4.3308445E4,6.016135E4,6.1285156E1,3.728679E3,3.427233E4,5.027711E3,0E0,0E0,0E0,0E0,0E0,0E0,0E0,0E0,0E0,0E0,0E0,0E0,0E0,0E0,0E0,0E0,0E0,0E0,0E0,0E0,0E0,0E0,0E0,0E0,0E0,0E0,0E0,0E0,0E0,0E0,0E0,0E0,0E0,0E0,0E0,0E0,0E0,0E0,0E0,0E0,0E0,0E0,0E0,0E0,0E0,0E0,0E0,0E0,0E0,0E0,0E0,0E0,0E0,0E0,0E0,0E0,0E0,0E0,0E0,0E0,0E0,0E0],"parents":[2147483647,0,0,1,1,2,2,3,3,4,4,5,5,6,6,7,7,8,8,9,9,10,10,11,11,12,12,13,13,14,14,15,15,16,16,17,17,18,18,19,19,20,20,21,21,22,22,23,23,24,24,25,25,26,26,27,27,28,28,29,29,30,30,31,31,32,32,33,33,34,34,35,35,36,36,37,37,38,38,39,39,40,40,41,41,42,42,43,43,44,44,45,45,46,46,47,47,48,48,49,49,51,51,52,52,53,53,54,54,55,55,56,56,57,57,58,58,59,59,60,60,61,61,62,62],"right_children":[2,4,6,8,10,12,14,16,18,20,22,24,26,28,30,32,34,36,38,40,42,44,46,48,50,52,54,56,58,60,62,64,66,68,70,72,74,76,78,80,82,84,86,88,90,92,94,96,98,100,-1,102,104,106,108,110,112,114,116,118,120,122,124,-1,-1,-1,-1,-1,-1,-1,-1,-1,-1,-1,-1,-1,-1,-1,-1,-1,-1,-1,-1,-1,-1,-1,-1,-1,-1,-1,-1,-1,-1,-1,-1,-1,-1,-1,-1,-1,-1,-1,-1,-1,-1,-1,-1,-1,-1,-1,-1,-1,-1,-1,-1,-1,-1,-1,-1,-1,-1,-1,-1,-1,-1],"split_conditions":[-4.6336132E-1,-1.0407907E0,-1.5870043E0,8.3206177E-1,-5.502617E-1,-1.7464665E-1,1.4825555E0,-8.9584255E-1,-5.148113E-1,-5.148113E-1,9.472554E-1,-6.468179E-1,9.8021203E-1,-1.546957E-2,1.1406802E-1,-1.3295053E0,-1.3295053E0,1.1776426E0,1.2928362E0,-7.8064895E-1,9.832138E-1,7.168681E-1,-1.546957E-2,-9.3639296E-1,1.3802075E0,1.1406802E-1,1.2689267E0,-1.0110362E0,6.914973E-1,-7.8064895E-1,-4.3506807E-1,9.832138E-1,-1.356617E0,4.8387212E-1,4.864809E-1,1.3802075E0,-6.766778E-2,-1.0811805E0,1.5232234E0,-1.2414234E0,8.010574E-1,-1.5155431E0,-7.8064895E-1,3.7128726E-1,1.4825555E0,1.6384171E0,1.4080298E0,3.7329295E-3,3.7329295E-3,3.7329295E-3,1.9283885E0,5.1148236E-1,1.23542E0,5.1148236E-1,1.5576414E0,1.2689267E0,6.914973E-1,-1.7464665E-1,1.2928362E0,1.0906324E0,2.5706405E-2,-7.8064895E-1,1.1776426E0,-4.6251997E-1,3.222161E-2,5.0813735E-1,-2.2554104E-1,3.0593807E-1,1.0383649E0,3.5243103E-1,-3.371956E-1,-4.169789E-1,-2.7573016E-1,-4.956873E-1,-5.505629E-1,-1.48605E-1,-4.1878366E-1,6.345782E-2,-2.8451154E-1,2.2260644E0,1.0151671E0,4.2077904E0,2.5586503E0,1.5306402E0,-2.0876172E-1,6.445932E-1,1.8134016E0,-6.3025795E-2,6.676914E-1,-5.6108534E-1,2.97192E-1,1.2941939E0,2.3142095E0,6.2085164E-1,-6.014938E-1,2.8484054E0,3.672334E0,1.8866951E0,2.738819E0,1.2849768E0,1.5645632E0,-5.5759806E-2,-2.782205E-1,2.1293902E-1,4.99952E-1,-4.6115747E-1,-3.531509E-1,3.1238016E-1,-3.5585544E-1,-3.1697384E-1,7.937739E-1,-6.6138245E-2,-4.218803E-1,1.1217324E-1,-2.0975983E-1,-1.1288856E-2,4.5945975E-1,-5.5135596E-1,-6.387826E-1,-1.809917E-1,8.2787916E-2,-3.9604014E-1,3.5580567E-1,-4.6078858E-1,-2.569263E-1],"split_indices":[5,5,4,4,4,5,6,4,6,6,4,3,5,6,5,5,5,4,4,4,6,4,6,3,3,5,5,4,5,4,4,6,4,6,4,3,3,3,4,4,3,3,4,4,6,4,4,1,1,1,0,3,3,3,5,5,5,5,4,3,4,4,4,0,0,0,0,0,0,0,0,0,0,0,0,0,0,0,0,0,0,0,0,0,0,0,0,0,0,0,0,0,0,0,0,0,0,0,0,0,0,0,0,0,0,0,0,0,0,0,0,0,0,0,0,0,0,0,0,0,0,0,0,0,0],"split_type":[0,0,0,0,0,0,0,0,0,0,0,0,0,0,0,0,0,0,0,0,0,0,0,0,0,0,0,0,0,0,0,0,0,0,0,0,0,0,0,0,0,0,0,0,0,0,0,0,0,0,0,0,0,0,0,0,0,0,0,0,0,0,0,0,0,0,0,0,0,0,0,0,0,0,0,0,0,0,0,0,0,0,0,0,0,0,0,0,0,0,0,0,0,0,0,0,0,0,0,0,0,0,0,0,0,0,0,0,0,0,0,0,0,0,0,0,0,0,0,0,0,0,0,0,0],"sum_hessian":[1.42092E5,4.4232E4,9.786E4,2.377E4,2.0462E4,3.165E3,9.4695E4,1.7773E4,5.997E3,5.574E3,1.4888E4,3.86E2,2.779E3,8.1731E4,1.2964E4,5.671E3,1.2102E4,1.593E3,4.404E3,2.008E3,3.566E3,1.0099E4,4.789E3,1.17E2,2.69E2,1.582E3,1.197E3,3.9781E4,4.195E4,3.187E3,9.777E3,2.842E3,2.829E3,6.065E3,6.037E3,7.98E2,7.95E2,2.4E3,2.004E3,1.613E3,3.95E2,1.542E3,2.024E3,8.475E3,1.624E3,2.022E3,2.767E3,8.2E1,3.5E1,2.21E2,4.8E1,3.84E2,1.198E3,4.02E2,7.95E2,7.21E3,3.2571E4,2.1754E4,2.0196E4,7.81E2,2.406E3,3.228E3,6.549E3,2.056E3,7.86E2,1.218E3,1.611E3,3.654E3,2.411E3,4.842E3,1.195E3,6.93E2,1.05E2,3.57E2,4.38E2,3.81E2,2.019E3,7.78E2,1.226E3,8.06E2,8.07E2,2.79E2,1.16E2,4.7E1,1.495E3,1.628E3,3.96E2,6.475E3,2E3,1.222E3,4.02E2,1.616E3,4.06E2,1.967E3,8E2,3E1,5.2E1,1.2E1,2.3E1,8.7E1,1.34E2,2.43E2,1.41E2,1.02E3,1.78E2,2.48E2,1.54E2,3.95E2,4E2,4.803E3,2.407E3,1.6065E4,1.6506E4,5.641E3,1.6113E4,1.6965E4,3.231E3,6.3E2,1.51E2,8.04E2,1.602E3,2.42E3,8.08E2,4.941E3,1.608E3],"tree_param":{"num_deleted":"0","num_feature":"7","num_nodes":"125","size_leaf_vector":"1"}},{"base_weights":[1.6944398E-3,2.4577346E0,-1.1084313E0,8.7678975E-1,4.294131E0,2.4416592E0,-1.2271109E0,2.155166E0,-2.9115958E0,9.08377E0,2.500422E0,1.845924E1,2.1099539E-1,-2.647378E0,-9.874222E-1,-1.0634574E0,3.663377E0,-3.4621527E0,-1.8345294E0,1.834649E1,3.8642879E0,3.2212353E-1,7.0929723E0,2.972297E1,1.4431031E1,1.4431355E0,-1.4172925E0,-1.8443806E0,-3.9489698E0,-4.141473E-1,-2.1049092E0,5.788305E-1,-3.2406185E0,5.375206E0,1.9430028E0,-2.444422E0,-3.711982E0,-3.0826252E0,3.3589113E0,1.4593211E1,3.359762E1,8.025523E0,-1.4097695E0,4.0401335E0,-3.7977245E-1,1.3502206E1,2.4062047E0,2.4941306E0,3.1880803E0,1.9395672E1,1.3709658E1,2.977193E0,-6.5848686E-2,-3.788868E0,-2.1482733E-1,-4.1219172E0,-1.3079072E0,-8.839345E-1,-3.5299325E0,-1.03882E0,1.3239273E0,-5.410297E-1,-2.6202223E0,-4.423007E-1,2.2410646E-1,-4.6697202E-1,-1.815878E-1,1.0318549E0,2.966433E-1,4.972589E-1,-7.920964E-3,3.6093395E-3,-4.1878563E-1,-3.955579E-1,-2.7779838E-1,-3.710161E-1,-1.583123E-1,5.691313E-1,7.989445E-2,2.003734E0,9.1377604E-1,3.7473438E0,2.1906137E0,3.7505955E-1,1.4243767E0,-5.0381625E-1,-1.7337218E-2,-1.1391192E-1,1.9175453E0,-3.4508467E-1,1.5278578E-1,1.6258274E0,7.8369117E-1,-3.582759E-1,6.741671E-1,1.4170886E0,2.234448E0,1.1046506E0,1.5257862E0,4.489762E-1,1.0550176E-1,-1.2725346E-1,3.018197E-1,-4.5250893E-1,-3.4644476E-1,2.812211E-1,-3.203586E-1,-7.089338E-1,-3.159419E-1,1.9167472E-1,-1.9858907E-1,4.2241684E-1,-4.2714855E-1,-1.4611535E-1,2.3059474E-1,-6.3824058E-3,3.953603E-1,6.8846196E-1,-1.0128752E-1,-1.4862403E-1,-3.5964796E-1],"categories":[],"categories_nodes":[],"categories_segments":[],"categories_sizes":[],"default_left":[0,0,0,0,0,0,0,0,0,0,0,0,0,0,0,0,0,0,0,0,0,0,0,0,0,0,0,0,0,0,0,0,0,0,0,0,0,0,0,0,0,0,0,0,0,0,0,0,0,0,0,0,0,0,0,0,0,0,0,0,0,0,0,0,0,0,0,0,0,0,0,0,0,0,0,0,0,0,0,0,0,0,0,0,0,0,0,0,0,0,0,0,0,0,0,0,0,0,0,0,0,0,0,0,0,0,0,0,0,0,0,0,0,0,0,0,0,0,0,0,0],"id":8,"left_children":[1,3,5,7,9,11,13,15,17,19,21,23,25,27,29,31,33,35,37,39,41,43,45,47,49,51,53,55,57,59,61,63,65,67,69,71,73,75,77,79,81,83,85,87,89,91,93,-1,-1,95,97,99,101,103,105,107,109,-1,111,113,115,117,119,-1,-1,-1,-1,-1,-1,-1,-1,-1,-1,-1,-1,-1,-1,-1,-1,-1,-1,-1,-1,-1,-1,-1,-1,-1,-1,-1,-1,-1,-1,-1,-1,-1,-1,-1,-1,-1,-1,-1,-1,-1,-1,-1,-1,-1,-1,-1,-1,-1,-1,-1,-1,-1,-1,-1,-1,-1,-1],"loss_changes":[3.874212E5,1.2841531E5,4.12341E4,1.1512881E5,1.7577934E5,1.1311677E5,3.2233969E4,8.628533E4,3.5503828E3,2.6946144E5,1.4894645E5,1.7130281E4,5.5795E3,1.4283383E4,5.1905312E4,2.0282254E4,3.5632734E4,9.998242E2,1.3175117E4,1.14508375E5,7.829481E4,2.6359062E4,1.4385233E5,2.4698438E2,7.619414E2,3.6646328E3,3.415567E3,1.0328912E4,1.06576875E4,5.814536E4,2.213793E4,2.6898113E4,4.9575664E3,7.2199625E4,3.6992008E4,3.394974E3,7.134336E2,1.5354717E3,2.347976E3,4.7753E4,1.7123438E4,5.2952156E4,7.060304E3,1.2575884E5,4.978473E4,3.1459594E4,7.1895125E4,0E0,0E0,2.0719238E2,8.7872266E2,2.2775903E3,2.9772988E3,8.057715E1,7.21049E3,4.5816973E3,1.49731455E4,0E0,2.7652906E4,5.565301E4,5.16712E4,2.3867572E4,2.2869797E4,0E0,0E0,0E0,0E0,0E0,0E0,0E0,0E0,0E0,0E0,0E0,0E0,0E0,0E0,0E0,0E0,0E0,0E0,0E0,0E0,0E0,0E0,0E0,0E0,0E0,0E0,0E0,0E0,0E0,0E0,0E0,0E0,0E0,0E0,0E0,0E0,0E0,0E0,0E0,0E0,0E0,0E0,0E0,0E0,0E0,0E0,0E0,0E0,0E0,0E0,0E0,0E0,0E0,0E0,0E0,0E0,0E0,0E0],"parents":[2147483647,0,0,1,1,2,2,3,3,4,4,5,5,6,6,7,7,8,8,9,9,10,10,11,11,12,12,13,13,14,14,15,15,16,16,17,17,18,18,19,19,20,20,21,21,22,22,23,23,24,24,25,25,26,26,27,27,28,28,29,29,30,30,31,31,32,32,33,33,34,34,35,35,36,36,37,37,38,38,39,39,40,40,41,41,42,42,43,43,44,44,45,45,46,46,49,49,50,50,51,51,52,52,53,53,54,54,55,55,56,56,58,58,59,59,60,60,61,61,62,62],"right_children":[2,4,6,8,10,12,14,16,18,20,22,24,26,28,30,32,34,36,38,40,42,44,46,48,50,52,54,56,58,60,62,64,66,68,70,72,74,76,78,80,82,84,86,88,90,92,94,-1,-1,96,98,100,102,104,106,108,110,-1,112,114,116,118,120,-1,-1,-1,-1,-1,-1,-1,-1,-1,-1,-1,-1,-1,-1,-1,-1,-1,-1,-1,-1,-1,-1,-1,-1,-1,-1,-1,-1,-1,-1,-1,-1,-1,-1,-1,-1,-1,-1,-1,-1,-1,-1,-1,-1,-1,-1,-1,-1,-1,-1,-1,-1,-1,-1,-1,-1,-1,-1],"split_conditions":[-4.6336132E-1,-1.0407907E0,-1.5870043E0,8.3206177E-1,-5.502617E-1,-1.7464665E-1,-1.0141529E0,-8.9584255E-1,1.4080298E0,-5.148113E-1,9.472554E-1,-7.916054E-1,9.8021203E-1,9.8021203E-1,9.832138E-1,-1.2414234E0,-1.3295053E0,9.472554E-1,-1.3295053E0,-7.8064895E-1,-7.5207597E-1,-3.1987447E-1,-1.546957E-2,3.7329295E-3,-5.020304E-1,4.8387212E-1,1.2689267E0,-1.7464665E-1,-1.4718107E0,4.8387212E-1,1.1406802E-1,-1.5870043E0,-1.3295053E0,-3.1987447E-1,-1.546957E-2,-2.1245532E-1,1.0906324E0,8.010574E-1,2.2190727E-1,-1.2414234E0,9.4584495E-1,1.4825555E0,-1.1262298E0,9.832138E-1,1.4090003E-1,6.5626985E-1,-7.5207597E-1,2.4941306E0,3.1880803E0,3.7329295E-3,3.666948E-1,2.2190727E-1,8.010574E-1,-6.468179E-1,1.5576414E0,-1.1262298E0,-1.1262298E0,-8.839345E-1,-1.2414234E0,1.4080298E0,9.8021203E-1,-1.356617E0,-6.766778E-2,-4.423007E-1,2.2410646E-1,-4.6697202E-1,-1.815878E-1,1.0318549E0,2.966433E-1,4.972589E-1,-7.920964E-3,3.6093395E-3,-4.1878563E-1,-3.955579E-1,-2.7779838E-1,-3.710161E-1,-1.583123E-1,5.691313E-1,7.989445E-2,2.003734E0,9.1377604E-1,3.7473438E0,2.1906137E0,3.7505955E-1,1.4243767E0,-5.0381625E-1,-1.7337218E-2,-1.1391192E-1,1.9175453E0,-3.4508467E-1,1.5278578E-1,1.6258274E0,7.8369117E-1,-3.582759E-1,6.741671E-1,1.4170886E0,2.234448E0,1.1046506E0,1.5257862E0,4.489762E-1,1.0550176E-1,-1.2725346E-1,3.018197E-1,-4.5250893E-1,-3.4644476E-1,2.812211E-1,-3.203586E-1,-7.089338E-1,-3.159419E-1,1.9167472E-1,-1.9858907E-1,4.2241684E-1,-4.2714855E-1,-1.4611535E-1,2.3059474E-1,-6.3824058E-3,3.953603E-1,6.8846196E-1,-1.0128752E-1,-1.4862403E-1,-3.5964796E-1],"split_indices":[5,5,4,4,4,5,6,4,4,6,4,3,5,5,6,4,5,4,5,4,5,4,6,1,3,6,5,5,4,6,5,4,5,4,6,3,3,3,3,4,3,6,4,6,4,3,5,0,0,1,3,3,3,3,5,4,4,0,4,4,5,4,3,0,0,0,0,0,0,0,0,0,0,0,0,0,0,0,0,0,0,0,0,0,0,0,0,0,0,0,0,0,0,0,0,0,0,0,0,0,0,0,0,0,0,0,0,0,0,0,0,0,0,0,0,0,0,0,0,0,0],"split_type":[0,0,0,0,0,0,0,0,0,0,0,0,0,0,0,0,0,0,0,0,0,0,0,0,0,0,0,0,0,0,0,0,0,0,0,0,0,0,0,0,0,0,0,0,0,0,0,0,0,0,0,0,0,0,0,0,0,0,0,0,0,0,0,0,0,0,0,0,0,0,0,0,0,0,0,0,0,0,0,0,0,0,0,0,0,0,0,0,0,0,0,0,0,0,0,0,0,0,0,0,0,0,0,0,0,0,0,0,0,0,0,0,0,0,0,0,0,0,0,0,0],"sum_hessian":[1.42092E5,4.4232E4,9.786E4,2.377E4,2.0462E4,3.165E3,9.4695E4,1.7773E4,5.997E3,5.574E3,1.4888E4,3.86E2,2.779E3,1.3672E4,8.1023E4,5.671E3,1.2102E4,3.967E3,2.03E3,2.008E3,3.566E3,1.0099E4,4.789E3,1E2,2.86E2,1.582E3,1.197E3,8.457E3,5.215E3,5.3552E4,2.7471E4,3.233E3,2.438E3,6.065E3,6.037E3,7.84E2,3.183E3,1.637E3,3.93E2,1.613E3,3.95E2,1.993E3,1.573E3,1.603E3,8.496E3,2.022E3,2.767E3,3.5E1,6.5E1,3.3E1,2.53E2,7.84E2,7.98E2,4.02E2,7.95E2,1.611E3,6.846E3,4.1E2,4.805E3,3.9394E4,1.4158E4,6.809E3,2.0662E4,8.06E2,2.427E3,1.216E3,1.222E3,1.986E3,4.079E3,2.416E3,3.621E3,3.24E2,4.6E2,2.522E3,6.61E2,1.153E3,4.84E2,2.05E2,1.88E2,8.06E2,8.07E2,2.95E2,1E2,1.182E3,8.11E2,3.99E2,1.174E3,1.195E3,4.08E2,3.255E3,5.241E3,1.359E3,6.63E2,1.162E3,1.605E3,1.4E1,1.9E1,9.6E1,1.57E2,4.38E2,3.46E2,5.74E2,2.24E2,1.19E2,2.83E2,3.95E2,4E2,3.93E2,1.218E3,1.189E3,5.657E3,4.19E2,4.386E3,3.4978E4,4.416E3,9.268E3,4.89E3,4.06E2,6.403E3,9.56E3,1.1102E4],"tree_param":{"num_deleted":"0","num_feature":"7","num_nodes":"121","size_leaf_vector":"1"}},{"base_weights":[1.7004735E-3,2.2122877E0,-9.9748105E-1,7.8911E-1,3.8654249E0,2.2012377E0,-1.1044142E0,1.9397029E0,-2.6205978E0,8.17721E0,2.250671E0,1.6644232E1,1.898566E-1,-1.3378935E0,1.4367212E-1,-4.75639E-1,3.6157327E0,-3.8118956E0,-2.188918E0,1.6516249E1,3.4782176E0,2.9007056E-1,6.3842435E0,2.5788977E1,1.2585994E1,1.2992826E0,-1.2762629E0,-1.0710881E0,-3.184993E0,-6.1531496E-1,5.123154E0,-2.31907E0,3.2845128E0,6.179663E0,1.0334585E0,-3.2204533E0,-4.4007783E0,-3.0546377E0,-1.1511215E0,1.3135697E1,3.0252851E1,7.223873E0,-1.2691238E0,9.764099E-1,-3.2900538E0,1.2153175E1,2.1656983E0,2.8852262E0,2.1624115E1,1.1942837E1,1.6996262E0,-1.2347894E0,2.1118917E0,2.7019757E-1,-2.8283472E0,-1.4888903E0,1.4128541E0,-3.6560903E0,2.2477207E0,9.081399E-1,-2.3227708E0,2.6236176E1,-2.7580133E-1,-3.980592E-1,2.1298383E-3,2.1918018E-1,9.0940285E-1,1.8248646E0,2.6698613E-1,4.475537E-1,-1.9244288E-1,-3.6380097E-1,-2.7665225E-1,-4.0809366E-1,-4.6515813E-1,-1.07706405E-1,-3.4271023E-1,-1.9151428E-1,1.6768424E-1,1.8036088E0,8.225115E-1,3.415118E0,2.0664945E0,3.375853E-1,1.2821144E0,-2.3977096E-1,2.1055607E-1,-5.3173244E-2,5.8568466E-1,-5.2028865E-1,2.5230587E-1,9.026559E-1,1.6833876E0,7.460095E-3,1.359816E0,1.6736777E0,2.3799047E0,1.4964521E0,1.1403425E0,-4.4853684E-2,-2.8666064E-1,1.7214292E-1,4.3272567E-1,-3.8023305E-1,2.3261487E-1,-4.8042664E-1,-3.959214E-3,-5.4277003E-2,-1.9687836E-1,5.138317E-1,-4.0865493E-1,-9.890682E-3,-4.1873828E-1,5.127125E-2,1.0332669E0,-3.6426827E-1,1.886963E-1,3.322223E-2,-3.6331424E-1,8.170822E-1,3.5137742E0,9.096041E-1,-3.4473297E-1],"categories":[],"categories_nodes":[],"categories_segments":[],"categories_sizes":[],"default_left":[0,0,0,0,0,0,0,0,0,0,0,0,0,0,0,0,0,0,0,0,0,0,0,0,0,0,0,0,0,0,0,0,0,0,0,0,0,0,0,0,0,0,0,0,0,0,0,0,0,0,0,0,0,0,0,0,0,0,0,0,0,0,0,0,0,0,0,0,0,0,0,0,0,0,0,0,0,0,0,0,0,0,0,0,0,0,0,0,0,0,0,0,0,0,0,0,0,0,0,0,0,0,0,0,0,0,0,0,0,0,0,0,0,0,0,0,0,0,0,0,0,0,0],"id":9,"left_children":[1,3,5,7,9,11,13,15,17,19,21,23,25,27,29,31,33,35,37,39,41,43,45,47,49,51,53,55,57,59,61,63,65,67,69,71,73,75,77,79,81,83,85,87,89,91,93,-1,95,97,-1,99,101,103,105,107,109,111,113,115,117,119,121,-1,-1,-1,-1,-1,-1,-1,-1,-1,-1,-1,-1,-1,-1,-1,-1,-1,-1,-1,-1,-1,-1,-1,-1,-1,-1,-1,-1,-1,-1,-1,-1,-1,-1,-1,-1,-1,-1,-1,-1,-1,-1,-1,-1,-1,-1,-1,-1,-1,-1,-1,-1,-1,-1,-1,-1,-1,-1,-1,-1],"loss_changes":[3.138541E5,1.04064266E5,3.347571E4,9.326313E4,1.4245469E5,9.19703E4,2.759482E4,7.195415E4,3.0761836E3,2.1839938E5,1.20662836E5,1.4037594E4,4.5234697E3,3.9310016E4,5.6406363E4,5.0483387E4,6.946539E4,5.410039E2,3.9541152E3,9.2895125E4,6.3437227E4,2.482073E4,1.165455E5,8.815547E2,5.628672E2,3.2623374E3,2.876248E3,7.234275E4,2.5775625E4,3.3690664E4,2.250201E5,1.9003543E4,1.5190166E4,2.2297528E5,5.3246527E4,1.4137988E2,4.486914E1,1.7648301E3,4.335263E3,3.8690562E4,1.4095469E4,4.2904305E4,5.9998193E3,6.238981E4,1.8082332E4,2.9454156E4,6.617187E4,0E0,1.7568164E2,2.1890625E2,0E0,4.9267712E2,1.029706E3,5.0409688E3,3.2950015E3,2.7091297E4,2.0565727E5,1.7509562E4,1.1272773E4,3.0497586E4,2.1247621E4,6.435847E4,4.6785734E4,0E0,0E0,0E0,0E0,0E0,0E0,0E0,0E0,0E0,0E0,0E0,0E0,0E0,0E0,0E0,0E0,0E0,0E0,0E0,0E0,0E0,0E0,0E0,0E0,0E0,0E0,0E0,0E0,0E0,0E0,0E0,0E0,0E0,0E0,0E0,0E0,0E0,0E0,0E0,0E0,0E0,0E0,0E0,0E0,0E0,0E0,0E0,0E0,0E0,0E0,0E0,0E0,0E0,0E0,0E0,0E0,0E0,0E0,0E0,0E0],"parents":[2147483647,0,0,1,1,2,2,3,3,4,4,5,5,6,6,7,7,8,8,9,9,10,10,11,11,12,12,13,13,14,14,15,15,16,16,17,17,18,18,19,19,20,20,21,21,22,22,23,23,24,24,25,25,26,26,27,27,28,28,29,29,30,30,31,31,32,32,33,33,34,34,35,35,36,36,37,37,38,38,39,39,40,40,41,41,42,42,43,43,44,44,45,45,46,46,48,48,49,49,51,51,52,52,53,53,54,54,55,55,56,56,57,57,58,58,59,59,60,60,61,61,62,62],"right_children":[2,4,6,8,10,12,14,16,18,20,22,24,26,28,30,32,34,36,38,40,42,44,46,48,50,52,54,56,58,60,62,64,66,68,70,72,74,76,78,80,82,84,86,88,90,92,94,-1,96,98,-1,100,102,104,106,108,110,112,114,116,118,120,122,-1,-1,-1,-1,-1,-1,-1,-1,-1,-1,-1,-1,-1,-1,-1,-1,-1,-1,-1,-1,-1,-1,-1,-1,-1,-1,-1,-1,-1,-1,-1,-1,-1,-1,-1,-1,-1,-1,-1,-1,-1,-1,-1,-1,-1,-1,-1,-1,-1,-1,-1,-1,-1,-1,-1,-1,-1,-1,-1,-1],"split_conditions":[-4.6336132E-1,-1.0407907E0,-1.5870043E0,8.3206177E-1,-5.502617E-1,-1.7464665E-1,1.2928362E0,-6.6545534E-1,-5.148113E-1,-5.148113E-1,9.472554E-1,-6.468179E-1,9.8021203E-1,1.5576414E0,1.5576414E0,9.832138E-1,-1.3295053E0,1.1776426E0,1.2928362E0,-7.8064895E-1,-7.5207597E-1,7.168681E-1,-1.546957E-2,-1.0811805E0,1.5249951E0,1.1406802E-1,7.711975E-2,1.2689267E0,1.062449E0,4.8387212E-1,1.4080298E0,-1.3295053E0,1.23542E0,-3.1987447E-1,-1.546957E-2,1.062449E0,-6.766778E-2,-1.0811805E0,1.0906324E0,-1.2414234E0,8.010574E-1,1.4825555E0,1.4825555E0,3.7128726E-1,1.4825555E0,1.5232234E0,1.4825555E0,2.8852262E0,3.7329295E-3,-3.5724285E-1,1.6996262E0,6.5626985E-1,1.23542E0,1.2689267E0,1.0906324E0,1.1406802E-1,1.4090003E-1,-1.2414234E0,1.23542E0,-1.7464665E-1,1.1406802E-1,-5.020304E-1,1.5232234E0,-3.980592E-1,2.1298383E-3,2.1918018E-1,9.0940285E-1,1.8248646E0,2.6698613E-1,4.475537E-1,-1.9244288E-1,-3.6380097E-1,-2.7665225E-1,-4.0809366E-1,-4.6515813E-1,-1.07706405E-1,-3.4271023E-1,-1.9151428E-1,1.6768424E-1,1.8036088E0,8.225115E-1,3.415118E0,2.0664945E0,3.375853E-1,1.2821144E0,-2.3977096E-1,2.1055607E-1,-5.3173244E-2,5.8568466E-1,-5.2028865E-1,2.5230587E-1,9.026559E-1,1.6833876E0,7.460095E-3,1.359816E0,1.6736777E0,2.3799047E0,1.4964521E0,1.1403425E0,-4.4853684E-2,-2.8666064E-1,1.7214292E-1,4.3272567E-1,-3.8023305E-1,2.3261487E-1,-4.8042664E-1,-3.959214E-3,-5.4277003E-2,-1.9687836E-1,5.138317E-1,-4.0865493E-1,-9.890682E-3,-4.1873828E-1,5.127125E-2,1.0332669E0,-3.6426827E-1,1.886963E-1,3.322223E-2,-3.6331424E-1,8.170822E-1,3.5137742E0,9.096041E-1,-3.4473297E-1],"split_indices":[5,5,4,4,4,5,4,4,6,6,4,3,5,5,5,6,5,4,4,4,5,4,6,3,3,5,3,5,4,6,4,5,3,4,6,4,3,3,3,4,3,6,6,4,6,4,6,0,1,3,0,3,3,5,3,5,4,4,3,5,5,3,4,0,0,0,0,0,0,0,0,0,0,0,0,0,0,0,0,0,0,0,0,0,0,0,0,0,0,0,0,0,0,0,0,0,0,0,0,0,0,0,0,0,0,0,0,0,0,0,0,0,0,0,0,0,0,0,0,0,0,0,0],"split_type":[0,0,0,0,0,0,0,0,0,0,0,0,0,0,0,0,0,0,0,0,0,0,0,0,0,0,0,0,0,0,0,0,0,0,0,0,0,0,0,0,0,0,0,0,0,0,0,0,0,0,0,0,0,0,0,0,0,0,0,0,0,0,0,0,0,0,0,0,0,0,0,0,0,0,0,0,0,0,0,0,0,0,0,0,0,0,0,0,0,0,0,0,0,0,0,0,0,0,0,0,0,0,0,0,0,0,0,0,0,0,0,0,0,0,0,0,0,0,0,0,0,0,0],"sum_hessian":[1.42092E5,4.4232E4,9.786E4,2.377E4,2.0462E4,3.165E3,9.4695E4,1.7773E4,5.997E3,5.574E3,1.4888E4,3.86E2,2.779E3,7.9772E4,1.4923E4,7.281E3,1.0492E4,1.593E3,4.404E3,2.008E3,3.566E3,1.0099E4,4.789E3,1.17E2,2.69E2,1.582E3,1.197E3,6.9705E4,1.0067E4,1.295E4,1.973E3,4.886E3,2.395E3,5.264E3,5.228E3,7.98E2,7.95E2,2.4E3,2.004E3,1.613E3,3.95E2,1.993E3,1.573E3,8.475E3,1.624E3,2.022E3,2.767E3,6.4E1,5.3E1,2.38E2,3.1E1,3.84E2,1.198E3,6E2,5.97E2,5.9669E4,1.0036E4,9.264E3,8.03E2,6.844E3,6.106E3,4.01E2,1.572E3,2.857E3,2.029E3,2.017E3,3.78E2,1.185E3,4.079E3,2.416E3,2.812E3,4.12E2,3.86E2,3.57E2,4.38E2,3.81E2,2.019E3,1.578E3,4.26E2,8.06E2,8.07E2,2.79E2,1.16E2,1.182E3,8.11E2,1.179E3,3.94E2,6.475E3,2E3,1.222E3,4.02E2,1.214E3,8.08E2,2.34E3,4.27E2,1.9E1,3.4E1,3.2E1,2.06E2,2.6E2,1.24E2,1.02E3,1.78E2,2.01E2,3.99E2,3.49E2,2.48E2,2.0081E4,3.9588E4,5.983E3,4.053E3,1.204E3,8.06E3,6.62E2,1.41E2,1.211E3,5.633E3,2.018E3,4.088E3,1.33E2,2.68E2,3.97E2,1.175E3],"tree_param":{"num_deleted":"0","num_feature":"7","num_nodes":"123","size_leaf_vector":"1"}},{"base_weights":[1.7474144E-3,1.9913981E0,-8.975712E-1,7.102448E-1,3.4795623E0,-2.2762144E0,-6.7365736E-1,1.7459056E0,-2.3588696E0,7.361229E0,2.025887E0,-1.5727277E0,-3.4165158E0,-1.3002226E-1,-1.7263936E0,-9.0556794E-1,2.988359E0,-3.431656E0,-1.9701339E0,1.486866E1,3.1308417E0,2.6108962E-1,5.7466445E0,-3.6561177E0,-1.0820023E0,-7.9476947E-1,-3.0283072E0,-6.387351E-1,1.3019257E0,-4.8364514E-1,-2.142588E0,5.531561E-1,-2.8393965E0,4.3544455E0,1.6154426E0,-2.8992095E0,-3.9617977E0,-2.7493618E0,-1.0360211E0,1.1823755E1,2.7241407E1,-1.2517866E0,6.46875E0,3.6903844E0,-3.8629764E-1,1.0939136E1,1.9496229E0,-6.3280635E0,-2.7895033E0,1.874013E0,-1.7035251E0,3.2901487E0,-3.6325295E0,4.135239E0,-8.293386E-1,-2.7911475E-1,3.064498E0,-2.3575056E0,2.2147478E-1,-1.1064658E0,-2.8983555E0,7.5894916E-1,-4.939951E-2,-1.8436457E-1,-4.8323068E-1,2.9270074E-1,1.3393649E0,2.7141273E-1,-2.8348458E-1,-3.0492172E-1,-1.8897343E-1,-3.6739832E-1,-4.187483E-1,-9.6963964E-2,-3.084562E-1,7.048559E-2,-2.1404281E-1,1.6234715E0,7.403621E-1,1.0817857E0,2.9369025E0,6.077876E-1,-2.2547804E-1,4.3238354E-1,1.472942E0,-9.7217426E-2,1.7315639E0,-3.0527118E-1,1.2699844E-1,1.3418783E0,5.8438677E-1,4.8148695E-1,-5.0925183E-1,-6.6467434E-1,-4.9071842E-1,-1.1112038E-1,-6.1105585E-1,-4.692011E-1,5.2045214E-1,-5.525027E-1,-1.0620507E-1,-3.4225297E-1,6.344763E-1,-4.4352505E-1,-3.1768736E-1,1.5008943E0,5.8657974E-2,-1.19122766E-1,2.0367129E-1,5.518487E-1,-9.75531E-2,5.1341885E-1,7.6206684E-2,2.675569E-1,-5.737968E-1,1.14437155E-1,-1.2566476E-1,-3.2316568E-1,2.5694575E-3,-2.569028E-1,-4.5301697E-1],"categories":[],"categories_nodes":[],"categories_segments":[],"categories_sizes":[],"default_left":[0,0,0,0,0,0,0,0,0,0,0,0,0,0,0,0,0,0,0,0,0,0,0,0,0,0,0,0,0,0,0,0,0,0,0,0,0,0,0,0,0,0,0,0,0,0,0,0,0,0,0,0,0,0,0,0,0,0,0,0,0,0,0,0,0,0,0,0,0,0,0,0,0,0,0,0,0,0,0,0,0,0,0,0,0,0,0,0,0,0,0,0,0,0,0,0,0,0,0,0,0,0,0,0,0,0,0,0,0,0,0,0,0,0,0,0,0,0,0,0,0],"id":10,"left_children":[1,3,5,7,9,11,13,15,17,19,21,23,25,27,29,31,33,35,37,39,41,43,45,47,49,-1,51,53,55,57,59,61,63,65,67,69,71,73,75,77,79,81,83,85,87,89,91,93,95,97,99,101,103,105,107,109,111,113,115,117,119,-1,-1,-1,-1,-1,-1,-1,-1,-1,-1,-1,-1,-1,-1,-1,-1,-1,-1,-1,-1,-1,-1,-1,-1,-1,-1,-1,-1,-1,-1,-1,-1,-1,-1,-1,-1,-1,-1,-1,-1,-1,-1,-1,-1,-1,-1,-1,-1,-1,-1,-1,-1,-1,-1,-1,-1,-1,-1,-1,-1],"loss_changes":[2.5425305E5,8.433067E4,3.020789E4,7.55617E4,1.1545131E5,1.096293E4,4.8181508E4,5.8556176E4,2.494586E3,1.7701175E5,9.77654E4,8.64327E3,9.151094E3,4.04444E4,1.4827797E4,1.6001842E4,2.2692398E4,4.3845508E2,3.2034922E3,7.536469E4,5.218907E4,2.2424254E4,9.441831E4,3.7150098E3,1.2582711E4,0E0,1.8360066E4,3.7280773E4,4.055846E4,9.505927E3,1.6814734E4,2.3832205E4,4.8311445E3,7.8229805E4,2.9530277E4,1.15229004E2,3.6319336E1,1.4293555E3,3.8563955E3,3.1348E4,1.3519719E4,1.1357231E4,3.581614E4,1.0191663E5,3.7529465E4,2.548111E4,5.5875766E4,1.4578906E2,6.787581E3,2.6047574E4,1.3864127E4,8.633665E3,1.5905156E3,6.0688664E4,4.086265E4,3.0985455E4,3.279101E4,3.348213E4,7.133236E3,2.179896E4,6.6618125E3,0E0,0E0,0E0,0E0,0E0,0E0,0E0,0E0,0E0,0E0,0E0,0E0,0E0,0E0,0E0,0E0,0E0,0E0,0E0,0E0,0E0,0E0,0E0,0E0,0E0,0E0,0E0,0E0,0E0,0E0,0E0,0E0,0E0,0E0,0E0,0E0,0E0,0E0,0E0,0E0,0E0,0E0,0E0,0E0,0E0,0E0,0E0,0E0,0E0,0E0,0E0,0E0,0E0,0E0,0E0,0E0,0E0,0E0,0E0,0E0],"parents":[2147483647,0,0,1,1,2,2,3,3,4,4,5,5,6,6,7,7,8,8,9,9,10,10,11,11,12,12,13,13,14,14,15,15,16,16,17,17,18,18,19,19,20,20,21,21,22,22,23,23,24,24,26,26,27,27,28,28,29,29,30,30,31,31,32,32,33,33,34,34,35,35,36,36,37,37,38,38,39,39,40,40,41,41,42,42,43,43,44,44,45,45,46,46,47,47,48,48,49,49,50,50,51,51,52,52,53,53,54,54,55,55,56,56,57,57,58,58,59,59,60,60],"right_children":[2,4,6,8,10,12,14,16,18,20,22,24,26,28,30,32,34,36,38,40,42,44,46,48,50,-1,52,54,56,58,60,62,64,66,68,70,72,74,76,78,80,82,84,86,88,90,92,94,96,98,100,102,104,106,108,110,112,114,116,118,120,-1,-1,-1,-1,-1,-1,-1,-1,-1,-1,-1,-1,-1,-1,-1,-1,-1,-1,-1,-1,-1,-1,-1,-1,-1,-1,-1,-1,-1,-1,-1,-1,-1,-1,-1,-1,-1,-1,-1,-1,-1,-1,-1,-1,-1,-1,-1,-1,-1,-1,-1,-1,-1,-1,-1,-1,-1,-1,-1,-1],"split_conditions":[-4.6336132E-1,-1.0407907E0,-1.0141529E0,8.3206177E-1,-5.502617E-1,9.8021203E-1,9.832138E-1,-8.9584255E-1,-5.148113E-1,-5.148113E-1,9.472554E-1,-1.7464665E-1,-1.4718107E0,4.8387212E-1,1.1406802E-1,-1.2414234E0,-1.3295053E0,1.1776426E0,1.2928362E0,-7.8064895E-1,9.832138E-1,-3.1987447E-1,-1.546957E-2,-1.1262298E0,-1.1262298E0,-7.9476947E-1,-1.2414234E0,-1.5870043E0,6.914973E-1,-7.8064895E-1,-2.1245532E-1,-1.0141529E0,4.8387212E-1,6.016745E-1,4.864809E-1,1.3802075E0,-6.766778E-2,-1.0811805E0,1.5232234E0,-1.2414234E0,-1.225968E0,-1.225968E0,1.0906324E0,9.832138E-1,1.4090003E-1,6.5626985E-1,1.4080298E0,1.0906324E0,4.864809E-1,1.1406802E-1,-6.6545534E-1,-6.468179E-1,1.2689267E0,-1.7464665E-1,1.4080298E0,-1.4718107E0,2.5706405E-2,-1.356617E0,8.3206177E-1,6.914973E-1,1.5576414E0,7.5894916E-1,-4.939951E-2,-1.8436457E-1,-4.8323068E-1,2.9270074E-1,1.3393649E0,2.7141273E-1,-2.8348458E-1,-3.0492172E-1,-1.8897343E-1,-3.6739832E-1,-4.187483E-1,-9.6963964E-2,-3.084562E-1,7.048559E-2,-2.1404281E-1,1.6234715E0,7.403621E-1,1.0817857E0,2.9369025E0,6.077876E-1,-2.2547804E-1,4.3238354E-1,1.472942E0,-9.7217426E-2,1.7315639E0,-3.0527118E-1,1.2699844E-1,1.3418783E0,5.8438677E-1,4.8148695E-1,-5.0925183E-1,-6.6467434E-1,-4.9071842E-1,-1.1112038E-1,-6.1105585E-1,-4.692011E-1,5.2045214E-1,-5.525027E-1,-1.0620507E-1,-3.4225297E-1,6.344763E-1,-4.4352505E-1,-3.1768736E-1,1.5008943E0,5.8657974E-2,-1.19122766E-1,2.0367129E-1,5.518487E-1,-9.75531E-2,5.1341885E-1,7.6206684E-2,2.675569E-1,-5.737968E-1,1.14437155E-1,-1.2566476E-1,-3.2316568E-1,2.5694575E-3,-2.569028E-1,-4.5301697E-1],"split_indices":[5,5,6,4,4,5,6,4,6,6,4,5,4,6,5,4,5,4,4,4,6,4,6,4,4,0,4,4,5,4,3,6,6,4,4,3,3,3,4,4,3,3,3,6,4,3,4,3,4,5,4,3,5,5,4,4,4,4,4,5,5,0,0,0,0,0,0,0,0,0,0,0,0,0,0,0,0,0,0,0,0,0,0,0,0,0,0,0,0,0,0,0,0,0,0,0,0,0,0,0,0,0,0,0,0,0,0,0,0,0,0,0,0,0,0,0,0,0,0,0,0],"split_type":[0,0,0,0,0,0,0,0,0,0,0,0,0,0,0,0,0,0,0,0,0,0,0,0,0,0,0,0,0,0,0,0,0,0,0,0,0,0,0,0,0,0,0,0,0,0,0,0,0,0,0,0,0,0,0,0,0,0,0,0,0,0,0,0,0,0,0,0,0,0,0,0,0,0,0,0,0,0,0,0,0,0,0,0,0,0,0,0,0,0,0,0,0,0,0,0,0,0,0,0,0,0,0,0,0,0,0,0,0,0,0,0,0,0,0,0,0,0,0,0,0],"sum_hessian":[1.42092E5,4.4232E4,9.786E4,2.377E4,2.0462E4,1.3672E4,8.4188E4,1.7773E4,5.997E3,5.574E3,1.4888E4,8.457E3,5.215E3,5.5519E4,2.8669E4,5.671E3,1.2102E4,1.593E3,4.404E3,2.008E3,3.566E3,1.0099E4,4.789E3,1.611E3,6.846E3,4.1E2,4.805E3,4.0966E4,1.4553E4,7.193E3,2.1476E4,3.233E3,2.438E3,6.065E3,6.037E3,7.98E2,7.95E2,2.4E3,2.004E3,1.613E3,3.95E2,1.542E3,2.024E3,1.603E3,8.496E3,2.022E3,2.767E3,3.93E2,1.218E3,1.189E3,5.657E3,4.19E2,4.386E3,1.572E3,3.9394E4,7.672E3,6.881E3,1.966E3,5.227E3,9.059E3,1.2417E4,4.18E2,2.815E3,1.627E3,8.11E2,5.239E3,8.26E2,4.842E3,1.195E3,6.93E2,1.05E2,3.57E2,4.38E2,3.81E2,2.019E3,7.78E2,1.226E3,8.06E2,8.07E2,4.6E1,3.49E2,1.85E2,1.357E3,1.608E3,4.16E2,1.195E3,4.08E2,3.255E3,5.241E3,1.359E3,6.63E2,1.967E3,8E2,3.18E2,7.5E1,8.1E2,4.08E2,4E2,7.89E2,8.12E2,4.845E3,1.31E2,2.88E2,1.585E3,2.801E3,3.86E2,1.186E3,3.4978E4,4.416E3,8.22E2,6.85E3,3.623E3,3.258E3,7.9E2,1.176E3,3.218E3,2.009E3,3.148E3,5.911E3,1.0334E4,2.083E3],"tree_param":{"num_deleted":"0","num_feature":"7","num_nodes":"121","size_leaf_vector":"1"}},{"base_weights":[1.6391434E-3,1.7925265E0,-8.078388E-1,6.3921344E-1,3.1321936E0,-2.048867E0,-6.062758E-1,1.5714089E0,-2.1232874E0,6.6266613E0,1.8235235E0,-1.1989291E0,-2.896767E0,-1.1697174E-1,-1.5538012E0,4.155264E-1,4.040767E0,-2.555811E0,-1.2772136E0,1.3384972E1,2.818399E0,5.608287E-1,6.4486156E0,-1.6915525E0,6.984503E0,-6.568936E-2,-3.5115063E0,-9.260397E-1,6.435602E-1,-4.3532476E-1,-1.9283772E0,-2.0711174E0,6.2812696E0,9.900411E0,-3.8652012E-1,-1.6229763E0,-2.7849941E0,-2.3200595E0,3.0615146E0,1.0642845E1,2.4527414E1,6.003094E0,-1.2178783E0,2.2834692E0,-1.1713583E0,-3.359624E0,1.2192048E1,-2.711046E0,1.4037362E0,4.920752E0,9.317518E0,3.5226288E0,-7.1548593E-1,-2.8547409E0,-5.1510305E0,1.2820178E0,-1.5053898E0,5.402849E0,2.86348E-1,-2.1219106E0,1.9932516E-1,-1.0646286E0,-2.6719124E0,-9.5839985E-2,-4.8392826E-1,2.9696542E-1,1.2833624E0,3.8939798E-1,1.2923445E0,3.3070323E-1,-4.1444284E-1,3.4322567E-2,-3.2892728E-1,-3.0058834E-1,-1.9389395E-1,-2.829547E-1,-1.10301115E-1,-1.1758766E-1,4.4117758E-1,1.4613256E0,6.6641754E-1,2.8126614E0,1.5704312E0,3.8935065E-1,1.4347795E0,-4.162851E-1,-2.14298E-2,1.6315584E-1,1.1481625E0,-3.1074246E-2,-1.2524033E0,-2.9872185E-2,-5.5710804E-1,5.5965286E-1,1.6954768E0,-4.9810678E-1,-1.6054846E-1,5.405101E-1,-2.5200346E-1,7.217905E-1,3.9184102E-1,7.241952E-1,9.502293E-1,7.5728625E-1,-7.935399E-2,-3.1497118E-1,-1.9472349E-1,-7.8549945E-1,-4.2213342E-1,-2.9688078E-1,1.2087295E0,2.1467365E-2,-3.1529412E-1,1.192477E0,7.1004786E-2,-6.662322E-2,1.8489176E-1,2.40835E-1,-5.1646584E-1,3.9820623E-1,-1.174469E-2,-2.97198E-1,-5.3377594E-3,-1.6899735E-1,-3.173071E-1],"categories":[],"categories_nodes":[],"categories_segments":[],"categories_sizes":[],"default_left":[0,0,0,0,0,0,0,0,0,0,0,0,0,0,0,0,0,0,0,0,0,0,0,0,0,0,0,0,0,0,0,0,0,0,0,0,0,0,0,0,0,0,0,0,0,0,0,0,0,0,0,0,0,0,0,0,0,0,0,0,0,0,0,0,0,0,0,0,0,0,0,0,0,0,0,0,0,0,0,0,0,0,0,0,0,0,0,0,0,0,0,0,0,0,0,0,0,0,0,0,0,0,0,0,0,0,0,0,0,0,0,0,0,0,0,0,0,0,0,0,0,0,0,0,0],"id":11,"left_children":[1,3,5,7,9,11,13,15,17,19,21,23,25,27,29,31,33,35,37,39,41,43,45,47,49,51,53,55,57,59,61,63,65,67,69,71,73,75,77,79,81,83,85,87,89,91,93,95,97,99,101,103,-1,105,107,109,111,113,115,117,119,121,123,-1,-1,-1,-1,-1,-1,-1,-1,-1,-1,-1,-1,-1,-1,-1,-1,-1,-1,-1,-1,-1,-1,-1,-1,-1,-1,-1,-1,-1,-1,-1,-1,-1,-1,-1,-1,-1,-1,-1,-1,-1,-1,-1,-1,-1,-1,-1,-1,-1,-1,-1,-1,-1,-1,-1,-1,-1,-1,-1,-1,-1,-1],"loss_changes":[2.0599138E5,6.834044E4,2.4478234E4,6.12182E4,9.3567375E4,9.850145E3,3.90322E4,5.0730438E4,2.1916816E3,1.4344839E5,8.694934E4,2.754594E4,1.1910898E4,3.4163273E4,1.2010586E4,1.7662045E5,1.4701898E5,8.438008E2,9.196617E3,6.1121906E4,4.585865E4,3.490577E4,1.7991211E5,2.0335506E4,1.8222773E3,3.111068E4,6.040039E3,3.4416008E4,4.865293E4,7.70082E3,1.3790273E4,2.6189262E4,7.818634E4,4.4236156E4,4.4832324E4,2.5730054E3,5.89209E2,1.0125547E3,2.259492E3,2.5398906E4,1.2133703E4,3.5046266E4,4.651092E3,3.5150016E4,5.698622E4,7.9858154E3,6.3170125E4,1.215627E4,2.508722E4,4.5064453E2,6.0058594E-1,1.42009795E4,0E0,1.069168E3,4.006625E3,2.5688397E5,6.039377E4,6.1142473E4,3.962735E4,2.7126438E4,6.265E3,1.9166436E4,5.674047E3,0E0,0E0,0E0,0E0,0E0,0E0,0E0,0E0,0E0,0E0,0E0,0E0,0E0,0E0,0E0,0E0,0E0,0E0,0E0,0E0,0E0,0E0,0E0,0E0,0E0,0E0,0E0,0E0,0E0,0E0,0E0,0E0,0E0,0E0,0E0,0E0,0E0,0E0,0E0,0E0,0E0,0E0,0E0,0E0,0E0,0E0,0E0,0E0,0E0,0E0,0E0,0E0,0E0,0E0,0E0,0E0,0E0,0E0,0E0,0E0,0E0,0E0],"parents":[2147483647,0,0,1,1,2,2,3,3,4,4,5,5,6,6,7,7,8,8,9,9,10,10,11,11,12,12,13,13,14,14,15,15,16,16,17,17,18,18,19,19,20,20,21,21,22,22,23,23,24,24,25,25,26,26,27,27,28,28,29,29,30,30,31,31,32,32,33,33,34,34,35,35,36,36,37,37,38,38,39,39,40,40,41,41,42,42,43,43,44,44,45,45,46,46,47,47,48,48,49,49,50,50,51,51,53,53,54,54,55,55,56,56,57,57,58,58,59,59,60,60,61,61,62,62],"right_children":[2,4,6,8,10,12,14,16,18,20,22,24,26,28,30,32,34,36,38,40,42,44,46,48,50,52,54,56,58,60,62,64,66,68,70,72,74,76,78,80,82,84,86,88,90,92,94,96,98,100,102,104,-1,106,108,110,112,114,116,118,120,122,124,-1,-1,-1,-1,-1,-1,-1,-1,-1,-1,-1,-1,-1,-1,-1,-1,-1,-1,-1,-1,-1,-1,-1,-1,-1,-1,-1,-1,-1,-1,-1,-1,-1,-1,-1,-1,-1,-1,-1,-1,-1,-1,-1,-1,-1,-1,-1,-1,-1,-1,-1,-1,-1,-1,-1,-1,-1,-1,-1,-1,-1,-1],"split_conditions":[-4.6336132E-1,-1.0407907E0,-1.0141529E0,8.3206177E-1,-5.502617E-1,6.914973E-1,9.832138E-1,2.5706405E-2,1.4080298E0,-5.148113E-1,1.1776426E0,1.6384171E0,-1.2414234E0,-1.546957E-2,1.1406802E-1,9.832138E-1,-1.546957E-2,9.472554E-1,-1.3295053E0,-7.8064895E-1,-7.5207597E-1,7.711975E-2,-7.5207597E-1,4.0278268E-1,2.2190727E-1,1.5576414E0,9.472554E-1,-1.0110362E0,-1.4718107E0,-7.8064895E-1,-6.766778E-2,-4.3506807E-1,-6.6545534E-1,-1.0141529E0,3.7128726E-1,-6.766778E-2,1.0906324E0,8.010574E-1,-7.916054E-1,-1.2414234E0,8.010574E-1,1.0906324E0,-1.1262298E0,1.062449E0,1.062449E0,-2.1245532E-1,-2.1245532E-1,-6.6545534E-1,-3.1987447E-1,-1.0811805E0,3.666948E-1,7.711975E-2,-7.1548593E-1,9.4584495E-1,9.8021203E-1,1.2689267E0,6.914973E-1,-2.1245532E-1,9.8021203E-1,-1.356617E0,-5.502617E-1,6.914973E-1,-4.3506807E-1,-9.5839985E-2,-4.8392826E-1,2.9696542E-1,1.2833624E0,3.8939798E-1,1.2923445E0,3.3070323E-1,-4.1444284E-1,3.4322567E-2,-3.2892728E-1,-3.0058834E-1,-1.9389395E-1,-2.829547E-1,-1.10301115E-1,-1.1758766E-1,4.4117758E-1,1.4613256E0,6.6641754E-1,2.8126614E0,1.5704312E0,3.8935065E-1,1.4347795E0,-4.162851E-1,-2.14298E-2,1.6315584E-1,1.1481625E0,-3.1074246E-2,-1.2524033E0,-2.9872185E-2,-5.5710804E-1,5.5965286E-1,1.6954768E0,-4.9810678E-1,-1.6054846E-1,5.405101E-1,-2.5200346E-1,7.217905E-1,3.9184102E-1,7.241952E-1,9.502293E-1,7.5728625E-1,-7.935399E-2,-3.1497118E-1,-1.9472349E-1,-7.8549945E-1,-4.2213342E-1,-2.9688078E-1,1.2087295E0,2.1467365E-2,-3.1529412E-1,1.192477E0,7.1004786E-2,-6.662322E-2,1.8489176E-1,2.40835E-1,-5.1646584E-1,3.9820623E-1,-1.174469E-2,-2.97198E-1,-5.3377594E-3,-1.6899735E-1,-3.173071E-1],"split_indices":[5,5,6,4,4,5,6,4,4,6,4,4,4,6,5,6,6,4,5,4,5,3,5,5,3,5,4,4,4,4,3,4,4,6,4,3,3,3,3,4,3,3,4,4,4,3,3,4,4,3,3,3,0,3,5,5,5,3,5,4,4,5,4,0,0,0,0,0,0,0,0,0,0,0,0,0,0,0,0,0,0,0,0,0,0,0,0,0,0,0,0,0,0,0,0,0,0,0,0,0,0,0,0,0,0,0,0,0,0,0,0,0,0,0,0,0,0,0,0,0,0,0,0,0,0],"split_type":[0,0,0,0,0,0,0,0,0,0,0,0,0,0,0,0,0,0,0,0,0,0,0,0,0,0,0,0,0,0,0,0,0,0,0,0,0,0,0,0,0,0,0,0,0,0,0,0,0,0,0,0,0,0,0,0,0,0,0,0,0,0,0,0,0,0,0,0,0,0,0,0,0,0,0,0,0,0,0,0,0,0,0,0,0,0,0,0,0,0,0,0,0,0,0,0,0,0,0,0,0,0,0,0,0,0,0,0,0,0,0,0,0,0,0,0,0,0,0,0,0,0,0,0,0],"sum_hessian":[1.42092E5,4.4232E4,9.786E4,2.377E4,2.0462E4,1.3672E4,8.4188E4,1.7773E4,5.997E3,5.574E3,1.4888E4,6.829E3,6.843E3,5.5519E4,2.8669E4,1.2107E4,5.666E3,3.967E3,2.03E3,2.008E3,3.566E3,1.1696E4,3.192E3,6.442E3,3.87E2,1.221E3,5.622E3,2.6901E4,2.8618E4,7.193E3,2.1476E4,8.503E3,3.604E3,2.438E3,3.228E3,7.84E2,3.183E3,1.637E3,3.93E2,1.613E3,3.95E2,1.993E3,1.573E3,5.864E3,5.832E3,1.179E3,2.013E3,4.846E3,1.596E3,2.07E2,1.8E2,8.11E2,4.1E2,4.016E3,1.606E3,5.591E3,2.131E4,1.997E3,2.6621E4,1.966E3,5.227E3,9.936E3,1.154E4,6.066E3,2.437E3,2.395E3,1.209E3,8.17E2,1.621E3,1.628E3,1.6E3,3.6E2,4.24E2,2.522E3,6.61E2,1.153E3,4.84E2,9.5E1,2.98E2,8.06E2,8.07E2,2.79E2,1.16E2,1.592E3,4.01E2,3.99E2,1.174E3,5.477E3,3.87E2,5.422E3,4.1E2,4.95E2,6.84E2,8.45E2,1.168E3,1.586E3,3.26E3,7.9E2,8.06E2,6.1E1,1.46E2,1.8E1,1.62E2,4.18E2,3.93E2,3.029E3,9.87E2,4.09E2,1.197E3,4.013E3,1.578E3,1.0426E4,1.0884E4,8.35E2,1.162E3,1.6539E4,1.0082E4,7.9E2,1.176E3,4.03E2,4.824E3,3.442E3,6.494E3,3.901E3,7.639E3],"tree_param":{"num_deleted":"0","num_feature":"7","num_nodes":"125","size_leaf_vector":"1"}},{"base_weights":[1.5690419E-3,1.61353E0,-7.270345E-1,5.7536536E-1,2.819443E0,-1.8439319E0,-5.4563236E-1,1.4144143E0,-1.9111019E0,5.965411E0,1.6412852E0,-1.0786823E0,-2.6073468E0,-1.0523834E-1,-1.3984448E0,-4.531466E-1,2.7103415E0,-2.8230064E0,-1.580685E0,1.2049715E1,2.5369475E0,5.047483E-1,5.8042765E0,-1.5224547E0,6.293238E0,-5.9151266E-2,-3.1606612E0,-5.346251E-1,1.1034186E0,-1.6958542E0,-6.330734E-2,-2.7284975E0,1.8254551E0,4.747568E0,6.585707E-1,-2.3330634E0,-3.3112493E0,-1.2257835E0,-3.1308024E0,9.579878E0,2.2085743E1,7.7138126E-2,7.3524804E0,2.1962662E0,-9.3968964E-1,-3.024159E0,1.0973963E1,-2.4400773E0,1.2635432E0,4.4340305E0,8.395017E0,3.1712008E0,-6.4411144E0,-2.5693939E0,-4.6366787E0,-8.275953E-1,1.889846E0,2.5563614E0,-3.391323E-1,-1.3063346E0,-4.5468454E0,-1.6064808E0,2.431148E0,-3.4947333E-1,5.7564303E-3,5.3063508E-2,6.464287E-1,1.5289E0,1.682155E-1,-2.57668E-1,2.7173445E-1,-1.9240874E-1,-2.720283E-1,-3.0170736E-1,-3.5436043E-1,-1.6238002E-1,2.5882412E-2,-2.7163562E-1,-3.5406336E-1,5.864033E-1,1.3306903E0,7.0062697E-1,2.40476E0,-3.0129525E-1,1.5764925E-1,1.0313991E0,1.2458994E-1,1.5505971E-1,1.1209805E0,-2.163745E-2,-1.0612507E0,-2.30478E0,-2.7116486E-1,5.0375366E-1,1.526074E0,-4.176312E-1,-1.22926764E-1,4.865274E-1,-2.2683433E-1,6.507756E-1,3.5292348E-1,7.0963377E-1,8.668508E-1,6.817384E-1,-7.143875E-2,-6.5654683E-1,-5.649992E-1,-2.8348446E-1,-1.7527084E-1,-7.071411E-1,-3.799553E-1,3.6024153E-1,-1.0267885E-1,2.6654834E-1,-5.88478E-1,2.0818536E-1,1.0699834E0,-1.3951243E-1,8.2118005E-1,-8.9026235E-2,-4.4295126E-1,-5.6061774E-1,-3.753139E-1,1.046562E-1,-3.1851915E-1,4.515762E-1,-7.79651E-2],"categories":[],"categories_nodes":[],"categories_segments":[],"categories_sizes":[],"default_left":[0,0,0,0,0,0,0,0,0,0,0,0,0,0,0,0,0,0,0,0,0,0,0,0,0,0,0,0,0,0,0,0,0,0,0,0,0,0,0,0,0,0,0,0,0,0,0,0,0,0,0,0,0,0,0,0,0,0,0,0,0,0,0,0,0,0,0,0,0,0,0,0,0,0,0,0,0,0,0,0,0,0,0,0,0,0,0,0,0,0,0,0,0,0,0,0,0,0,0,0,0,0,0,0,0,0,0,0,0,0,0,0,0,0,0,0,0,0,0,0,0,0,0,0,0,0,0],"id":12,"left_children":[1,3,5,7,9,11,13,15,17,19,21,23,25,27,29,31,33,35,37,39,41,43,45,47,49,51,53,55,57,59,61,63,65,67,69,71,73,75,77,79,81,83,85,87,89,91,93,95,97,99,101,103,105,107,109,111,113,115,117,119,121,123,125,-1,-1,-1,-1,-1,-1,-1,-1,-1,-1,-1,-1,-1,-1,-1,-1,-1,-1,-1,-1,-1,-1,-1,-1,-1,-1,-1,-1,-1,-1,-1,-1,-1,-1,-1,-1,-1,-1,-1,-1,-1,-1,-1,-1,-1,-1,-1,-1,-1,-1,-1,-1,-1,-1,-1,-1,-1,-1,-1,-1,-1,-1,-1,-1],"loss_changes":[1.6688664E5,5.5375273E4,1.9826367E4,4.9595375E4,7.5835266E4,7.984992E3,3.1619012E4,4.3018266E4,1.8027891E3,1.1626286E5,7.044278E4,2.2353623E4,9.649539E3,2.881443E4,1.1384242E4,3.775937E4,4.3856805E4,3.7357715E2,2.4195234E3,4.958622E4,4.2251594E4,2.8581258E4,1.457625E5,1.647458E4,1.4789404E3,2.5213164E4,4.8953945E3,2.9100336E4,3.0505238E4,2.6032352E4,2.011305E4,7.77934E3,2.1854049E4,1.7010669E5,3.483553E4,1.2129834E2,4.3717773E1,2.1193828E3,1.2966162E2,2.2274312E4,1.1546672E4,1.0948228E4,2.1797312E4,3.1339506E4,4.4145582E4,7.3214688E3,5.117564E4,1.0184473E4,2.0326318E4,3.6730273E2,2.7734375E0,1.1508934E4,3.3378906E0,8.65875E2,3.2484844E3,3.2257324E4,2.6651473E4,2.7996605E4,6.596451E4,2.6804082E4,2.3483281E3,1.3523443E4,1.3369995E4,0E0,0E0,0E0,0E0,0E0,0E0,0E0,0E0,0E0,0E0,0E0,0E0,0E0,0E0,0E0,0E0,0E0,0E0,0E0,0E0,0E0,0E0,0E0,0E0,0E0,0E0,0E0,0E0,0E0,0E0,0E0,0E0,0E0,0E0,0E0,0E0,0E0,0E0,0E0,0E0,0E0,0E0,0E0,0E0,0E0,0E0,0E0,0E0,0E0,0E0,0E0,0E0,0E0,0E0,0E0,0E0,0E0,0E0,0E0,0E0,0E0,0E0,0E0,0E0],"parents":[2147483647,0,0,1,1,2,2,3,3,4,4,5,5,6,6,7,7,8,8,9,9,10,10,11,11,12,12,13,13,14,14,15,15,16,16,17,17,18,18,19,19,20,20,21,21,22,22,23,23,24,24,25,25,26,26,27,27,28,28,29,29,30,30,31,31,32,32,33,33,34,34,35,35,36,36,37,37,38,38,39,39,40,40,41,41,42,42,43,43,44,44,45,45,46,46,47,47,48,48,49,49,50,50,51,51,52,52,53,53,54,54,55,55,56,56,57,57,58,58,59,59,60,60,61,61,62,62],"right_children":[2,4,6,8,10,12,14,16,18,20,22,24,26,28,30,32,34,36,38,40,42,44,46,48,50,52,54,56,58,60,62,64,66,68,70,72,74,76,78,80,82,84,86,88,90,92,94,96,98,100,102,104,106,108,110,112,114,116,118,120,122,124,126,-1,-1,-1,-1,-1,-1,-1,-1,-1,-1,-1,-1,-1,-1,-1,-1,-1,-1,-1,-1,-1,-1,-1,-1,-1,-1,-1,-1,-1,-1,-1,-1,-1,-1,-1,-1,-1,-1,-1,-1,-1,-1,-1,-1,-1,-1,-1,-1,-1,-1,-1,-1,-1,-1,-1,-1,-1,-1,-1,-1,-1,-1,-1,-1],"split_conditions":[-4.6336132E-1,-1.0407907E0,-1.0141529E0,8.3206177E-1,-5.502617E-1,6.914973E-1,9.832138E-1,-6.6545534E-1,-5.148113E-1,-5.148113E-1,1.1776426E0,1.6384171E0,-1.2414234E0,4.8387212E-1,1.1776426E0,-1.3295053E0,-1.3295053E0,1.1776426E0,1.4825555E0,-7.8064895E-1,1.4825555E0,-6.766778E-2,-7.5207597E-1,4.0278268E-1,2.2190727E-1,1.5576414E0,9.472554E-1,1.4080298E0,2.5706405E-2,1.5576414E0,9.8021203E-1,9.832138E-1,1.4825555E0,-3.1987447E-1,-8.948722E-2,7.711975E-2,-6.766778E-2,1.0906324E0,9.472554E-1,-1.0141529E0,-1.225968E0,-1.2414234E0,-7.5207597E-1,1.062449E0,1.062449E0,1.2928362E0,-2.1245532E-1,-3.1987447E-1,-3.1987447E-1,-1.0811805E0,5.1148236E-1,7.711975E-2,1.23542E0,9.4584495E-1,9.8021203E-1,-1.5870043E0,1.5576414E0,-2.0468083E-1,1.5576414E0,8.3206177E-1,-7.8064895E-1,1.1406802E-1,1.5232234E0,-3.4947333E-1,5.7564303E-3,5.3063508E-2,6.464287E-1,1.5289E0,1.682155E-1,-2.57668E-1,2.7173445E-1,-1.9240874E-1,-2.720283E-1,-3.0170736E-1,-3.5436043E-1,-1.6238002E-1,2.5882412E-2,-2.7163562E-1,-3.5406336E-1,5.864033E-1,1.3306903E0,7.0062697E-1,2.40476E0,-3.0129525E-1,1.5764925E-1,1.0313991E0,1.2458994E-1,1.5505971E-1,1.1209805E0,-2.163745E-2,-1.0612507E0,-2.30478E0,-2.7116486E-1,5.0375366E-1,1.526074E0,-4.176312E-1,-1.22926764E-1,4.865274E-1,-2.2683433E-1,6.507756E-1,3.5292348E-1,7.0963377E-1,8.668508E-1,6.817384E-1,-7.143875E-2,-6.5654683E-1,-5.649992E-1,-2.8348446E-1,-1.7527084E-1,-7.071411E-1,-3.799553E-1,3.6024153E-1,-1.0267885E-1,2.6654834E-1,-5.88478E-1,2.0818536E-1,1.0699834E0,-1.3951243E-1,8.2118005E-1,-8.9026235E-2,-4.4295126E-1,-5.6061774E-1,-3.753139E-1,1.046562E-1,-3.1851915E-1,4.515762E-1,-7.79651E-2],"split_indices":[5,5,6,4,4,5,6,4,6,6,4,4,4,6,4,5,5,4,6,4,6,3,5,5,3,5,4,4,4,5,5,6,6,4,4,3,3,3,4,6,3,4,5,4,4,4,3,4,4,3,3,3,3,3,5,4,5,4,5,4,4,5,4,0,0,0,0,0,0,0,0,0,0,0,0,0,0,0,0,0,0,0,0,0,0,0,0,0,0,0,0,0,0,0,0,0,0,0,0,0,0,0,0,0,0,0,0,0,0,0,0,0,0,0,0,0,0,0,0,0,0,0,0,0,0,0,0],"split_type":[0,0,0,0,0,0,0,0,0,0,0,0,0,0,0,0,0,0,0,0,0,0,0,0,0,0,0,0,0,0,0,0,0,0,0,0,0,0,0,0,0,0,0,0,0,0,0,0,0,0,0,0,0,0,0,0,0,0,0,0,0,0,0,0,0,0,0,0,0,0,0,0,0,0,0,0,0,0,0,0,0,0,0,0,0,0,0,0,0,0,0,0,0,0,0,0,0,0,0,0,0,0,0,0,0,0,0,0,0,0,0,0,0,0,0,0,0,0,0,0,0,0,0,0,0,0,0],"sum_hessian":[1.42092E5,4.4232E4,9.786E4,2.377E4,2.0462E4,1.3672E4,8.4188E4,1.7773E4,5.997E3,5.574E3,1.4888E4,6.829E3,6.843E3,5.5519E4,2.8669E4,7.281E3,1.0492E4,1.593E3,4.404E3,2.008E3,3.566E3,1.1696E4,3.192E3,6.442E3,3.87E2,1.221E3,5.622E3,4.0966E4,1.4553E4,2.3446E4,5.223E3,3.643E3,3.638E3,5.264E3,5.228E3,7.98E2,7.95E2,3.585E3,8.19E2,1.613E3,3.95E2,2.361E3,1.205E3,5.387E3,6.309E3,1.179E3,2.013E3,4.846E3,1.596E3,2.07E2,1.8E2,8.11E2,4.1E2,4.016E3,1.606E3,3.655E4,4.416E3,7.25E3,7.303E3,2.0629E4,2.817E3,3.227E3,1.996E3,2.857E3,7.86E2,2.845E3,7.93E2,1.185E3,4.079E3,2.033E3,3.195E3,3.91E2,4.07E2,3.57E2,4.38E2,2.827E3,7.58E2,4.11E2,4.08E2,8.09E2,8.04E2,4.6E1,3.49E2,7.71E2,1.59E3,8.11E2,3.94E2,5.028E3,3.59E2,5.871E3,4.38E2,1.7E1,1.162E3,8.45E2,1.168E3,1.99E3,2.856E3,7.9E2,8.06E2,6.1E1,1.46E2,3.6E1,1.44E2,4.18E2,3.93E2,3.48E2,6.2E1,3.029E3,9.87E2,4.09E2,1.197E3,1.572E3,3.4978E4,4.016E3,4E2,6.852E3,3.98E2,6.501E3,8.02E2,1.8205E4,2.424E3,1.204E3,1.613E3,1.204E3,2.023E3,1.21E3,7.86E2],"tree_param":{"num_deleted":"0","num_feature":"7","num_nodes":"127","size_leaf_vector":"1"}},{"base_weights":[1.4586787E-3,1.4523097E0,-6.5432346E-1,5.178367E-1,2.5377765E0,-4.837745E-1,-1.6621693E0,1.2730893E0,-1.7203056E0,5.3699527E0,1.477133E0,-1.0698441E0,6.7625344E-2,-1.8263346E0,1.3895169E-1,2.6920274E-1,3.4177487E0,-2.095513E0,-9.8640907E-1,1.0847243E1,2.2835364E0,1.1301779E0,1.3311038E1,6.32126E-1,-1.4879884E0,4.8578796E0,-6.666006E-2,-1.5842592E0,-3.5385566E0,2.4862604E0,-1.048301E0,-1.7893808E0,5.125215E0,8.691937E0,-5.6712735E-1,-1.260864E0,-2.3006337E0,-1.9144254E0,2.874193E0,1.4740792E1,5.0416822E0,6.93633E-2,6.6181912E0,1.0856305E-1,3.4927106E0,1.9348878E0,2.446551E1,-1.9406643E0,6.6108227E0,-1.6178177E-1,-2.7786741E0,1.2612344E1,1.053025E0,-7.1069276E-1,6.270567E-1,-1.9128264E0,4.2699647E-1,-1.9506663E0,-4.0631676E0,-1.4857123E0,8.162646E0,-2.423679E0,4.2368656E-1,-7.76653E-2,-4.308835E-1,2.4389052E-1,1.0440317E0,3.285668E-1,1.1413046E0,2.7831283E-1,-3.9756218E-1,1.420394E-1,-2.3140173E-1,-2.5110462E-1,-1.6651788E-1,-2.3440538E-1,-8.8822834E-2,5.225625E-1,2.9604927E-2,2.1804779E0,6.411079E-1,-7.855037E-2,9.149415E-1,2.021373E-1,-1.887668E-1,4.2985246E-1,1.339696E0,7.4566714E-2,-3.2146388E-1,7.326912E-1,1.275147E-1,-1.245746E0,3.2602867E-1,2.747214E0,2.0334997E0,-4.543124E-1,-4.7955137E-2,5.874246E-2,1.9063545E0,-6.0341574E-2,5.3395444E-1,-3.2184097E-1,-1.094416E-1,2.1190917E0,9.5494574E-1,-3.8746514E-3,9.5450115E-1,1.050092E-1,-1.3271527E-1,5.8036004E-3,3.6138695E-1,-2.3541749E-1,-8.111378E-2,4.4249892E-1,-3.5070425E-1,-8.700019E-2,-2.5861785E-1,-4.962802E-1,-3.2897624E-1,-2.0283484E-1,1.8973432E-1,8.792084E-1,6.356871E-1,-4.65263E-3,-2.9344508E-1,-2.1375337E-1,1.4447463E-1],"categories":[],"categories_nodes":[],"categories_segments":[],"categories_sizes":[],"default_left":[0,0,0,0,0,0,0,0,0,0,0,0,0,0,0,0,0,0,0,0,0,0,0,0,0,0,0,0,0,0,0,0,0,0,0,0,0,0,0,0,0,0,0,0,0,0,0,0,0,0,0,0,0,0,0,0,0,0,0,0,0,0,0,0,0,0,0,0,0,0,0,0,0,0,0,0,0,0,0,0,0,0,0,0,0,0,0,0,0,0,0,0,0,0,0,0,0,0,0,0,0,0,0,0,0,0,0,0,0,0,0,0,0,0,0,0,0,0,0,0,0,0,0,0,0,0,0],"id":13,"left_children":[1,3,5,7,9,11,13,15,17,19,21,23,25,27,29,31,33,35,37,39,41,43,45,47,49,51,53,55,57,59,61,63,65,67,69,71,73,75,77,79,81,83,85,87,89,91,93,95,97,99,101,103,105,107,109,111,113,115,117,119,121,123,125,-1,-1,-1,-1,-1,-1,-1,-1,-1,-1,-1,-1,-1,-1,-1,-1,-1,-1,-1,-1,-1,-1,-1,-1,-1,-1,-1,-1,-1,-1,-1,-1,-1,-1,-1,-1,-1,-1,-1,-1,-1,-1,-1,-1,-1,-1,-1,-1,-1,-1,-1,-1,-1,-1,-1,-1,-1,-1,-1,-1,-1,-1,-1,-1],"loss_changes":[1.3519423E5,4.4865977E4,1.6820234E4,4.01838E4,6.146147E4,2.704813E4,4.1879883E3,3.826641E4,1.6495645E3,9.42217E4,6.1116723E4,2.88762E4,2.774161E4,5.3744375E3,3.302235E3,1.2104689E5,1.191082E5,6.7643555E2,7.2819697E3,4.533761E4,3.4234453E4,3.4914734E4,5.3756117E4,1.2311444E5,5.575357E4,3.468414E4,1.8743158E4,7.517127E3,1.3307441E3,8.985615E3,1.5943394E3,2.1694791E4,5.1446773E4,3.5842734E4,3.6884074E4,2.219951E3,4.2154297E2,7.2008545E2,2.387011E3,7.058708E4,1.9347895E4,9.026996E3,1.8906145E4,2.1386373E4,3.7121445E4,4.065567E3,2.099E3,2.1276541E4,1.8060734E5,3.9036734E4,1.2222023E4,9.966137E3,7.324704E3,2.3615434E4,3.4325773E4,4.7519453E3,2.514928E4,2.7314673E2,8.234824E2,4.352539E2,1.305166E2,4.940354E2,9.9946375E2,0E0,0E0,0E0,0E0,0E0,0E0,0E0,0E0,0E0,0E0,0E0,0E0,0E0,0E0,0E0,0E0,0E0,0E0,0E0,0E0,0E0,0E0,0E0,0E0,0E0,0E0,0E0,0E0,0E0,0E0,0E0,0E0,0E0,0E0,0E0,0E0,0E0,0E0,0E0,0E0,0E0,0E0,0E0,0E0,0E0,0E0,0E0,0E0,0E0,0E0,0E0,0E0,0E0,0E0,0E0,0E0,0E0,0E0,0E0,0E0,0E0,0E0,0E0,0E0],"parents":[2147483647,0,0,1,1,2,2,3,3,4,4,5,5,6,6,7,7,8,8,9,9,10,10,11,11,12,12,13,13,14,14,15,15,16,16,17,17,18,18,19,19,20,20,21,21,22,22,23,23,24,24,25,25,26,26,27,27,28,28,29,29,30,30,31,31,32,32,33,33,34,34,35,35,36,36,37,37,38,38,39,39,40,40,41,41,42,42,43,43,44,44,45,45,46,46,47,47,48,48,49,49,50,50,51,51,52,52,53,53,54,54,55,55,56,56,57,57,58,58,59,59,60,60,61,61,62,62],"right_children":[2,4,6,8,10,12,14,16,18,20,22,24,26,28,30,32,34,36,38,40,42,44,46,48,50,52,54,56,58,60,62,64,66,68,70,72,74,76,78,80,82,84,86,88,90,92,94,96,98,100,102,104,106,108,110,112,114,116,118,120,122,124,126,-1,-1,-1,-1,-1,-1,-1,-1,-1,-1,-1,-1,-1,-1,-1,-1,-1,-1,-1,-1,-1,-1,-1,-1,-1,-1,-1,-1,-1,-1,-1,-1,-1,-1,-1,-1,-1,-1,-1,-1,-1,-1,-1,-1,-1,-1,-1,-1,-1,-1,-1,-1,-1,-1,-1,-1,-1,-1,-1,-1,-1,-1,-1,-1],"split_conditions":[-4.6336132E-1,-1.0407907E0,1.4825555E0,8.3206177E-1,-5.502617E-1,-1.546957E-2,1.5232234E0,2.5706405E-2,1.4080298E0,-5.148113E-1,1.6384171E0,-1.0110362E0,-1.5870043E0,1.5576414E0,1.1406802E-1,9.832138E-1,-1.546957E-2,9.472554E-1,-1.3295053E0,-7.5207597E-1,1.4825555E0,9.472554E-1,-6.766778E-2,1.2689267E0,6.914973E-1,-1.7464665E-1,6.914973E-1,1.2689267E0,-1.5870043E0,3.666948E-1,9.8021203E-1,-4.3506807E-1,-6.6545534E-1,-1.0141529E0,3.7128726E-1,-6.468179E-1,9.4584495E-1,8.010574E-1,2.2190727E-1,2.2190727E-1,-2.1245532E-1,-7.5207597E-1,9.4584495E-1,7.168681E-1,-5.148113E-1,-7.5207597E-1,9.4584495E-1,1.1406802E-1,-1.2414234E0,1.6384171E0,1.0906324E0,-7.916054E-1,1.3802075E0,-1.7464665E-1,1.2928362E0,8.010574E-1,-5.502617E-1,-3.5724285E-1,-6.766778E-2,7.711975E-2,1.3802075E0,-1.0811805E0,-6.468179E-1,-7.76653E-2,-4.308835E-1,2.4389052E-1,1.0440317E0,3.285668E-1,1.1413046E0,2.7831283E-1,