{"learner":{"attributes":{"scikit_learn":"{\"_estimator_type\": \"regressor\"}"},"feature_names":[],"feature_types":[],"gradient_booster":{"model":{"gbtree_model_param":{"num_parallel_tree":"1","num_trees":"100"},"iteration_indptr":[0,1,2,3,4,5,6,7,8,9,10,11,12,13,14,15,16,17,18,19,20,21,22,23,24,25,26,27,28,29,30,31,32,33,34,35,36,37,38,39,40,41,42,43,44,45,46,47,48,49,50,51,52,53,54,55,56,57,58,59,60,61,62,63,64,65,66,67,68,69,70,71,72,73,74,75,76,77,78,79,80,81,82,83,84,85,86,87,88,89,90,91,92,93,94,95,96,97,98,99,100],"tree_info":[0,0,0,0,0,0,0,0,0,0,0,0,0,0,0,0,0,0,0,0,0,0,0,0,0,0,0,0,0,0,0,0,0,0,0,0,0,0,0,0,0,0,0,0,0,0,0,0,0,0,0,0,0,0,0,0,0,0,0,0,0,0,0,0,0,0,0,0,0,0,0,0,0,0,0,0,0,0,0,0,0,0,0,0,0,0,0,0,0,0,0,0,0,0,0,0,0,0,0,0],"trees":[{"base_weights":[-7.083713E-7,1.2850146E1,-7.9650383E0,2.5274227E1,1.886317E0,-5.5868393E1,-6.1130614E0,1.4652813E1,3.6335995E1,7.243228E0,-4.509002E0,-4.10646E0,-9.0303516E2,1.2596407E0,-1.0845054E1,3.3832542E1,7.4507523E0,3.1002539E1,4.5796318E1,-1.4706215E0,1.3374341E1,2.660243E0,-7.3323593E0,-1.0131384E0,-1.1686043E1,3.204041E0,-4.4803794E3,1.9147934E1,2.0572793E-1,-1.0745154E2,-8.122276E0,2.2485554E1,6.1308434E1,3.9174857E0,2.2122746E1,3.5020023E1,2.3764713E1,6.1029022E1,3.9294876E1,-9.160435E0,2.852089E-1,-9.2697784E-2,1.5307036E1,-4.0726414E0,6.831247E0,-1.2123895E1,-5.4985275E0,3.1701553E0,-1.3144671E0,-1.24278755E1,-4.589011E0,2.0992239E1,-8.1153965E0,-9.462135E2,3.0480957E0,4.853248E1,1.5284515E1,-2.5550683E0,9.515451E0,-1.3065039E3,-7.9848433E0,-5.1581345E0,-1.1001882E1,3.0751739E0,1.349474E0,8.487334E0,3.6979432E0,1.4465557E0,5.726985E-2,1.0924325E0,4.1351256E0,4.2976193E0,2.965699E0,2.6296012E0,7.4632114E-1,1.1013819E1,5.5589633E0,5.0934715E0,3.0777857E0,-9.926295E-1,9.952852E-1,6.39651E-1,-1.7070118E-1,5.082478E-1,-7.4763316E-1,2.0453641E0,1.1560575E0,-6.509709E-1,4.2214423E-1,-5.324679E-1,9.8599094E-1,-1.2955371E0,-4.9464533E-1,-1.4294583E-1,-7.911181E-1,-3.6112544E-1,3.2619128E-1,-1.276306E0,-5.107458E-1,6.824862E-1,-1.2555882E0,6.226776E-1,4.9473553E0,-1.5031932E-1,-1.2079602E0,-2.4515288E-1,2.11372E0,7.386917E0,3.715384E0,7.941233E-1,2.8935764E0,-4.510481E-1,1.5857193E-1,3.8491786E-1,1.8960625E0,-9.3508167E2,-8.9381164E-1,-9.7042906E-1,-7.03715E-2,-1.7909902E-1,-7.2042996E-1,-8.2524854E-1,-1.2095551E0],"categories":[],"categories_nodes":[],"categories_segments":[],"categories_sizes":[],"default_left":[0,0,0,0,0,0,0,0,0,0,0,0,0,0,0,0,0,0,0,0,0,0,0,0,0,0,0,0,0,0,0,0,0,0,0,0,0,0,0,0,0,0,0,0,0,0,0,0,0,0,0,0,0,0,0,0,0,0,0,0,0,0,0,0,0,0,0,0,0,0,0,0,0,0,0,0,0,0,0,0,0,0,0,0,0,0,0,0,0,0,0,0,0,0,0,0,0,0,0,0,0,0,0,0,0,0,0,0,0,0,0,0,0,0,0,0,0,0,0,0,0,0,0],"id":0,"left_children":[1,3,5,7,9,11,13,15,17,19,21,23,25,27,29,31,33,35,37,39,41,43,45,47,49,51,53,55,57,59,61,63,65,67,69,71,73,75,77,79,81,83,85,87,89,91,93,-1,95,97,99,101,103,-1,105,107,109,111,113,115,117,119,121,-1,-1,-1,-1,-1,-1,-1,-1,-1,-1,-1,-1,-1,-1,-1,-1,-1,-1,-1,-1,-1,-1,-1,-1,-1,-1,-1,-1,-1,-1,-1,-1,-1,-1,-1,-1,-1,-1,-1,-1,-1,-1,-1,-1,-1,-1,-1,-1,-1,-1,-1,-1,-1,-1,-1,-1,-1,-1,-1,-1],"loss_changes":[1.4543592E7,7.406398E6,7.7819065E6,2.99421E6,9.896084E5,1.4316976E8,2.946513E6,1.7961752E6,6.28527E5,8.398167E5,2.665372E5,7.215522E4,6.094971E8,6.2245575E5,1.3530064E7,1.1054002E6,4.90113E5,2.314125E5,4.43158E5,8.767116E4,2.40159E5,1.0452424E5,8.294294E4,2.1600844E4,4.6391797E3,3.0574572E4,8.487719E8,2.0780319E5,8.014462E5,1.681543E8,4.26994E5,1.8642475E5,5.9138425E5,2.6890394E5,3.9467675E5,2.177895E5,1.17571375E5,3.528925E5,3.11308E5,1.7767E4,6.4380457E4,4.4325242E4,1.553465E5,2.8811129E4,8.465611E4,1.5535906E4,6.707981E4,0E0,2.2799566E4,1.9149375E3,7.905916E3,2.4503787E4,2.4195708E3,0E0,2.1409675E3,5.866275E4,1.6266834E5,1.9473878E5,3.81624E5,1.127223E9,1.6306094E4,1.6986044E5,7.6207E4,0E0,0E0,0E0,0E0,0E0,0E0,0E0,0E0,0E0,0E0,0E0,0E0,0E0,0E0,0E0,0E0,0E0,0E0,0E0,0E0,0E0,0E0,0E0,0E0,0E0,0E0,0E0,0E0,0E0,0E0,0E0,0E0,0E0,0E0,0E0,0E0,0E0,0E0,0E0,0E0,0E0,0E0,0E0,0E0,0E0,0E0,0E0,0E0,0E0,0E0,0E0,0E0,0E0,0E0,0E0,0E0,0E0,0E0,0E0,0E0],"parents":[2147483647,0,0,1,1,2,2,3,3,4,4,5,5,6,6,7,7,8,8,9,9,10,10,11,11,12,12,13,13,14,14,15,15,16,16,17,17,18,18,19,19,20,20,21,21,22,22,23,23,24,24,25,25,26,26,27,27,28,28,29,29,30,30,31,31,32,32,33,33,34,34,35,35,36,36,37,37,38,38,39,39,40,40,41,41,42,42,43,43,44,44,45,45,46,46,48,48,49,49,50,50,51,51,52,52,54,54,55,55,56,56,57,57,58,58,59,59,60,60,61,61,62,62],"right_children":[2,4,6,8,10,12,14,16,18,20,22,24,26,28,30,32,34,36,38,40,42,44,46,48,50,52,54,56,58,60,62,64,66,68,70,72,74,76,78,80,82,84,86,88,90,92,94,-1,96,98,100,102,104,-1,106,108,110,112,114,116,118,120,122,-1,-1,-1,-1,-1,-1,-1,-1,-1,-1,-1,-1,-1,-1,-1,-1,-1,-1,-1,-1,-1,-1,-1,-1,-1,-1,-1,-1,-1,-1,-1,-1,-1,-1,-1,-1,-1,-1,-1,-1,-1,-1,-1,-1,-1,-1,-1,-1,-1,-1,-1,-1,-1,-1,-1,-1,-1,-1,-1,-1],"split_conditions":[-3.893811E-1,-5.1362205E-1,-1.515192E0,-5.025364E-1,3.8710022E-1,1.6990556E0,-2.871835E-1,-1.4443802E0,1.1758769E0,-5.025364E-1,-1.1052734E0,3.8710022E-1,-8.600371E-2,-7.494294E-1,-1.3119249E-1,9.8174137E-1,1.2729446E0,-8.475521E-1,-1.2568852E0,-1.149082E0,-1.2815763E0,-5.713424E-1,-5.025364E-1,-1.635751E0,1.5231768E0,-8.0255854E-1,-4.3368205E-1,-1.2394475E0,9.8138267E-1,-1.0811968E0,6.135388E-1,-9.7153115E-1,-1.2394475E0,-7.494294E-1,2.6755316E-2,-9.7153115E-1,1.66744E0,-1.0134983E0,-9.7153115E-1,1.0627394E0,-1.370527E0,-8.596093E-1,-1.1372219E0,7.9944944E-1,-1.0777389E0,-6.4236915E-1,8.349454E-1,3.1701553E0,3.9933497E-1,1.0829984E0,1.6382861E0,3.7552962E-1,1.7867571E0,-9.462135E2,1.6382861E0,-2.9384372E-1,9.4411457E-1,1.097104E0,6.547844E-1,-1.1243382E0,4.044453E-1,1.2790759E-2,1.5547688E-1,3.0751739E0,1.349474E0,8.487334E0,3.6979432E0,1.4465557E0,5.726985E-2,1.0924325E0,4.1351256E0,4.2976193E0,2.965699E0,2.6296012E0,7.4632114E-1,1.1013819E1,5.5589633E0,5.0934715E0,3.0777857E0,-9.926295E-1,9.952852E-1,6.39651E-1,-1.7070118E-1,5.082478E-1,-7.4763316E-1,2.0453641E0,1.1560575E0,-6.509709E-1,4.2214423E-1,-5.324679E-1,9.8599094E-1,-1.2955371E0,-4.9464533E-1,-1.4294583E-1,-7.911181E-1,-3.6112544E-1,3.2619128E-1,-1.276306E0,-5.107458E-1,6.824862E-1,-1.2555882E0,6.226776E-1,4.9473553E0,-1.5031932E-1,-1.2079602E0,-2.4515288E-1,2.11372E0,7.386917E0,3.715384E0,7.941233E-1,2.8935764E0,-4.510481E-1,1.5857193E-1,3.8491786E-1,1.8960625E0,-9.3508167E2,-8.9381164E-1,-9.7042906E-1,-7.03715E-2,-1.7909902E-1,-7.2042996E-1,-8.2524854E-1,-1.2095551E0],"split_indices":[9,15,3,3,15,13,15,9,11,3,9,15,11,5,15,11,11,9,13,16,16,11,3,15,4,16,4,4,5,3,15,15,4,5,4,15,3,6,15,4,3,9,10,3,16,10,15,0,11,12,4,14,13,0,4,10,3,13,3,4,5,16,16,0,0,0,0,0,0,0,0,0,0,0,0,0,0,0,0,0,0,0,0,0,0,0,0,0,0,0,0,0,0,0,0,0,0,0,0,0,0,0,0,0,0,0,0,0,0,0,0,0,0,0,0,0,0,0,0,0,0,0,0],"split_type":[0,0,0,0,0,0,0,0,0,0,0,0,0,0,0,0,0,0,0,0,0,0,0,0,0,0,0,0,0,0,0,0,0,0,0,0,0,0,0,0,0,0,0,0,0,0,0,0,0,0,0,0,0,0,0,0,0,0,0,0,0,0,0,0,0,0,0,0,0,0,0,0,0,0,0,0,0,0,0,0,0,0,0,0,0,0,0,0,0,0,0,0,0,0,0,0,0,0,0,0,0,0,0,0,0,0,0,0,0,0,0,0,0,0,0,0,0,0,0,0,0,0,0],"sum_hessian":[1.42092E5,5.4372E4,8.772E4,2.5488E4,2.8884E4,3.264E3,8.4456E4,1.3004E4,1.2484E4,1.5718E4,1.3166E4,3.077E3,1.87E2,3.3016E4,5.144E4,3.549E3,9.455E3,7.986E3,4.498E3,6.492E3,9.226E3,3.72E3,9.446E3,2.186E3,8.91E2,1.5E2,3.7E1,1.836E3,3.118E4,1.409E3,5.0031E4,2.513E3,1.036E3,7.621E3,1.834E3,5.133E3,2.853E3,1.343E3,3.155E3,1.206E3,5.286E3,1.158E3,8.068E3,1.423E3,2.297E3,2.613E3,6.833E3,1.9E1,2.167E3,8.06E2,8.5E1,5.8E1,9.2E1,1.7E1,2E1,2.12E2,1.624E3,2.4049E4,7.131E3,1.07E2,1.302E3,2.4655E4,2.5376E4,1.308E3,1.205E3,5.25E2,5.11E2,1.834E3,5.787E3,1.16E3,6.74E2,2.064E3,3.069E3,2.469E3,3.84E2,1.32E2,1.211E3,1.331E3,1.824E3,1.16E3,4.6E1,1.299E3,3.987E3,6.81E2,4.77E2,3.397E3,4.671E3,1.1E3,3.23E2,4.58E2,1.839E3,2.341E3,2.72E2,2.544E3,4.289E3,1.443E3,7.24E2,7.7E2,3.6E1,3.5E1,5E1,3.9E1,1.9E1,3.5E1,5.7E1,1.6E1,4E0,6.4E1,1.48E2,1.057E3,5.67E2,1.6335E4,7.714E3,4.458E3,2.673E3,1.4E1,9.3E1,1.053E3,2.49E2,9.32E3,1.5335E4,7.224E3,1.8152E4],"tree_param":{"num_deleted":"0","num_feature":"17","num_nodes":"123","size_leaf_vector":"1"}},{"base_weights":[-1.2688478E-2,1.0923046E1,-7.6146307E0,2.1805532E1,1.3446449E0,-5.388345E1,-5.852597E0,1.2199177E1,3.1847494E1,6.23431E0,-4.344472E0,-4.1405563E0,-8.1773236E2,-2.0986221E1,-4.0496106E0,2.9961315E1,5.7896104E0,3.7340405E1,2.4036577E1,-1.427948E0,1.1513175E1,2.3942792E0,-6.7082796E0,-2.8160307E-1,-8.900609E0,2.91153E0,-4.0571926E3,-1.3014255E2,-6.3870506E0,2.6599595E-1,-8.06113E0,2.0008694E1,5.374707E1,3.6592667E0,2.51204E1,3.1519436E1,4.8415546E1,3.575465E1,2.1044876E1,2.213227E0,-4.9310904E0,1.3339027E0,1.3447481E1,-4.810242E0,5.762642E0,-1.0986674E1,-5.0520983E0,2.8689904E0,-6.488501E-1,-9.422425E0,1.5915759E1,1.8987423E1,-7.318462E0,-8.5684894E2,2.832266E0,-1.007859E3,-4.4667225E0,-2.3511858E0,-1.0470478E1,1.5589533E1,-6.908258E-1,-5.881715E0,-1.0565778E1,2.7710936E0,1.1934342E0,7.6793456E0,3.1878386E0,1.5010802E0,-2.8415317E-2,3.6180913E0,5.007649E-1,3.8680656E0,2.6692257E0,7.230954E0,4.3910146E0,6.5698447E0,3.0020652E0,2.3974917E0,1.0477756E0,1.1546843E0,5.2413292E-2,-1.2065067E0,-6.806084E-2,2.4589865E0,-6.1565854E-2,1.8438536E0,9.800812E-1,-1.1105225E-1,-9.4982034E-1,2.6503375E-2,9.672368E-1,-1.0007027E0,-1.4364141E0,-1.579778E-1,-7.153818E-1,-2.6355088E-1,3.348454E-1,-7.838376E-1,-1.2586957E0,6.155452E-1,2.5953364E0,3.503896E0,-2.7333295E-1,-1.3570487E-1,-1.089247E0,-2.2207962E-1,1.9446224E0,-7.1967846E-1,-4.243094E2,-1.766561E-1,-8.751917E-1,-8.92903E-1,-1.3219377E-1,-1.0827852E0,4.601379E-1,2.511614E0,6.5738237E-1,-4.173195E-1,5.5249757E-1,-2.0099576E-1,-7.5466704E-1,-1.1192998E0,-5.885149E-1],"categories":[],"categories_nodes":[],"categories_segments":[],"categories_sizes":[],"default_left":[0,0,0,0,0,0,0,0,0,0,0,0,0,0,0,0,0,0,0,0,0,0,0,0,0,0,0,0,0,0,0,0,0,0,0,0,0,0,0,0,0,0,0,0,0,0,0,0,0,0,0,0,0,0,0,0,0,0,0,0,0,0,0,0,0,0,0,0,0,0,0,0,0,0,0,0,0,0,0,0,0,0,0,0,0,0,0,0,0,0,0,0,0,0,0,0,0,0,0,0,0,0,0,0,0,0,0,0,0,0,0,0,0,0,0,0,0,0,0,0,0,0,0],"id":1,"left_children":[1,3,5,7,9,11,13,15,17,19,21,23,25,27,29,31,33,35,37,39,41,43,45,47,49,51,53,55,57,59,61,63,65,67,69,71,73,75,77,79,81,83,85,87,89,91,93,-1,95,97,99,101,103,-1,105,107,109,111,113,115,117,119,121,-1,-1,-1,-1,-1,-1,-1,-1,-1,-1,-1,-1,-1,-1,-1,-1,-1,-1,-1,-1,-1,-1,-1,-1,-1,-1,-1,-1,-1,-1,-1,-1,-1,-1,-1,-1,-1,-1,-1,-1,-1,-1,-1,-1,-1,-1,-1,-1,-1,-1,-1,-1,-1,-1,-1,-1,-1,-1,-1,-1],"loss_changes":[1.1812675E7,6.073851E6,6.8336225E6,2.631028E6,8.621865E5,1.1683449E8,2.2032365E6,1.5872038E6,5.71279E5,6.7420425E5,2.2821653E5,5.3046645E4,4.9979917E8,1.3697683E7,1.2491596E6,8.741175E5,4.2189216E5,5.03129E5,1.923765E5,8.674868E4,1.94301E5,9.032687E4,7.509647E4,1.6999578E4,1.689379E4,2.4971855E4,6.960312E8,1.1184756E8,1.2494447E5,5.0967284E5,2.040645E5,1.6186244E5,5.4690575E5,4.1321956E5,2.2605781E5,1.764425E5,2.86947E5,1.9015738E5,1.3570338E5,5.2571402E4,1.0509075E5,7.151462E4,1.5075788E5,2.0559604E4,5.4506594E4,9.646781E3,5.580261E4,0E0,1.2532222E4,6.2525234E3,2.4854385E3,2.0666209E4,1.966689E3,0E0,1.8061647E3,4.1111635E8,1.0259334E4,2.581663E4,2.035075E4,1.7530644E5,7.082492E5,1.2889806E5,5.101075E4,0E0,0E0,0E0,0E0,0E0,0E0,0E0,0E0,0E0,0E0,0E0,0E0,0E0,0E0,0E0,0E0,0E0,0E0,0E0,0E0,0E0,0E0,0E0,0E0,0E0,0E0,0E0,0E0,0E0,0E0,0E0,0E0,0E0,0E0,0E0,0E0,0E0,0E0,0E0,0E0,0E0,0E0,0E0,0E0,0E0,0E0,0E0,0E0,0E0,0E0,0E0,0E0,0E0,0E0,0E0,0E0,0E0,0E0,0E0,0E0],"parents":[2147483647,0,0,1,1,2,2,3,3,4,4,5,5,6,6,7,7,8,8,9,9,10,10,11,11,12,12,13,13,14,14,15,15,16,16,17,17,18,18,19,19,20,20,21,21,22,22,23,23,24,24,25,25,26,26,27,27,28,28,29,29,30,30,31,31,32,32,33,33,34,34,35,35,36,36,37,37,38,38,39,39,40,40,41,41,42,42,43,43,44,44,45,45,46,46,48,48,49,49,50,50,51,51,52,52,54,54,55,55,56,56,57,57,58,58,59,59,60,60,61,61,62,62],"right_children":[2,4,6,8,10,12,14,16,18,20,22,24,26,28,30,32,34,36,38,40,42,44,46,48,50,52,54,56,58,60,62,64,66,68,70,72,74,76,78,80,82,84,86,88,90,92,94,-1,96,98,100,102,104,-1,106,108,110,112,114,116,118,120,122,-1,-1,-1,-1,-1,-1,-1,-1,-1,-1,-1,-1,-1,-1,-1,-1,-1,-1,-1,-1,-1,-1,-1,-1,-1,-1,-1,-1,-1,-1,-1,-1,-1,-1,-1,-1,-1,-1,-1,-1,-1,-1,-1,-1,-1,-1,-1,-1,-1,-1,-1,-1,-1,-1,-1,-1,-1,-1,-1,-1],"split_conditions":[-3.0347404E-1,-5.1362205E-1,-1.515192E0,-5.025364E-1,3.8710022E-1,1.6990556E0,-1.0811968E0,-1.4247874E0,-8.475521E-1,-5.025364E-1,-1.1052734E0,2.1098134E-1,-8.600371E-2,-1.5525331E0,4.995836E-2,9.8174137E-1,1.55832E0,1.1758769E0,-1.0092288E0,-7.494294E-1,-1.0471634E0,-5.025364E-1,-5.025364E-1,-1.635751E0,1.1659889E0,-8.0255854E-1,-4.3368205E-1,-1.8307145E-1,-2.871835E-1,-7.494294E-1,8.349454E-1,-9.7153115E-1,-1.2394475E0,-7.494294E-1,4.7142473E-1,-9.7153115E-1,-1.3545568E0,-1.6328691E0,-4.4815964E-1,-1.4721972E0,9.8138267E-1,-1.3263668E0,-1.0973145E0,4.7142473E-1,-2.8013918E-1,1.7608275E0,8.349454E-1,2.8689904E0,3.9933497E-1,8.349454E-1,1.2929581E0,-1.4696661E0,1.7867571E0,-8.5684894E2,1.6382861E0,-1.2258619E0,-7.551565E-1,-7.6547784E-1,1.0830961E0,6.02302E-1,6.92914E-1,-5.2737814E-1,7.4492985E-1,2.7710936E0,1.1934342E0,7.6793456E0,3.1878386E0,1.5010802E0,-2.8415317E-2,3.6180913E0,5.007649E-1,3.8680656E0,2.6692257E0,7.230954E0,4.3910146E0,6.5698447E0,3.0020652E0,2.3974917E0,1.0477756E0,1.1546843E0,5.2413292E-2,-1.2065067E0,-6.806084E-2,2.4589865E0,-6.1565854E-2,1.8438536E0,9.800812E-1,-1.1105225E-1,-9.4982034E-1,2.6503375E-2,9.672368E-1,-1.0007027E0,-1.4364141E0,-1.579778E-1,-7.153818E-1,-2.6355088E-1,3.348454E-1,-7.838376E-1,-1.2586957E0,6.155452E-1,2.5953364E0,3.503896E0,-2.7333295E-1,-1.3570487E-1,-1.089247E0,-2.2207962E-1,1.9446224E0,-7.1967846E-1,-4.243094E2,-1.766561E-1,-8.751917E-1,-8.92903E-1,-1.3219377E-1,-1.0827852E0,4.601379E-1,2.511614E0,6.5738237E-1,-4.173195E-1,5.5249757E-1,-2.0099576E-1,-7.5466704E-1,-1.1192998E0,-5.885149E-1],"split_indices":[9,15,3,3,15,13,3,9,9,3,9,15,11,14,15,11,5,11,4,5,16,3,3,15,9,16,4,11,15,5,15,15,4,5,16,15,4,14,9,14,5,5,10,16,11,15,15,0,11,15,4,4,13,0,4,3,15,11,9,4,5,16,12,0,0,0,0,0,0,0,0,0,0,0,0,0,0,0,0,0,0,0,0,0,0,0,0,0,0,0,0,0,0,0,0,0,0,0,0,0,0,0,0,0,0,0,0,0,0,0,0,0,0,0,0,0,0,0,0,0,0,0,0],"split_type":[0,0,0,0,0,0,0,0,0,0,0,0,0,0,0,0,0,0,0,0,0,0,0,0,0,0,0,0,0,0,0,0,0,0,0,0,0,0,0,0,0,0,0,0,0,0,0,0,0,0,0,0,0,0,0,0,0,0,0,0,0,0,0,0,0,0,0,0,0,0,0,0,0,0,0,0,0,0,0,0,0,0,0,0,0,0,0,0,0,0,0,0,0,0,0,0,0,0,0,0,0,0,0,0,0,0,0,0,0,0,0,0,0,0,0,0,0,0,0,0,0,0,0],"sum_hessian":[1.42092E5,5.8269E4,8.3823E4,2.7277E4,3.0992E4,3.074E3,8.0749E4,1.3942E4,1.3335E4,1.6667E4,1.4325E4,2.887E3,1.87E2,8.595E3,7.2154E4,3.696E3,1.0246E4,7.827E3,5.508E3,6.799E3,9.868E3,3.72E3,1.0605E4,1.595E3,1.292E3,1.5E2,3.7E1,1.013E3,7.582E3,3.476E4,3.7394E4,2.607E3,1.089E3,9.23E3,1.016E3,5.133E3,2.694E3,1.118E3,4.39E3,3.334E3,3.465E3,1.576E3,8.292E3,1.185E3,2.535E3,2.958E3,7.647E3,1.9E1,1.576E3,1.266E3,2.6E1,5.8E1,9.2E1,1.7E1,2E1,1.26E2,8.87E2,3.814E3,3.768E3,2.042E3,3.2718E4,1.9997E4,1.7397E4,1.333E3,1.274E3,5.29E2,5.6E2,2.379E3,6.851E3,6.55E2,3.61E2,2.064E3,3.069E3,4.25E2,2.269E3,1.78E2,9.4E2,3.436E3,9.54E2,5.1E2,2.824E3,1.293E3,2.172E3,1.21E2,1.455E3,3.499E3,4.793E3,6.63E2,5.22E2,1.054E3,1.481E3,2.296E3,6.62E2,2.884E3,4.763E3,1.053E3,5.23E2,8.46E2,4.2E2,1.4E1,1.2E1,3.3E1,2.5E1,3.5E1,5.7E1,1.6E1,4E0,9.7E1,2.9E1,5.45E2,3.42E2,5.15E2,3.299E3,3.681E3,8.7E1,9.92E2,1.05E3,2.097E4,1.1748E4,6.014E3,1.3983E4,1.534E4,2.057E3],"tree_param":{"num_deleted":"0","num_feature":"17","num_nodes":"123","size_leaf_vector":"1"}},{"base_weights":[-2.0024646E-2,8.941771E0,-7.5635347E0,1.8540634E1,7.9546213E-1,-5.5120617E1,-5.826883E0,1.08105755E1,2.7961916E1,5.3406596E0,-4.202618E0,-4.1898074E0,-7.40497E2,-2.0441307E1,-4.1219983E0,2.8315958E1,5.266804E0,3.4240326E1,2.0914736E1,-1.416404E0,9.784013E0,2.154833E0,-6.020315E0,6.553916E-1,-7.266995E0,2.6336584E0,-3.6739768E3,-1.3601022E2,-5.9190516E0,5.340098E-1,-6.7634916E0,1.8751585E1,4.9743614E1,2.4888432E0,1.741556E1,4.258672E1,2.7262503E1,3.309993E1,1.7760782E1,1.9500788E0,-4.303681E0,1.5245392E1,6.6966043E0,-7.783294E-1,9.117478E0,-9.9793005E0,-4.492155E0,-2.1606722E0,6.8139796E0,-8.045574E0,2.504734E0,1.7143435E1,-6.5997877E0,-7.7592426E2,2.6310658E0,4.6169167E0,-1.4147898E3,-1.3916322E0,-8.849561E0,-1.8827686E0,5.357299E0,-4.3927727E0,-9.116124E0,2.5423522E0,1.1244043E0,8.327161E0,3.8166873E0,1.2881081E0,-6.447743E-2,1.0194961E0,3.0692496E0,2.826744E0,4.8523993E0,5.2061973E0,2.430248E0,6.1850505E0,2.657146E0,2.2351596E0,9.930585E-1,-2.716936E-1,5.18624E-1,-1.0733012E0,-4.490392E-2,2.9094615E0,1.4125133E0,-2.365526E-1,8.3710784E-1,-5.5122143E-1,2.6533926E-1,1.8232673E0,4.4914818E-1,-6.547713E-1,-1.0762805E0,-2.0763674E-1,-7.25022E-1,-3.4442583E-1,7.8693575E-1,1.4202393E0,-1.552458E-2,-5.7787895E-1,-1.024205E0,-1.767501E-2,2.3557668E0,4.4697043E-1,4.1633725E0,-1.22511424E-1,-9.8220026E-1,-2.0117795E-1,1.7890526E0,3.9018265E1,-3.4217143E-1,-7.5774603E2,-6.0923165E-1,8.873562E-1,-2.7420735E-1,-9.3375933E-1,7.1115714E-1,1.0309242E0,-2.4434626E-1,1.7962682E-1,1.1748492E0,-5.8400345E-1,-1.0317036E-1,-1.0094784E0,-6.096967E-1],"categories":[],"categories_nodes":[],"categories_segments":[],"categories_sizes":[],"default_left":[0,0,0,0,0,0,0,0,0,0,0,0,0,0,0,0,0,0,0,0,0,0,0,0,0,0,0,0,0,0,0,0,0,0,0,0,0,0,0,0,0,0,0,0,0,0,0,0,0,0,0,0,0,0,0,0,0,0,0,0,0,0,0,0,0,0,0,0,0,0,0,0,0,0,0,0,0,0,0,0,0,0,0,0,0,0,0,0,0,0,0,0,0,0,0,0,0,0,0,0,0,0,0,0,0,0,0,0,0,0,0,0,0,0,0,0,0,0,0,0,0,0,0,0,0],"id":2,"left_children":[1,3,5,7,9,11,13,15,17,19,21,23,25,27,29,31,33,35,37,39,41,43,45,47,49,51,53,55,57,59,61,63,65,67,69,71,73,75,77,79,81,83,85,87,89,91,93,95,97,99,101,103,105,-1,107,109,111,113,115,117,119,121,123,-1,-1,-1,-1,-1,-1,-1,-1,-1,-1,-1,-1,-1,-1,-1,-1,-1,-1,-1,-1,-1,-1,-1,-1,-1,-1,-1,-1,-1,-1,-1,-1,-1,-1,-1,-1,-1,-1,-1,-1,-1,-1,-1,-1,-1,-1,-1,-1,-1,-1,-1,-1,-1,-1,-1,-1,-1,-1,-1,-1,-1,-1],"loss_changes":[9.606037E6,5.078144E6,6.371672E6,2.170891E6,7.980798E5,9.487352E7,1.854531E6,1.5892675E6,5.93761E5,5.5242575E5,1.9336669E5,3.774092E4,4.0984192E8,1.3049822E7,8.198425E5,8.0633425E5,4.197913E5,4.12573E5,2.4279925E5,7.096416E4,1.8706062E5,7.599947E4,7.867725E4,1.708021E4,1.17974375E4,2.0343406E4,5.707775E8,1.5609994E8,9.165383E4,2.812892E5,2.3717375E5,1.3620894E5,4.6841775E5,3.297645E5,2.2162019E5,2.734895E5,2.829665E5,2.4255062E5,1.8069938E5,5.092702E4,9.739147E4,6.1772E4,1.0765122E5,4.2561266E4,4.642815E4,9.6705625E3,6.2549562E4,8.730203E3,1.5913085E4,7.0806094E3,6.4962715E3,1.8126523E4,1.5985735E3,0E0,1.5237854E3,2.4281815E6,7.46549E8,3.7675E4,3.2735781E4,1.0992055E5,1.8330448E5,1.0305006E5,6.301025E4,0E0,0E0,0E0,0E0,0E0,0E0,0E0,0E0,0E0,0E0,0E0,0E0,0E0,0E0,0E0,0E0,0E0,0E0,0E0,0E0,0E0,0E0,0E0,0E0,0E0,0E0,0E0,0E0,0E0,0E0,0E0,0E0,0E0,0E0,0E0,0E0,0E0,0E0,0E0,0E0,0E0,0E0,0E0,0E0,0E0,0E0,0E0,0E0,0E0,0E0,0E0,0E0,0E0,0E0,0E0,0E0,0E0,0E0,0E0,0E0,0E0,0E0],"parents":[2147483647,0,0,1,1,2,2,3,3,4,4,5,5,6,6,7,7,8,8,9,9,10,10,11,11,12,12,13,13,14,14,15,15,16,16,17,17,18,18,19,19,20,20,21,21,22,22,23,23,24,24,25,25,26,26,27,27,28,28,29,29,30,30,31,31,32,32,33,33,34,34,35,35,36,36,37,37,38,38,39,39,40,40,41,41,42,42,43,43,44,44,45,45,46,46,47,47,48,48,49,49,50,50,51,51,52,52,54,54,55,55,56,56,57,57,58,58,59,59,60,60,61,61,62,62],"right_children":[2,4,6,8,10,12,14,16,18,20,22,24,26,28,30,32,34,36,38,40,42,44,46,48,50,52,54,56,58,60,62,64,66,68,70,72,74,76,78,80,82,84,86,88,90,92,94,96,98,100,102,104,106,-1,108,110,112,114,116,118,120,122,124,-1,-1,-1,-1,-1,-1,-1,-1,-1,-1,-1,-1,-1,-1,-1,-1,-1,-1,-1,-1,-1,-1,-1,-1,-1,-1,-1,-1,-1,-1,-1,-1,-1,-1,-1,-1,-1,-1,-1,-1,-1,-1,-1,-1,-1,-1,-1,-1,-1,-1,-1,-1,-1,-1,-1,-1,-1,-1,-1,-1,-1,-1],"split_conditions":[-1.5577418E-1,-5.1362205E-1,-1.515192E0,-3.578713E-1,3.8710022E-1,1.6990556E0,-1.0811968E0,-1.4443802E0,-8.475521E-1,-5.025364E-1,-1.1052734E0,-5.1362205E-1,-8.600371E-2,-1.5525331E0,-2.871835E-1,9.8174137E-1,1.0829984E0,-9.7153115E-1,-1.0092288E0,-7.494294E-1,-1.1092868E0,7.9944944E-1,-5.025364E-1,5.897588E-1,1.5231768E0,-8.0255854E-1,-4.3368205E-1,6.773161E-1,-3.073114E-1,7.9944944E-1,6.135388E-1,-9.7153115E-1,-5.1432157E-1,-7.494294E-1,1.3700123E0,3.0226722E-1,-1.6060904E0,-1.6328691E0,-4.4815964E-1,-8.600371E-2,9.8138267E-1,-1.444952E0,-1.0777389E0,-5.713424E-1,3.3924764E-1,-8.0255854E-1,1.2425348E0,1.3382833E0,7.3633176E-1,4.676117E-1,1.1659889E0,3.7552962E-1,1.7867571E0,-7.7592426E2,1.6382861E0,-5.713424E-1,-1.1243382E0,-1.7249206E-1,1.0830961E0,-7.494294E-1,6.92914E-1,6.92914E-1,6.92914E-1,2.5423522E0,1.1244043E0,8.327161E0,3.8166873E0,1.2881081E0,-6.447743E-2,1.0194961E0,3.0692496E0,2.826744E0,4.8523993E0,5.2061973E0,2.430248E0,6.1850505E0,2.657146E0,2.2351596E0,9.930585E-1,-2.716936E-1,5.18624E-1,-1.0733012E0,-4.490392E-2,2.9094615E0,1.4125133E0,-2.365526E-1,8.3710784E-1,-5.5122143E-1,2.6533926E-1,1.8232673E0,4.4914818E-1,-6.547713E-1,-1.0762805E0,-2.0763674E-1,-7.25022E-1,-3.4442583E-1,7.8693575E-1,1.4202393E0,-1.552458E-2,-5.7787895E-1,-1.024205E0,-1.767501E-2,2.3557668E0,4.4697043E-1,4.1633725E0,-1.22511424E-1,-9.8220026E-1,-2.0117795E-1,1.7890526E0,3.9018265E1,-3.4217143E-1,-7.5774603E2,-6.0923165E-1,8.873562E-1,-2.7420735E-1,-9.3375933E-1,7.1115714E-1,1.0309242E0,-2.4434626E-1,1.7962682E-1,1.1748492E0,-5.8400345E-1,-1.0317036E-1,-1.0094784E0,-6.096967E-1],"split_indices":[9,15,3,3,15,13,3,9,9,3,9,15,11,14,15,11,12,15,4,5,10,3,3,14,4,16,4,12,15,3,15,15,6,5,11,11,14,14,9,11,5,11,16,11,12,16,15,13,13,15,9,14,13,0,4,11,4,5,9,5,5,5,5,0,0,0,0,0,0,0,0,0,0,0,0,0,0,0,0,0,0,0,0,0,0,0,0,0,0,0,0,0,0,0,0,0,0,0,0,0,0,0,0,0,0,0,0,0,0,0,0,0,0,0,0,0,0,0,0,0,0,0,0,0,0],"split_type":[0,0,0,0,0,0,0,0,0,0,0,0,0,0,0,0,0,0,0,0,0,0,0,0,0,0,0,0,0,0,0,0,0,0,0,0,0,0,0,0,0,0,0,0,0,0,0,0,0,0,0,0,0,0,0,0,0,0,0,0,0,0,0,0,0,0,0,0,0,0,0,0,0,0,0,0,0,0,0,0,0,0,0,0,0,0,0,0,0,0,0,0,0,0,0,0,0,0,0,0,0,0,0,0,0,0,0,0,0,0,0,0,0,0,0,0,0,0,0,0,0,0,0,0,0],"sum_hessian":[1.42092E5,6.4941E4,7.7151E4,2.9812E4,3.5129E4,2.717E3,7.4434E4,1.6377E4,1.3435E4,1.8398E4,1.6731E4,2.53E3,1.87E2,7.775E3,6.6659E4,3.938E3,1.2439E4,7.103E3,6.332E3,7.299E3,1.1099E4,3.72E3,1.3011E4,9.83E2,1.547E3,1.5E2,3.7E1,8.67E2,6.908E3,2.4129E4,4.253E4,2.724E3,1.214E3,1.0125E4,2.314E3,3.232E3,3.871E3,1.3E3,5.032E3,3.37E3,3.929E3,4.007E3,7.092E3,2.618E3,1.102E3,3.622E3,9.389E3,6.75E2,3.08E2,1.433E3,1.14E2,5.8E1,9.2E1,1.7E1,2E1,7.82E2,8.5E1,2.715E3,4.193E3,1.6075E4,8.054E3,2.1185E4,2.1345E4,1.441E3,1.283E3,3.1E2,9.04E2,2.345E3,7.78E3,1.5E3,8.14E2,9.49E2,2.283E3,4.11E2,3.46E3,2.39E2,1.061E3,3.171E3,1.861E3,1.38E3,1.99E3,1.472E3,2.457E3,2.98E2,3.709E3,1.106E3,5.986E3,1.1E3,1.518E3,3.7E2,7.32E2,6.75E2,2.947E3,5.006E3,4.383E3,5.99E2,7.6E1,1.49E2,1.59E2,7.07E2,7.26E2,1.02E2,1.2E1,3.9E1,1.9E1,3.5E1,5.7E1,1.6E1,4E0,1.5E1,7.67E2,1.5E1,7E1,3.15E2,2.4E3,4.069E3,1.24E2,7.06E2,1.5369E4,5.173E3,2.881E3,1.4808E4,6.377E3,1.6118E4,5.227E3],"tree_param":{"num_deleted":"0","num_feature":"17","num_nodes":"125","size_leaf_vector":"1"}},{"base_weights":[-2.812696E-2,9.393262E0,-5.867882E0,1.8450218E1,1.4008032E0,-4.138195E1,-4.4948835E0,1.0727532E1,2.6493076E1,4.572987E0,-4.390439E0,-2.9399445E0,-6.705474E2,9.8962545E-1,-8.014985E0,2.4646605E1,5.5008574E0,2.227639E1,3.3973003E1,-1.5367929E0,8.585565E0,5.3458333E0,-5.8270545E0,-6.58288E-1,-8.5308E0,2.393509E0,-3.3269563E3,-1.2317219E0,6.5393586E0,-8.499961E1,-5.8452473E0,1.6363266E1,4.4704144E1,1.0912763E0,1.3390954E1,3.4181553E1,2.07179E1,4.7371716E1,2.9496698E1,-7.823329E0,-9.543801E-2,-1.0214044E0,1.0319215E1,1.0063974E1,-3.3003688E0,-4.503778E0,-9.083865E0,1.0032002E1,-1.327734E0,-9.143219E0,-2.6848342E0,1.682416E1,-5.356168E0,-7.026425E2,2.443572E0,-2.4898891E0,3.6695611E0,3.5597935E0,1.570037E1,-1.029554E3,-6.6443768E0,-3.5446174E0,-8.080282E0,2.2369525E0,9.830468E-1,6.266415E0,2.6165729E0,1.0908455E0,-1.8423435E-1,1.7807623E0,1.11462094E-1,2.6826365E0,4.212504E0,2.8028688E0,1.6737721E0,9.5287485E0,4.171553E0,2.7508337E0,6.682134E0,-8.3943033E-1,8.549072E-1,-3.2207623E-1,3.0497053E-1,1.7710007E0,-2.2232842E-1,6.929876E-1,1.5200343E0,3.750331E-1,1.5655344E0,2.3881531E-1,-1.0401949E0,-7.958051E-1,-3.131583E-1,-9.913158E-1,-3.8058063E-1,3.6508815E0,3.6324564E-1,-2.9464146E-1,2.844922E-1,-9.4475186E-1,-2.5551635E-1,6.9405836E-1,-9.426603E-1,3.5210462E0,-2.1852604E-1,1.5528354E-1,-8.679167E-1,-1.8224359E-1,1.6459284E0,8.8867104E-1,-3.2180414E-1,-5.567336E-1,6.258256E-1,2.401324E0,1.2986784E-1,-6.4061576E-1,1.9974638E0,-7.374821E2,-6.058721E-1,-7.963369E-1,-1.0569302E-1,-5.157723E-1,-3.559497E-2,-9.020583E-1,-5.6031114E-1],"categories":[],"categories_nodes":[],"categories_segments":[],"categories_sizes":[],"default_left":[0,0,0,0,0,0,0,0,0,0,0,0,0,0,0,0,0,0,0,0,0,0,0,0,0,0,0,0,0,0,0,0,0,0,0,0,0,0,0,0,0,0,0,0,0,0,0,0,0,0,0,0,0,0,0,0,0,0,0,0,0,0,0,0,0,0,0,0,0,0,0,0,0,0,0,0,0,0,0,0,0,0,0,0,0,0,0,0,0,0,0,0,0,0,0,0,0,0,0,0,0,0,0,0,0,0,0,0,0,0,0,0,0,0,0,0,0,0,0,0,0,0,0,0,0],"id":3,"left_children":[1,3,5,7,9,11,13,15,17,19,21,23,25,27,29,31,33,35,37,39,41,43,45,47,49,51,53,55,57,59,61,63,65,67,69,71,73,75,77,79,81,83,85,87,89,91,93,95,97,99,101,103,105,-1,107,109,111,113,115,117,119,121,123,-1,-1,-1,-1,-1,-1,-1,-1,-1,-1,-1,-1,-1,-1,-1,-1,-1,-1,-1,-1,-1,-1,-1,-1,-1,-1,-1,-1,-1,-1,-1,-1,-1,-1,-1,-1,-1,-1,-1,-1,-1,-1,-1,-1,-1,-1,-1,-1,-1,-1,-1,-1,-1,-1,-1,-1,-1,-1,-1,-1,-1,-1],"loss_changes":[7.8178135E6,3.935892E6,4.277155E6,1.582901E6,5.3066306E5,7.896656E7,1.6305375E6,9.4598425E5,3.93026E5,4.575547E5,1.4302311E5,3.9258617E4,3.3607792E8,4.0703784E5,8.592026E6,5.890775E5,3.2897875E5,1.4748325E5,2.68438E5,6.704255E4,1.876305E5,5.3677336E4,3.8353875E4,1.5664741E4,3.1689688E3,1.6976877E4,4.6806358E8,1.4541838E5,2.5756212E5,1.0434836E8,2.5723538E5,9.8423625E4,3.436295E5,1.7474889E5,1.8378769E5,5.2797E4,2.0510975E5,3.0092275E5,2.4863725E5,1.2972305E4,5.9183973E4,3.882911E4,1.57772E5,2.998321E4,1.8809674E4,3.0012047E4,1.1224422E4,2.1725094E4,1.3915272E4,1.5936875E3,5.646167E3,1.8601129E4,2.2863801E3,0E0,1.2856099E3,1.554676E5,1.1521657E5,3.293905E5,2.18965E5,7.0134515E8,9.594426E3,1.2682022E5,5.9059625E4,0E0,0E0,0E0,0E0,0E0,0E0,0E0,0E0,0E0,0E0,0E0,0E0,0E0,0E0,0E0,0E0,0E0,0E0,0E0,0E0,0E0,0E0,0E0,0E0,0E0,0E0,0E0,0E0,0E0,0E0,0E0,0E0,0E0,0E0,0E0,0E0,0E0,0E0,0E0,0E0,0E0,0E0,0E0,0E0,0E0,0E0,0E0,0E0,0E0,0E0,0E0,0E0,0E0,0E0,0E0,0E0,0E0,0E0,0E0,0E0,0E0,0E0],"parents":[2147483647,0,0,1,1,2,2,3,3,4,4,5,5,6,6,7,7,8,8,9,9,10,10,11,11,12,12,13,13,14,14,15,15,16,16,17,17,18,18,19,19,20,20,21,21,22,22,23,23,24,24,25,25,26,26,27,27,28,28,29,29,30,30,31,31,32,32,33,33,34,34,35,35,36,36,37,37,38,38,39,39,40,40,41,41,42,42,43,43,44,44,45,45,46,46,47,47,48,48,49,49,50,50,51,51,52,52,54,54,55,55,56,56,57,57,58,58,59,59,60,60,61,61,62,62],"right_children":[2,4,6,8,10,12,14,16,18,20,22,24,26,28,30,32,34,36,38,40,42,44,46,48,50,52,54,56,58,60,62,64,66,68,70,72,74,76,78,80,82,84,86,88,90,92,94,96,98,100,102,104,106,-1,108,110,112,114,116,118,120,122,124,-1,-1,-1,-1,-1,-1,-1,-1,-1,-1,-1,-1,-1,-1,-1,-1,-1,-1,-1,-1,-1,-1,-1,-1,-1,-1,-1,-1,-1,-1,-1,-1,-1,-1,-1,-1,-1,-1,-1,-1,-1,-1,-1,-1,-1,-1,-1,-1,-1,-1,-1,-1,-1,-1,-1,-1,-1,-1,-1,-1,-1,-1],"split_conditions":[-3.893811E-1,-5.1362205E-1,-1.515192E0,-5.025364E-1,6.135388E-1,1.6990556E0,-2.871835E-1,-1.4443802E0,1.1758769E0,-5.025364E-1,-1.6933997E0,3.8710022E-1,-8.600371E-2,7.9944944E-1,-1.3119249E-1,9.8174137E-1,1.0182172E0,-1.6252372E0,-1.3326274E0,-1.149082E0,-1.220425E0,-1.0378981E0,1.7608275E0,-7.494294E-1,1.5231768E0,-1.4696661E0,-4.3368205E-1,9.8138267E-1,9.8138267E-1,-1.0811968E0,6.135388E-1,-9.7153115E-1,-1.2394475E0,-7.494294E-1,-7.551565E-1,4.84032E-1,-5.1432157E-1,-1.0134983E0,1.2858394E0,1.0627394E0,3.9933497E-1,-1.3263668E0,6.9053817E-1,1.4186466E-1,4.84032E-1,-6.472015E-1,2.051995E-1,-4.336866E-1,4.964027E-1,1.0829984E0,1.6382861E0,1.0776436E0,1.0270941E0,-7.026425E2,1.6382861E0,-7.494294E-1,-1.8307145E-1,-7.494294E-1,-3.7720692E-1,-1.1243382E0,4.044453E-1,7.9944944E-1,6.92914E-1,2.2369525E0,9.830468E-1,6.266415E0,2.6165729E0,1.0908455E0,-1.8423435E-1,1.7807623E0,1.11462094E-1,2.6826365E0,4.212504E0,2.8028688E0,1.6737721E0,9.5287485E0,4.171553E0,2.7508337E0,6.682134E0,-8.3943033E-1,8.549072E-1,-3.2207623E-1,3.0497053E-1,1.7710007E0,-2.2232842E-1,6.929876E-1,1.5200343E0,3.750331E-1,1.5655344E0,2.3881531E-1,-1.0401949E0,-7.958051E-1,-3.131583E-1,-9.913158E-1,-3.8058063E-1,3.6508815E0,3.6324564E-1,-2.9464146E-1,2.844922E-1,-9.4475186E-1,-2.5551635E-1,6.9405836E-1,-9.426603E-1,3.5210462E0,-2.1852604E-1,1.5528354E-1,-8.679167E-1,-1.8224359E-1,1.6459284E0,8.8867104E-1,-3.2180414E-1,-5.567336E-1,6.258256E-1,2.401324E0,1.2986784E-1,-6.4061576E-1,1.9974638E0,-7.374821E2,-6.058721E-1,-7.963369E-1,-1.0569302E-1,-5.157723E-1,-3.559497E-2,-9.020583E-1,-5.6031114E-1],"split_indices":[9,15,3,3,15,13,15,9,11,3,13,15,11,3,15,11,14,9,13,16,16,5,15,5,4,4,4,5,5,3,15,15,4,5,15,6,6,6,12,4,11,5,11,4,6,3,11,13,11,12,4,10,10,0,4,5,11,5,11,4,5,3,5,0,0,0,0,0,0,0,0,0,0,0,0,0,0,0,0,0,0,0,0,0,0,0,0,0,0,0,0,0,0,0,0,0,0,0,0,0,0,0,0,0,0,0,0,0,0,0,0,0,0,0,0,0,0,0,0,0,0,0,0,0,0],"split_type":[0,0,0,0,0,0,0,0,0,0,0,0,0,0,0,0,0,0,0,0,0,0,0,0,0,0,0,0,0,0,0,0,0,0,0,0,0,0,0,0,0,0,0,0,0,0,0,0,0,0,0,0,0,0,0,0,0,0,0,0,0,0,0,0,0,0,0,0,0,0,0,0,0,0,0,0,0,0,0,0,0,0,0,0,0,0,0,0,0,0,0,0,0,0,0,0,0,0,0,0,0,0,0,0,0,0,0,0,0,0,0,0,0,0,0,0,0,0,0,0,0,0,0,0,0],"sum_hessian":[1.42092E5,5.4372E4,8.772E4,2.5488E4,2.8884E4,3.264E3,8.4456E4,1.3004E4,1.2484E4,1.8662E4,1.0222E4,3.077E3,1.87E2,3.3016E4,5.144E4,3.549E3,9.455E3,7.986E3,4.498E3,7.398E3,1.1264E4,1.314E3,8.908E3,2.186E3,8.91E2,1.5E2,3.7E1,2.3579E4,9.437E3,1.409E3,5.0031E4,2.513E3,1.036E3,6.066E3,3.389E3,9.22E2,7.064E3,1.124E3,3.374E3,1.379E3,6.019E3,1.722E3,9.542E3,8.5E2,4.64E2,6.336E3,2.572E3,1.28E2,2.058E3,8.06E2,8.5E1,5.2E1,9.8E1,1.7E1,2E1,1.8763E4,4.816E3,7.122E3,2.315E3,1.07E2,1.302E3,2.4655E4,2.5376E4,1.308E3,1.205E3,5.25E2,5.11E2,1.395E3,4.671E3,2.492E3,8.97E2,4.81E2,4.41E2,2.488E3,4.576E3,1.17E2,1.007E3,3.205E3,1.69E2,1.333E3,4.6E1,3.019E3,3E3,1.03E2,1.619E3,5.633E3,3.909E3,4E2,4.5E2,2.58E2,2.06E2,1.8E3,4.536E3,2.222E3,3.5E2,2.4E1,1.04E2,1.483E3,5.75E2,7.7E2,3.6E1,3.5E1,5E1,2.6E1,2.6E1,3.2E1,6.6E1,1.6E1,4E0,1.128E3,1.7635E4,1.054E3,3.762E3,7.08E2,6.414E3,3.75E2,1.94E3,1.4E1,9.3E1,1.053E3,2.49E2,1.6372E4,8.283E3,1.8392E4,6.984E3],"tree_param":{"num_deleted":"0","num_feature":"17","num_nodes":"125","size_leaf_vector":"1"}},{"base_weights":[-3.503112E-2,8.755977E0,-5.1395183E0,1.7118296E1,1.3733293E0,-2.0095999E1,-2.6488397E0,1.0037691E1,2.4393398E1,6.4360437E0,-1.9434637E0,-1.1683563E1,-2.0653032E2,6.270636E-1,-5.804743E0,2.1852362E1,5.0211706E0,1.9524609E1,2.967345E1,5.2403593E-1,1.2107297E1,1.915673E0,-4.700468E0,-6.784247E1,-4.105365E0,1.7038971E-1,-2.0446932E3,-1.2381068E0,6.924235E0,-2.7250645E0,-7.131996E0,1.45708885E1,3.925441E1,2.2942617E0,1.7654129E1,4.6439414E0,2.0997026E1,4.7284748E1,2.599502E1,-3.8405683E0,3.5621529E0,1.0150567E0,1.3655265E1,-4.375593E0,4.435581E0,-7.49155E0,-3.1477356E0,-5.8228564E2,1.3085524E0,7.8835094E-1,-6.0934796E0,8.334393E0,-8.962945E0,-6.3628186E2,7.154809E-1,1.1948804E1,-2.4939802E0,-5.1479874E0,1.0028215E1,-4.403499E0,6.5929193E0,-6.052605E0,-9.019783E0,2.0231986E0,8.6364E-1,6.8576083E0,2.8886862E0,1.0165284E0,-4.2791035E-2,8.9269227E-1,2.742258E0,4.981372E0,2.1165489E-1,2.9671876E0,1.8822775E0,7.414959E0,3.3062375E0,2.3927994E0,5.589949E0,5.4281193E-1,-6.588422E-1,1.1537637E0,1.093256E-1,5.1061684E-1,-5.7234466E-1,9.751933E-1,1.7009739E0,4.789914E0,-4.848608E-1,-1.600716E-2,7.969627E-1,-7.944533E-1,5.193992E-1,-7.747292E-1,-1.5444238E-1,-2.753797E-1,-6.6865045E2,3.1322117E1,-3.1098077E-1,1.7035307E0,-1.3984233E-2,-6.474001E-1,5.856186E-1,1.2508427E-1,2.0127676E0,-2.0671158E-1,-1.007376E0,-1.3659701E-1,1.5142541E0,3.077916E0,8.219749E-1,-4.4038525E-1,1.2778425E-1,5.1545013E-2,-6.5313286E-1,4.7170573E-1,1.6760668E0,5.97614E-1,-5.212626E-1,4.9856653E0,5.153624E-1,-6.9654775E-1,-3.3753324E-1,-1.012823E0,-7.579177E-1],"categories":[],"categories_nodes":[],"categories_segments":[],"categories_sizes":[],"default_left":[0,0,0,0,0,0,0,0,0,0,0,0,0,0,0,0,0,0,0,0,0,0,0,0,0,0,0,0,0,0,0,0,0,0,0,0,0,0,0,0,0,0,0,0,0,0,0,0,0,0,0,0,0,0,0,0,0,0,0,0,0,0,0,0,0,0,0,0,0,0,0,0,0,0,0,0,0,0,0,0,0,0,0,0,0,0,0,0,0,0,0,0,0,0,0,0,0,0,0,0,0,0,0,0,0,0,0,0,0,0,0,0,0,0,0,0,0,0,0,0,0,0,0,0,0],"id":4,"left_children":[1,3,5,7,9,11,13,15,17,19,21,23,25,27,29,31,33,35,37,39,41,43,45,47,49,51,53,55,57,59,61,63,65,67,69,71,73,75,77,79,81,83,85,87,89,91,93,95,97,99,101,103,105,-1,107,109,111,113,115,117,119,121,123,-1,-1,-1,-1,-1,-1,-1,-1,-1,-1,-1,-1,-1,-1,-1,-1,-1,-1,-1,-1,-1,-1,-1,-1,-1,-1,-1,-1,-1,-1,-1,-1,-1,-1,-1,-1,-1,-1,-1,-1,-1,-1,-1,-1,-1,-1,-1,-1,-1,-1,-1,-1,-1,-1,-1,-1,-1,-1,-1,-1,-1,-1],"loss_changes":[6.3762675E6,3.2224748E6,3.3487332E6,1.260514E6,4.6555325E5,2.0124438E7,7.967246E5,7.351164E5,3.097355E5,3.679353E5,1.7823388E5,5.2258845E6,2.1049242E8,4.4414528E5,1.604195E5,4.6788425E5,2.999752E5,1.375665E5,3.737935E5,7.127388E4,9.615769E4,1.1069209E5,4.2322E4,5.19392E7,1.052852E5,3.728242E4,4.9461504E8,4.8318306E5,3.2384672E5,1.8493634E5,5.58365E4,8.7442875E4,3.293725E5,1.5350219E5,1.3155372E5,6.462428E4,1.072715E5,3.79248E5,2.9481E5,5.6220367E4,6.238705E4,1.896842E4,6.4189312E4,4.9611523E4,8.096388E4,2.0107469E4,4.630003E4,6.119846E8,1.776021E6,4.7158523E4,3.5027844E4,2.2028936E4,1.7869336E3,0E0,1.1918236E3,1.7789372E5,1.9189775E5,1.3854711E4,2.4571538E5,8.417517E4,1.12139164E5,4.2634188E4,1.585325E4,0E0,0E0,0E0,0E0,0E0,0E0,0E0,0E0,0E0,0E0,0E0,0E0,0E0,0E0,0E0,0E0,0E0,0E0,0E0,0E0,0E0,0E0,0E0,0E0,0E0,0E0,0E0,0E0,0E0,0E0,0E0,0E0,0E0,0E0,0E0,0E0,0E0,0E0,0E0,0E0,0E0,0E0,0E0,0E0,0E0,0E0,0E0,0E0,0E0,0E0,0E0,0E0,0E0,0E0,0E0,0E0,0E0,0E0,0E0,0E0,0E0,0E0],"parents":[2147483647,0,0,1,1,2,2,3,3,4,4,5,5,6,6,7,7,8,8,9,9,10,10,11,11,12,12,13,13,14,14,15,15,16,16,17,17,18,18,19,19,20,20,21,21,22,22,23,23,24,24,25,25,26,26,27,27,28,28,29,29,30,30,31,31,32,32,33,33,34,34,35,35,36,36,37,37,38,38,39,39,40,40,41,41,42,42,43,43,44,44,45,45,46,46,47,47,48,48,49,49,50,50,51,51,52,52,54,54,55,55,56,56,57,57,58,58,59,59,60,60,61,61,62,62],"right_children":[2,4,6,8,10,12,14,16,18,20,22,24,26,28,30,32,34,36,38,40,42,44,46,48,50,52,54,56,58,60,62,64,66,68,70,72,74,76,78,80,82,84,86,88,90,92,94,96,98,100,102,104,106,-1,108,110,112,114,116,118,120,122,124,-1,-1,-1,-1,-1,-1,-1,-1,-1,-1,-1,-1,-1,-1,-1,-1,-1,-1,-1,-1,-1,-1,-1,-1,-1,-1,-1,-1,-1,-1,-1,-1,-1,-1,-1,-1,-1,-1,-1,-1,-1,-1,-1,-1,-1,-1,-1,-1,-1,-1,-1,-1,-1,-1,-1,-1,-1,-1,-1,-1,-1,-1],"split_conditions":[-4.361025E-1,-5.1362205E-1,-1.0811968E0,-5.025364E-1,4.995836E-2,1.6990556E0,4.995836E-2,-1.4247874E0,7.876059E-1,-3.578713E-1,-9.756592E-1,-1.5525331E0,-8.600371E-2,9.8138267E-1,-1.6047096E-1,9.8174137E-1,1.0829984E0,-2.0166196E-1,-1.2394475E0,6.0970247E-1,-1.2815763E0,-6.472015E-1,-5.713424E-1,-1.1243382E0,-7.551565E-1,-1.0092288E0,-4.3368205E-1,-7.494294E-1,-3.7720692E-1,5.4208875E-1,1.2425348E0,-9.7153115E-1,-5.1432157E-1,-7.494294E-1,1.2729446E0,-1.3554589E0,-1.1879058E0,-1.6060904E0,1.2858394E0,-1.0378981E0,-1.370527E0,-8.596093E-1,5.9347045E-1,-1.2394475E0,-8.600371E-2,1.0829984E0,-1.0471634E0,9.894703E-1,-5.713424E-1,-3.893811E-1,1.0981677E0,3.7552962E-1,-9.596133E-1,-6.3628186E2,1.6382861E0,-1.6060904E0,1.0811583E0,-5.1432157E-1,6.547844E-1,-7.494294E-1,-1.5847754E0,6.92914E-1,-6.6434555E-2,2.0231986E0,8.6364E-1,6.8576083E0,2.8886862E0,1.0165284E0,-4.2791035E-2,8.9269227E-1,2.742258E0,4.981372E0,2.1165489E-1,2.9671876E0,1.8822775E0,7.414959E0,3.3062375E0,2.3927994E0,5.589949E0,5.4281193E-1,-6.588422E-1,1.1537637E0,1.093256E-1,5.1061684E-1,-5.7234466E-1,9.751933E-1,1.7009739E0,4.789914E0,-4.848608E-1,-1.600716E-2,7.969627E-1,-7.944533E-1,5.193992E-1,-7.747292E-1,-1.5444238E-1,-2.753797E-1,-6.6865045E2,3.1322117E1,-3.1098077E-1,1.7035307E0,-1.3984233E-2,-6.474001E-1,5.856186E-1,1.2508427E-1,2.0127676E0,-2.0671158E-1,-1.007376E0,-1.3659701E-1,1.5142541E0,3.077916E0,8.219749E-1,-4.4038525E-1,1.2778425E-1,5.1545013E-2,-6.5313286E-1,4.7170573E-1,1.6760668E0,5.97614E-1,-5.212626E-1,4.9856653E0,5.153624E-1,-6.9654775E-1,-3.3753324E-1,-1.012823E0,-7.579177E-1],"split_indices":[9,15,3,3,15,13,15,9,11,3,9,14,11,5,16,11,12,12,4,12,16,3,11,4,15,4,4,5,11,12,15,15,6,5,11,9,15,14,12,5,3,9,11,4,11,12,16,13,11,9,9,14,11,0,4,14,13,6,3,5,4,5,12,0,0,0,0,0,0,0,0,0,0,0,0,0,0,0,0,0,0,0,0,0,0,0,0,0,0,0,0,0,0,0,0,0,0,0,0,0,0,0,0,0,0,0,0,0,0,0,0,0,0,0,0,0,0,0,0,0,0,0,0,0,0],"split_type":[0,0,0,0,0,0,0,0,0,0,0,0,0,0,0,0,0,0,0,0,0,0,0,0,0,0,0,0,0,0,0,0,0,0,0,0,0,0,0,0,0,0,0,0,0,0,0,0,0,0,0,0,0,0,0,0,0,0,0,0,0,0,0,0,0,0,0,0,0,0,0,0,0,0,0,0,0,0,0,0,0,0,0,0,0,0,0,0,0,0,0,0,0,0,0,0,0,0,0,0,0,0,0,0,0,0,0,0,0,0,0,0,0,0,0,0,0,0,0,0,0,0,0,0,0],"sum_hessian":[1.42092E5,5.2197E4,8.9895E4,2.4474E4,2.7723E4,1.2832E4,7.7063E4,1.2404E4,1.207E4,1.0973E4,1.675E4,1.2279E4,5.53E2,3.7813E4,3.925E4,3.696E3,8.708E3,6.282E3,5.788E3,5.373E3,5.6E3,6.98E3,9.77E3,1.459E3,1.082E4,4.98E2,5.5E1,2.9173E4,8.64E3,1.1822E4,2.7428E4,2.607E3,1.089E3,7.163E3,1.545E3,5.66E2,5.716E3,9.98E2,4.79E3,2.205E3,3.168E3,6.86E2,4.914E3,1.996E3,4.984E3,3.491E3,6.279E3,1.72E2,1.287E3,3.126E3,7.694E3,2.63E2,2.35E2,1.7E1,3.8E1,2.536E3,2.6637E4,1.767E3,6.873E3,1.0018E4,1.804E3,1.7453E4,9.975E3,1.333E3,1.274E3,2.83E2,8.06E2,1.84E3,5.323E3,8.17E2,7.28E2,2.9E1,5.37E2,1.143E3,4.573E3,3.44E2,6.54E2,4.482E3,3.08E2,5.04E2,1.701E3,7.48E2,2.42E3,4.27E2,2.59E2,2.273E3,2.641E3,1.7E1,1.979E3,2.167E3,2.817E3,3.371E3,1.2E2,1.622E3,4.657E3,1.58E2,1.4E1,1.7E1,1.27E3,1.68E2,2.958E3,7.457E3,2.37E2,1.65E2,9.8E1,3.3E1,2.02E2,3.4E1,4E0,4.18E2,2.118E3,1.7683E4,8.954E3,3.47E2,1.42E3,3.843E3,3.03E3,7.24E2,9.294E3,5.7E1,1.747E3,1.3014E4,4.439E3,5.634E3,4.341E3],"tree_param":{"num_deleted":"0","num_feature":"17","num_nodes":"125","size_leaf_vector":"1"}},{"base_weights":[-4.0034566E-2,6.5552955E0,-5.5915937E0,1.5579852E1,1.8948327E0,-4.082026E1,-4.305141E0,2.1934275E1,8.494196E0,6.026374E0,-2.0975661E0,-2.995155E0,-5.498337E2,-1.5173578E1,-3.037255E0,1.7504684E1,3.5651287E1,3.9869244E0,1.6555738E1,-4.912225E-1,1.0970704E1,1.7248341E0,-3.9002874E0,9.219191E-1,-5.4831433E0,1.9962485E0,-2.728162E3,-1.0039071E2,-4.4652786E0,4.201259E-1,-4.9987316E0,3.4829483E1,1.385558E1,2.2004427E1,4.245952E1,1.6352749E1,1.5165842E0,2.9400892E1,1.3029042E1,-4.9723916E0,2.199619E0,8.067662E0,1.4912104E1,-3.9358776E0,3.9921794E0,-6.5096E0,-2.236235E0,-1.5541035E0,6.335736E0,-6.8565955E0,-1.6669105E0,1.3494489E1,-5.319799E0,-5.7618854E2,2.084558E0,4.3035874E0,-1.0524285E3,-1.5252459E0,-7.3152003E0,-1.4421241E0,4.1367135E0,-3.6362011E0,-7.210256E0,2.4821956E0,7.095666E0,7.691128E-1,2.095199E0,3.8814225E0,1.6938285E0,3.206271E0,4.7410088E0,2.614312E0,2.3644081E-1,-5.310263E-1,6.06872E-1,5.590108E0,2.7388377E0,1.6153206E0,1.7342846E-1,8.7545745E-2,-6.6831535E-1,1.0532354E0,-4.2719875E-2,2.165893E0,6.340222E-1,2.3103998E0,1.2049795E0,4.3375335E0,-4.363992E-1,6.086106E-1,-2.3096406E-1,-1.6894075E-1,-7.227103E-1,-7.209572E-1,-8.447357E-2,-7.1264625E-1,3.9154775E-2,1.2854203E0,1.850746E-2,-4.6663886E-1,-8.0650073E-1,-3.2571274E-1,7.005938E-1,2.5468445E0,-2.6827806E-1,-1.5024203E-1,-7.597486E-1,-1.5223512E-1,1.3931139E0,3.247221E1,-2.3774019E-1,-5.6366583E2,-4.5396122E-1,8.5583574E-1,-2.5677702E-1,-7.659805E-1,1.8443547E-1,-4.1783795E-1,3.667408E-2,1.4076746E-1,9.03467E-1,-4.8356983E-1,-6.800785E-2,-8.226308E-1,-5.35347E-1],"categories":[],"categories_nodes":[],"categories_segments":[],"categories_sizes":[],"default_left":[0,0,0,0,0,0,0,0,0,0,0,0,0,0,0,0,0,0,0,0,0,0,0,0,0,0,0,0,0,0,0,0,0,0,0,0,0,0,0,0,0,0,0,0,0,0,0,0,0,0,0,0,0,0,0,0,0,0,0,0,0,0,0,0,0,0,0,0,0,0,0,0,0,0,0,0,0,0,0,0,0,0,0,0,0,0,0,0,0,0,0,0,0,0,0,0,0,0,0,0,0,0,0,0,0,0,0,0,0,0,0,0,0,0,0,0,0,0,0,0,0,0,0,0,0],"id":5,"left_children":[1,3,5,7,9,11,13,15,17,19,21,23,25,27,29,31,33,35,37,39,41,43,45,47,49,51,53,55,57,59,61,63,65,67,69,71,73,75,77,79,81,83,85,87,89,91,93,95,97,99,101,103,105,-1,107,109,111,113,115,117,119,121,123,-1,-1,-1,-1,-1,-1,-1,-1,-1,-1,-1,-1,-1,-1,-1,-1,-1,-1,-1,-1,-1,-1,-1,-1,-1,-1,-1,-1,-1,-1,-1,-1,-1,-1,-1,-1,-1,-1,-1,-1,-1,-1,-1,-1,-1,-1,-1,-1,-1,-1,-1,-1,-1,-1,-1,-1,-1,-1,-1,-1,-1,-1],"loss_changes":[5.202682E6,2.7313402E6,3.4963538E6,9.95592E5,7.064337E5,5.232932E7,1.0256636E6,7.07786E5,3.7993125E5,6.782482E5,1.5009355E5,2.4671256E4,2.2599403E8,7.0953905E6,4.520618E5,5.568015E5,2.633975E5,2.0492036E5,1.6949556E5,1.09498625E5,1.3681812E5,8.961537E4,6.425186E4,1.3200104E4,8.1022773E3,1.277416E4,3.1475882E8,8.652062E7,5.7878406E4,1.6701488E5,1.28131125E5,5.5248525E5,3.1843725E5,8.016016E4,9.611875E4,1.529125E5,1.738444E5,4.1507938E4,1.0385591E5,3.409042E4,1.2420027E5,1.6172078E5,1.18718875E5,4.0637727E4,6.579386E4,1.991914E4,6.2547367E4,7.331893E3,1.2386322E4,2.9742812E3,5.691211E3,1.1496976E4,7.972012E2,0E0,9.185283E2,1.67695E6,4.1309808E8,3.5785156E4,1.1086859E4,7.956996E4,1.0765616E5,9.332019E4,3.0543188E4,0E0,0E0,0E0,0E0,0E0,0E0,0E0,0E0,0E0,0E0,0E0,0E0,0E0,0E0,0E0,0E0,0E0,0E0,0E0,0E0,0E0,0E0,0E0,0E0,0E0,0E0,0E0,0E0,0E0,0E0,0E0,0E0,0E0,0E0,0E0,0E0,0E0,0E0,0E0,0E0,0E0,0E0,0E0,0E0,0E0,0E0,0E0,0E0,0E0,0E0,0E0,0E0,0E0,0E0,0E0,0E0,0E0,0E0,0E0,0E0,0E0,0E0],"parents":[2147483647,0,0,1,1,2,2,3,3,4,4,5,5,6,6,7,7,8,8,9,9,10,10,11,11,12,12,13,13,14,14,15,15,16,16,17,17,18,18,19,19,20,20,21,21,22,22,23,23,24,24,25,25,26,26,27,27,28,28,29,29,30,30,31,31,32,32,33,33,34,34,35,35,36,36,37,37,38,38,39,39,40,40,41,41,42,42,43,43,44,44,45,45,46,46,47,47,48,48,49,49,50,50,51,51,52,52,54,54,55,55,56,56,57,57,58,58,59,59,60,60,61,61,62,62],"right_children":[2,4,6,8,10,12,14,16,18,20,22,24,26,28,30,32,34,36,38,40,42,44,46,48,50,52,54,56,58,60,62,64,66,68,70,72,74,76,78,80,82,84,86,88,90,92,94,96,98,100,102,104,106,-1,108,110,112,114,116,118,120,122,124,-1,-1,-1,-1,-1,-1,-1,-1,-1,-1,-1,-1,-1,-1,-1,-1,-1,-1,-1,-1,-1,-1,-1,-1,-1,-1,-1,-1,-1,-1,-1,-1,-1,-1,-1,-1,-1,-1,-1,-1,-1,-1,-1,-1,-1,-1,-1,-1,-1,-1,-1,-1,-1,-1,-1,-1,-1,-1,-1,-1,-1,-1],"split_conditions":[-1.5577418E-1,-7.350287E-1,-1.515192E0,-8.2193077E-1,4.995836E-2,1.6990556E0,-1.0811968E0,1.3700123E0,-6.854111E-2,-5.025364E-1,-9.756592E-1,-5.1362205E-1,-8.600371E-2,-1.5525331E0,-2.871835E-1,-1.1243382E0,4.84032E-1,-7.494294E-1,-1.0092288E0,6.0970247E-1,6.773161E-1,-6.472015E-1,-3.7720692E-1,5.897588E-1,7.4242073E-1,-8.0255854E-1,-4.3368205E-1,6.773161E-1,-2.871835E-1,7.9944944E-1,8.349454E-1,9.8174137E-1,-5.025364E-1,-1.1243382E0,9.4777095E-1,4.84032E-1,1.15976624E-1,-1.6215496E0,1.1033205E0,-1.1941947E0,-1.370527E0,-1.6328691E0,-1.3263668E0,-1.2394475E0,1.2425348E0,-7.312155E-1,-1.0471634E0,-9.860121E-1,7.3633176E-1,4.7142473E-1,1.5231768E0,-1.4696661E0,1.7867571E0,-5.7618854E2,1.6382861E0,-5.713424E-1,-1.1243382E0,-1.7249206E-1,1.0529534E0,-6.749579E-1,6.92914E-1,6.92914E-1,7.9944944E-1,2.4821956E0,7.095666E0,7.691128E-1,2.095199E0,3.8814225E0,1.6938285E0,3.206271E0,4.7410088E0,2.614312E0,2.3644081E-1,-5.310263E-1,6.06872E-1,5.590108E0,2.7388377E0,1.6153206E0,1.7342846E-1,8.7545745E-2,-6.6831535E-1,1.0532354E0,-4.2719875E-2,2.165893E0,6.340222E-1,2.3103998E0,1.2049795E0,4.3375335E0,-4.363992E-1,6.086106E-1,-2.3096406E-1,-1.6894075E-1,-7.227103E-1,-7.209572E-1,-8.447357E-2,-7.1264625E-1,3.9154775E-2,1.2854203E0,1.850746E-2,-4.6663886E-1,-8.0650073E-1,-3.2571274E-1,7.005938E-1,2.5468445E0,-2.6827806E-1,-1.5024203E-1,-7.597486E-1,-1.5223512E-1,1.3931139E0,3.247221E1,-2.3774019E-1,-5.6366583E2,-4.5396122E-1,8.5583574E-1,-2.5677702E-1,-7.659805E-1,1.8443547E-1,-4.1783795E-1,3.667408E-2,1.4076746E-1,9.03467E-1,-4.8356983E-1,-6.800785E-2,-8.226308E-1,-5.35347E-1],"split_indices":[9,15,3,9,15,13,3,11,3,3,9,15,11,14,15,4,6,5,4,12,12,3,11,14,10,16,4,12,15,3,15,11,3,4,12,6,5,12,16,9,3,14,5,4,15,16,16,16,13,16,4,4,13,0,4,11,4,5,9,12,5,5,3,0,0,0,0,0,0,0,0,0,0,0,0,0,0,0,0,0,0,0,0,0,0,0,0,0,0,0,0,0,0,0,0,0,0,0,0,0,0,0,0,0,0,0,0,0,0,0,0,0,0,0,0,0,0,0,0,0,0,0,0,0,0],"split_type":[0,0,0,0,0,0,0,0,0,0,0,0,0,0,0,0,0,0,0,0,0,0,0,0,0,0,0,0,0,0,0,0,0,0,0,0,0,0,0,0,0,0,0,0,0,0,0,0,0,0,0,0,0,0,0,0,0,0,0,0,0,0,0,0,0,0,0,0,0,0,0,0,0,0,0,0,0,0,0,0,0,0,0,0,0,0,0,0,0,0,0,0,0,0,0,0,0,0,0,0,0,0,0,0,0,0,0,0,0,0,0,0,0,0,0,0,0,0,0,0,0,0,0,0,0],"sum_hessian":[1.42092E5,6.4941E4,7.7151E4,2.2115E4,4.2826E4,2.717E3,7.4434E4,1.1658E4,1.0457E4,2.1046E4,2.178E4,2.53E3,1.87E2,7.775E3,6.6659E4,8.814E3,2.844E3,6.708E3,3.749E3,9.079E3,1.1967E4,6.98E3,1.48E4,9.83E2,1.547E3,1.5E2,3.7E1,8.67E2,6.908E3,2.4129E4,4.253E4,1.532E3,7.282E3,9.48E2,1.896E3,1.116E3,5.592E3,8.06E2,2.943E3,3.406E3,5.673E3,6.893E3,5.074E3,1.996E3,4.984E3,5.762E3,9.038E3,6.75E2,3.08E2,1.137E3,4.1E2,5.8E1,9.2E1,1.7E1,2E1,7.82E2,8.5E1,3.401E3,3.507E3,1.6075E4,8.054E3,2.6318E4,1.6212E4,1.201E3,3.31E2,3.898E3,3.384E3,2.18E2,7.3E2,6.14E2,1.282E3,6.56E2,4.6E2,2.237E3,3.355E3,5.5E1,7.51E2,2.305E3,6.38E2,7.71E2,2.635E3,1.359E3,4.314E3,7.76E2,6.117E3,1.312E3,3.762E3,1.7E1,1.979E3,3.741E3,1.243E3,7.47E2,5.015E3,1.975E3,7.063E3,1.74E2,5.01E2,1.49E2,1.59E2,4.06E2,7.31E2,3.47E2,6.3E1,3.3E1,2.5E1,3.5E1,5.7E1,1.6E1,4E0,1.5E1,7.67E2,1.5E1,7E1,3.18E2,3.083E3,3.38E3,1.27E2,6.397E3,9.678E3,5.173E3,2.881E3,1.8721E4,7.597E3,1.0476E4,5.736E3],"tree_param":{"num_deleted":"0","num_feature":"17","num_nodes":"125","size_leaf_vector":"1"}},{"base_weights":[-4.3481395E-2,7.13042E0,-4.2089977E0,1.6036268E1,2.4388103E0,-1.6478685E1,-2.1657467E0,1.1948966E1,2.5127184E1,6.299916E0,-1.5810249E0,-9.589598E0,-1.6915291E2,2.111467E0,-3.7778878E0,2.50501E1,9.646152E0,2.9600267E1,1.6450022E1,4.970105E-1,1.1982242E1,2.9955668E0,-3.119571E0,-5.5813313E1,-3.352077E0,3.767338E-1,-1.6767625E3,-6.168953E-1,6.9665227E0,-5.126595E0,-1.407097E0,1.8988724E1,7.407201E1,4.9165726E0,1.6220673E1,3.0890207E1,-5.9023075E0,1.2971691E1,2.687235E1,-3.5419059E0,3.6255527E0,2.5282183E0,1.3241642E1,-5.5250006E0,4.3893566E0,-2.842635E-1,-5.024358E0,-4.7871652E2,1.033011E0,-2.3328866E-1,-5.5371037E0,1.0157048E1,-5.6699224E0,-5.2177075E2,5.1370525E-1,1.4490589E1,-2.3594878E0,3.2785964E0,1.1890314E1,-6.5869107E0,-3.0929542E0,1.8964574E0,-3.4339216E0,2.536855E0,1.0127048E0,8.8940325E0,-8.624601E-1,1.2227206E0,5.797418E-3,-6.1429895E-2,1.7885914E0,2.7079847E0,4.2762856E0,-9.4554685E-2,-1.1669436E0,5.8339614E-1,1.7502741E0,1.0998558E0,3.4900315E0,7.680655E-2,-7.854574E-1,1.2116042E0,1.3408358E-1,3.2895277E0,5.9657294E-2,1.661404E0,9.0854865E-1,-5.996515E-1,1.0803744E0,5.9254793E-3,8.530044E-1,-5.260003E-1,1.4561222E-1,-3.9272824E-1,-8.0657023E-1,1.4288387E-1,-5.536343E2,2.5646198E1,-2.5852063E-1,-2.2149794E-1,3.0460766E-1,-6.4553964E-1,-1.2279143E-1,1.08420245E-1,2.6183178E0,2.2309671E-1,-7.131507E-1,-1.2585352E-1,1.2816647E0,2.3847504E0,5.3249335E-1,-6.418228E-1,-1.00452684E-1,-4.453907E-1,5.143363E-1,1.6985146E0,5.000195E-1,-7.8320526E-2,-7.099462E-1,-4.0617257E-1,2.777071E-1,3.156076E0,8.991843E-2,-5.3991806E-2,-5.5028534E-1],"categories":[],"categories_nodes":[],"categories_segments":[],"categories_sizes":[],"default_left":[0,0,0,0,0,0,0,0,0,0,0,0,0,0,0,0,0,0,0,0,0,0,0,0,0,0,0,0,0,0,0,0,0,0,0,0,0,0,0,0,0,0,0,0,0,0,0,0,0,0,0,0,0,0,0,0,0,0,0,0,0,0,0,0,0,0,0,0,0,0,0,0,0,0,0,0,0,0,0,0,0,0,0,0,0,0,0,0,0,0,0,0,0,0,0,0,0,0,0,0,0,0,0,0,0,0,0,0,0,0,0,0,0,0,0,0,0,0,0,0,0,0,0,0,0],"id":6,"left_children":[1,3,5,7,9,11,13,15,17,19,21,23,25,27,29,31,33,35,37,39,41,43,45,47,49,51,53,55,57,59,61,63,65,67,69,71,73,75,77,79,81,83,85,87,89,91,93,95,97,99,101,103,105,-1,107,109,111,113,115,117,119,121,123,-1,-1,-1,-1,-1,-1,-1,-1,-1,-1,-1,-1,-1,-1,-1,-1,-1,-1,-1,-1,-1,-1,-1,-1,-1,-1,-1,-1,-1,-1,-1,-1,-1,-1,-1,-1,-1,-1,-1,-1,-1,-1,-1,-1,-1,-1,-1,-1,-1,-1,-1,-1,-1,-1,-1,-1,-1,-1,-1,-1,-1,-1],"loss_changes":[4.246196E6,2.1809372E6,2.253662E6,6.68903E5,5.306576E5,1.3495948E7,5.3140056E5,3.7464438E5,2.1628725E5,5.750275E5,1.17958125E5,3.5404E6,1.4159443E8,2.794493E5,1.7895388E5,5.50383E5,3.2859144E5,1.6889525E5,6.860331E4,1.09048195E5,1.04874E5,5.0081086E4,6.770662E4,3.5099616E7,7.3739875E4,2.9567549E4,3.325947E8,3.5562203E5,1.3778462E5,1.0592269E5,1.3590297E5,9.325356E4,2.5159712E5,2.184083E5,1.2397875E5,1.5966675E5,3.7051821E3,4.6081453E4,6.0147406E4,7.002506E4,9.4318016E4,6.080912E4,1.08825E5,4.6304316E3,6.4958406E4,4.364392E4,2.498936E4,4.2012035E8,1.1910294E6,2.8984395E4,2.5171094E4,2.7743512E4,3.5841865E3,0E0,8.6647723E2,1.19682875E5,6.65972E4,6.2617156E4,1.1400309E5,6.1758062E4,8.4811516E4,2.282964E5,7.5313734E4,0E0,0E0,0E0,0E0,0E0,0E0,0E0,0E0,0E0,0E0,0E0,0E0,0E0,0E0,0E0,0E0,0E0,0E0,0E0,0E0,0E0,0E0,0E0,0E0,0E0,0E0,0E0,0E0,0E0,0E0,0E0,0E0,0E0,0E0,0E0,0E0,0E0,0E0,0E0,0E0,0E0,0E0,0E0,0E0,0E0,0E0,0E0,0E0,0E0,0E0,0E0,0E0,0E0,0E0,0E0,0E0,0E0,0E0,0E0,0E0,0E0,0E0],"parents":[2147483647,0,0,1,1,2,2,3,3,4,4,5,5,6,6,7,7,8,8,9,9,10,10,11,11,12,12,13,13,14,14,15,15,16,16,17,17,18,18,19,19,20,20,21,21,22,22,23,23,24,24,25,25,26,26,27,27,28,28,29,29,30,30,31,31,32,32,33,33,34,34,35,35,36,36,37,37,38,38,39,39,40,40,41,41,42,42,43,43,44,44,45,45,46,46,47,47,48,48,49,49,50,50,51,51,52,52,54,54,55,55,56,56,57,57,58,58,59,59,60,60,61,61,62,62],"right_children":[2,4,6,8,10,12,14,16,18,20,22,24,26,28,30,32,34,36,38,40,42,44,46,48,50,52,54,56,58,60,62,64,66,68,70,72,74,76,78,80,82,84,86,88,90,92,94,96,98,100,102,104,106,-1,108,110,112,114,116,118,120,122,124,-1,-1,-1,-1,-1,-1,-1,-1,-1,-1,-1,-1,-1,-1,-1,-1,-1,-1,-1,-1,-1,-1,-1,-1,-1,-1,-1,-1,-1,-1,-1,-1,-1,-1,-1,-1,-1,-1,-1,-1,-1,-1,-1,-1,-1,-1,-1,-1,-1,-1,-1,-1,-1,-1,-1,-1,-1,-1,-1,-1,-1,-1],"split_conditions":[-4.361025E-1,-7.350287E-1,-1.0811968E0,1.1758769E0,4.995836E-2,1.6990556E0,-5.1362205E-1,-1.1243382E0,-8.2193077E-1,-3.578713E-1,-1.2137876E0,-1.5525331E0,-8.600371E-2,6.92914E-1,7.9944944E-1,9.8174137E-1,-5.025364E-1,1.5231768E0,7.9944944E-1,6.773161E-1,-1.2815763E0,-1.0777389E0,6.135388E-1,-1.1243382E0,-3.073114E-1,-1.4696661E0,-4.3368205E-1,-7.494294E-1,6.547844E-1,6.879284E-2,7.394195E-2,-9.280044E-1,-6.854111E-2,-7.494294E-1,-1.3404825E-1,9.4411457E-1,1.2729446E0,-1.5144773E-2,1.0182172E0,-7.494294E-1,-1.370527E0,-1.6328691E0,4.9180847E-1,1.4186466E-1,-2.8013918E-1,-6.472015E-1,9.832088E-1,9.894703E-1,-5.713424E-1,6.700947E-1,3.0226722E-1,-5.1432157E-1,-1.6586753E0,-5.2177075E2,1.6382861E0,6.02302E-1,-7.092112E-2,-7.918666E-1,6.0677266E-1,-7.494294E-1,6.9053817E-1,-1.5847754E0,4.676117E-1,2.536855E0,1.0127048E0,8.8940325E0,-8.624601E-1,1.2227206E0,5.797418E-3,-6.1429895E-2,1.7885914E0,2.7079847E0,4.2762856E0,-9.4554685E-2,-1.1669436E0,5.8339614E-1,1.7502741E0,1.0998558E0,3.4900315E0,7.680655E-2,-7.854574E-1,1.2116042E0,1.3408358E-1,3.2895277E0,5.9657294E-2,1.661404E0,9.0854865E-1,-5.996515E-1,1.0803744E0,5.9254793E-3,8.530044E-1,-5.260003E-1,1.4561222E-1,-3.9272824E-1,-8.0657023E-1,1.4288387E-1,-5.536343E2,2.5646198E1,-2.5852063E-1,-2.2149794E-1,3.0460766E-1,-6.4553964E-1,-1.2279143E-1,1.08420245E-1,2.6183178E0,2.2309671E-1,-7.131507E-1,-1.2585352E-1,1.2816647E0,2.3847504E0,5.3249335E-1,-6.418228E-1,-1.00452684E-1,-4.453907E-1,5.143363E-1,1.6985146E0,5.000195E-1,-7.8320526E-2,-7.099462E-1,-4.0617257E-1,2.777071E-1,3.156076E0,8.991843E-2,-5.3991806E-2,-5.5028534E-1],"split_indices":[9,15,3,11,15,13,15,4,9,3,9,14,11,5,3,11,3,4,3,12,16,16,15,4,15,4,4,5,3,12,16,13,3,5,12,3,11,6,14,5,3,14,16,4,11,3,6,13,11,14,11,6,16,0,4,4,13,3,13,5,11,4,15,0,0,0,0,0,0,0,0,0,0,0,0,0,0,0,0,0,0,0,0,0,0,0,0,0,0,0,0,0,0,0,0,0,0,0,0,0,0,0,0,0,0,0,0,0,0,0,0,0,0,0,0,0,0,0,0,0,0,0,0,0,0],"split_type":[0,0,0,0,0,0,0,0,0,0,0,0,0,0,0,0,0,0,0,0,0,0,0,0,0,0,0,0,0,0,0,0,0,0,0,0,0,0,0,0,0,0,0,0,0,0,0,0,0,0,0,0,0,0,0,0,0,0,0,0,0,0,0,0,0,0,0,0,0,0,0,0,0,0,0,0,0,0,0,0,0,0,0,0,0,0,0,0,0,0,0,0,0,0,0,0,0,0,0,0,0,0,0,0,0,0,0,0,0,0,0,0,0,0,0,0,0,0,0,0,0,0,0,0,0],"sum_hessian":[1.42092E5,5.2197E4,8.9895E4,1.8009E4,3.4188E4,1.2832E4,7.7063E4,1.2425E4,5.584E3,1.7438E4,1.675E4,1.2279E4,5.53E2,2.1095E4,5.5968E4,1.856E3,1.0569E4,3.683E3,1.901E3,8.628E3,8.81E3,4.214E3,1.2536E4,1.459E3,1.082E4,4.98E2,5.5E1,1.3506E4,7.589E3,3.5673E4,2.0295E4,1.653E3,2.03E2,6.148E3,4.421E3,3.554E3,1.29E2,1.427E3,4.74E2,3.766E3,4.862E3,1.036E3,7.774E3,5.92E2,3.622E3,5.038E3,7.498E3,1.72E2,1.287E3,4.458E3,6.362E3,1.9E2,3.08E2,1.7E1,3.8E1,1.396E3,1.211E4,4.34E3,3.249E3,2.0762E4,1.4911E4,7.717E3,1.2578E4,9.6E2,6.93E2,1.72E2,3.1E1,2.454E3,3.694E3,3.98E2,4.023E3,2.693E3,8.61E2,7E1,5.9E1,5.55E2,8.72E2,1.6E2,3.14E2,1.884E3,1.882E3,1.03E3,3.832E3,6.1E1,9.75E2,4.29E3,3.484E3,5.76E2,1.6E1,1.771E3,1.851E3,1.305E3,3.733E3,5.512E3,1.986E3,1.58E2,1.4E1,1.7E1,1.27E3,2.779E3,1.679E3,5.244E3,1.118E3,1.22E2,6.8E1,4.8E1,2.6E2,3.4E1,4E0,6.9E2,7.06E2,3.03E3,9.08E3,8.43E2,3.497E3,1.867E3,1.382E3,1.685E3,1.9077E4,1.2799E4,2.112E3,2.5E2,7.467E3,5.244E3,7.334E3],"tree_param":{"num_deleted":"0","num_feature":"17","num_nodes":"125","size_leaf_vector":"1"}},{"base_weights":[-4.6223715E-2,5.209277E0,-4.6764154E0,1.0975761E1,3.832522E-1,-3.3989048E1,-3.608602E0,7.540582E0,1.9796875E1,3.2395651E0,-2.7351012E0,-2.231949E0,-4.5070465E2,-1.2537304E1,-2.5652094E0,1.8759443E1,4.421089E0,1.6322945E1,2.7083387E1,-9.663208E-1,5.953679E0,2.0088735E0,-3.7913198E0,1.1513697E0,-4.3609614E0,1.8451923E0,-2.2371343E3,-8.414978E1,-3.5772924E0,2.0178175E0,-3.5373166E0,1.3818974E1,2.885652E1,1.6435885E0,1.1152914E1,2.017335E1,9.418645E0,5.4159615E1,2.4225216E1,5.1379128E0,-1.9083519E0,3.4569256E0,9.494002E0,-5.129E-1,7.564976E0,-6.9309034E0,-2.6162343E0,2.3746955E0,6.668102E-1,-4.7066903E0,8.844229E0,1.1437308E1,-4.2599697E0,-4.724924E2,1.7869529E0,3.7496033E0,-8.836602E2,1.2001611E-1,-5.099512E0,3.7663218E-1,9.259855E0,-2.2322357E0,-5.5779138E0,1.6797332E0,-6.344615E-2,5.1547103E0,2.318348E0,8.290496E-1,-3.2164544E-1,1.3639304E-1,1.4796141E0,3.2998338E0,1.8155981E0,1.7432765E0,1.95048E-1,3.7051504E0,9.172023E0,2.2633166E0,4.8651958E0,-3.065034E-1,7.161584E-1,6.828576E-2,-4.0592796E-1,6.5998286E-1,-3.0153412E-3,1.7024244E0,6.7903876E-1,-3.815541E-1,1.7326796E-1,2.6824734E-1,1.4405845E0,-9.878381E-1,-6.128382E-1,-5.199714E-1,-1.324302E-1,-8.731573E-2,5.616675E-1,-5.611512E-1,-2.013567E-1,3.1229407E-1,2.0046577E0,2.8493935E-1,2.8041275E0,-6.630116E-2,-6.419117E-1,-1.2606215E-1,1.1791315E0,2.702361E1,-1.9404416E-1,-4.6238004E2,-3.5746518E-1,8.8174576E-1,-9.3458585E-2,-6.50476E-1,-2.0315786E-1,1.4140583E0,-2.8318778E-2,-6.102083E-1,1.1281184E0,-3.621995E-1,2.5243899E-2,-3.8401854E-1,-6.516724E-1],"categories":[],"categories_nodes":[],"categories_segments":[],"categories_sizes":[],"default_left":[0,0,0,0,0,0,0,0,0,0,0,0,0,0,0,0,0,0,0,0,0,0,0,0,0,0,0,0,0,0,0,0,0,0,0,0,0,0,0,0,0,0,0,0,0,0,0,0,0,0,0,0,0,0,0,0,0,0,0,0,0,0,0,0,0,0,0,0,0,0,0,0,0,0,0,0,0,0,0,0,0,0,0,0,0,0,0,0,0,0,0,0,0,0,0,0,0,0,0,0,0,0,0,0,0,0,0,0,0,0,0,0,0,0,0,0,0,0,0,0,0,0,0],"id":7,"left_children":[1,3,5,7,9,11,13,15,17,19,21,23,25,27,29,31,33,35,37,39,41,43,45,47,49,51,53,55,57,59,61,63,65,67,69,71,73,75,77,79,81,83,85,87,89,91,93,-1,95,97,99,101,103,-1,105,107,109,111,113,115,117,119,121,-1,-1,-1,-1,-1,-1,-1,-1,-1,-1,-1,-1,-1,-1,-1,-1,-1,-1,-1,-1,-1,-1,-1,-1,-1,-1,-1,-1,-1,-1,-1,-1,-1,-1,-1,-1,-1,-1,-1,-1,-1,-1,-1,-1,-1,-1,-1,-1,-1,-1,-1,-1,-1,-1,-1,-1,-1,-1,-1,-1],"loss_changes":[3.4577125E6,1.8521122E6,2.364343E6,9.1867125E5,3.2272703E5,3.5134416E7,6.789934E5,7.6373E5,2.146665E5,2.1587961E5,8.680252E4,1.778234E4,1.5199243E8,4.8929105E6,2.9076194E5,2.36452E5,3.1930012E5,1.5285625E5,2.1088712E5,4.26661E4,1.0156628E5,4.4209316E4,5.2251562E4,1.042942E4,6.9582285E3,8.891497E3,2.1166707E8,5.9597764E7,3.815361E4,1.3574112E5,1.4337656E5,1.3733225E5,1.994865E5,3.906174E5,1.7786931E5,9.50005E4,1.2343811E5,1.6431788E5,9.5420375E4,1.6489219E4,3.5823688E4,7.38895E4,9.665006E4,1.6107492E4,3.2860914E4,9.065219E3,3.4407938E4,0E0,7.1320635E3,3.5878516E3,2.4369785E3,8.333113E3,7.180156E2,0E0,6.551342E2,1.1605092E6,2.7648154E8,1.8151125E4,2.0689188E4,8.457307E4,6.558753E4,1.1340416E5,3.4237562E4,0E0,0E0,0E0,0E0,0E0,0E0,0E0,0E0,0E0,0E0,0E0,0E0,0E0,0E0,0E0,0E0,0E0,0E0,0E0,0E0,0E0,0E0,0E0,0E0,0E0,0E0,0E0,0E0,0E0,0E0,0E0,0E0,0E0,0E0,0E0,0E0,0E0,0E0,0E0,0E0,0E0,0E0,0E0,0E0,0E0,0E0,0E0,0E0,0E0,0E0,0E0,0E0,0E0,0E0,0E0,0E0,0E0,0E0,0E0,0E0],"parents":[2147483647,0,0,1,1,2,2,3,3,4,4,5,5,6,6,7,7,8,8,9,9,10,10,11,11,12,12,13,13,14,14,15,15,16,16,17,17,18,18,19,19,20,20,21,21,22,22,23,23,24,24,25,25,26,26,27,27,28,28,29,29,30,30,31,31,32,32,33,33,34,34,35,35,36,36,37,37,38,38,39,39,40,40,41,41,42,42,43,43,44,44,45,45,46,46,48,48,49,49,50,50,51,51,52,52,54,54,55,55,56,56,57,57,58,58,59,59,60,60,61,61,62,62],"right_children":[2,4,6,8,10,12,14,16,18,20,22,24,26,28,30,32,34,36,38,40,42,44,46,48,50,52,54,56,58,60,62,64,66,68,70,72,74,76,78,80,82,84,86,88,90,92,94,-1,96,98,100,102,104,-1,106,108,110,112,114,116,118,120,122,-1,-1,-1,-1,-1,-1,-1,-1,-1,-1,-1,-1,-1,-1,-1,-1,-1,-1,-1,-1,-1,-1,-1,-1,-1,-1,-1,-1,-1,-1,-1,-1,-1,-1,-1,-1,-1,-1,-1,-1,-1,-1,-1,-1,-1,-1,-1,-1,-1,-1,-1,-1,-1,-1,-1,-1,-1,-1,-1,-1],"split_conditions":[-4.508704E-2,-5.1362205E-1,-1.515192E0,6.547844E-1,3.8710022E-1,1.6990556E0,-1.0811968E0,-1.4443802E0,1.1758769E0,-5.025364E-1,-1.2137876E0,-5.1362205E-1,-8.600371E-2,-1.5525331E0,-7.350287E-1,9.8174137E-1,1.2698513E0,1.5227749E0,-1.3545568E0,-1.515192E0,6.0970247E-1,7.9944944E-1,-5.025364E-1,-1.635751E0,1.2473747E0,-8.0255854E-1,-4.3368205E-1,6.773161E-1,-7.551565E-1,9.8138267E-1,6.135388E-1,1.4823855E0,-5.1432157E-1,-7.494294E-1,-5.1432157E-1,-1.6328691E0,-8.339879E-1,-1.4696661E0,1.2858394E0,-9.860121E-1,-7.494294E-1,-7.494294E-1,-1.3263668E0,-7.918666E-1,1.4186466E-1,2.7163395E-1,-5.713424E-1,2.3746955E0,9.9143857E-1,7.4242073E-1,1.2929581E0,3.7552962E-1,1.7867571E0,-4.724924E2,1.6382861E0,-5.713424E-1,-1.1243382E0,-1.7249206E-1,5.043538E-1,-7.494294E-1,-4.7427467E-1,7.9944944E-1,3.7969795E-1,1.6797332E0,-6.344615E-2,5.1547103E0,2.318348E0,8.290496E-1,-3.2164544E-1,1.3639304E-1,1.4796141E0,3.2998338E0,1.8155981E0,1.7432765E0,1.95048E-1,3.7051504E0,9.172023E0,2.2633166E0,4.8651958E0,-3.065034E-1,7.161584E-1,6.828576E-2,-4.0592796E-1,6.5998286E-1,-3.0153412E-3,1.7024244E0,6.7903876E-1,-3.815541E-1,1.7326796E-1,2.6824734E-1,1.4405845E0,-9.878381E-1,-6.128382E-1,-5.199714E-1,-1.324302E-1,-8.731573E-2,5.616675E-1,-5.611512E-1,-2.013567E-1,3.1229407E-1,2.0046577E0,2.8493935E-1,2.8041275E0,-6.630116E-2,-6.419117E-1,-1.2606215E-1,1.1791315E0,2.702361E1,-1.9404416E-1,-4.6238004E2,-3.5746518E-1,8.8174576E-1,-9.3458585E-2,-6.50476E-1,-2.0315786E-1,1.4140583E0,-2.8318778E-2,-6.102083E-1,1.1281184E0,-3.621995E-1,2.5243899E-2,-3.8401854E-1,-6.516724E-1],"split_indices":[10,15,3,3,15,13,3,9,11,3,9,15,11,14,15,11,5,3,4,3,12,3,3,15,9,16,4,12,15,5,15,6,6,5,6,14,9,4,12,16,5,5,5,3,4,12,11,0,14,10,4,14,13,0,4,11,4,5,9,5,11,3,16,0,0,0,0,0,0,0,0,0,0,0,0,0,0,0,0,0,0,0,0,0,0,0,0,0,0,0,0,0,0,0,0,0,0,0,0,0,0,0,0,0,0,0,0,0,0,0,0,0,0,0,0,0,0,0,0,0,0,0,0],"split_type":[0,0,0,0,0,0,0,0,0,0,0,0,0,0,0,0,0,0,0,0,0,0,0,0,0,0,0,0,0,0,0,0,0,0,0,0,0,0,0,0,0,0,0,0,0,0,0,0,0,0,0,0,0,0,0,0,0,0,0,0,0,0,0,0,0,0,0,0,0,0,0,0,0,0,0,0,0,0,0,0,0,0,0,0,0,0,0,0,0,0,0,0,0,0,0,0,0,0,0,0,0,0,0,0,0,0,0,0,0,0,0,0,0,0,0,0,0,0,0,0,0,0,0],"sum_hessian":[1.42092E5,6.6552E4,7.554E4,3.0321E4,3.6231E4,2.654E3,7.2886E4,2.1824E4,8.497E3,1.891E4,1.7321E4,2.467E3,1.87E2,7.625E3,6.5261E4,4.747E3,1.7077E4,5.756E3,2.741E3,7.417E3,1.1493E4,3.154E3,1.4167E4,9.53E2,1.514E3,1.5E2,3.7E1,8.47E2,6.778E3,1.142E4,5.3841E4,3.189E3,1.558E3,1.209E4,4.987E3,3.694E3,2.062E3,2.6E2,2.481E3,9.91E2,6.426E3,6.741E3,4.752E3,2.17E3,9.84E2,3.857E3,1.031E4,1.9E1,9.34E2,1.476E3,3.8E1,5.8E1,9.2E1,1.7E1,2E1,7.64E2,8.3E1,1.977E3,4.801E3,9.311E3,2.109E3,3.284E4,2.1001E4,2.644E3,5.45E2,3.1E2,1.248E3,5.106E3,6.984E3,1.353E3,3.634E3,5E2,3.194E3,9.94E2,1.068E3,1.8E2,8E1,2.331E3,1.5E2,1.96E2,7.95E2,2.915E3,3.511E3,3.545E3,3.196E3,1.254E3,3.498E3,8.78E2,1.292E3,5.75E2,4.09E2,8.23E2,3.034E3,3.436E3,6.874E3,7.13E2,2.21E2,1.104E3,3.72E2,2.6E1,1.2E1,3.9E1,1.9E1,3.5E1,5.7E1,1.6E1,4E0,1.5E1,7.49E2,1.5E1,6.8E1,2.13E2,1.764E3,3.292E3,1.509E3,4.25E2,8.886E3,2.45E2,1.864E3,2.106E4,1.178E4,7.368E3,1.3633E4],"tree_param":{"num_deleted":"0","num_feature":"17","num_nodes":"123","size_leaf_vector":"1"}},{"base_weights":[-4.764989E-2,5.7929583E0,-3.4389913E0,1.3171495E1,1.9059411E0,-1.349668E1,-1.7641009E0,2.500785E1,1.0938176E1,5.0070558E0,-1.3226566E0,-7.85072E0,-1.3862103E2,4.475292E-1,-3.894717E0,1.1894791E1,3.4182255E1,7.785307E0,1.9676682E1,1.6718844E-1,9.746382E0,1.0054014E0,-3.7487502E0,-4.5893135E1,-2.717204E0,4.009327E-1,-1.3749307E3,-1.4344509E0,3.8602912E0,-1.5010285E0,-4.926351E0,6.708867E0,2.1203663E1,5.481596E1,2.6844887E1,3.3886402E0,1.2422273E1,1.1819582E1,2.837265E1,1.1913776E1,-7.247003E-1,6.3414693E0,1.2475283E1,-3.1193073E0,3.3728235E0,-4.529764E0,6.2999406E0,-3.9375027E2,8.6554414E-1,-3.9585571E0,1.5641057E0,9.010697E0,-4.922258E0,-4.2786813E2,5.165164E-1,9.127995E0,-2.661463E0,-3.060466E0,5.5793557E0,-2.782368E0,7.4210377E0,-5.267645E0,-1.1827667E0,3.375562E0,3.994469E-1,3.0241637E0,1.4839114E0,6.2427225E0,1.9245151E0,1.7423048E0,3.221356E0,9.694883E-1,-3.1310603E-2,-2.3363726E-1,1.3646483E0,1.0148635E-1,1.6076612E0,1.6881548E0,3.642187E0,1.0059403E0,9.615589E0,-5.756416E-1,7.667171E-2,3.2862225E0,5.481366E-1,1.896299E0,6.920557E-1,3.444223E-1,-4.4954714E-1,-3.6114115E-1,5.322418E-1,-1.099227E0,-3.7222365E-1,4.0853736E-1,2.874459E0,4.4159704E-1,-4.5880624E2,2.097566E1,-2.0934682E-1,2.9965752E-1,-4.4025627E-1,2.1166072E0,7.498332E-2,1.1230989E-1,2.294061E0,1.9958606E-1,-6.2022024E-1,-9.7416885E-2,1.084801E0,2.446917E0,6.0902035E-1,-4.1144368E-1,6.561818E-2,-1.1630915E0,-2.1329515E-1,2.833342E-1,1.0058049E0,6.091214E-1,-3.4511733E-1,1.8441841E-1,1.7495949E0,-1.6830613E-1,-5.705561E-1,-1.6711275E-1,1.270685E0],"categories":[],"categories_nodes":[],"categories_segments":[],"categories_sizes":[],"default_left":[0,0,0,0,0,0,0,0,0,0,0,0,0,0,0,0,0,0,0,0,0,0,0,0,0,0,0,0,0,0,0,0,0,0,0,0,0,0,0,0,0,0,0,0,0,0,0,0,0,0,0,0,0,0,0,0,0,0,0,0,0,0,0,0,0,0,0,0,0,0,0,0,0,0,0,0,0,0,0,0,0,0,0,0,0,0,0,0,0,0,0,0,0,0,0,0,0,0,0,0,0,0,0,0,0,0,0,0,0,0,0,0,0,0,0,0,0,0,0,0,0,0,0,0,0],"id":8,"left_children":[1,3,5,7,9,11,13,15,17,19,21,23,25,27,29,31,33,35,37,39,41,43,45,47,49,51,53,55,57,59,61,63,65,67,69,71,73,75,77,79,81,83,85,87,89,91,93,95,97,99,101,103,105,-1,107,109,111,113,115,117,119,121,123,-1,-1,-1,-1,-1,-1,-1,-1,-1,-1,-1,-1,-1,-1,-1,-1,-1,-1,-1,-1,-1,-1,-1,-1,-1,-1,-1,-1,-1,-1,-1,-1,-1,-1,-1,-1,-1,-1,-1,-1,-1,-1,-1,-1,-1,-1,-1,-1,-1,-1,-1,-1,-1,-1,-1,-1,-1,-1,-1,-1,-1,-1],"loss_changes":[2.8145268E6,1.4970392E6,1.5143218E6,4.7580925E5,3.423155E5,9.064746E6,3.631377E5,3.4342362E5,4.1733262E5,4.0000906E5,9.461487E4,2.3980528E6,9.5218856E7,2.428754E5,9.691944E4,5.6725812E4,2.53027E5,2.2701006E5,2.7412662E5,9.041164E4,8.178981E4,8.349088E4,6.440703E4,2.3747736E7,5.751565E4,2.2914229E4,2.2366368E8,3.159174E5,1.5992769E5,1.3518347E5,3.503875E4,5.551424E4,2.3768266E4,1.17923625E5,6.22625E4,1.3348466E5,9.795881E4,9.712731E4,1.756795E5,9.41685E4,6.0197105E4,8.928306E4,1.7609188E5,2.8178797E4,7.398367E4,3.968347E4,2.9308035E4,2.889361E8,7.965664E5,2.5919422E4,3.8818066E4,2.0960078E4,2.7485142E3,0E0,6.112069E2,1.18083516E5,1.0527172E5,2.1239352E4,1.3239E5,6.1379883E4,8.340439E4,3.9449188E4,1.5574981E4,0E0,0E0,0E0,0E0,0E0,0E0,0E0,0E0,0E0,0E0,0E0,0E0,0E0,0E0,0E0,0E0,0E0,0E0,0E0,0E0,0E0,0E0,0E0,0E0,0E0,0E0,0E0,0E0,0E0,0E0,0E0,0E0,0E0,0E0,0E0,0E0,0E0,0E0,0E0,0E0,0E0,0E0,0E0,0E0,0E0,0E0,0E0,0E0,0E0,0E0,0E0,0E0,0E0,0E0,0E0,0E0,0E0,0E0,0E0,0E0,0E0,0E0],"parents":[2147483647,0,0,1,1,2,2,3,3,4,4,5,5,6,6,7,7,8,8,9,9,10,10,11,11,12,12,13,13,14,14,15,15,16,16,17,17,18,18,19,19,20,20,21,21,22,22,23,23,24,24,25,25,26,26,27,27,28,28,29,29,30,30,31,31,32,32,33,33,34,34,35,35,36,36,37,37,38,38,39,39,40,40,41,41,42,42,43,43,44,44,45,45,46,46,47,47,48,48,49,49,50,50,51,51,52,52,54,54,55,55,56,56,57,57,58,58,59,59,60,60,61,61,62,62],"right_children":[2,4,6,8,10,12,14,16,18,20,22,24,26,28,30,32,34,36,38,40,42,44,46,48,50,52,54,56,58,60,62,64,66,68,70,72,74,76,78,80,82,84,86,88,90,92,94,96,98,100,102,104,106,-1,108,110,112,114,116,118,120,122,124,-1,-1,-1,-1,-1,-1,-1,-1,-1,-1,-1,-1,-1,-1,-1,-1,-1,-1,-1,-1,-1,-1,-1,-1,-1,-1,-1,-1,-1,-1,-1,-1,-1,-1,-1,-1,-1,-1,-1,-1,-1,-1,-1,-1,-1,-1,-1,-1,-1,-1,-1,-1,-1,-1,-1,-1,-1,-1,-1,-1,-1,-1],"split_conditions":[-4.361025E-1,-7.350287E-1,-1.0811968E0,-1.1243382E0,4.995836E-2,1.6990556E0,4.995836E-2,7.876059E-1,1.2729446E0,-3.578713E-1,-7.494294E-1,-1.5525331E0,-8.600371E-2,6.92914E-1,-1.6047096E-1,-6.854111E-2,-1.6060904E0,-6.472015E-1,4.84032E-1,-1.7970513E0,7.9944944E-1,-7.6547784E-1,1.0153847E0,-1.1243382E0,3.9933497E-1,-1.4696661E0,-4.3368205E-1,-7.494294E-1,-6.684101E-1,6.0970247E-1,5.9347045E-1,-1.515192E0,-1.005802E0,-6.4236915E-1,-1.0378981E0,-7.494294E-1,-1.3404825E-1,9.9143857E-1,9.4777095E-1,8.8467366E-1,-1.0777389E0,-1.7361553E0,1.3781098E0,-1.4654802E0,-1.0471634E0,1.15976624E-1,5.1011926E-1,9.894703E-1,-5.713424E-1,-1.3438969E0,-4.6096075E-1,-5.1432157E-1,-1.6586753E0,-4.2786813E2,1.6382861E0,-1.6060904E0,1.0811583E0,1.4035988E-1,7.9944944E-1,-7.494294E-1,7.9944944E-1,-7.494294E-1,9.4777095E-1,3.375562E0,3.994469E-1,3.0241637E0,1.4839114E0,6.2427225E0,1.9245151E0,1.7423048E0,3.221356E0,9.694883E-1,-3.1310603E-2,-2.3363726E-1,1.3646483E0,1.0148635E-1,1.6076612E0,1.6881548E0,3.642187E0,1.0059403E0,9.615589E0,-5.756416E-1,7.667171E-2,3.2862225E0,5.481366E-1,1.896299E0,6.920557E-1,3.444223E-1,-4.4954714E-1,-3.6114115E-1,5.322418E-1,-1.099227E0,-3.7222365E-1,4.0853736E-1,2.874459E0,4.4159704E-1,-4.5880624E2,2.097566E1,-2.0934682E-1,2.9965752E-1,-4.4025627E-1,2.1166072E0,7.498332E-2,1.1230989E-1,2.294061E0,1.9958606E-1,-6.2022024E-1,-9.7416885E-2,1.084801E0,2.446917E0,6.0902035E-1,-4.1144368E-1,6.561818E-2,-1.1630915E0,-2.1329515E-1,2.833342E-1,1.0058049E0,6.091214E-1,-3.4511733E-1,1.8441841E-1,1.7495949E0,-1.6830613E-1,-5.705561E-1,-1.6711275E-1,1.270685E0],"split_indices":[9,15,3,4,15,13,15,11,11,3,5,14,11,5,16,3,14,3,6,9,3,11,12,4,11,4,4,5,11,12,11,3,9,10,5,5,12,14,12,11,16,11,3,9,16,5,3,13,11,15,5,6,16,0,4,14,13,13,3,5,3,5,12,0,0,0,0,0,0,0,0,0,0,0,0,0,0,0,0,0,0,0,0,0,0,0,0,0,0,0,0,0,0,0,0,0,0,0,0,0,0,0,0,0,0,0,0,0,0,0,0,0,0,0,0,0,0,0,0,0,0,0,0,0,0],"split_type":[0,0,0,0,0,0,0,0,0,0,0,0,0,0,0,0,0,0,0,0,0,0,0,0,0,0,0,0,0,0,0,0,0,0,0,0,0,0,0,0,0,0,0,0,0,0,0,0,0,0,0,0,0,0,0,0,0,0,0,0,0,0,0,0,0,0,0,0,0,0,0,0,0,0,0,0,0,0,0,0,0,0,0,0,0,0,0,0,0,0,0,0,0,0,0,0,0,0,0,0,0,0,0,0,0,0,0,0,0,0,0,0,0,0,0,0,0,0,0,0,0,0,0,0,0],"sum_hessian":[1.42092E5,5.2197E4,8.9895E4,1.8009E4,3.4188E4,1.2832E4,7.7063E4,2.857E3,1.5152E4,1.7438E4,1.675E4,1.2279E4,5.53E2,3.7813E4,3.925E4,1.177E3,1.68E3,1.1136E4,4.016E3,8.628E3,8.81E3,8.548E3,8.202E3,1.459E3,1.082E4,4.98E2,5.5E1,2.4373E4,1.344E4,1.1822E4,2.7428E4,7.57E2,4.2E2,4.39E2,1.241E3,5.717E3,5.419E3,2.111E3,1.905E3,6.08E2,8.02E3,3.921E3,4.889E3,3.117E3,5.431E3,7.611E3,5.91E2,1.72E2,1.287E3,8.388E3,2.432E3,1.9E2,3.08E2,1.7E1,3.8E1,2.536E3,2.1837E4,2.674E3,1.0766E4,1.0338E4,1.484E3,2.5136E4,2.292E3,6.8E1,6.89E2,1.72E2,2.48E2,3.61E2,7.8E1,4.52E2,7.89E2,2.114E3,3.603E3,4.15E2,5.004E3,5.97E2,1.514E3,7.86E2,1.119E3,5.96E2,1.2E1,1.833E3,6.187E3,1.22E2,3.799E3,2.254E3,2.635E3,5.4E2,2.577E3,1.185E3,4.246E3,8.44E2,6.767E3,5.39E2,5.2E1,1.58E2,1.4E1,1.7E1,1.27E3,5.03E2,7.885E3,9.6E1,2.336E3,1.22E2,6.8E1,4.8E1,2.6E2,3.4E1,4E0,4.18E2,2.118E3,1.5186E4,6.651E3,2.6E2,2.414E3,6.675E3,4.091E3,7.24E2,9.614E3,9.56E2,5.28E2,2.737E3,2.2399E4,2.215E3,7.7E1],"tree_param":{"num_deleted":"0","num_feature":"17","num_nodes":"125","size_leaf_vector":"1"}},{"base_weights":[-4.8559476E-2,5.264194E0,-3.0790162E0,1.1970914E1,1.7364821E0,-1.2087614E1,-1.5737673E0,2.2904148E1,9.911552E0,4.5338097E0,-1.1733226E0,-7.0189185E0,-1.2552588E2,2.6099958E0,-2.5744617E0,1.127193E1,3.0830372E1,8.408755E0,2.520597E1,-2.4608E-1,8.458191E0,9.201292E-1,-3.3500795E0,-4.1453346E1,-2.3986785E0,3.6481857E-1,-1.2450604E3,4.308355E-2,6.9371614E0,-3.5968304E0,-3.0391902E-1,6.7617774E0,1.9148441E1,4.9413887E1,2.4215677E1,5.3999386E0,1.632028E1,1.1785855E1,3.2262196E1,-3.6763356E0,2.4339128E0,3.9515066E-1,9.537463E0,-5.1302156E0,2.3054698E0,-3.7491264E0,1.298903E1,-3.5702478E2,7.360802E-1,-3.6213043E-1,-4.5782022E0,8.122226E0,-4.4313936E0,-3.8745834E2,4.9018312E-1,1.3091289E1,-1.3716573E0,-2.788229E0,9.127484E0,1.6862111E0,-4.3361993E0,-3.1701927E0,1.2271384E0,-3.6639848E-1,1.2866547E0,2.7234955E0,1.3336493E0,1.3750838E0,5.637298E0,1.5684588E0,2.9101644E0,1.2448431E0,3.178565E-1,1.9573954E0,8.261227E-1,1.6194102E0,-1.3194644E0,8.7736523E-1,3.9188244E0,1.622452E-1,-5.466092E-1,8.3631E-1,-7.389015E-2,2.3872046E0,-1.4111443E-1,1.2291751E0,5.9911484E-1,-5.8262336E-1,-1.4003132E-1,-3.5303965E-1,3.7868872E-1,-9.907236E-1,-3.0370495E-1,2.9199207E0,1.0306507E0,3.9771506E-1,-4.1598434E2,1.8994627E1,-1.9294278E-1,-2.0455086E-1,3.4131297E-1,-3.575113E-1,-6.995489E-1,1.0117016E-1,2.0679796E0,4.856078E-2,-5.9543884E-1,-8.795344E-2,9.9801695E-1,2.6796155E0,4.1362476E-1,-6.0391897E-1,-6.5560266E-4,-7.0076317E-1,-1.7054342E-1,6.160721E-1,1.2726777E0,-2.5542444E-1,4.7559562E-1,-6.280886E-1,-2.4163023E-1,-4.8038107E-1,-6.196339E-2,-4.590324E-1,2.34996E-1],"categories":[],"categories_nodes":[],"categories_segments":[],"categories_sizes":[],"default_left":[0,0,0,0,0,0,0,0,0,0,0,0,0,0,0,0,0,0,0,0,0,0,0,0,0,0,0,0,0,0,0,0,0,0,0,0,0,0,0,0,0,0,0,0,0,0,0,0,0,0,0,0,0,0,0,0,0,0,0,0,0,0,0,0,0,0,0,0,0,0,0,0,0,0,0,0,0,0,0,0,0,0,0,0,0,0,0,0,0,0,0,0,0,0,0,0,0,0,0,0,0,0,0,0,0,0,0,0,0,0,0,0,0,0,0,0,0,0,0,0,0,0,0,0,0],"id":9,"left_children":[1,3,5,7,9,11,13,15,17,19,21,23,25,27,29,31,33,35,37,39,41,43,45,47,49,51,53,55,57,59,61,63,65,67,69,71,73,75,77,79,81,83,85,87,89,91,93,95,97,99,101,103,105,-1,107,109,111,113,115,117,119,121,123,-1,-1,-1,-1,-1,-1,-1,-1,-1,-1,-1,-1,-1,-1,-1,-1,-1,-1,-1,-1,-1,-1,-1,-1,-1,-1,-1,-1,-1,-1,-1,-1,-1,-1,-1,-1,-1,-1,-1,-1,-1,-1,-1,-1,-1,-1,-1,-1,-1,-1,-1,-1,-1,-1,-1,-1,-1,-1,-1,-1,-1,-1],"loss_changes":[2.2877235E6,1.2210869E6,1.2269335E6,4.0032325E5,2.753136E5,7.447462E6,3.2459488E5,2.59563E5,3.4391062E5,3.2348566E5,7.5552516E4,1.9728418E6,7.808064E7,1.6622275E5,1.4523303E5,4.0510266E4,2.048245E5,3.2446E5,1.2641681E5,7.149419E4,8.240625E4,7.08547E4,5.304383E4,1.9531574E7,4.8535582E4,1.8601871E4,1.8341331E8,1.7342958E5,1.1871875E5,1.6851712E5,8.525352E4,4.644572E4,1.9188125E4,1.08177E5,5.1146688E4,1.5463925E5,9.832644E4,5.119933E4,1.4232888E5,3.235721E4,8.214028E4,4.748622E4,8.1505125E4,4.080668E3,5.9476117E4,3.4765266E4,8.1349844E3,2.3751523E8,6.5348844E5,3.5939227E4,1.2782539E4,1.7033637E4,2.3168584E3,0E0,5.1572327E2,1.1267584E5,5.400611E4,4.6710146E3,4.848625E4,6.896383E4,1.4127912E5,2.8180164E4,8.272517E4,0E0,0E0,0E0,0E0,0E0,0E0,0E0,0E0,0E0,0E0,0E0,0E0,0E0,0E0,0E0,0E0,0E0,0E0,0E0,0E0,0E0,0E0,0E0,0E0,0E0,0E0,0E0,0E0,0E0,0E0,0E0,0E0,0E0,0E0,0E0,0E0,0E0,0E0,0E0,0E0,0E0,0E0,0E0,0E0,0E0,0E0,0E0,0E0,0E0,0E0,0E0,0E0,0E0,0E0,0E0,0E0,0E0,0E0,0E0,0E0,0E0,0E0],"parents":[2147483647,0,0,1,1,2,2,3,3,4,4,5,5,6,6,7,7,8,8,9,9,10,10,11,11,12,12,13,13,14,14,15,15,16,16,17,17,18,18,19,19,20,20,21,21,22,22,23,23,24,24,25,25,26,26,27,27,28,28,29,29,30,30,31,31,32,32,33,33,34,34,35,35,36,36,37,37,38,38,39,39,40,40,41,41,42,42,43,43,44,44,45,45,46,46,47,47,48,48,49,49,50,50,51,51,52,52,54,54,55,55,56,56,57,57,58,58,59,59,60,60,61,61,62,62],"right_children":[2,4,6,8,10,12,14,16,18,20,22,24,26,28,30,32,34,36,38,40,42,44,46,48,50,52,54,56,58,60,62,64,66,68,70,72,74,76,78,80,82,84,86,88,90,92,94,96,98,100,102,104,106,-1,108,110,112,114,116,118,120,122,124,-1,-1,-1,-1,-1,-1,-1,-1,-1,-1,-1,-1,-1,-1,-1,-1,-1,-1,-1,-1,-1,-1,-1,-1,-1,-1,-1,-1,-1,-1,-1,-1,-1,-1,-1,-1,-1,-1,-1,-1,-1,-1,-1,-1,-1,-1,-1,-1,-1,-1,-1,-1,-1,-1,-1,-1,-1,-1,-1,-1,-1,-1],"split_conditions":[-4.4815964E-1,-7.350287E-1,-1.0811968E0,-1.1243382E0,4.995836E-2,1.6990556E0,-7.350287E-1,7.876059E-1,1.2182257E0,-5.025364E-1,-7.494294E-1,-1.5525331E0,-8.600371E-2,6.92914E-1,6.92914E-1,-6.854111E-2,-1.6060904E0,6.547844E-1,1.3700123E0,6.773161E-1,-1.2815763E0,-1.833223E0,1.150612E0,-1.1243382E0,-1.3119249E-1,-1.4696661E0,-4.3368205E-1,-7.494294E-1,-6.472015E-1,-7.494294E-1,-6.684101E-1,-1.3545568E0,-1.005802E0,9.8174137E-1,-1.0378981E0,-1.4443802E0,8.1794816E-1,2.2078907E-1,4.84032E-1,-1.0378981E0,-1.2258619E0,-1.6328691E0,5.8353525E-1,8.1794816E-1,-1.0471634E0,1.15976624E-1,-9.596133E-1,9.894703E-1,-5.713424E-1,3.9933497E-1,8.349454E-1,-5.1432157E-1,-1.0092288E0,-3.8745834E2,1.6382861E0,4.871927E-1,-1.0480581E-1,-6.684101E-1,7.9944944E-1,-1.0378981E0,7.5825715E-1,8.439655E-1,-1.0777389E0,-3.6639848E-1,1.2866547E0,2.7234955E0,1.3336493E0,1.3750838E0,5.637298E0,1.5684588E0,2.9101644E0,1.2448431E0,3.178565E-1,1.9573954E0,8.261227E-1,1.6194102E0,-1.3194644E0,8.7736523E-1,3.9188244E0,1.622452E-1,-5.466092E-1,8.3631E-1,-7.389015E-2,2.3872046E0,-1.4111443E-1,1.2291751E0,5.9911484E-1,-5.8262336E-1,-1.4003132E-1,-3.5303965E-1,3.7868872E-1,-9.907236E-1,-3.0370495E-1,2.9199207E0,1.0306507E0,3.9771506E-1,-4.1598434E2,1.8994627E1,-1.9294278E-1,-2.0455086E-1,3.4131297E-1,-3.575113E-1,-6.995489E-1,1.0117016E-1,2.0679796E0,4.856078E-2,-5.9543884E-1,-8.795344E-2,9.9801695E-1,2.6796155E0,4.1362476E-1,-6.0391897E-1,-6.5560266E-4,-7.0076317E-1,-1.7054342E-1,6.160721E-1,1.2726777E0,-2.5542444E-1,4.7559562E-1,-6.280886E-1,-2.4163023E-1,-4.8038107E-1,-6.196339E-2,-4.590324E-1,2.34996E-1],"split_indices":[9,15,3,4,15,13,15,11,12,3,5,14,11,5,5,3,14,3,11,12,16,11,12,4,15,4,4,5,3,5,11,4,9,11,5,9,16,3,6,5,3,14,16,16,16,5,11,13,11,11,15,6,4,0,4,4,13,11,3,5,13,13,16,0,0,0,0,0,0,0,0,0,0,0,0,0,0,0,0,0,0,0,0,0,0,0,0,0,0,0,0,0,0,0,0,0,0,0,0,0,0,0,0,0,0,0,0,0,0,0,0,0,0,0,0,0,0,0,0,0,0,0,0,0,0],"split_type":[0,0,0,0,0,0,0,0,0,0,0,0,0,0,0,0,0,0,0,0,0,0,0,0,0,0,0,0,0,0,0,0,0,0,0,0,0,0,0,0,0,0,0,0,0,0,0,0,0,0,0,0,0,0,0,0,0,0,0,0,0,0,0,0,0,0,0,0,0,0,0,0,0,0,0,0,0,0,0,0,0,0,0,0,0,0,0,0,0,0,0,0,0,0,0,0,0,0,0,0,0,0,0,0,0,0,0,0,0,0,0,0,0,0,0,0,0,0,0,0,0,0,0,0,0],"sum_hessian":[1.42092E5,5.1611E4,9.0481E4,1.7789E4,3.3822E4,1.2953E4,7.7528E4,2.818E3,1.4971E4,1.7244E4,1.6578E4,1.24E4,5.53E2,1.4964E4,6.2564E4,1.143E3,1.675E3,1.3633E4,1.338E3,7.775E3,9.469E3,8.451E3,8.127E3,1.466E3,1.0934E4,4.98E2,5.5E1,9.393E3,5.571E3,4.3139E4,1.9425E4,7.28E2,4.15E2,4.38E2,1.237E3,9.878E3,3.755E3,4.62E2,8.76E2,3.41E3,4.365E3,1.118E3,8.351E3,1.574E3,6.877E3,7.934E3,1.93E2,1.72E2,1.294E3,5.653E3,5.281E3,1.9E2,3.08E2,1.7E1,3.8E1,9.18E2,8.475E3,1.024E3,4.547E3,5.296E3,3.7843E4,6.763E3,1.2662E4,2.69E2,4.59E2,1.72E2,2.43E2,7.2E1,3.66E2,4.52E2,7.85E2,2.366E3,7.512E3,2.674E3,1.081E3,3.93E2,6.9E1,2E2,6.76E2,8.61E2,2.549E3,1.521E3,2.844E3,7.9E1,1.039E3,4.699E3,3.652E3,1.326E3,2.48E2,1.392E3,5.485E3,8.21E2,7.113E3,2.6E1,1.67E2,1.58E2,1.4E1,1.7E1,1.277E3,3.91E3,1.743E3,3.734E3,1.547E3,1.22E2,6.8E1,7.3E1,2.35E2,3.4E1,4E0,3.62E2,5.56E2,1.917E3,6.558E3,2.08E2,8.16E2,2.494E3,2.053E3,2.224E3,3.072E3,1.8799E4,1.9044E4,4.122E3,2.641E3,2.048E3,1.0614E4],"tree_param":{"num_deleted":"0","num_feature":"17","num_nodes":"125","size_leaf_vector":"1"}},{"base_weights":[-4.896902E-2,3.809068E0,-3.4479694E0,9.329933E0,1.0025043E0,-2.5034935E1,-2.6615899E0,1.3338984E1,4.9898996E0,3.024279E0,-2.1259234E0,-1.4567596E0,-3.3442804E2,-9.326233E0,-1.8827718E0,1.0537498E1,2.2014465E1,1.2622169E1,2.9106505E0,-8.710218E-1,5.7323947E0,2.426748E0,-2.8406713E0,1.3000736E0,-3.1917841E0,1.6806145E0,-1.6612169E3,-6.2262085E1,-2.7029948E0,3.0304816E-1,-3.1157146E0,2.1830736E1,8.1589365E0,1.21833105E1,2.6921028E1,2.0445843E1,8.7721837E-1,-5.550806E0,6.9446077E0,9.0827875E-2,-7.3764777E0,3.5538232E0,9.132353E0,-3.1953573E0,4.9205203E0,-5.4640045E0,-1.870371E0,2.1450384E0,8.6766046E-1,-3.5006404E0,8.587005E0,9.095889E0,-3.041771E0,-3.5086505E2,1.402912E0,2.8552065E0,-6.5455334E2,-4.0527797E0,8.006163E-2,-2.7050576E0,1.5256122E0,-3.945841E0,-1.054446E0,8.3840483E-1,3.5894578E0,-3.647428E-1,9.9627966E-1,8.7689894E-1,2.4609292E0,2.3563135E0,3.7181938E0,4.142137E0,1.5159808E0,-7.4762546E-2,3.9805849E0,-1.0913513E0,-8.981186E-2,3.827266E-1,1.3456044E0,-4.817979E-1,1.7000929E-1,1.3550916E0,-8.010349E-1,4.3311095E0,3.2542437E-1,1.5564786E0,6.91856E-1,-7.525644E-1,-4.253663E-2,1.0290703E0,2.1736339E-1,-4.3020582E-1,-7.081847E-1,-2.1657677E-1,8.157388E-1,-4.1763004E-2,4.9975243E-1,-3.9780158E-1,9.804531E-2,3.5167864E-1,1.845692E0,1.7548765E0,-2.3077129E-1,2.9711617E-2,-5.061739E-1,-9.675074E-2,9.1817564E-1,2.0742933E1,-1.5128481E-1,-3.42493E2,-2.6608765E-1,1.7480601E0,-4.295116E-1,1.3985555E0,-6.601928E-2,8.479312E-1,-3.2930169E-1,-3.5528934E-1,2.6662788E-1,-5.1499027E-1,-2.1747224E-1,2.535334E-1,-3.1092447E-1],"categories":[],"categories_nodes":[],"categories_segments":[],"categories_sizes":[],"default_left":[0,0,0,0,0,0,0,0,0,0,0,0,0,0,0,0,0,0,0,0,0,0,0,0,0,0,0,0,0,0,0,0,0,0,0,0,0,0,0,0,0,0,0,0,0,0,0,0,0,0,0,0,0,0,0,0,0,0,0,0,0,0,0,0,0,0,0,0,0,0,0,0,0,0,0,0,0,0,0,0,0,0,0,0,0,0,0,0,0,0,0,0,0,0,0,0,0,0,0,0,0,0,0,0,0,0,0,0,0,0,0,0,0,0,0,0,0,0,0,0,0,0,0],"id":10,"left_children":[1,3,5,7,9,11,13,15,17,19,21,23,25,27,29,31,33,35,37,39,41,43,45,47,49,51,53,55,57,59,61,63,65,67,69,71,73,75,77,79,81,83,85,87,89,91,93,-1,95,97,99,101,103,-1,105,107,109,111,113,115,117,119,121,-1,-1,-1,-1,-1,-1,-1,-1,-1,-1,-1,-1,-1,-1,-1,-1,-1,-1,-1,-1,-1,-1,-1,-1,-1,-1,-1,-1,-1,-1,-1,-1,-1,-1,-1,-1,-1,-1,-1,-1,-1,-1,-1,-1,-1,-1,-1,-1,-1,-1,-1,-1,-1,-1,-1,-1,-1,-1,-1,-1],"loss_changes":[1.8633454E6,1.0312067E6,1.2822832E6,3.9020212E5,2.790897E5,1.936754E7,3.783056E5,2.83131E5,1.7090831E5,2.8274788E5,5.637289E4,1.1809021E4,8.384049E7,2.6735585E6,1.758814E5,2.366075E5,1.3690688E5,2.1187734E5,2.8904397E5,6.878685E4,1.1708044E5,3.2977336E4,3.8099836E4,8.293838E3,5.5415605E3,5.3153535E3,1.1672494E8,3.2707876E7,2.546582E4,8.656384E4,7.139378E4,2.8960794E5,1.5514256E5,4.004675E4,6.4485125E4,1.5282638E5,5.8412227E4,6.820622E4,1.16339375E5,7.567027E4,1.8892195E4,1.14652125E5,8.781053E4,8.669078E3,2.4007465E4,7.567867E3,3.2397113E4,0E0,4.9651367E3,3.1634434E3,1.8867537E3,5.727698E3,6.287373E2,0E0,3.9610498E2,6.839109E5,1.5169386E8,2.3896742E4,2.2809562E4,4.4757555E4,9.695911E4,6.342325E4,8.838303E4,0E0,0E0,0E0,0E0,0E0,0E0,0E0,0E0,0E0,0E0,0E0,0E0,0E0,0E0,0E0,0E0,0E0,0E0,0E0,0E0,0E0,0E0,0E0,0E0,0E0,0E0,0E0,0E0,0E0,0E0,0E0,0E0,0E0,0E0,0E0,0E0,0E0,0E0,0E0,0E0,0E0,0E0,0E0,0E0,0E0,0E0,0E0,0E0,0E0,0E0,0E0,0E0,0E0,0E0,0E0,0E0,0E0,0E0,0E0,0E0],"parents":[2147483647,0,0,1,1,2,2,3,3,4,4,5,5,6,6,7,7,8,8,9,9,10,10,11,11,12,12,13,13,14,14,15,15,16,16,17,17,18,18,19,19,20,20,21,21,22,22,23,23,24,24,25,25,26,26,27,27,28,28,29,29,30,30,31,31,32,32,33,33,34,34,35,35,36,36,37,37,38,38,39,39,40,40,41,41,42,42,43,43,44,44,45,45,46,46,48,48,49,49,50,50,51,51,52,52,54,54,55,55,56,56,57,57,58,58,59,59,60,60,61,61,62,62],"right_children":[2,4,6,8,10,12,14,16,18,20,22,24,26,28,30,32,34,36,38,40,42,44,46,48,50,52,54,56,58,60,62,64,66,68,70,72,74,76,78,80,82,84,86,88,90,92,94,-1,96,98,100,102,104,-1,106,108,110,112,114,116,118,120,122,-1,-1,-1,-1,-1,-1,-1,-1,-1,-1,-1,-1,-1,-1,-1,-1,-1,-1,-1,-1,-1,-1,-1,-1,-1,-1,-1,-1,-1,-1,-1,-1,-1,-1,-1,-1,-1,-1,-1,-1,-1,-1,-1,-1,-1,-1,-1,-1,-1,-1,-1,-1,-1,-1,-1,-1,-1,-1,-1,-1],"split_conditions":[-4.508704E-2,-7.350287E-1,-1.515192E0,-8.2193077E-1,3.8710022E-1,1.6990556E0,-1.0811968E0,1.3700123E0,-7.494294E-1,-5.025364E-1,-1.3207946E0,-5.1362205E-1,-8.600371E-2,-1.5525331E0,-2.871835E-1,-1.1243382E0,4.84032E-1,4.84032E-1,1.15976624E-1,1.1033205E0,6.773161E-1,-7.918666E-1,-5.025364E-1,-1.635751E0,1.2473747E0,-8.0255854E-1,-4.3368205E-1,6.773161E-1,5.2696097E-1,-1.0806401E0,9.4411457E-1,-1.0378981E0,-6.6390073E-1,7.9944944E-1,-8.9810616E-1,-1.1776321E0,1.7582833E0,1.4186466E-1,5.1011926E-1,-1.0471634E0,-1.7593728E0,-1.7361553E0,-1.3263668E0,-8.9411944E-1,-5.1432157E-1,1.55832E0,1.0829984E0,2.1450384E0,9.9143857E-1,1.4080675E0,1.2929581E0,-1.4696661E0,1.7867571E0,-3.5086505E2,1.6382861E0,-5.713424E-1,-1.1243382E0,-2.562903E-1,-1.7249206E-1,-7.494294E-1,-6.684101E-1,-1.3404825E-1,1.5547688E-1,8.3840483E-1,3.5894578E0,-3.647428E-1,9.9627966E-1,8.7689894E-1,2.4609292E0,2.3563135E0,3.7181938E0,4.142137E0,1.5159808E0,-7.4762546E-2,3.9805849E0,-1.0913513E0,-8.981186E-2,3.827266E-1,1.3456044E0,-4.817979E-1,1.7000929E-1,1.3550916E0,-8.010349E-1,4.3311095E0,3.2542437E-1,1.5564786E0,6.91856E-1,-7.525644E-1,-4.253663E-2,1.0290703E0,2.1736339E-1,-4.3020582E-1,-7.081847E-1,-2.1657677E-1,8.157388E-1,-4.1763004E-2,4.9975243E-1,-3.9780158E-1,9.804531E-2,3.5167864E-1,1.845692E0,1.7548765E0,-2.3077129E-1,2.9711617E-2,-5.061739E-1,-9.675074E-2,9.1817564E-1,2.0742933E1,-1.5128481E-1,-3.42493E2,-2.6608765E-1,1.7480601E0,-4.295116E-1,1.3985555E0,-6.601928E-2,8.479312E-1,-3.2930169E-1,-3.5528934E-1,2.6662788E-1,-5.1499027E-1,-2.1747224E-1,2.535334E-1,-3.1092447E-1],"split_indices":[10,15,3,9,15,13,3,11,5,3,9,15,11,14,15,4,6,6,5,16,12,3,3,15,9,16,4,12,9,12,3,5,4,3,13,14,11,4,3,16,9,11,5,4,6,5,12,0,14,4,4,4,13,0,4,11,4,13,5,5,11,12,16,0,0,0,0,0,0,0,0,0,0,0,0,0,0,0,0,0,0,0,0,0,0,0,0,0,0,0,0,0,0,0,0,0,0,0,0,0,0,0,0,0,0,0,0,0,0,0,0,0,0,0,0,0,0,0,0,0,0,0,0],"split_type":[0,0,0,0,0,0,0,0,0,0,0,0,0,0,0,0,0,0,0,0,0,0,0,0,0,0,0,0,0,0,0,0,0,0,0,0,0,0,0,0,0,0,0,0,0,0,0,0,0,0,0,0,0,0,0,0,0,0,0,0,0,0,0,0,0,0,0,0,0,0,0,0,0,0,0,0,0,0,0,0,0,0,0,0,0,0,0,0,0,0,0,0,0,0,0,0,0,0,0,0,0,0,0,0,0,0,0,0,0,0,0,0,0,0,0,0,0,0,0,0,0,0,0],"sum_hessian":[1.42092E5,6.6552E4,7.554E4,2.2429E4,4.4123E4,2.654E3,7.2886E4,1.1658E4,1.0771E4,2.6802E4,1.7321E4,2.467E3,1.87E2,7.625E3,6.5261E4,8.814E3,2.844E3,2.305E3,8.466E3,1.0992E4,1.581E4,2.35E3,1.4971E4,9.53E2,1.514E3,1.5E2,3.7E1,8.47E2,6.778E3,2.3536E4,4.1725E4,1.532E3,7.282E3,9.48E2,1.896E3,1.383E3,9.22E2,2.733E3,5.733E3,9.577E3,1.415E3,9.637E3,6.173E3,7.22E2,1.628E3,4.041E3,1.093E4,1.9E1,9.34E2,1.476E3,3.8E1,5.8E1,9.2E1,1.7E1,2E1,7.64E2,8.3E1,4.564E3,2.214E3,6.801E3,1.6735E4,2.9745E4,1.198E4,7.84E2,7.48E2,9.65E2,6.317E3,7.45E2,2.03E2,1.431E3,4.65E2,2.77E2,1.106E3,8.86E2,3.6E1,1.269E3,1.464E3,3.878E3,1.855E3,2.364E3,7.213E3,4.1E1,1.374E3,7.1E1,9.566E3,1.579E3,4.594E3,2.81E2,4.41E2,5.5E2,1.078E3,2.354E3,1.687E3,1.0618E4,3.12E2,7.13E2,2.21E2,1.334E3,1.42E2,2.6E1,1.2E1,3.3E1,2.5E1,3.5E1,5.7E1,1.6E1,4E0,1.5E1,7.49E2,1.5E1,6.8E1,5E1,4.514E3,1.11E2,2.103E3,3.39E2,6.462E3,3.069E3,1.3666E4,1.7706E4,1.2039E4,4.361E3,7.619E3],"tree_param":{"num_deleted":"0","num_feature":"17","num_nodes":"123","size_leaf_vector":"1"}},{"base_weights":[-4.8525102E-2,4.2846165E0,-2.5201995E0,9.692197E0,1.4402456E0,-9.908389E0,-1.285705E0,1.8709387E1,7.99375E0,-8.205533E-2,5.382114E0,-5.7533436E0,-1.0289902E2,-2.161599E0,2.0933728E0,8.630112E0,2.5578112E1,5.541936E0,1.471769E1,2.720942E0,-1.5250484E0,9.714042E0,7.778486E-1,-3.4136936E1,-1.9449779E0,3.3619455E-1,-1.020961E3,3.0287735E0,-2.7443001E0,-2.7483907E0,4.9816575E0,2.4703345E0,1.3159734E1,4.167344E1,1.9849981E1,1.9389287E0,9.298172E0,8.767338E0,2.1283195E1,4.1459823E0,-6.2095565E-1,-1.9614903E0,9.00981E0,1.3706485E1,2.9661646E0,4.5733886E0,-2.657289E0,-2.9380856E2,5.791489E-1,9.2230934E-1,-3.127117E0,7.116214E0,-3.8557792E0,-3.1772775E2,4.4049093E-1,3.4604967E-2,9.178941E0,-3.8779671E0,-3.6432724E-2,-5.700315E0,-9.04297E-1,2.0512085E0,9.086187E0,2.7908123E0,-1.7346357E-1,1.6963764E0,4.888074E-1,-4.8471862E-1,4.6477942E0,9.220373E-1,2.34831E0,-1.014155E0,3.227003E-1,1.7234176E0,7.3295206E-1,2.7830392E-1,1.488732E0,1.2731385E0,2.7235188E0,1.5971011E0,3.309128E-1,-3.755462E-1,1.3511243E-1,-8.097836E-2,-5.509056E-1,1.1082921E0,-4.86883E-1,2.9015453E0,1.16016E0,-4.442779E-1,7.3190796E-1,1.2474532E0,1.0229931E-1,-8.7496065E-2,-6.659712E-1,5.9753764E-1,-3.451931E2,1.5481012E1,-1.5935715E-1,1.1405429E0,8.944163E-3,-3.5331455E-1,3.7694356E-1,8.2276784E-2,1.8231833E0,1.8645209E-1,-4.9149323E-1,-7.159124E-2,8.447216E-1,8.4616774E-1,-1.4100458E-1,-1.1725389E-1,1.3477277E0,-1.8206437E-1,-4.6949968E-1,8.737282E-1,-6.255472E-2,-4.2681828E-1,-8.072836E-1,-2.6296154E-1,3.1322014E-1,4.656024E-1,-6.3364618E-3,1.5321236E0,5.854011E-1],"categories":[],"categories_nodes":[],"categories_segments":[],"categories_sizes":[],"default_left":[0,0,0,0,0,0,0,0,0,0,0,0,0,0,0,0,0,0,0,0,0,0,0,0,0,0,0,0,0,0,0,0,0,0,0,0,0,0,0,0,0,0,0,0,0,0,0,0,0,0,0,0,0,0,0,0,0,0,0,0,0,0,0,0,0,0,0,0,0,0,0,0,0,0,0,0,0,0,0,0,0,0,0,0,0,0,0,0,0,0,0,0,0,0,0,0,0,0,0,0,0,0,0,0,0,0,0,0,0,0,0,0,0,0,0,0,0,0,0,0,0,0,0,0,0],"id":11,"left_children":[1,3,5,7,9,11,13,15,17,19,21,23,25,27,29,31,33,35,37,39,41,43,45,47,49,51,53,55,57,59,61,63,65,67,69,71,73,75,77,79,81,83,85,87,89,91,93,95,97,99,101,103,105,-1,107,109,111,113,115,117,119,121,123,-1,-1,-1,-1,-1,-1,-1,-1,-1,-1,-1,-1,-1,-1,-1,-1,-1,-1,-1,-1,-1,-1,-1,-1,-1,-1,-1,-1,-1,-1,-1,-1,-1,-1,-1,-1,-1,-1,-1,-1,-1,-1,-1,-1,-1,-1,-1,-1,-1,-1,-1,-1,-1,-1,-1,-1,-1,-1,-1,-1,-1,-1],"loss_changes":[1.5218431E6,7.9383856E5,8.252446E5,2.7230825E5,2.0296244E5,5.004578E6,2.2946822E5,1.9494362E5,2.4674462E5,9.869901E4,1.8793744E5,1.340421E6,5.2506424E7,1.8622284E5,2.232046E5,3.1886773E4,1.536935E5,1.4848778E5,1.5608169E5,3.9496652E4,7.4084484E4,1.3075556E5,5.9583707E4,1.3224854E7,3.706742E4,1.4209848E4,1.2333944E8,1.1444664E5,1.6993281E5,3.2460629E4,1.20226484E5,5.203347E4,2.065293E4,9.83455E4,4.7593344E4,8.720294E4,8.380166E4,7.686855E4,9.641469E4,5.7481492E4,1.5335187E4,6.3198086E4,1.8496797E4,9.7945375E4,5.827692E4,6.0888527E4,1.7107758E4,1.6380915E8,4.3420216E5,2.787723E4,2.1695242E4,1.3346509E4,1.881294E3,0E0,3.671486E2,5.091216E4,9.056136E4,6.558E4,8.4446875E4,7.756617E3,2.5580941E4,3.2134393E4,8.382647E4,0E0,0E0,0E0,0E0,0E0,0E0,0E0,0E0,0E0,0E0,0E0,0E0,0E0,0E0,0E0,0E0,0E0,0E0,0E0,0E0,0E0,0E0,0E0,0E0,0E0,0E0,0E0,0E0,0E0,0E0,0E0,0E0,0E0,0E0,0E0,0E0,0E0,0E0,0E0,0E0,0E0,0E0,0E0,0E0,0E0,0E0,0E0,0E0,0E0,0E0,0E0,0E0,0E0,0E0,0E0,0E0,0E0,0E0,0E0,0E0,0E0,0E0],"parents":[2147483647,0,0,1,1,2,2,3,3,4,4,5,5,6,6,7,7,8,8,9,9,10,10,11,11,12,12,13,13,14,14,15,15,16,16,17,17,18,18,19,19,20,20,21,21,22,22,23,23,24,24,25,25,26,26,27,27,28,28,29,29,30,30,31,31,32,32,33,33,34,34,35,35,36,36,37,37,38,38,39,39,40,40,41,41,42,42,43,43,44,44,45,45,46,46,47,47,48,48,49,49,50,50,51,51,52,52,54,54,55,55,56,56,57,57,58,58,59,59,60,60,61,61,62,62],"right_children":[2,4,6,8,10,12,14,16,18,20,22,24,26,28,30,32,34,36,38,40,42,44,46,48,50,52,54,56,58,60,62,64,66,68,70,72,74,76,78,80,82,84,86,88,90,92,94,96,98,100,102,104,106,-1,108,110,112,114,116,118,120,122,124,-1,-1,-1,-1,-1,-1,-1,-1,-1,-1,-1,-1,-1,-1,-1,-1,-1,-1,-1,-1,-1,-1,-1,-1,-1,-1,-1,-1,-1,-1,-1,-1,-1,-1,-1,-1,-1,-1,-1,-1,-1,-1,-1,-1,-1,-1,-1,-1,-1,-1,-1,-1,-1,-1,-1,-1,-1,-1,-1,-1,-1,-1],"split_conditions":[-4.4815964E-1,-7.350287E-1,-1.0811968E0,-1.1243382E0,7.9944944E-1,1.6990556E0,9.8138267E-1,7.876059E-1,1.2729446E0,-1.1399376E0,2.1098134E-1,-1.5525331E0,-8.600371E-2,-7.494294E-1,-2.8013918E-1,-6.472015E-1,-1.6060904E0,-6.472015E-1,4.84032E-1,3.8710022E-1,1.150612E0,1.5227749E0,-9.138664E-1,-1.1243382E0,-7.551565E-1,-1.4696661E0,-4.3368205E-1,7.9944944E-1,1.1967648E0,3.8497983E-3,6.547844E-1,-1.515192E0,2.5739554E-1,-9.4541264E-1,-1.5847754E0,-7.7901006E-1,-1.4775373E0,-8.835403E-2,9.4777095E-1,-1.444952E0,-6.684101E-1,8.892912E-1,1.4823855E0,-1.6060904E0,2.4163637E-1,2.0402025E-1,9.832088E-1,9.894703E-1,-5.713424E-1,-3.893811E-1,1.0403967E0,-5.1432157E-1,-1.6586753E0,-3.1772775E2,1.6382861E0,-1.4186399E0,-1.0378981E0,-5.1362205E-1,-1.5847754E0,9.832088E-1,8.439655E-1,-4.5603508E-1,-4.3368205E-1,2.7908123E0,-1.7346357E-1,1.6963764E0,4.888074E-1,-4.8471862E-1,4.6477942E0,9.220373E-1,2.34831E0,-1.014155E0,3.227003E-1,1.7234176E0,7.3295206E-1,2.7830392E-1,1.488732E0,1.2731385E0,2.7235188E0,1.5971011E0,3.309128E-1,-3.755462E-1,1.3511243E-1,-8.097836E-2,-5.509056E-1,1.1082921E0,-4.86883E-1,2.9015453E0,1.16016E0,-4.442779E-1,7.3190796E-1,1.2474532E0,1.0229931E-1,-8.7496065E-2,-6.659712E-1,5.9753764E-1,-3.451931E2,1.5481012E1,-1.5935715E-1,1.1405429E0,8.944163E-3,-3.5331455E-1,3.7694356E-1,8.2276784E-2,1.8231833E0,1.8645209E-1,-4.9149323E-1,-7.159124E-2,8.447216E-1,8.4616774E-1,-1.4100458E-1,-1.1725389E-1,1.3477277E0,-1.8206437E-1,-4.6949968E-1,8.737282E-1,-6.255472E-2,-4.2681828E-1,-8.072836E-1,-2.6296154E-1,3.1322014E-1,4.656024E-1,-6.3364618E-3,1.5321236E0,5.854011E-1],"split_indices":[9,15,3,4,3,13,5,11,11,9,15,14,11,5,11,3,14,3,6,15,12,3,9,4,15,4,4,3,13,1,3,3,16,12,4,4,9,4,12,11,11,16,6,14,14,12,6,13,11,9,10,6,16,0,4,14,5,15,4,6,13,16,4,0,0,0,0,0,0,0,0,0,0,0,0,0,0,0,0,0,0,0,0,0,0,0,0,0,0,0,0,0,0,0,0,0,0,0,0,0,0,0,0,0,0,0,0,0,0,0,0,0,0,0,0,0,0,0,0,0,0,0,0,0,0],"split_type":[0,0,0,0,0,0,0,0,0,0,0,0,0,0,0,0,0,0,0,0,0,0,0,0,0,0,0,0,0,0,0,0,0,0,0,0,0,0,0,0,0,0,0,0,0,0,0,0,0,0,0,0,0,0,0,0,0,0,0,0,0,0,0,0,0,0,0,0,0,0,0,0,0,0,0,0,0,0,0,0,0,0,0,0,0,0,0,0,0,0,0,0,0,0,0,0,0,0,0,0,0,0,0,0,0,0,0,0,0,0,0,0,0,0,0,0,0,0,0,0,0,0,0,0,0],"sum_hessian":[1.42092E5,5.1611E4,9.0481E4,1.7789E4,3.3822E4,1.2953E4,7.7528E4,2.818E3,1.4971E4,2.44E4,9.422E3,1.24E4,5.53E2,6.1569E4,1.5959E4,1.143E3,1.675E3,1.0972E4,3.999E3,8.292E3,1.6108E4,4.854E3,4.568E3,1.466E3,1.0934E4,4.98E2,5.5E1,6.214E3,5.5355E4,5.963E3,9.996E3,4.85E2,6.58E2,4.38E2,1.237E3,5.601E3,5.371E3,2.099E3,1.9E3,5.813E3,2.479E3,1.5468E4,6.4E2,3.049E3,1.805E3,2.17E3,2.398E3,1.72E2,1.294E3,3.192E3,7.742E3,1.9E2,3.08E2,1.7E1,3.8E1,4.18E3,2.034E3,3.9019E4,1.6336E4,2.292E3,3.671E3,5.833E3,4.163E3,6.8E1,4.17E2,4.5E2,2.08E2,4.1E1,3.97E2,3.16E2,9.21E2,5.39E2,5.062E3,1.066E3,4.305E3,1.062E3,1.037E3,7.81E2,1.119E3,3.83E2,5.43E3,9.57E2,1.522E3,1.1678E4,3.79E3,5.57E2,8.3E1,3.67E2,2.682E3,6.68E2,1.137E3,6.72E2,1.498E3,1.66E3,7.38E2,1.58E2,1.4E1,1.7E1,1.277E3,2.34E2,2.958E3,7.312E3,4.3E2,1.22E2,6.8E1,4.8E1,2.6E2,3.4E1,4E0,6.11E2,3.569E3,5.97E2,1.437E3,1.1092E4,2.7927E4,1.027E3,1.5309E4,1.431E3,8.61E2,2.572E3,1.099E3,2.613E3,3.22E3,1.42E3,2.743E3],"tree_param":{"num_deleted":"0","num_feature":"17","num_nodes":"125","size_leaf_vector":"1"}},{"base_weights":[-4.799089E-2,5.24961E0,-1.7015064E0,1.0684304E1,2.2293708E0,-2.929447E0,2.6488197E0,8.430449E0,1.7680576E1,8.7123597E-1,6.7272954E0,-9.521366E0,-1.7024533E0,-7.284601E-1,5.0244303E0,1.7507421E1,6.5484447E0,9.720606E0,2.2056162E1,-1.3748597E0,3.2278059E0,2.1986347E1,5.011651E0,-5.857427E0,-9.922728E1,2.7626722E0,-2.1887083E0,-4.5099435E0,5.7499666E0,1.467002E1,3.718069E0,6.0365458E0,2.9266905E1,4.051906E0,1.3162981E1,-4.779969E-2,1.308995E1,1.930111E1,3.1055138E1,4.9659557E0,-2.528661E0,4.492177E0,-2.5165267E0,8.00701E0,1.5484696E1,-1.0656706E0,7.572162E0,-4.2354633E1,-2.382344E0,3.0578214E-1,-2.3523079E3,1.3003087E1,1.5870489E0,-3.9699318E0,-1.0858198E0,4.0382347E0,-5.713703E0,-5.8502183E0,7.261872E0,9.755655E0,2.8124083E1,-9.498936E-1,5.3478985E0,-2.7629218E-1,1.1577939E0,5.363845E-1,4.2880282E0,1.0187756E0,-1.3568533E-2,9.553029E-1,2.5695314E0,5.6657565E-1,-2.1880891E0,9.4772524E-1,2.2862844E0,1.2503151E0,2.8084424E0,1.8140948E0,3.880343E0,3.8010693E0,3.079004E-1,-2.7739042E-1,1.1322335E0,2.1195439E-1,8.7323123E-1,-4.2848846E-1,1.508406E-2,2.2587063E0,1.8112819E-1,-2.1497583E0,-3.900654E-2,1.0332383E0,-1.320945E-1,-4.1402534E1,-1.3464884E-1,4.8860893E-1,-3.0607167E-1,6.4145684E-1,-3.4711885E-1,-2.8772018E2,7.771438E-1,2.1081624E0,1.426311E-1,-1.70003E-2,7.339475E-1,-1.6144729E-1,-4.713349E-1,-2.222466E-1,9.334663E-2,3.2016342E0,1.8351321E-1,-8.3997554E-1,-4.446346E-1,-6.026834E-1,7.311298E-1,9.16074E-1,-4.0853047E-1,3.1624954E0,8.521811E-1,4.7681003E0,1.8152161E0,-3.0506033E-1,3.595992E-1,1.093822E0,3.9184746E-1],"categories":[],"categories_nodes":[],"categories_segments":[],"categories_sizes":[],"default_left":[0,0,0,0,0,0,0,0,0,0,0,0,0,0,0,0,0,0,0,0,0,0,0,0,0,0,0,0,0,0,0,0,0,0,0,0,0,0,0,0,0,0,0,0,0,0,0,0,0,0,0,0,0,0,0,0,0,0,0,0,0,0,0,0,0,0,0,0,0,0,0,0,0,0,0,0,0,0,0,0,0,0,0,0,0,0,0,0,0,0,0,0,0,0,0,0,0,0,0,0,0,0,0,0,0,0,0,0,0,0,0,0,0,0,0,0,0,0,0,0,0,0,0,0,0],"id":12,"left_children":[1,3,5,7,9,11,13,15,17,19,21,23,25,27,29,31,33,35,37,39,41,43,45,47,49,51,53,55,57,59,61,63,65,67,69,71,73,75,77,79,81,83,85,-1,87,89,91,93,95,97,99,101,103,105,107,109,111,113,115,117,119,121,123,-1,-1,-1,-1,-1,-1,-1,-1,-1,-1,-1,-1,-1,-1,-1,-1,-1,-1,-1,-1,-1,-1,-1,-1,-1,-1,-1,-1,-1,-1,-1,-1,-1,-1,-1,-1,-1,-1,-1,-1,-1,-1,-1,-1,-1,-1,-1,-1,-1,-1,-1,-1,-1,-1,-1,-1,-1,-1,-1,-1,-1,-1],"loss_changes":[1.244696E6,5.547884E5,5.785026E5,1.9024088E5,1.327259E5,6.830763E5,1.9126636E5,1.5592056E5,1.0221931E5,8.834596E4,1.3180631E5,4.355375E6,1.5460127E5,2.4120938E5,1.7629122E5,2.1133331E5,1.2490394E5,3.439483E4,4.643225E4,6.2535453E4,5.9168195E4,1.9097905E5,7.051518E4,1.6149628E6,1.1661384E8,8.416719E4,1.26137625E5,6.3995703E4,6.3689273E4,1.1007684E5,9.378866E4,3.8797227E4,2.5163062E5,1.4119228E5,9.353934E4,3.368027E4,2.7216484E4,8.652494E4,4.3623938E4,8.194061E4,2.4594098E4,6.714394E4,6.9344277E3,0E0,4.4534242E4,1.8544064E4,7.8269266E4,1.6871812E7,5.734921E4,1.1535546E4,2.7275768E7,6.730677E4,6.3414516E4,4.2988594E4,9.102567E4,4.7279723E4,1.85155E4,1.018042E3,6.922416E4,3.2758078E4,8.611344E4,3.0483697E4,7.297034E4,0E0,0E0,0E0,0E0,0E0,0E0,0E0,0E0,0E0,0E0,0E0,0E0,0E0,0E0,0E0,0E0,0E0,0E0,0E0,0E0,0E0,0E0,0E0,0E0,0E0,0E0,0E0,0E0,0E0,0E0,0E0,0E0,0E0,0E0,0E0,0E0,0E0,0E0,0E0,0E0,0E0,0E0,0E0,0E0,0E0,0E0,0E0,0E0,0E0,0E0,0E0,0E0,0E0,0E0,0E0,0E0,0E0,0E0,0E0,0E0,0E0,0E0],"parents":[2147483647,0,0,1,1,2,2,3,3,4,4,5,5,6,6,7,7,8,8,9,9,10,10,11,11,12,12,13,13,14,14,15,15,16,16,17,17,18,18,19,19,20,20,21,21,22,22,23,23,24,24,25,25,26,26,27,27,28,28,29,29,30,30,31,31,32,32,33,33,34,34,35,35,36,36,37,37,38,38,39,39,40,40,41,41,42,42,44,44,45,45,46,46,47,47,48,48,49,49,50,50,51,51,52,52,53,53,54,54,55,55,56,56,57,57,58,58,59,59,60,60,61,61,62,62],"right_children":[2,4,6,8,10,12,14,16,18,20,22,24,26,28,30,32,34,36,38,40,42,44,46,48,50,52,54,56,58,60,62,64,66,68,70,72,74,76,78,80,82,84,86,-1,88,90,92,94,96,98,100,102,104,106,108,110,112,114,116,118,120,122,124,-1,-1,-1,-1,-1,-1,-1,-1,-1,-1,-1,-1,-1,-1,-1,-1,-1,-1,-1,-1,-1,-1,-1,-1,-1,-1,-1,-1,-1,-1,-1,-1,-1,-1,-1,-1,-1,-1,-1,-1,-1,-1,-1,-1,-1,-1,-1,-1,-1,-1,-1,-1,-1,-1,-1,-1,-1,-1,-1,-1,-1,-1],"split_conditions":[-7.9630935E-1,-7.350287E-1,6.9053817E-1,1.3700123E0,9.4411457E-1,-1.0811968E0,-7.4140733E-1,-1.1243382E0,4.84032E-1,6.773161E-1,-1.3545568E0,1.6990556E0,-9.7153115E-1,9.8138267E-1,-7.494294E-1,-1.0378981E0,6.547844E-1,-5.617231E-1,-7.5658774E-1,-1.7432301E0,6.135388E-1,-8.0255854E-1,-4.3368205E-1,-1.5525331E0,-8.600371E-2,-7.494294E-1,3.8497983E-3,-1.6586753E0,-7.780546E-1,-1.0378981E0,-6.0734415E-1,3.8497983E-3,6.9053817E-1,-1.4443802E0,-8.4855783E-1,-1.0092288E0,7.9944944E-1,1.4823855E0,3.8497983E-3,-1.6390874E0,2.3406897E0,-5.025364E-1,9.4777095E-1,8.00701E0,-1.0874617E0,-2.6927567E-1,9.832088E-1,-1.1243382E0,-1.1879058E0,-1.4696661E0,-4.3368205E-1,4.84032E-1,9.8138267E-1,-7.312155E-1,7.9944944E-1,-1.071516E0,2.6755316E-2,-1.3121518E0,1.6612155E0,-1.370527E0,-4.7475767E-1,7.9944944E-1,-6.6390073E-1,-2.7629218E-1,1.1577939E0,5.363845E-1,4.2880282E0,1.0187756E0,-1.3568533E-2,9.553029E-1,2.5695314E0,5.6657565E-1,-2.1880891E0,9.4772524E-1,2.2862844E0,1.2503151E0,2.8084424E0,1.8140948E0,3.880343E0,3.8010693E0,3.079004E-1,-2.7739042E-1,1.1322335E0,2.1195439E-1,8.7323123E-1,-4.2848846E-1,1.508406E-2,2.2587063E0,1.8112819E-1,-2.1497583E0,-3.900654E-2,1.0332383E0,-1.320945E-1,-4.1402534E1,-1.3464884E-1,4.8860893E-1,-3.0607167E-1,6.4145684E-1,-3.4711885E-1,-2.8772018E2,7.771438E-1,2.1081624E0,1.426311E-1,-1.70003E-2,7.339475E-1,-1.6144729E-1,-4.713349E-1,-2.222466E-1,9.334663E-2,3.2016342E0,1.8351321E-1,-8.3997554E-1,-4.446346E-1,-6.026834E-1,7.311298E-1,9.16074E-1,-4.0853047E-1,3.1624954E0,8.521811E-1,4.7681003E0,1.8152161E0,-3.0506033E-1,3.595992E-1,1.093822E0,3.9184746E-1],"split_indices":[9,15,11,11,3,3,16,4,6,12,4,13,15,5,5,5,3,14,13,13,15,16,4,14,11,5,1,16,10,5,12,1,11,9,10,4,3,6,1,11,11,3,12,0,13,12,6,4,15,4,4,6,5,16,3,13,4,16,11,3,10,3,4,0,0,0,0,0,0,0,0,0,0,0,0,0,0,0,0,0,0,0,0,0,0,0,0,0,0,0,0,0,0,0,0,0,0,0,0,0,0,0,0,0,0,0,0,0,0,0,0,0,0,0,0,0,0,0,0,0,0,0,0,0,0],"split_type":[0,0,0,0,0,0,0,0,0,0,0,0,0,0,0,0,0,0,0,0,0,0,0,0,0,0,0,0,0,0,0,0,0,0,0,0,0,0,0,0,0,0,0,0,0,0,0,0,0,0,0,0,0,0,0,0,0,0,0,0,0,0,0,0,0,0,0,0,0,0,0,0,0,0,0,0,0,0,0,0,0,0,0,0,0,0,0,0,0,0,0,0,0,0,0,0,0,0,0,0,0,0,0,0,0,0,0,0,0,0,0,0,0,0,0,0,0,0,0,0,0,0,0,0,0],"sum_hessian":[1.42092E5,3.38E4,1.08292E5,1.2073E4,2.1727E4,8.4454E4,2.3838E4,9.133E3,2.94E3,1.6689E4,5.038E3,1.3252E4,7.1202E4,9.844E3,1.3994E4,1.567E3,7.566E3,1.044E3,1.896E3,8.545E3,8.144E3,5.08E2,4.53E3,1.2733E4,5.19E2,6.992E3,6.421E4,6.216E3,3.628E3,1.668E3,1.2326E4,7.94E2,7.73E2,5.494E3,2.072E3,2.68E2,7.76E2,1.454E3,4.42E2,1.315E3,7.23E3,6.675E3,1.469E3,5E1,4.58E2,1.343E3,3.187E3,1.106E3,1.1627E4,4.98E2,2.1E1,7.19E2,6.273E3,2.4553E4,3.9657E4,7.67E2,5.449E3,4.18E2,3.21E3,1.223E3,4.45E2,3.19E3,9.136E3,3.07E2,4.87E2,2.81E2,4.92E2,2.228E3,3.266E3,1.61E3,4.62E2,2.13E2,5.5E1,5.68E2,2.08E2,8.21E2,6.33E2,1.67E2,2.75E2,7E1,1.245E3,7.105E3,1.25E2,4.281E3,2.394E3,8.83E2,5.86E2,3.01E2,1.57E2,4.2E1,1.301E3,2.432E3,7.55E2,1.09E2,9.97E2,9.92E2,1.0635E4,1.9E2,3.08E2,1.7E1,4E0,4.23E2,2.96E2,4.806E3,1.467E3,5.891E3,1.8662E4,2.5374E4,1.4283E4,5.5E1,7.12E2,1.745E3,3.704E3,4.13E2,5E0,2.75E3,4.6E2,6.4E1,1.159E3,1.49E2,2.96E2,2.182E3,1.008E3,1.859E3,7.277E3],"tree_param":{"num_deleted":"0","num_feature":"17","num_nodes":"125","size_leaf_vector":"1"}},{"base_weights":[-4.5123957E-2,4.7475595E0,-1.5732024E0,1.0400197E1,2.3492103E0,-4.48753E0,1.9685931E0,7.459975E0,1.5656114E1,6.684275E-1,6.466456E0,-2.8315973E0,-1.6531822E1,5.8913755E0,-3.767127E-1,1.3941661E1,4.749495E0,3.0855553E1,1.2550274E1,-1.6705747E0,2.0865932E0,1.93857E1,4.7587385E0,-8.6773205E0,-2.2124918E0,-1.7565495E2,-1.0256161E1,1.2642562E1,3.9732096E0,5.9602964E-1,-3.6803858E0,1.735099E1,-2.632102E0,-8.548092E0,5.516864E0,4.2549374E1,1.2565335E1,8.809655E0,1.8984955E1,4.15321E0,-2.6203053E0,3.0727365E0,-4.0014424E0,7.4680185E0,3.821916E1,7.542428E0,2.1123798E0,-1.1526892E1,-5.8093276E0,-3.195083E-1,-3.3211982E0,-3.8071892E0,-1.1395862E3,-6.532563E1,-3.862504E0,1.4342297E1,-1.0684985E1,1.7565013E0,8.430742E0,-1.019521E0,2.8053365E0,-4.4155974E0,8.6969465E-1,1.5618865E0,6.6812224E0,-1.1054249E0,9.226801E-1,-2.0275238E0,1.6897854E-1,7.192597E-1,-3.1614807E-2,4.9708953E-1,4.623835E0,-7.429333E-1,2.3692505E0,5.525156E-1,1.8450785E0,-2.7614886E-1,2.1893146E0,1.4448761E0,2.7828643E-2,7.439268E-2,-3.787535E-1,-3.5930172E-1,4.4827327E-1,5.467839E-2,-7.104528E-1,5.9587806E-1,4.1681147E0,1.7506567E0,5.298305E0,-2.6211354E-1,9.196148E-1,5.579983E-1,-1.0331017E-1,-1.0509902E0,-1.7159588E0,1.0641482E0,-6.131229E-1,-2.187872E-1,1.525786E-1,-4.5640445E-1,-1.880146E-1,2.170731E0,-6.196259E-1,-2.605466E2,7.3063844E-1,-2.0616904E-2,-7.16517E1,7.273933E0,-4.5518652E-1,-5.029266E-1,1.5422634E0,1.4567788E0,-1.15976E0,-4.8660826E-2,4.033614E-1,1.0948906E0,2.370492E-1,-4.500049E-1,-9.128508E-3,-3.3344108E-1,3.8738912E-1,-6.611657E-1,-3.8461754E-1,1.0117437E0,-3.1835184E-1],"categories":[],"categories_nodes":[],"categories_segments":[],"categories_sizes":[],"default_left":[0,0,0,0,0,0,0,0,0,0,0,0,0,0,0,0,0,0,0,0,0,0,0,0,0,0,0,0,0,0,0,0,0,0,0,0,0,0,0,0,0,0,0,0,0,0,0,0,0,0,0,0,0,0,0,0,0,0,0,0,0,0,0,0,0,0,0,0,0,0,0,0,0,0,0,0,0,0,0,0,0,0,0,0,0,0,0,0,0,0,0,0,0,0,0,0,0,0,0,0,0,0,0,0,0,0,0,0,0,0,0,0,0,0,0,0,0,0,0,0,0,0,0,0,0,0,0],"id":13,"left_children":[1,3,5,7,9,11,13,15,17,19,21,23,25,27,29,31,33,35,37,39,41,43,45,47,49,51,53,55,57,59,61,63,65,67,69,71,73,75,77,79,81,83,85,87,89,91,93,95,97,99,101,103,105,107,109,111,113,115,117,119,121,123,125,-1,-1,-1,-1,-1,-1,-1,-1,-1,-1,-1,-1,-1,-1,-1,-1,-1,-1,-1,-1,-1,-1,-1,-1,-1,-1,-1,-1,-1,-1,-1,-1,-1,-1,-1,-1,-1,-1,-1,-1,-1,-1,-1,-1,-1,-1,-1,-1,-1,-1,-1,-1,-1,-1,-1,-1,-1,-1,-1,-1,-1,-1,-1,-1],"loss_changes":[1.04063925E6,4.6568556E5,1.1121168E6,1.580195E5,1.669108E5,1.1788154E6,4.474595E5,1.1525328E5,1.7286262E5,5.682197E4,1.5416816E5,1.8804475E5,7.1322185E6,2.3561194E5,9.7821664E4,1.09383625E5,4.7292383E4,1.3250019E5,7.322119E4,3.57745E4,6.4035492E4,1.8286672E5,4.5487812E4,4.0599656E4,9.861769E4,4.4886656E7,2.420051E6,1.5978675E5,1.4002928E5,8.3937266E4,2.3166508E4,1.3646169E5,3.316142E4,3.040971E4,4.2795344E4,5.2309438E4,5.446212E4,6.101397E4,7.0892375E4,3.618026E4,2.1836E4,8.627725E4,2.099071E4,2.5621146E4,9.570478E4,5.061525E4,3.4560027E4,1.4112E4,1.3208773E4,5.9844742E4,5.3064312E4,1.421532E4,6.8948504E7,3.0319596E7,3.25618E5,7.8619625E4,6.4835664E3,4.8357633E4,7.180619E4,4.388611E4,6.5179914E4,7.4287188E3,3.6165883E4,0E0,0E0,0E0,0E0,0E0,0E0,0E0,0E0,0E0,0E0,0E0,0E0,0E0,0E0,0E0,0E0,0E0,0E0,0E0,0E0,0E0,0E0,0E0,0E0,0E0,0E0,0E0,0E0,0E0,0E0,0E0,0E0,0E0,0E0,0E0,0E0,0E0,0E0,0E0,0E0,0E0,0E0,0E0,0E0,0E0,0E0,0E0,0E0,0E0,0E0,0E0,0E0,0E0,0E0,0E0,0E0,0E0,0E0,0E0,0E0,0E0,0E0,0E0,0E0],"parents":[2147483647,0,0,1,1,2,2,3,3,4,4,5,5,6,6,7,7,8,8,9,9,10,10,11,11,12,12,13,13,14,14,15,15,16,16,17,17,18,18,19,19,20,20,21,21,22,22,23,23,24,24,25,25,26,26,27,27,28,28,29,29,30,30,31,31,32,32,33,33,34,34,35,35,36,36,37,37,38,38,39,39,40,40,41,41,42,42,43,43,44,44,45,45,46,46,47,47,48,48,49,49,50,50,51,51,52,52,53,53,54,54,55,55,56,56,57,57,58,58,59,59,60,60,61,61,62,62],"right_children":[2,4,6,8,10,12,14,16,18,20,22,24,26,28,30,32,34,36,38,40,42,44,46,48,50,52,54,56,58,60,62,64,66,68,70,72,74,76,78,80,82,84,86,88,90,92,94,96,98,100,102,104,106,108,110,112,114,116,118,120,122,124,126,-1,-1,-1,-1,-1,-1,-1,-1,-1,-1,-1,-1,-1,-1,-1,-1,-1,-1,-1,-1,-1,-1,-1,-1,-1,-1,-1,-1,-1,-1,-1,-1,-1,-1,-1,-1,-1,-1,-1,-1,-1,-1,-1,-1,-1,-1,-1,-1,-1,-1,-1,-1,-1,-1,-1,-1,-1,-1,-1,-1,-1,-1,-1,-1],"split_conditions":[-7.494294E-1,-7.350287E-1,6.92914E-1,8.8467366E-1,7.9944944E-1,6.0970247E-1,-5.1362205E-1,-1.1879058E0,-5.1432157E-1,3.8497983E-3,-1.6060904E0,-2.04717E-1,-1.515192E0,-8.475521E-1,1.2425348E0,1.0627394E0,-1.6280997E0,-1.5525331E0,1.855351E0,-1.1776321E0,9.912099E-1,6.9053817E-1,4.995836E-2,-5.487914E-1,-2.871835E-1,3.9933497E-1,-1.5525331E0,1.5231768E0,6.547844E-1,